//Numpy array shape [512]
//Min -1.066068410873
//Max 1.035480737686
//Number of zeros 0

#ifndef B27_H_
#define B27_H_

#ifndef __SYNTHESIS__
model_default_t b27[512];
#else
model_default_t b27[512] = {-0.605349898338318, -0.503700435161591, -0.389529407024384, -0.671120285987854, 0.270965933799744, 0.785822331905365, 0.302536487579346, -0.251100033521652, -0.879304707050323, 0.539662182331085, -0.828804075717926, -0.082749702036381, -0.872634232044220, 0.636991202831268, -0.422903448343277, 0.761623799800873, -0.671061217784882, -0.887029230594635, 0.470461875200272, -0.359629720449448, -0.611655294895172, -0.429148644208908, -0.401282459497452, -0.309708267450333, -0.211141854524612, -0.872905254364014, -0.950683712959290, -0.740833878517151, 0.532043695449829, -0.678634047508240, 0.705542802810669, 0.150090649724007, -0.338190644979477, -0.516835391521454, 0.848284125328064, -0.777940154075623, -0.666449487209320, 0.013110764324665, -0.514958500862122, 0.582907080650330, -0.860002338886261, 0.778077661991119, -0.507430374622345, -0.579920530319214, -0.698541522026062, -0.604886293411255, 0.015296290628612, 0.664553761482239, 0.761159062385559, -0.721827387809753, 0.463550657033920, -0.721658647060394, -0.686675190925598, -0.388240486383438, 0.929972171783447, -0.477057069540024, -0.931880116462708, -0.041671566665173, -0.885349154472351, -0.962184369564056, 0.117033272981644, 0.509610235691071, 0.562365233898163, -0.823934555053711, -0.429848641157150, -0.982758462429047, -0.276859015226364, -0.060704056173563, -0.607019722461700, -0.890711843967438, -0.693000853061676, -0.385553181171417, 0.555653274059296, -0.573432803153992, 0.389630287885666, -0.432958304882050, 0.684635579586029, -0.904906153678894, -0.871600329875946, -0.785764932632446, 0.705129623413086, -0.537268638610840, 0.212880969047546, -0.298269718885422, -0.188360199332237, -0.645714819431305, -0.514141976833344, 0.305424630641937, -0.268261164426804, -0.637000501155853, 0.773835241794586, 0.632340192794800, -0.545159161090851, -0.698904633522034, 0.333937764167786, -0.205633714795113, -0.854155004024506, -0.669251501560211, 0.537483870983124, 0.433610796928406, -0.487886905670166, 0.692726969718933, 0.740478575229645, -0.444355070590973, -0.539278268814087, -0.496542006731033, -0.632716059684753, 0.358462899923325, -0.640597879886627, -0.172834470868111, 0.152690067887306, -0.517230749130249, -0.471925109624863, 0.577271521091461, 0.033862162381411, -0.811921119689941, 0.294674128293991, -0.773504137992859, 0.827418029308319, -0.770707666873932, 0.044282600283623, 0.926934003829956, -0.717479646205902, -0.133559688925743, -0.256996393203735, -0.816790461540222, 0.540497422218323, 0.369684070348740, 0.285968393087387, -0.238779664039612, 0.515237092971802, 0.120472900569439, -0.861008763313293, 0.707384109497070, -0.582273483276367, -0.406527847051620, 0.746095895767212, -0.480281919240952, -0.044382214546204, 0.370081514120102, -0.362068027257919, -0.455958843231201, -0.481454193592072, -0.771642863750458, -0.080441385507584, 0.652570784091949, -0.656614005565643, -0.129333078861237, 0.673884034156799, -0.131808668375015, -0.726436614990234, -0.857252061367035, -0.447184026241302, -0.752203762531281, 0.863104999065399, -0.523687362670898, -0.371089577674866, 0.310240209102631, 0.434876382350922, 0.941127598285675, -0.802665829658508, -0.967157661914825, -0.101388424634933, 0.812608659267426, -0.081822738051414, 0.699395239353180, -0.509988069534302, -0.825319707393646, -0.690085589885712, -0.530679643154144, 0.357006818056107, 0.320481985807419, -0.427411228418350, 0.750397980213165, 0.501158595085144, -0.999148070812225, -0.940404951572418, -0.038071185350418, -0.606197774410248, -0.404412448406219, -0.790774226188660, -0.659728288650513, -0.496618002653122, 0.013796046376228, -0.006710343062878, -0.559593737125397, 0.730053246021271, 0.176041215658188, 0.644809305667877, -0.313419729471207, -0.168608084321022, 0.223171338438988, 0.756742119789124, -0.465947002172470, 0.262887924909592, -0.238054290413857, -0.350679993629456, -0.256686866283417, -0.612106800079346, -0.494867086410522, 0.034083880484104, 0.831594347953796, -0.578023433685303, 0.415842562913895, 0.767330229282379, -0.389395236968994, -0.097121700644493, -0.633703172206879, 0.265650182962418, -0.453037887811661, -0.843809127807617, -0.752282559871674, 0.671387314796448, 0.563311517238617, -0.456838548183441, -0.590948998928070, 0.329102128744125, -0.308676958084106, -0.590553343296051, -0.857488393783569, -0.513153970241547, 0.039162971079350, -0.037822321057320, 0.091919071972370, 0.229009032249451, -0.126644387841225, 0.232847228646278, -0.741643905639648, -1.066068410873413, -0.735887527465820, -0.194103837013245, -0.837900996208191, 0.504552781581879, -0.207382500171661, 0.215489611029625, -0.901236116886139, 0.724079668521881, 0.666287541389465, -0.975516498088837, 0.167924895882607, -0.597066879272461, 0.368451476097107, 0.243578240275383, 0.148409575223923, -0.003378296270967, -0.919058263301849, 0.008703970350325, -0.981252312660217, 0.731022119522095, -0.180246368050575, -0.253625422716141, 0.293653368949890, -0.005868327803910, 0.057941108942032, -0.462298095226288, 0.133152082562447, -0.657250404357910, -0.929486930370331, -0.866499781608582, 0.845360219478607, -0.482705950737000, -0.450659722089767, -0.767631709575653, -0.857419729232788, 0.032590474933386, 0.097854420542717, -0.259233713150024, 0.462503165006638, -0.461816161870956, 0.530474424362183, 0.415352433919907, -0.892974853515625, -0.383083224296570, -0.124038070440292, -0.300145179033279, -0.696731388568878, 0.427704840898514, -0.716898620128632, -0.120104745030403, 0.145180001854897, 0.685864984989166, -0.545679032802582, 0.554255664348602, -0.171749204397202, 0.973445355892181, -0.388469070196152, 0.682772457599640, 0.357868611812592, -0.853130161762238, -0.236151888966560, -0.162161692976952, 0.798439264297485, 0.840530395507812, -0.981078028678894, -0.834840357303619, -0.766150176525116, -0.854493975639343, -0.738910913467407, 0.756823301315308, -0.307287186384201, -0.530287444591522, -0.773644804954529, -0.406227022409439, 0.487186968326569, -0.106241241097450, 0.123795248568058, 0.691214978694916, -0.989228665828705, 0.033722415566444, -0.834996223449707, -0.367196947336197, -0.338901877403259, -0.296045213937759, -0.816551029682159, -0.169868692755699, -0.161090448498726, 0.026293508708477, -0.129531919956207, -0.067957654595375, -0.879596829414368, -0.427189350128174, -0.427519023418427, 0.373407870531082, -1.014322757720947, 0.300712227821350, 0.005961883813143, -0.423594772815704, -0.380534052848816, 0.208748444914818, -0.065998278558254, -0.443067610263824, 0.852655291557312, -0.598904609680176, -0.710407078266144, -0.218253657221794, -0.262239694595337, -0.622090756893158, -0.135385155677795, 0.055849913507700, -0.268828541040421, -0.832169294357300, -0.695717036724091, -0.622679829597473, -0.627990365028381, -0.047440409660339, -0.071507677435875, -0.680985152721405, -0.190901935100555, 0.844454824924469, -0.694575309753418, 0.583146810531616, -0.661506652832031, 0.075750418007374, 0.093463398516178, -0.536743998527527, 0.155631318688393, -0.577678143978119, -0.287114560604095, -0.540610730648041, 0.484002530574799, -0.505465090274811, 0.306863963603973, 0.379230499267578, -0.487202137708664, 1.035480737686157, 0.392183065414429, 0.487816274166107, 0.001308814855292, 0.394034862518311, -0.820347547531128, 0.218843027949333, 0.532385885715485, 0.000785565003753, -0.334399491548538, -0.506731450557709, 0.658248007297516, 0.554441094398499, 0.580260097980499, 0.259523361921310, -0.825975418090820, -0.790269315242767, -0.720882117748260, 0.495531827211380, -0.585456132888794, -0.519948720932007, -0.546807169914246, -0.849296212196350, -0.385561197996140, -0.369338959455490, -0.648287296295166, -0.913666129112244, -0.778271317481995, -0.351926118135452, -0.889084100723267, 0.040097966790199, 0.928069829940796, -0.292134433984756, -0.870392799377441, -0.252392977476120, -0.163331344723701, 0.576860547065735, -0.456156253814697, 0.162623599171638, -0.082184284925461, 0.160322219133377, -0.467683255672455, -0.253122895956039, -0.327335864305496, 0.552858054637909, -0.798449337482452, -0.304898321628571, 0.869370281696320, -0.734818696975708, 0.453201800584793, -0.531475543975830, 0.848363757133484, -0.688271224498749, -0.048186451196671, -0.311035037040710, -0.166848510503769, 0.701121628284454, -0.001206789398566, -0.789136826992035, 0.992431759834290, 0.439206600189209, -0.356086909770966, -0.880340576171875, 0.212777733802795, 0.684131324291229, -0.290265142917633, 0.644921958446503, -0.689468920230865, -0.857998609542847, -0.863138735294342, 0.898865282535553, -0.521531343460083, 0.514766693115234, 0.472398221492767, 0.460739612579346, -0.499516606330872, -0.586292564868927, 0.044739268720150, -0.347260087728500, 0.620532572269440, 0.597786307334900, -0.203308299183846, -0.620583415031433, 0.721260130405426, -0.123165071010590, -0.574652671813965, -0.231869593262672, -0.456590175628662, -0.827390730381012, -0.844391405582428, -0.407804280519485, -0.664932668209076, 0.818876922130585, 0.167313024401665, -0.023698009550571, -0.173996016383171, 0.798254966735840, -0.358833670616150, -0.827593088150024, -0.009704843163490, 0.815152585506439, -0.583261907100677, -0.573704421520233, -0.847999930381775, 0.084825292229652, 0.562943220138550, 0.776159226894379, -0.843166887760162, 0.183302581310272, -0.193536907434464, 0.188128724694252, 0.392947077751160, -0.194157436490059, -0.710822880268097, -0.377465248107910, -0.120666831731796, -0.505627095699310, 0.377011239528656, -0.575637996196747, 0.520559012889862, -0.652971923351288, 0.473082989454269, -0.323849499225616, -0.438585370779037, -0.183227062225342, 0.818831562995911, 0.718722045421600, 0.382542401552200, -0.461828678846359, -0.604004263877869, 0.314910829067230, -0.781243562698364, -0.343394637107849, -0.897560477256775, -0.860975801944733, -0.542016744613647, -1.054079294204712, -0.466520190238953, -0.679852604866028, -0.596475183963776, -0.399146825075150, -0.708667397499084, -0.483487308025360, -0.527456462383270, -0.839849650859833, -0.354541778564453, 0.553664088249207, -0.418236970901489};
#endif

#endif
