//Numpy array shape [1024]
//Min -0.964074492455
//Max 1.081613183022
//Number of zeros 0

#ifndef B33_H_
#define B33_H_

#ifndef __SYNTHESIS__
model_default_t b33[1024];
#else
model_default_t b33[1024] = {0.184832692146301, 0.560448646545410, 0.798634469509125, 0.065080344676971, 0.565269827842712, 0.189731657505035, 0.191910296678543, -0.055448710918427, 0.243150591850281, 0.850603818893433, 0.632223606109619, 0.123891308903694, 0.090289466083050, 0.333080649375916, 0.409738212823868, 0.424772024154663, 0.267757415771484, 0.252932429313660, -0.128826588392258, 0.290468096733093, -0.296441793441772, 0.622834742069244, 0.782219171524048, -0.417751073837280, -0.219549477100372, -0.003345910459757, 0.755405306816101, 0.576072812080383, 0.087789595127106, 0.647110164165497, 0.329018563032150, 0.643896460533142, 0.533705830574036, -0.041020542383194, 0.465597003698349, 0.321705996990204, 0.391880124807358, -0.424007266759872, 0.047129824757576, 0.697763741016388, 0.727952063083649, 0.733683466911316, 0.791879832744598, 0.334073573350906, -0.215098515152931, 0.562164187431335, -0.126649379730225, -0.082260631024837, 0.544241845607758, 0.108345836400986, 0.057480558753014, 0.411466956138611, 0.095270521938801, 0.424685180187225, 0.472762316465378, 0.277279734611511, 0.571508884429932, -0.355647683143616, 0.419742166996002, 0.337175607681274, 0.713473021984100, -0.001588705927134, -0.332760751247406, -0.361658841371536, -0.662243783473969, 0.853902041912079, -0.700271308422089, -0.236857190728188, 0.020368756726384, 0.119329132139683, -0.388042986392975, -0.064699016511440, 0.309008181095123, -0.197936818003654, 0.714038610458374, -0.085183739662170, 0.596441507339478, -0.153527572751045, 0.470181405544281, 0.425659775733948, 0.094411104917526, 0.342679291963577, -0.420356780290604, -0.015912916511297, -0.178909286856651, -0.216612875461578, 0.184297651052475, -0.077313154935837, 1.023575425148010, 0.524680435657501, 0.034534327685833, -0.152879551053047, 0.771583557128906, 0.604192197322845, 0.132398828864098, 0.312617897987366, -0.705393195152283, 0.622695505619049, -0.234026536345482, 0.538544833660126, 0.073136545717716, 0.483632922172546, -0.096378833055496, -0.118234455585480, 0.533784687519073, -0.079746559262276, 0.909692525863647, -0.666321277618408, 0.073526285588741, 0.304038822650909, 0.265326499938965, 0.392542004585266, -0.216351404786110, 0.764016807079315, 0.349595606327057, 0.013947958126664, 0.868127703666687, 0.332361191511154, 0.238034650683403, -0.210835069417953, 0.407426506280899, 0.414347440004349, 0.401603013277054, -0.156335800886154, -0.028849028050900, 0.215321481227875, 0.196252286434174, 0.175628453493118, 0.773837268352509, 0.550414681434631, 0.429549187421799, -0.025985669344664, 0.646710753440857, 0.017221132293344, 0.073272369801998, 0.953863620758057, 0.132778763771057, 0.368465244770050, 0.149027287960052, 0.140221759676933, 0.453199386596680, -0.048130854964256, 0.041535519063473, -0.467592120170593, 0.731124818325043, -0.591327846050262, 0.656435489654541, 0.887578964233398, 1.081613183021545, 0.063409276306629, 0.561810016632080, 0.130606085062027, -0.530378401279449, 0.668880164623260, -0.284158885478973, -0.598034024238586, 0.688804328441620, 0.351786077022552, 0.357452332973480, 0.001051664352417, 0.786150097846985, 0.053908981382847, 0.199506491422653, -0.036408644169569, 0.584379673004150, 0.657311916351318, 0.291609734296799, 0.556510388851166, 0.984099686145782, 0.015165823511779, 0.607420682907104, 0.553973138332367, 0.684460997581482, 0.581267118453979, 0.600663304328918, -0.201014801859856, 0.065674856305122, -0.304967641830444, -0.376923382282257, 0.037735879421234, 0.169082909822464, 0.087836265563965, 0.605442762374878, 0.977603673934937, 0.393036872148514, 0.202598512172699, -0.249650895595551, 0.603722155094147, 0.765791356563568, 0.570379436016083, -0.417154908180237, 0.177233934402466, 0.809546113014221, -0.081873662769794, -0.579124808311462, -0.329682528972626, -0.191898971796036, 0.337771654129028, 0.360367596149445, 0.385128051042557, 0.481197178363800, 0.469470292329788, 0.210887879133224, -0.186384439468384, 0.854674100875854, -0.025064337998629, -0.364324599504471, 0.066603191196918, 0.084471262991428, -0.736562788486481, 0.061806160956621, 0.462555944919586, 0.310948193073273, -0.349386721849442, 0.296209037303925, 0.616285204887390, 0.202520683407784, 0.004923306405544, -0.348741203546524, -0.593798041343689, 0.597148716449738, 0.333813428878784, 0.269041240215302, 0.502326905727386, 0.477307677268982, 0.159401819109917, -0.289732575416565, 0.141131296753883, 0.554153025150299, -0.070886544883251, 0.650342226028442, -0.165370047092438, 0.501147806644440, 0.381369322538376, -0.442086577415466, 0.711692094802856, 0.401686698198318, 0.621647477149963, -0.362913876771927, 0.159994900226593, 0.074055358767509, 0.032293103635311, 0.011968379840255, -0.107239216566086, 0.123749211430550, 0.460397630929947, -0.203977838158607, 0.223561674356461, 0.497076272964478, 0.551448523998260, 0.319791972637177, -0.194288760423660, 0.376087188720703, 0.128605023026466, 0.090979591012001, -0.033704675734043, 0.435999572277069, 0.135448336601257, 0.472352683544159, 0.286037504673004, -0.201610639691353, 0.575972318649292, 0.706001639366150, 0.123102299869061, 0.291081935167313, -0.084084302186966, -0.231461718678474, 0.018361417576671, 0.656976401805878, 0.564634084701538, -0.086895219981670, 0.593620955944061, 0.426842689514160, -0.106156714260578, 0.183207452297211, 0.135738447308540, 0.516871273517609, 0.390812098979950, 0.362569540739059, 0.245984971523285, 0.512623786926270, -0.375719428062439, 0.472288787364960, 0.269231826066971, 0.343231201171875, -0.486305713653564, 0.452895253896713, -0.844623148441315, 0.298063278198242, 0.676896929740906, -0.101584061980247, -0.067608341574669, -0.045671351253986, 0.627825796604156, 0.526066422462463, 0.230289950966835, 0.472021758556366, 0.057760164141655, 0.669737339019775, -0.113283090293407, 0.402937591075897, 0.711853444576263, -0.245472058653831, 0.325712978839874, 0.224291920661926, 0.076199762523174, -0.191612869501114, 0.181422159075737, 0.049000035971403, -0.194007813930511, -0.257303357124329, 0.148116499185562, 0.398971825838089, 0.072474852204323, -0.002838175743818, 0.130855247378349, -0.220919251441956, 0.763303995132446, 0.166580304503441, 0.316174626350403, 0.038385584950447, -0.170200586318970, 0.026606367900968, 0.413032174110413, 0.168601140379906, 0.597020328044891, 0.124792434275150, 0.421020954847336, 0.265644907951355, 0.239241316914558, -0.204315841197968, -0.264138489961624, 0.368620753288269, 0.522763252258301, 0.399014115333557, 0.118004105985165, 0.422315716743469, 0.324884146451950, 0.008262416347861, -0.443871140480042, 0.239601716399193, 0.397779494524002, 0.608716309070587, -0.106429681181908, -0.188602045178413, 0.453579187393188, -0.499669909477234, -0.340274572372437, 0.246475487947464, 0.142594814300537, 0.555226564407349, 0.703915953636169, 0.454203069210052, -0.964074492454529, -0.298305422067642, 0.422802150249481, -0.457125902175903, -0.000870194286108, 0.260559320449829, 0.450936943292618, 0.280121594667435, -0.243492230772972, -0.169334575533867, 0.634865880012512, 0.607084631919861, 0.002453299239278, 0.610986113548279, -0.138316884636879, 0.105282135307789, 0.068774253129959, -0.039846830070019, 0.113085150718689, -0.083328679203987, 0.867647409439087, 0.476996451616287, 0.382504284381866, 0.003241516649723, 0.309713423252106, 0.030818531289697, -0.096954062581062, 0.031340766698122, 0.553208589553833, 0.439192384481430, 0.659852266311646, 0.152214020490646, 0.638285875320435, 0.622843503952026, 0.189918860793114, 0.570957720279694, -0.074798867106438, -0.059703692793846, -0.054792590439320, 0.748365640640259, 0.344706177711487, -0.183315396308899, 0.585014879703522, 0.550172567367554, 0.443366110324860, -0.198953181505203, -0.370741277933121, -0.012836619280279, 1.042986273765564, 0.489469468593597, 0.300567597150803, 0.135995686054230, 0.645231246948242, -0.484899252653122, 0.146788477897644, 0.553897678852081, 0.598017036914825, 0.159475907683372, 0.143889918923378, -0.315604299306870, -0.212312176823616, -0.001396831125021, 0.343919217586517, -0.131742835044861, -0.140312254428864, 0.704912602901459, 0.074008926749229, -0.514513909816742, 0.825097262859344, 0.168757110834122, 0.023247895762324, -0.038655828684568, 0.156010881066322, 0.576498210430145, 0.105059035122395, 0.573012232780457, -0.165372312068939, 0.629311025142670, 0.730681777000427, -0.084636732935905, 0.209716260433197, -0.103515967726707, -0.669981539249420, 0.347875177860260, 0.954516410827637, 0.290241181850433, 0.272574394941330, 0.248123720288277, -0.141883999109268, 0.318432062864304, 0.523244798183441, 0.296448260545731, 0.220835492014885, 0.138663426041603, -0.597960889339447, 0.443241178989410, 0.000963697209954, 0.403955608606339, 0.092437222599983, -0.455442428588867, 0.025292210280895, 0.709052979946136, -0.167329177260399, 0.310136288404465, 0.031762164086103, 0.379265218973160, 0.279690533876419, -0.347079932689667, 0.371707439422607, 0.236011132597923, 0.125011309981346, -0.475154161453247, -0.318918168544769, -0.066115908324718, -0.245736911892891, 0.116674482822418, 0.721360146999359, 0.404872238636017, 0.938013195991516, 0.170273691415787, -0.315930068492889, 0.534083187580109, 0.331352382898331, 0.896261453628540, 0.210412740707397, 0.578500390052795, 0.652448952198029, -0.406463235616684, 0.000116389244795, -0.061163350939751, 0.563250362873077, 0.259194731712341, 0.633578896522522, 0.592505276203156, 0.010532464832067, 0.161253884434700, 0.144897311925888, -0.390167951583862, -0.597200155258179, 0.187255308032036, -0.042941242456436, 0.284512042999268, 0.412767976522446, 0.406898587942123, -0.302943110466003, 0.122466638684273, 0.885476946830750, 0.083282083272934, 0.123949296772480, 0.596785724163055, 0.554401993751526, 0.022243052721024, 0.345045089721680, 0.300138086080551, -0.099827721714973, 0.725726604461670, 0.681571066379547, 0.265071779489517, -0.300626307725906, -0.003629760351032, 0.053790267556906, 0.481576532125473, 0.321781426668167, 0.222663834691048, 0.542585313320160, 0.199687629938126, 0.354557543992996, 0.066499233245850, 0.418481290340424, -0.039255939424038, 0.282806932926178, 0.616542577743530, 0.589035332202911, -0.029995687305927, 0.365460813045502, 0.442764967679977, 0.454166531562805, 0.692659139633179, 0.012245886959136, 0.668373405933380, 0.070497751235962, -0.075819119811058, 0.348155111074448, 0.239417389035225, -0.582250535488129, 0.440063297748566, -0.608331620693207, -0.138464227318764, 0.053042143583298, -0.098488502204418, -0.090479604899883, -0.480364978313446, 0.234741434454918, 0.083879321813583, 0.261420130729675, -0.049542672932148, 0.533224344253540, 0.728929460048676, 0.234184309840202, -0.062640279531479, 0.569633245468140, -0.230229586362839, -0.246053397655487, 0.731148362159729, 0.107290320098400, 0.641990184783936, -0.172398716211319, -0.014326155185699, -0.582391798496246, -0.094914153218269, 0.680883288383484, 0.159068092703819, 0.759540438652039, 0.066562198102474, 0.560220241546631, 0.323656708002090, -0.188725039362907, 0.048649705946445, -0.114591702818871, -0.377363651990891, 0.046454332768917, 0.701022028923035, 0.251896947622299, 0.445940375328064, -0.000365890562534, 0.304463595151901, 0.383715033531189, 0.056589704006910, 0.084469705820084, 0.012804750353098, 0.223956435918808, 0.433022022247314, -0.217671886086464, 0.564417779445648, 0.625714004039764, 0.146597161889076, 0.766676306724548, 0.800541818141937, -0.005977254360914, 0.047911264002323, 0.795537710189819, 0.544941842556000, 0.202503249049187, 0.391360580921173, -0.566780865192413, 0.488272309303284, 0.343917101621628, -0.240213349461555, 0.131534606218338, 0.469076305627823, 0.197543635964394, -0.091234043240547, 0.349395960569382, 0.149241745471954, 0.459209501743317, 0.356498390436172, 0.110555179417133, 0.112352736294270, 0.123212881386280, 0.951602399349213, 0.537700414657593, 0.331610500812531, 0.600131750106812, -0.181368082761765, -0.381477624177933, -0.038593932986259, 0.182821005582809, -0.516439437866211, -0.120101138949394, 0.390980124473572, 0.636215627193451, -0.660562455654144, -0.029620561748743, 0.793657839298248, 0.324228882789612, 0.031023256480694, 0.658625185489655, 0.206646189093590, -0.413322061300278, 0.109760388731956, 0.642465710639954, 0.629826068878174, 0.464153230190277, 0.781535625457764, -0.038639765232801, 0.083493918180466, 0.325765609741211, -0.710974097251892, 0.625595569610596, 0.452722430229187, 0.670454084873199, 0.987827420234680, 0.268952399492264, 0.134382471442223, 0.796859383583069, 0.286835491657257, -0.365960121154785, -0.214212745428085, 0.579199671745300, 0.124304026365280, 0.397163301706314, -0.200556516647339, 0.453845947980881, 0.350618422031403, 0.694871366024017, 0.578412234783173, 0.028368990868330, 0.153206586837769, 0.002729456871748, 0.896220266819000, -0.020421676337719, 0.008431468158960, 0.324576437473297, 0.211457937955856, -0.316323637962341, 0.494197130203247, 0.672774136066437, 0.012037329375744, 0.415093600749969, -0.455040931701660, 0.305332362651825, 0.164783492684364, 0.346379667520523, 0.313437849283218, 0.213562369346619, 0.539723932743073, 0.735490679740906, 0.531999707221985, 0.605597734451294, -0.360590845346451, 0.772688627243042, -0.407924473285675, 0.642909646034241, 0.455780208110809, 0.679651319980621, 0.377034664154053, 0.607382595539093, 0.498810023069382, -0.457919865846634, 0.451122760772705, 0.222673103213310, 0.521075248718262, -0.237851813435555, 0.465531378984451, 0.440695673227310, 0.062955543398857, 0.183562517166138, 0.441713213920593, 0.261792302131653, 0.689490735530853, 0.426146209239960, 0.351266145706177, 0.163577795028687, 0.332678467035294, 0.265017658472061, 0.552734851837158, 0.611295223236084, 0.352992951869965, 0.209111899137497, 0.084879592061043, 0.048065900802612, 0.359803527593613, 0.202771574258804, 0.263824850320816, 0.726886868476868, 0.095066890120506, 0.191377177834511, 0.900028586387634, -0.163425579667091, 0.579731345176697, -0.028824562206864, 0.052602678537369, 0.027036644518375, -0.317414820194244, 0.009450055658817, 0.047544792294502, 0.246169894933701, -0.009171850048006, 0.043394424021244, 0.325899332761765, 0.040033396333456, 0.458911418914795, -0.242472380399704, 0.209169209003448, -0.022595476359129, 0.768417298793793, 0.640526354312897, 0.026158465072513, -0.039882730692625, -0.091471321880817, 0.395556032657623, 0.534706771373749, -0.297716945409775, 0.105744570493698, -0.329452484846115, 0.030414538457990, -0.133836388587952, 0.284676492214203, 0.220900088548660, 0.221784055233002, 0.474744796752930, -0.326641947031021, -0.480618357658386, -0.335764557123184, -0.136879637837410, 0.059638936072588, 0.158097326755524, 0.034441631287336, 0.027366317808628, 0.455843538045883, 0.505917429924011, 0.073519304394722, 0.676044702529907, 0.330715000629425, 0.162993103265762, -0.096096962690353, 0.300254017114639, 0.175232037901878, -0.438794553279877, 0.972635805606842, -0.255054384469986, 0.578017294406891, 0.099785409867764, 0.865286469459534, 0.287925481796265, -0.280947595834732, 0.553835928440094, -0.421379327774048, 0.844579339027405, 0.104649394750595, -0.050958901643753, 0.421939074993134, -0.195493832230568, 0.416833698749542, 0.124104939401150, -0.007704950869083, 0.493373572826385, 0.217580989003181, 0.039090082049370, -0.385596930980682, 0.631652712821960, -0.213959336280823, 0.466685682535172, 0.184067621827126, 0.161821439862251, 0.334975093603134, 0.613029420375824, 0.123530656099319, 0.077373147010803, 0.346093624830246, 0.222334131598473, 0.407706469297409, -0.265488833189011, 0.187778979539871, 0.492024213075638, 0.046989012509584, 0.201530039310455, 0.041760325431824, -0.317795783281326, 0.518534541130066, 0.558937847614288, 0.215177774429321, -0.145871967077255, 0.701579391956329, 0.196791961789131, 0.032769210636616, -0.047463856637478, 0.656396090984344, 0.508823871612549, 0.663837492465973, 0.439922749996185, -0.069973818957806, 0.769875824451447, 0.167986571788788, 0.267239838838577, 0.426550477743149, -0.002737531438470, 0.126011252403259, 0.157024830579758, 0.629487693309784, -0.491444021463394, 0.880868971347809, 0.536505579948425, -0.736380040645599, 0.705114126205444, 0.075006470084190, 0.219815894961357, 0.385920226573944, 0.198265492916107, 0.332201898097992, 0.047544181346893, 0.449106782674789, 0.205056250095367, -0.116645619273186, 0.177903652191162, 0.234846070408821, 0.374588429927826, -0.449415534734726, 0.380058318376541, 0.174128368496895, 0.302445054054260, 0.578094661235809, 0.144142180681229, -0.257912456989288, -0.217105865478516, 0.541632533073425, 0.066775515675545, 0.713687300682068, 0.421221494674683, -0.232559546828270, -0.528380870819092, 0.194685429334641, 0.307846605777740, 0.443994611501694, 0.535584926605225, 0.681265830993652, 0.645307898521423, -0.042758990079165, 0.445555776357651, -0.022666547447443, 0.167349189519882, 0.052846714854240, 0.510264992713928, 0.520333051681519, 0.380630075931549, 0.216582491993904, 0.190224349498749, 0.366258770227432, -0.071436554193497, -0.253235548734665, 0.432031780481339, 0.496057510375977, 0.212849289178848, 0.052971079945564, 0.648481011390686, 0.371411859989166, 0.286319166421890, 0.126746222376823, 0.497075051069260, 0.637986183166504, 0.165371775627136, 0.881565749645233, 0.705571830272675, -0.024875842034817, 0.103767439723015, 0.621509134769440, 0.319406896829605, 0.213014677166939, 0.070501744747162, 0.799722015857697, 0.355402350425720, 0.185177698731422, -0.395572453737259, 0.252303332090378, -0.115782290697098, 0.010572869330645, -0.210760205984116, 0.740924358367920, 0.276849657297134, 0.115084625780582, -0.013997662812471, 0.514095842838287, -0.031870514154434, -0.018720921128988, 0.282185584306717, -0.228884816169739, 0.329055190086365, 0.073875822126865, -0.273119032382965, 0.507694721221924, 0.212599888443947, 0.408827841281891, 0.593943357467651, -0.306306540966034, 0.010201945900917, 0.134422913193703, 0.475990146398544, -0.265362650156021, 0.191454619169235, 0.287187933921814, 0.169716924428940, -0.458526194095612, 0.372960388660431, -0.244750156998634, 0.049912877380848, 0.009575802832842, 0.173343643546104, -0.410353243350983, 0.316209763288498, 0.266348212957382, -0.446121543645859, 0.665830612182617, 0.917170226573944, 0.039796944707632, 0.537768065929413, 0.447315186262131, -0.065443426370621, -0.004917832091451, -0.566752254962921, -0.025569897145033, -0.016801951453090, -0.059435237199068, -0.015294355340302, 0.496915876865387, 0.016574427485466, 0.108769074082375, -0.025815490633249, 0.364778012037277, -0.135465934872627, -0.316894531250000, 0.538208127021790, 0.470809996128082, 0.707017540931702, -0.045547123998404, 0.569337666034698, 0.358769744634628, -0.244549438357353, 0.354858517646790, 0.594547569751740, -0.022075217217207, 0.156004562973976, 0.065101310610771, -0.320257276296616, 0.048247441649437, 0.272746652364731, 0.617608368396759, 0.146828472614288, 0.653767049312592, 0.658883452415466, 0.268864363431931, 0.655549168586731, 0.140363231301308, 1.044708847999573, -0.037276636809111, 0.270009726285934, 0.702121675014496, -0.595131397247314, 0.498315274715424, -0.286533713340759, 0.001260992721654, -0.048611503094435, -0.293294727802277, 0.760408461093903, 0.003443237859756, 0.394914358854294, 0.307410478591919, -0.299090832471848, -0.183122009038925, 0.586792051792145, -0.314473748207092, 0.354256987571716, 0.014281809329987, -0.843230128288269, 0.746205687522888, 0.290058940649033, 0.182141497731209, -0.718004226684570, -0.039612572640181, 0.064383126795292, -0.050580210983753, 0.008205326274037, 0.007392106577754, 0.083390392363071, 0.526222109794617, 0.662701964378357, -0.441641122102737, 0.020726850256324, 0.393464922904968, 0.362810432910919, 0.538353264331818, 0.128413662314415};
#endif

#endif
