//Numpy array shape [992]
//Min -0.078125000000
//Max 0.140625000000
//Number of zeros 181

#ifndef B38_H_
#define B38_H_

#ifndef __SYNTHESIS__
bias38_t b38[992];
#else
bias38_t b38[992] = {0.015625, 0.015625, -0.015625, 0.015625, 0.000000, 0.046875, 0.015625, 0.031250, 0.015625, 0.140625, -0.015625, 0.015625, 0.000000, 0.015625, -0.031250, -0.015625, -0.015625, 0.031250, 0.000000, 0.000000, 0.000000, 0.015625, 0.000000, -0.015625, -0.015625, 0.031250, -0.015625, -0.015625, -0.015625, 0.015625, -0.031250, -0.015625, 0.000000, 0.000000, -0.015625, -0.015625, 0.015625, 0.015625, 0.031250, 0.015625, 0.015625, 0.000000, 0.015625, 0.031250, 0.000000, -0.015625, 0.015625, -0.031250, -0.015625, 0.015625, -0.015625, 0.015625, 0.015625, 0.015625, -0.015625, 0.000000, 0.000000, -0.046875, 0.046875, 0.031250, 0.015625, -0.015625, 0.015625, 0.140625, -0.015625, -0.015625, -0.015625, -0.015625, -0.015625, 0.000000, -0.015625, 0.000000, 0.015625, 0.000000, 0.031250, 0.000000, 0.000000, -0.015625, 0.000000, 0.015625, -0.015625, 0.000000, -0.015625, 0.000000, -0.015625, 0.000000, 0.015625, -0.015625, -0.031250, -0.015625, 0.046875, 0.015625, 0.000000, -0.015625, -0.015625, 0.031250, 0.015625, 0.125000, -0.015625, 0.000000, -0.015625, 0.000000, 0.015625, -0.015625, -0.015625, -0.015625, 0.000000, 0.015625, 0.031250, 0.046875, 0.015625, 0.031250, 0.109375, -0.015625, 0.000000, 0.046875, 0.015625, 0.015625, 0.031250, 0.015625, 0.000000, 0.000000, 0.000000, 0.000000, 0.031250, 0.015625, -0.015625, 0.000000, 0.000000, 0.015625, 0.000000, -0.015625, 0.062500, 0.000000, -0.015625, 0.046875, 0.046875, -0.015625, 0.062500, 0.015625, -0.015625, 0.000000, 0.000000, 0.000000, 0.015625, 0.046875, -0.015625, -0.015625, -0.015625, 0.000000, -0.015625, 0.062500, 0.000000, 0.000000, 0.015625, -0.078125, 0.000000, 0.062500, -0.031250, 0.031250, 0.015625, 0.015625, -0.015625, 0.000000, -0.031250, -0.015625, 0.015625, -0.015625, -0.031250, 0.015625, -0.015625, -0.015625, 0.000000, 0.015625, -0.015625, -0.015625, 0.031250, 0.000000, 0.031250, 0.031250, -0.015625, 0.000000, 0.031250, 0.000000, -0.015625, -0.015625, -0.015625, -0.015625, 0.015625, 0.015625, -0.031250, -0.015625, -0.015625, 0.031250, -0.015625, -0.015625, 0.000000, -0.015625, -0.015625, 0.000000, 0.015625, 0.062500, 0.046875, 0.000000, -0.031250, -0.015625, 0.000000, -0.015625, -0.015625, 0.000000, 0.000000, 0.046875, -0.015625, -0.015625, 0.031250, 0.000000, 0.000000, -0.015625, 0.000000, 0.000000, -0.015625, 0.031250, 0.000000, 0.000000, 0.062500, 0.031250, 0.062500, 0.062500, 0.062500, 0.000000, 0.062500, 0.015625, 0.000000, 0.000000, 0.015625, 0.078125, 0.031250, 0.078125, -0.015625, 0.062500, 0.031250, 0.078125, 0.015625, 0.000000, 0.031250, 0.046875, 0.078125, 0.000000, 0.078125, 0.015625, 0.015625, 0.015625, 0.015625, 0.015625, 0.062500, -0.015625, 0.000000, 0.000000, 0.031250, 0.015625, 0.000000, 0.046875, 0.109375, 0.000000, 0.000000, 0.046875, 0.031250, 0.109375, 0.031250, 0.046875, 0.062500, 0.046875, 0.062500, 0.015625, 0.078125, 0.031250, 0.015625, 0.062500, 0.046875, 0.046875, 0.015625, 0.031250, 0.015625, 0.031250, 0.046875, 0.015625, 0.062500, 0.000000, 0.031250, 0.031250, 0.046875, 0.031250, 0.109375, 0.046875, 0.046875, 0.000000, 0.031250, 0.015625, 0.031250, 0.000000, 0.062500, 0.015625, 0.046875, 0.046875, 0.046875, 0.000000, 0.031250, 0.046875, 0.031250, 0.062500, 0.000000, 0.046875, 0.078125, 0.000000, 0.109375, 0.015625, -0.015625, 0.031250, 0.046875, 0.031250, 0.031250, 0.015625, 0.078125, 0.031250, 0.015625, 0.031250, 0.031250, 0.046875, 0.015625, 0.000000, 0.062500, 0.062500, 0.046875, 0.015625, 0.000000, 0.062500, 0.031250, 0.062500, 0.046875, 0.031250, 0.000000, 0.031250, 0.046875, 0.031250, 0.015625, 0.000000, 0.093750, 0.078125, 0.031250, 0.031250, 0.000000, 0.000000, -0.031250, -0.015625, -0.015625, -0.015625, -0.015625, -0.015625, -0.031250, 0.000000, -0.062500, 0.000000, -0.015625, -0.031250, -0.015625, -0.015625, -0.031250, 0.031250, -0.015625, 0.062500, 0.000000, -0.062500, 0.109375, -0.031250, 0.031250, -0.046875, 0.062500, -0.015625, 0.046875, 0.000000, -0.015625, -0.015625, 0.046875, -0.046875, -0.031250, -0.015625, 0.046875, -0.031250, 0.000000, -0.015625, 0.062500, 0.015625, -0.046875, -0.015625, 0.078125, 0.046875, 0.000000, 0.046875, 0.062500, -0.015625, -0.015625, 0.000000, 0.093750, 0.093750, -0.031250, 0.078125, -0.015625, 0.062500, -0.015625, 0.062500, -0.046875, -0.015625, 0.000000, 0.093750, 0.062500, -0.046875, 0.000000, 0.015625, -0.031250, 0.000000, 0.062500, 0.062500, -0.015625, -0.031250, 0.000000, -0.046875, -0.046875, -0.031250, 0.015625, -0.015625, -0.015625, -0.031250, 0.000000, -0.046875, 0.046875, -0.015625, -0.031250, -0.015625, -0.015625, 0.046875, -0.015625, -0.031250, 0.062500, 0.000000, -0.015625, -0.031250, -0.015625, -0.015625, -0.015625, -0.031250, 0.015625, 0.078125, 0.015625, -0.046875, 0.000000, -0.015625, 0.015625, -0.031250, -0.031250, 0.000000, 0.000000, -0.015625, -0.015625, 0.093750, -0.015625, -0.015625, 0.015625, 0.015625, -0.015625, 0.015625, 0.000000, -0.031250, 0.046875, 0.000000, 0.062500, -0.015625, 0.000000, -0.015625, 0.000000, -0.046875, 0.046875, 0.031250, 0.000000, 0.078125, 0.062500, 0.015625, 0.062500, 0.046875, 0.062500, 0.078125, 0.078125, 0.062500, 0.046875, 0.062500, 0.062500, 0.062500, 0.015625, 0.046875, 0.062500, 0.046875, 0.000000, 0.046875, 0.000000, 0.015625, 0.046875, 0.046875, 0.000000, 0.062500, 0.015625, 0.078125, 0.031250, 0.046875, 0.062500, 0.109375, 0.062500, 0.062500, 0.031250, 0.015625, 0.078125, 0.000000, 0.046875, 0.031250, 0.046875, 0.015625, 0.031250, 0.046875, 0.046875, 0.015625, 0.015625, 0.015625, 0.031250, 0.046875, 0.062500, 0.062500, 0.015625, 0.031250, 0.015625, -0.015625, 0.031250, 0.046875, 0.046875, 0.093750, 0.046875, 0.062500, 0.031250, 0.015625, 0.031250, 0.046875, 0.031250, 0.046875, 0.031250, 0.015625, 0.031250, 0.000000, 0.046875, 0.093750, 0.046875, 0.062500, 0.031250, 0.078125, 0.031250, 0.000000, 0.015625, 0.015625, 0.046875, 0.078125, 0.031250, 0.031250, 0.031250, 0.031250, 0.015625, 0.046875, 0.109375, 0.015625, 0.062500, 0.046875, 0.015625, 0.031250, 0.015625, 0.046875, 0.046875, 0.031250, 0.031250, 0.062500, 0.046875, 0.078125, 0.046875, 0.000000, 0.015625, 0.031250, 0.015625, 0.078125, 0.109375, 0.046875, 0.031250, 0.015625, 0.000000, 0.031250, 0.015625, 0.078125, 0.046875, 0.046875, 0.062500, 0.031250, 0.031250, 0.015625, 0.015625, 0.031250, 0.046875, 0.000000, 0.046875, 0.031250, 0.031250, 0.031250, 0.031250, 0.078125, 0.015625, 0.046875, 0.015625, 0.046875, 0.046875, 0.000000, 0.062500, 0.015625, 0.031250, 0.015625, 0.046875, 0.062500, 0.015625, 0.078125, 0.031250, 0.031250, 0.078125, 0.062500, 0.000000, 0.062500, 0.078125, 0.062500, 0.046875, 0.062500, 0.031250, 0.015625, 0.078125, 0.031250, 0.046875, 0.046875, 0.031250, 0.031250, 0.015625, 0.015625, 0.031250, 0.062500, 0.015625, 0.062500, 0.031250, 0.062500, 0.000000, 0.046875, 0.046875, 0.031250, 0.015625, 0.015625, 0.062500, 0.062500, 0.046875, 0.031250, 0.000000, -0.015625, 0.046875, 0.015625, 0.031250, 0.046875, 0.062500, 0.046875, 0.046875, 0.000000, 0.031250, 0.031250, 0.078125, 0.015625, 0.062500, 0.031250, 0.031250, 0.062500, 0.031250, 0.015625, 0.015625, 0.062500, 0.062500, 0.000000, 0.031250, 0.046875, 0.062500, 0.015625, 0.062500, 0.015625, 0.078125, 0.031250, 0.015625, 0.015625, 0.000000, 0.078125, 0.000000, 0.000000, -0.015625, 0.046875, 0.046875, 0.000000, 0.031250, 0.031250, 0.046875, 0.046875, 0.046875, 0.046875, 0.046875, 0.000000, 0.062500, 0.000000, 0.015625, 0.046875, 0.031250, 0.062500, 0.015625, 0.000000, 0.031250, 0.015625, 0.046875, 0.000000, 0.015625, 0.046875, 0.046875, 0.046875, 0.078125, 0.046875, 0.046875, 0.078125, -0.031250, 0.000000, 0.000000, 0.078125, 0.046875, -0.031250, 0.046875, -0.031250, 0.046875, -0.015625, 0.046875, 0.000000, -0.015625, 0.062500, 0.000000, -0.031250, -0.015625, 0.000000, 0.062500, -0.015625, 0.000000, 0.000000, -0.015625, 0.000000, 0.031250, 0.015625, -0.015625, 0.031250, -0.015625, 0.000000, 0.062500, 0.046875, -0.015625, 0.062500, 0.000000, 0.046875, 0.000000, 0.015625, -0.015625, -0.015625, 0.046875, -0.015625, 0.015625, -0.015625, -0.015625, -0.015625, 0.046875, -0.015625, 0.000000, -0.015625, 0.000000, 0.000000, 0.000000, 0.062500, -0.015625, -0.015625, -0.015625, -0.015625, 0.031250, -0.015625, 0.015625, 0.046875, -0.015625, 0.062500, -0.015625, -0.015625, -0.015625, 0.000000, -0.015625, -0.046875, 0.062500, 0.000000, 0.000000, 0.000000, -0.015625, 0.000000, 0.078125, -0.015625, 0.046875, 0.078125, 0.062500, 0.000000, 0.031250, -0.015625, 0.015625, 0.000000, 0.015625, -0.015625, 0.015625, 0.046875, -0.015625, 0.031250, -0.015625, 0.000000, -0.015625, 0.046875, 0.000000, 0.015625, -0.015625, 0.078125, -0.015625, -0.031250, 0.000000, -0.031250, 0.062500, 0.062500, 0.015625, 0.000000, -0.015625, 0.015625, -0.015625, 0.062500, 0.062500, 0.062500, -0.031250, -0.015625, -0.015625, -0.015625, 0.000000, 0.062500, 0.031250, 0.031250, 0.046875, 0.015625, -0.031250, 0.000000, -0.015625, 0.000000, 0.000000, 0.000000, -0.015625, 0.000000, -0.031250, -0.015625, 0.000000, -0.015625, -0.015625, 0.046875, -0.015625, 0.046875, 0.000000, -0.031250, 0.062500, -0.015625, -0.031250, 0.000000, 0.031250, 0.031250, 0.000000, -0.015625, 0.015625, 0.031250, 0.000000, -0.031250, -0.015625, 0.062500, 0.015625, -0.031250, -0.015625, 0.078125, 0.000000, 0.000000, -0.031250, 0.000000, 0.046875, -0.031250, -0.031250, -0.015625, 0.000000, -0.015625, 0.031250, 0.062500, -0.015625, 0.031250, 0.000000, -0.031250, -0.015625, 0.031250, 0.046875, 0.015625, 0.000000, -0.015625, 0.031250, 0.046875, 0.000000, 0.031250, -0.015625, -0.046875, 0.015625, 0.031250, 0.000000, 0.046875, 0.046875, -0.015625, -0.015625, -0.031250, -0.015625, 0.046875, 0.046875, 0.000000, 0.062500, -0.015625, 0.000000, 0.000000, 0.031250, 0.015625, -0.015625, -0.031250, -0.015625, 0.015625, 0.000000, -0.015625, -0.015625, 0.031250, -0.015625, 0.015625, -0.015625, 0.015625, 0.000000, -0.015625, 0.015625, 0.046875, 0.000000, -0.015625, 0.000000, 0.046875, -0.015625, 0.000000, 0.000000, -0.015625, 0.046875, 0.062500, 0.046875, -0.015625, -0.015625, -0.015625, 0.031250, -0.015625, 0.000000, 0.000000, -0.015625, 0.031250, -0.015625, -0.015625, 0.015625, -0.015625, 0.000000, -0.031250, -0.015625, -0.015625, -0.015625, 0.062500, -0.031250, 0.062500, 0.046875, -0.031250};
#endif

#endif
