//Numpy array shape [128]
//Min -5.729180812836
//Max 2.079760074615
//Number of zeros 0

#ifndef B51_H_
#define B51_H_

#ifndef __SYNTHESIS__
model_default_t b51[128];
#else
model_default_t b51[128] = {-1.1901999711990356445, -0.0095780100673437119, -1.7040885686874389648, 0.1914727240800857544, 0.0002521465066820383, -2.9484834671020507812, -1.4202425479888916016, 0.5342865586280822754, 1.6486862897872924805, 0.2397175431251525879, 0.3318959176540374756, 0.2854684591293334961, 0.4155933558940887451, -3.0891306400299072266, 0.1609856188297271729, -2.9209012985229492188, 0.3640894591808319092, -3.1519765853881835938, -3.0894410610198974609, -3.2985520362854003906, -4.4112539291381835938, 0.5015919208526611328, -3.0166065692901611328, -3.2832627296447753906, 0.1333381235599517822, 0.9222761988639831543, -1.4553101062774658203, -2.1406960487365722656, -3.2190592288970947266, -0.5028578639030456543, -1.4552224874496459961, -2.9084429740905761719, 0.1451773643493652344, 0.4061332345008850098, 0.0055849943310022354, -2.1054835319519042969, 0.1984229683876037598, -0.7575106024742126465, 0.0675120651721954346, -2.9584641456604003906, 1.9441679716110229492, -2.9348433017730712891, -4.8189492225646972656, -2.5490937232971191406, 0.2987727820873260498, -5.7291808128356933594, -0.4941511750221252441, -2.9642703533172607422, 0.2652357518672943115, -0.9538513422012329102, -1.3118902444839477539, -3.9860434532165527344, -0.0178087837994098663, -3.5251553058624267578, -3.9808390140533447266, 0.2217692881822586060, -3.5228912830352783203, -0.1379110664129257202, 0.3566365242004394531, 0.2806925773620605469, 0.2670063078403472900, -0.0444223731756210327, 0.3482836484909057617, 1.2072141170501708984, -3.2341063022613525391, 0.0450847521424293518, -2.9810559749603271484, -1.5624668598175048828, 0.8769187927246093750, 1.4071279764175415039, -3.4221196174621582031, -0.0372072644531726837, 0.2515130341053009033, 0.2578754723072052002, 0.4242238402366638184, -3.1324205398559570312, 0.2810642719268798828, 0.8174607157707214355, -0.0111494399607181549, -0.4251437187194824219, -2.3490960597991943359, 0.8858468532562255859, -0.9728147983551025391, -3.3065180778503417969, -2.3149440288543701172, -2.9832346439361572266, -2.2278354167938232422, 1.3066116571426391602, -1.4886481761932373047, -0.1307097524404525757, -1.1588090658187866211, -0.2967934906482696533, -2.6870541572570800781, -3.0637311935424804688, -1.7021353244781494141, -0.1726274043321609497, -4.8212904930114746094, -0.0886967778205871582, 0.3660407364368438721, -1.3349341154098510742, -0.1528344750404357910, -0.2164995223283767700, -2.9040968418121337891, -0.2435202449560165405, -1.0676752328872680664, -0.9340133070945739746, -1.1081506013870239258, 0.7547142505645751953, 0.3191044628620147705, 0.2068600356578826904, -1.2111351490020751953, -3.0931835174560546875, -3.0144767761230468750, -0.7019796371459960938, 0.6554525494575500488, 0.3259988725185394287, 0.1925983130931854248, -0.2323196232318878174, 2.0797600746154785156, -2.7478301525115966797, -0.1591227054595947266, -0.0395170375704765320, -3.1241364479064941406, 0.2392345368862152100, -3.7417488098144531250, -3.4578349590301513672, 0.7226983904838562012, -3.9682769775390625000};
#endif

#endif
