//Numpy array shape [256]
//Min -1.435115337372
//Max 1.295156836510
//Number of zeros 0

#ifndef B83_H_
#define B83_H_

#ifndef __SYNTHESIS__
model_default_t b83[256];
#else
model_default_t b83[256] = {-0.342660963535309, -0.870040535926819, -0.251069813966751, -0.019575184211135, 0.155319109559059, 0.180880159139633, 0.162852361798286, 0.030756460502744, -0.151377514004707, -0.028856534510851, 0.139990806579590, 1.203927874565125, -0.352257907390594, -0.024175899103284, -0.299566566944122, -0.236654818058014, 0.681677818298340, -0.307559877634048, 0.325965076684952, -0.244365975260735, -0.103854678571224, -0.074761092662811, 0.094568230211735, 0.096140496432781, 0.202895909547806, -0.261783510446548, 0.337364733219147, 0.632601559162140, -0.497361123561859, -0.145188376307487, 0.235520809888840, 0.645055055618286, -0.106784872710705, 0.754916369915009, 0.189185589551926, 0.451677143573761, 1.185562729835510, 0.041199222207069, 0.714095115661621, -0.703168570995331, -0.211677417159081, -0.328338027000427, 1.115702271461487, -0.476451277732849, -0.220085680484772, -0.284418940544128, 0.413515746593475, -0.499118804931641, -0.497043073177338, -0.355692803859711, -0.350269347429276, 0.975138485431671, 0.231155052781105, 0.331036537885666, -0.101611278951168, -0.434072226285934, -0.476298481225967, 0.058405507355928, -0.576261520385742, -0.231841638684273, -0.372948229312897, 0.443284630775452, -0.016786593943834, 0.272343993186951, 0.007585556712002, 0.137145459651947, -0.949585258960724, 1.295156836509705, -0.495357602834702, -0.410847574472427, 0.016257034614682, -0.003327812068164, 0.880295693874359, -0.135769516229630, -0.369508743286133, 0.154319182038307, 0.067236527800560, 0.060761105269194, -0.247234806418419, 0.024704104289412, 0.002097191754729, 0.392131239175797, 0.022525912150741, -0.272847980260849, -0.420763880014420, 0.784657657146454, 0.030946731567383, -0.023666072636843, -0.300254404544830, 0.614432454109192, -0.412963926792145, 0.758588135242462, 0.261492133140564, -0.134974569082260, -0.353718906641006, 0.020169368013740, 0.214700549840927, -0.000906741828658, -0.093000769615173, -0.026454946026206, -0.387476950883865, 0.125836163759232, 0.294072449207306, -0.241185441613197, 0.162274882197380, 0.152258887887001, 1.027770400047302, 0.064445786178112, -0.515775084495544, 1.277244448661804, 0.014341650530696, 0.526589691638947, 0.869378089904785, -0.035786915570498, -0.247185200452805, -0.344611257314682, -0.267476528882980, -0.173857003450394, -0.454204440116882, -0.024891424924135, -0.038051225244999, 0.296599000692368, 0.791529476642609, -0.339601576328278, -0.416128426790237, -0.123019583523273, -0.240552604198456, -0.348797887563705, -0.329309672117233, 0.222023963928223, -0.329435378313065, -0.508970618247986, -0.314454853534698, -0.003643403761089, -0.628740072250366, 0.042837344110012, -0.166042253375053, 0.117926925420761, -0.451866507530212, 0.582790672779083, 0.931577622890472, -0.435745179653168, 0.112576767802238, 0.048820864409208, -0.392121851444244, -0.025561066344380, 0.502748906612396, 0.507919907569885, -0.157888725399971, 0.072049640119076, -0.074088826775551, 0.095598898828030, 0.462710648775101, 0.115432672202587, -0.021211551502347, 0.593864321708679, 1.010826468467712, -0.165299028158188, -0.137607887387276, 0.519947946071625, 0.078445494174957, 0.164728328585625, -0.134969606995583, -0.078863985836506, 0.071044720709324, -0.364778637886047, -0.465366005897522, 0.120003260672092, -0.281064808368683, -0.166066482663155, -0.028973303735256, 0.031396660953760, 0.104749262332916, 1.019008874893188, -0.644859910011292, -0.069932267069817, -0.031282141804695, 0.517532229423523, 0.259868115186691, -0.335751742124557, -0.158625215291977, 0.120778322219849, 0.601189196109772, 0.395062327384949, 0.070522978901863, -0.348365783691406, -0.536425828933716, 0.371601521968842, 1.136012196540833, 0.153025016188622, -0.255756884813309, -0.063620276749134, -0.583312213420868, -0.268563300371170, -0.186856254935265, -0.042456559836864, 0.457823485136032, -0.052606683224440, -0.006440148688853, -0.141232803463936, -0.148333519697189, -0.424355298280716, -0.070049695670605, 0.939018130302429, 0.455372869968414, 0.372800529003143, -0.079857409000397, -0.344285607337952, 0.060062866657972, -0.529378473758698, -0.090312391519547, -0.402389377355576, 0.394278824329376, 0.241417914628983, -0.094108715653419, 0.246039241552353, 0.149087026715279, -1.435115337371826, -0.354222357273102, -0.180876344442368, -0.013512057252228, 0.252450972795486, 0.042634844779968, 0.116527162492275, 0.341170221567154, 0.316916823387146, -0.304309785366058, 0.429421275854111, -0.381513804197311, 0.298276752233505, -0.192177295684814, 0.184651002287865, 0.568395018577576, -0.346507042646408, -0.170279234647751, -0.190556660294533, -0.103734999895096, 0.195505678653717, 0.311688810586929, 0.362179905176163, -0.494815319776535, 0.462122619152069, -0.210500419139862, 0.196349129080772, -0.434184610843658, -0.240834549069405, -0.301049709320068, -0.098701022565365, -0.156974852085114, -0.303642839193344, -0.227150425314903, -0.091302804648876, 0.147005632519722, 0.244401276111603, 1.082294583320618, 0.639721989631653};
#endif

#endif
