//Numpy array shape [256]
//Min -0.623585343361
//Max 0.618845582008
//Number of zeros 0

#ifndef B98_H_
#define B98_H_

#ifndef __SYNTHESIS__
model_default_t b98[256];
#else
model_default_t b98[256] = {-0.565812230110168, 0.590135097503662, -0.461844682693481, -0.430616468191147, -0.550923287868500, 0.548677563667297, -0.549211382865906, -0.523382246494293, -0.540338218212128, -0.603213667869568, -0.568788409233093, 0.531528174877167, 0.514173746109009, -0.563067078590393, -0.460451066493988, 0.517981171607971, -0.456817567348480, -0.520537257194519, 0.491803616285324, -0.514120995998383, 0.482820987701416, 0.576847195625305, 0.572100460529327, 0.475917249917984, 0.538970112800598, 0.469929188489914, 0.569606363773346, -0.497468292713165, 0.572229564189911, 0.560934007167816, 0.569416224956512, -0.484369695186615, 0.488136768341064, 0.511628270149231, -0.507888317108154, -0.534044861793518, 0.616501748561859, 0.462028950452805, -0.566727995872498, 0.488928198814392, -0.455788940191269, -0.482233345508575, -0.551229238510132, -0.568413615226746, 0.584842145442963, 0.524915277957916, 0.574871182441711, -0.482227236032486, 0.537412464618683, -0.607603073120117, 0.481480538845062, -0.507022023200989, -0.487868100404739, -0.581614077091217, -0.579529821872711, 0.550795376300812, 0.575067400932312, -0.467887192964554, 0.596802294254303, -0.501704394817352, 0.579667747020721, 0.534348130226135, 0.532031953334808, 0.516444206237793, 0.513154447078705, 0.563603281974792, -0.459364861249924, -0.541144073009491, 0.488910615444183, 0.532815337181091, -0.486528605222702, 0.572345316410065, 0.618845582008362, -0.463514536619186, 0.452136605978012, 0.569481134414673, -0.569176793098450, 0.464551061391830, 0.533284544944763, 0.585541129112244, -0.496431529521942, 0.598034799098969, -0.467573761940002, -0.562247455120087, 0.484948754310608, 0.572110533714294, 0.574799895286560, -0.518790364265442, -0.548908293247223, 0.544803500175476, -0.511952042579651, -0.576642811298370, -0.546237170696259, -0.614764451980591, 0.501753449440002, 0.476926952600479, -0.479981213808060, 0.492257535457611, 0.531416535377502, -0.538945078849792, -0.544341325759888, -0.565104603767395, 0.519304811954498, 0.549699544906616, 0.533231616020203, -0.489224433898926, -0.582788527011871, 0.577080190181732, 0.567706227302551, 0.548480510711670, -0.501707315444946, -0.525359511375427, -0.539253473281860, -0.528268218040466, 0.509521722793579, -0.506722569465637, 0.495408892631531, -0.540894567966461, 0.544340193271637, 0.498550772666931, 0.551888167858124, -0.511061489582062, -0.541508555412292, -0.535070896148682, -0.484541773796082, 0.576342403888702, -0.519315779209137, -0.548465311527252, -0.501865983009338, -0.542322456836700, 0.483930617570877, -0.570111155509949, 0.506300985813141, 0.597014367580414, 0.551052153110504, -0.544648051261902, 0.534191906452179, 0.474627166986465, 0.574003577232361, -0.557488083839417, -0.548539996147156, -0.473829627037048, 0.550740480422974, 0.566746711730957, 0.560816943645477, -0.522609174251556, 0.533126771450043, 0.548892140388489, -0.551780104637146, 0.566084623336792, 0.485345929861069, -0.533306598663330, 0.563857674598694, 0.523281812667847, 0.469920426607132, 0.552745103836060, -0.601604938507080, -0.585900425910950, -0.548243999481201, 0.559259891510010, 0.489032834768295, -0.497404724359512, -0.542371571063995, -0.534726500511169, -0.525541007518768, -0.537082314491272, -0.485308110713959, 0.494247049093246, -0.505981266498566, 0.443373918533325, -0.503078997135162, 0.610102534294128, 0.559242963790894, -0.551692664623260, -0.623585343360901, -0.501148819923401, 0.474192023277283, 0.506229579448700, 0.532218873500824, -0.604849278926849, 0.503520607948303, 0.558908164501190, -0.537391781806946, 0.562184095382690, -0.549639582633972, -0.527739584445953, -0.530869483947754, 0.569171786308289, 0.517908275127411, 0.580301344394684, -0.491952806711197, 0.599443912506104, -0.466606348752975, -0.456474214792252, -0.586529374122620, 0.541882574558258, -0.520279645919800, -0.533033907413483, -0.527339577674866, -0.524894833564758, 0.561434030532837, 0.497713178396225, -0.504878163337708, -0.527987062931061, 0.603451848030090, 0.572669744491577, -0.536458790302277, -0.549565970897675, -0.488636553287506, 0.558938384056091, 0.610496580600739, -0.528132200241089, 0.513718187808990, -0.617161035537720, -0.556045293807983, 0.535506904125214, -0.516600728034973, 0.582115709781647, 0.561806440353394, 0.560510039329529, -0.530847370624542, -0.521421134471893, -0.463588058948517, 0.563562810420990, -0.551262021064758, 0.467901885509491, -0.545370459556580, 0.549527049064636, -0.506249785423279, 0.546360135078430, -0.577673435211182, -0.593368709087372, 0.491859376430511, 0.538396537303925, 0.592591702938080, 0.610759437084198, 0.564676284790039, 0.539239764213562, -0.491266548633575, -0.500618815422058, 0.599550485610962, -0.507378637790680, -0.529752910137177, 0.536092281341553, 0.588203549385071, 0.587495505809784, 0.601241230964661, -0.493891596794128, -0.553998410701752, -0.591995358467102, 0.537464737892151, -0.524357914924622, 0.575134456157684, -0.579441368579865, 0.542544841766357, -0.547604203224182};
#endif

#endif
