//Numpy array shape [1, 6, 128]
//Min -7.946394920349
//Max 10.498980522156
//Number of zeros 0

#ifndef W37_H_
#define W37_H_

#ifndef __SYNTHESIS__
model_default_t w37[768];
#else
model_default_t w37[768] = {1.6358411312103271484, 1.3649601936340332031, -0.5484582781791687012, -4.2977204322814941406, 0.7182623744010925293, 0.9802876710891723633, -0.0674440488219261169, 2.5363755226135253906, 0.8435423970222473145, -4.9692859649658203125, 0.9091819524765014648, -0.1369869410991668701, 2.1860790252685546875, -0.2555200457572937012, -0.6747865676879882812, -3.7855923175811767578, -1.2550984621047973633, 1.6464658975601196289, -0.7967625856399536133, 4.8244037628173828125, 0.9266612529754638672, -3.1449003219604492188, 1.5425351858139038086, -1.3906008005142211914, -1.4068913459777832031, 5.4195518493652343750, 1.2309517860412597656, -5.3881039619445800781, 2.0722446441650390625, -2.0192704200744628906, -0.7172173857688903809, 5.0100893974304199219, 0.9533522725105285645, -3.7498941421508789062, 3.1039788722991943359, -1.6287958621978759766, -3.0170013904571533203, 2.8927879333496093750, 0.1798647344112396240, -3.3262436389923095703, -2.2756850719451904297, -1.8717583417892456055, -1.0766215324401855469, 4.7379789352416992188, 1.1460711956024169922, -6.6806855201721191406, 1.8305300474166870117, -1.6921322345733642578, 0.4178969264030456543, 1.2423614263534545898, -1.3247613906860351562, -3.0699753761291503906, -1.8850708007812500000, 0.9571639299392700195, -0.0162597540766000748, 1.4107892513275146484, -0.8604096770286560059, -2.2893853187561035156, -1.6798171997070312500, 0.9809038639068603516, 0.0305304713547229767, 1.7172077894210815430, -0.9361352920532226562, -2.4305915832519531250, -2.1152491569519042969, 0.5761645436286926270, 0.8927330374717712402, -4.7615380287170410156, -0.1608116477727890015, 6.3633708953857421875, 1.6695642471313476562, 2.0999402999877929688, -0.9296230673789978027, 3.3758735656738281250, 1.1188560724258422852, -6.0789990425109863281, 0.6919369101524353027, -1.3797456026077270508, 0.5198942422866821289, 1.2494072914123535156, -1.2629997730255126953, -2.9362335205078125000, -1.6563616991043090820, 1.3856309652328491211, 1.6352225542068481445, -0.2862775027751922607, -0.6791075468063354492, -2.1904532909393310547, -1.0311332941055297852, 1.6174834966659545898, 1.7268834114074707031, -3.8084001541137695312, -0.2484791129827499390, 10.4989805221557617188, 1.0954043865203857422, 1.7640423774719238281, 0.0677761957049369812, 1.4842242002487182617, -0.8004884123802185059, -2.2743597030639648438, -1.7263840436935424805, 0.8605552911758422852, 1.1147793531417846680, -3.4045774936676025391, -0.2328773736953735352, 8.9206199645996093750, -0.7070041894912719727, 1.8105353116989135742, 0.5977847576141357422, 1.3509811162948608398, -1.3250360488891601562, -3.0986399650573730469, -1.7923473119735717773, 1.0318384170532226562, 2.5142741203308105469, 0.3657574355602264404, -0.8116216063499450684, -4.6977477073669433594, -0.2581166923046112061, 1.4593544006347656250, 1.1595152616500854492, -3.7747855186462402344, -0.2547810375690460205, 10.4269790649414062500, 0.4374275803565979004, 1.6014108657836914062, -1.8548249006271362305, 5.0239968299865722656, 1.4915362596511840820, -2.7881186008453369141, 1.0250208377838134766, -1.9054815769195556641, 2.8916997909545898438, 1.4481259584426879883, -0.9488877654075622559, -4.7923359870910644531, -1.1270059347152709961, 0.7747720479965209961, 2.0422470569610595703, -0.0985828191041946411, -0.8037936687469482422, -2.5562994480133056641, -2.6368486881256103516, 0.8914942741394042969, 0.5812896490097045898, 1.3039149045944213867, -1.1486476659774780273, -2.8121318817138671875, -1.9130390882492065430, 0.9686297774314880371, -0.1249845474958419800, 2.6311042308807373047, -0.5747935175895690918, -3.8628098964691162109, -3.0546090602874755859, -1.3746408224105834961, -1.1307467222213745117, 2.4016094207763671875, -0.2344836890697479248, 1.0426096916198730469, -0.4164761304855346680, 0.2454749792814254761, 0.4638016819953918457, 1.2655003070831298828, -1.3563935756683349609, -3.1017637252807617188, -1.2716722488403320312, 1.3848417997360229492, 0.4270448386669158936, 1.5120248794555664062, -1.4357571601867675781, -3.1047878265380859375, -1.7077138423919677734, 1.1290791034698486328, 0.4474334418773651123, 1.1873466968536376953, -1.3092703819274902344, -2.8713176250457763672, -1.4954202175140380859, 1.4467366933822631836, 0.4216901957988739014, 1.2247185707092285156, -1.4135723114013671875, -3.2271945476531982422, -1.8826519250869750977, 1.0524141788482666016, -2.6520617008209228516, 4.7993946075439453125, 1.7400403022766113281, -5.3421616554260253906, 1.1888082027435302734, -2.5569074153900146484, -0.5655840635299682617, 0.2558725476264953613, 0.4091035127639770508, -3.1840898990631103516, -1.4337509870529174805, -0.6829599142074584961, 0.4610304534435272217, 1.2918354272842407227, -1.3895775079727172852, -3.1803462505340576172, -1.5516955852508544922, 1.1372121572494506836, 0.6598613262176513672, 0.8124518990516662598, -1.4439418315887451172, -3.3482100963592529297, -1.1419446468353271484, 1.7055424451828002930, 0.2484715580940246582, 1.3609911203384399414, -1.1320438385009765625, -2.4680526256561279297, -1.2944740056991577148, 1.4360505342483520508, 0.1882797330617904663, 2.4504542350769042969, -0.1294443756341934204, -3.7938425540924072266, 1.7513508796691894531, 1.0735137462615966797, -1.5522441864013671875, 4.4705815315246582031, 1.3309253454208374023, -5.5796675682067871094, 1.7400816679000854492, -2.5428264141082763672, 1.4250141382217407227, 1.4375652074813842773, -0.5692525506019592285, -3.5339131355285644531, 0.7821971178054809570, 1.3974536657333374023, 5.4013905525207519531, 0.0365360304713249207, -0.9405444860458374023, -1.8201897144317626953, -4.0788302421569824219, 0.4220598042011260986, 0.5912845730781555176, 1.2375003099441528320, -1.2638698816299438477, -2.9479668140411376953, -1.7828531265258789062, 1.1061303615570068359, -1.3424135446548461914, 5.4337654113769531250, 1.1968698501586914062, -3.5956234931945800781, 1.3824766874313354492, -1.9097460508346557617, 0.3554889559745788574, 2.4163262844085693359, -0.5394747257232666016, -3.6956965923309326172, -2.5708222389221191406, -1.5131504535675048828, -0.1741531789302825928, 1.9683357477188110352, -0.9184481501579284668, -2.3866271972656250000, -1.9727398157119750977, 0.3815313875675201416, 0.5841674804687500000, 1.1585011482238769531, -1.1678460836410522461, -2.7069232463836669922, -1.0639754533767700195, 1.8755635023117065430, -4.5136079788208007812, 3.3182044029235839844, 0.2263006269931793213, 1.4717376232147216797, 1.1085408926010131836, -0.5189720988273620605, -0.1530989110469818115, 1.9580556154251098633, -0.9474629759788513184, -2.4253487586975097656, -1.9920463562011718750, 0.7789865136146545410, 1.0087243318557739258, 1.3676372766494750977, -0.5063161849975585938, -3.6415355205535888672, -0.1411359608173370361, 1.2021647691726684570, 0.5656760931015014648, 1.5001339912414550781, -1.2433794736862182617, -2.9226019382476806641, -1.8601367473602294922, 1.0988415479660034180, 0.4819001853466033936, 1.2351428270339965820, -1.6336596012115478516, -3.3979558944702148438, -1.6100940704345703125, 1.3266944885253906250, -1.1730488538742065430, 4.5235710144042968750, 1.0749616622924804688, -5.4094195365905761719, 1.3695878982543945312, -1.9624778032302856445, -0.1742823272943496704, 1.6928467750549316406, -1.0193772315979003906, -2.5838932991027832031, -2.0196304321289062500, 0.7040888071060180664, -2.7654259204864501953, 0.9942837953567504883, 0.5649797320365905762, -2.8649666309356689453, -0.3622989058494567871, -0.4376372098922729492, -0.9320330619812011719, 3.4529685974121093750, 1.2974792718887329102, -7.2879600524902343750, 1.2304120063781738281, -1.3179900646209716797, 0.5697697401046752930, 1.4515864849090576172, -1.1506150960922241211, -2.7473764419555664062, -1.8878020048141479492, 0.9438674449920654297, 0.6706770658493041992, 1.0895806550979614258, -1.4549185037612915039, -3.3588049411773681641, -0.9245569705963134766, 1.7282061576843261719, 0.4364389479160308838, 1.3586691617965698242, -1.3422086238861083984, -2.9430096149444580078, -1.2634139060974121094, 1.5270529985427856445, -0.1687406301498413086, 1.8355221748352050781, -0.9998407959938049316, -2.6034026145935058594, -2.0271153450012207031, 0.7202221751213073730, 0.5991325378417968750, 1.2357689142227172852, -1.3163856267929077148, -2.9761104583740234375, -1.1090160608291625977, 1.3439698219299316406, -3.4556405544281005859, -0.5721755027770996094, 0.7763142585754394531, -2.1740677356719970703, -0.7099229097366333008, 0.6674981117248535156, 0.1375127285718917847, 1.4556174278259277344, -0.9504699110984802246, -2.4628016948699951172, -1.7101613283157348633, 0.7988755702972412109, 1.4869953393936157227, 2.6930088996887207031, -0.6856513619422912598, -3.4800586700439453125, -2.9363009929656982422, -1.0499501228332519531, 1.9777451753616333008, -5.1779150962829589844, -0.3062754273414611816, 8.4538822174072265625, 1.4141583442687988281, 1.9491918087005615234, 2.1673114299774169922, 0.0966891199350357056, -1.0951688289642333984, -3.2720766067504882812, -3.0128283500671386719, 0.8609759807586669922, 1.7922451496124267578, -4.8188643455505371094, -0.2276815325021743774, 8.1175384521484375000, 1.3565617799758911133, 1.8285695314407348633, 0.5774131417274475098, 1.1425803899765014648, -1.3763271570205688477, -3.1465754508972167969, -1.7580121755599975586, 1.0929850339889526367, 0.6183276772499084473, 1.4365613460540771484, -1.4118059873580932617, -3.0680701732635498047, -2.0403697490692138672, 0.9157601594924926758, 0.5512168407440185547, 1.3748039007186889648, -1.3336904048919677734, -3.1238079071044921875, -1.5467075109481811523, 1.1911778450012207031, 0.5491045713424682617, 1.6268038749694824219, -1.2939178943634033203, -2.9100878238677978516, -1.6480456590652465820, 0.8131213784217834473, 0.4135943353176116943, 1.2836910486221313477, -1.2774283885955810547, -2.9744286537170410156, -1.8325662612915039062, 1.0694172382354736328, 0.2453365474939346313, 1.4210611581802368164, -1.0940158367156982422, -2.4380857944488525391, -1.3032668828964233398, 1.6691551208496093750, 1.8644208908081054688, -4.3756771087646484375, -0.2729108631610870361, 1.8580749034881591797, 0.9085661768913269043, 3.6844003200531005859, 0.4143969416618347168, 1.0617880821228027344, -1.3886598348617553711, -3.1507453918457031250, -1.8452563285827636719, 1.0667835474014282227, 0.5854371786117553711, 1.4060426950454711914, -1.1787580251693725586, -2.9914474487304687500, -1.1110092401504516602, 1.2485712766647338867, 0.5763918161392211914, 1.0894693136215209961, -1.4045048952102661133, -3.1909713745117187500, -1.3982025384902954102, 1.4010481834411621094, 1.6733124256134033203, -5.0328283309936523438, -0.3078594803810119629, 7.9884057044982910156, 1.4362287521362304688, 2.0485208034515380859, 3.2024803161621093750, -5.1626024246215820312, -0.2887477874755859375, 8.5657243728637695312, 0.0650253295898437500, 1.6817208528518676758, 2.5963039398193359375, -4.7439823150634765625, -0.2981138229370117188, 8.5454158782958984375, 0.8485254645347595215, 2.1070499420166015625, 1.9429367780685424805, -1.0034524202346801758, -0.7041417956352233887, -2.0978264808654785156, -2.3819396495819091797, 1.7534688711166381836, 0.5981892943382263184, 1.4140837192535400391, -1.0970346927642822266, -2.6779258251190185547, -1.9764260053634643555, 0.8110885024070739746, 2.1788711547851562500, 1.1557005643844604492, -0.9047780632972717285, -2.7862629890441894531, -4.2452912330627441406, -0.8020908236503601074, 0.3911284506320953369, 1.6106660366058349609, -1.2508591413497924805, -2.8506038188934326172, -1.9956326484680175781, 0.8846383094787597656, 2.1795196533203125000, 1.5202138423919677734, -0.8881363272666931152, -2.4615681171417236328, -3.3704373836517333984, -0.1259717494249343872, -0.2501984536647796631, 1.7263935804367065430, -0.9859942793846130371, -2.5760359764099121094, -1.9609587192535400391, 0.6890812516212463379, 0.6238473653793334961, 0.9828155636787414551, -1.3150944709777832031, -2.9774363040924072266, -0.9443868994712829590, 1.6074972152709960938, 0.4113715589046478271, 1.5666095018386840820, -1.2941892147064208984, -2.8710248470306396484, -1.8418499231338500977, 1.1474314928054809570, 0.4083566069602966309, 1.2834986448287963867, -1.4089093208312988281, -3.2244539260864257812, -1.6918174028396606445, 1.1068720817565917969, 1.5861867666244506836, 1.5288872718811035156, -0.6225083470344543457, -4.0602340698242187500, 1.3853648900985717773, 1.2292703390121459961, -2.4543690681457519531, 4.1531400680541992188, 0.0861551314592361450, -3.3318064212799072266, 1.0239890813827514648, -1.4714281558990478516, -0.1291227936744689941, 2.2977991104125976562, 0.8393763303756713867, -5.3190946578979492188, 1.5479139089584350586, 0.1886373162269592285, 2.0078113079071044922, -4.7039880752563476562, -0.2959065437316894531, 9.2190580368041992188, 1.0834188461303710938, 2.0384669303894042969, 0.9106703400611877441, -0.0729858130216598511, -0.0437971204519271851, -0.3061920702457427979, -4.8077917098999023438, -1.6450909376144409180, 0.6172828078269958496, 1.1776624917984008789, -1.3444763422012329102, -3.0639870166778564453, -1.5473889112472534180, 1.1370872259140014648, -1.2248352766036987305, 3.3882732391357421875, 1.4522600173950195312, -7.9463949203491210938, 1.2670391798019409180, -1.2469096183776855469, -0.7584269642829895020, 0.4804130494594573975, 0.7992883920669555664, -3.8890798091888427734, 0.5793936252593994141, 0.1307595372200012207, 0.5588551163673400879, 1.4132007360458374023, -1.3333005905151367188, -2.9383494853973388672, -1.6186076402664184570, 1.1328635215759277344, 1.0284737348556518555, 0.1700896769762039185, -1.2840024232864379883, -2.9836809635162353516, -1.6023472547531127930, 1.6158378124237060547, 2.3294982910156250000, 0.9307869672775268555, -0.7782593965530395508, -3.6921818256378173828, -1.7637733221054077148, 1.7016506195068359375, -0.2617669701576232910, 3.5912616252899169922, 1.0999292135238647461, -6.5368604660034179688, 2.0663650035858154297, -0.8585926294326782227, 0.7117915749549865723, 1.1829226016998291016, -0.4220938682556152344, -3.9607713222503662109, -0.3885097801685333252, 0.6741778254508972168, -2.4972665309906005859, 3.3411269187927246094, 0.1426366716623306274, -1.8550553321838378906, -1.3492404222488403320, -1.7435327768325805664, 1.7889339923858642578, -4.9437494277954101562, -0.2965970933437347412, 8.5536947250366210938, 1.1669751405715942383, 1.9651477336883544922, 0.5283358693122863770, 1.2109895944595336914, -1.2003557682037353516, -2.8562824726104736328, -1.4813252687454223633, 1.0955593585968017578, 1.3672993183135986328, -3.8308522701263427734, -0.3056920170783996582, 3.3344793319702148438, 1.7511942386627197266, 3.9876170158386230469, 2.2990729808807373047, -2.2159352302551269531, -1.0044176578521728516, -2.4208385944366455078, -1.8652281761169433594, 2.4691011905670166016, 0.0401135310530662537, 1.3738130331039428711, -1.0052783489227294922, -2.5691928863525390625, -1.6842243671417236328, 0.9938008785247802734, 0.5283728241920471191, 1.2097424268722534180, -1.3072068691253662109, -2.9327902793884277344, -1.1153527498245239258, 1.2983889579772949219, 1.6558064222335815430, -4.1154980659484863281, -0.2693431377410888672, 10.2784948348999023438, -0.7490922212600708008, 1.7703568935394287109, 0.4132934510707855225, 1.2586412429809570312, -1.4038335084915161133, -3.2161145210266113281, -1.6445496082305908203, 1.1010915040969848633, 2.1488864421844482422, -5.1242437362670898438, -0.3286052346229553223, 9.6889610290527343750, 1.5676562786102294922, 1.2082781791687011719, -1.3190892934799194336, 0.5945672988891601562, -0.0664733052253723145, -1.3922595977783203125, -2.5723552703857421875, -0.1077683120965957642, 0.6184755563735961914, 1.1807254552841186523, -1.2015534639358520508, -2.8763313293457031250, -1.1796880960464477539, 1.2165583372116088867, -1.5588034391403198242, 6.1971945762634277344, 1.4457828998565673828, -4.3799400329589843750, 3.6496348381042480469, -2.1084218025207519531, 0.5703299045562744141, 1.4655582904815673828, -1.2179189920425415039, -2.9410717487335205078, -1.9656944274902343750, 1.0583597421646118164, 0.1953818351030349731, 1.4409824609756469727, -1.0941870212554931641, -2.6565859317779541016, -2.0444698333740234375, 0.9610399007797241211, -0.7388910055160522461, 2.3303384780883789062, 0.8336701989173889160, -3.2976045608520507812, 0.4652674794197082520, -0.6180310845375061035, -1.6212627887725830078, -0.3091827332973480225, 0.2078566551208496094, -3.9770553112030029297, -3.7417225837707519531, -2.5280306339263916016, 1.7102050781250000000, -5.0266084671020507812, -0.3656807243824005127, 9.9611768722534179688, 0.3361943364143371582, 2.3517377376556396484, 0.2930019497871398926, 1.3294485807418823242, -0.8949689865112304688, -2.4292542934417724609, -1.5885190963745117188, 1.0529299974441528320, -1.0887521505355834961, 3.6917552947998046875, 0.9277088046073913574, -4.4245352745056152344, 0.3714023232460021973, -1.3929361104965209961, 1.3905658721923828125, -4.7227468490600585938, -0.3266769945621490479, 9.0120668411254882812, 1.8263124227523803711, 2.6339170932769775391, 1.6539977788925170898, -0.2696744203567504883, -0.7211232781410217285, -4.5428695678710937500, 0.4967034757137298584, 1.5029568672180175781, 0.0658334642648696899, 1.6693191528320312500, -0.9049035906791687012, -2.3702225685119628906, -2.0090014934539794922, 1.0807290077209472656, 2.9676692485809326172, -1.6807641983032226562, -1.0816104412078857422, -2.8580400943756103516, -2.8872523307800292969, 1.4803725481033325195, 1.8558101654052734375, 2.0911319255828857422, -0.7980793118476867676, -2.2665085792541503906, -3.5785202980041503906, 0.0868797451257705688, 0.9188987016677856445, -4.4082293510437011719, -0.2580670714378356934, 8.6319093704223632812, 2.2922656536102294922, 2.7794775962829589844, 0.4773978292942047119, 1.1691268682479858398, -1.4219115972518920898, -3.1814069747924804688, -1.6861004829406738281, 0.9425101280212402344, 0.5005073547363281250, 0.7527388930320739746, -1.5374349355697631836, -3.3351979255676269531, -1.7936086654663085938, 1.1143064498901367188};
#endif

#endif
