//Numpy array shape [3, 3, 32, 32]
//Min -0.250000000000
//Max 0.250000000000
//Number of zeros 1868

#ifndef W52_H_
#define W52_H_

#ifndef __SYNTHESIS__
weight52_t w52[9216];
#else
weight52_t w52[9216] = {-0.03125, -0.09375, 0.00000, 0.09375, 0.00000, -0.03125, -0.03125, 0.06250, -0.03125, 0.06250, -0.09375, -0.03125, 0.06250, -0.03125, 0.06250, -0.03125, 0.03125, -0.09375, -0.12500, 0.03125, -0.06250, 0.06250, 0.00000, 0.06250, -0.03125, -0.06250, -0.03125, 0.12500, 0.00000, -0.03125, -0.03125, -0.06250, 0.03125, -0.03125, 0.03125, 0.15625, 0.03125, 0.03125, 0.09375, 0.00000, 0.06250, -0.03125, -0.06250, -0.15625, -0.06250, -0.03125, -0.09375, -0.06250, -0.03125, 0.03125, 0.00000, 0.09375, 0.00000, 0.06250, 0.06250, 0.03125, -0.03125, 0.06250, 0.00000, -0.09375, 0.00000, -0.03125, 0.00000, -0.03125, 0.03125, -0.03125, -0.03125, -0.06250, -0.12500, -0.03125, 0.03125, -0.06250, 0.00000, 0.03125, -0.06250, 0.09375, 0.03125, -0.03125, -0.03125, -0.06250, -0.03125, 0.06250, -0.06250, 0.06250, 0.00000, 0.00000, -0.06250, 0.00000, -0.03125, -0.03125, 0.03125, 0.09375, 0.06250, 0.06250, -0.09375, -0.03125, -0.03125, 0.03125, 0.00000, 0.00000, 0.03125, 0.00000, 0.09375, 0.09375, 0.06250, 0.03125, -0.06250, 0.00000, 0.00000, -0.06250, -0.15625, 0.00000, -0.03125, -0.06250, 0.00000, 0.12500, 0.00000, -0.03125, -0.03125, 0.06250, -0.03125, 0.00000, 0.00000, -0.06250, -0.03125, 0.03125, -0.03125, -0.09375, 0.00000, 0.09375, 0.03125, -0.06250, -0.06250, 0.00000, 0.00000, 0.00000, -0.15625, -0.03125, 0.00000, 0.09375, -0.03125, 0.03125, 0.09375, 0.03125, 0.00000, 0.03125, 0.03125, 0.00000, 0.03125, -0.06250, -0.03125, -0.03125, 0.00000, 0.03125, 0.06250, -0.21875, -0.09375, 0.03125, -0.09375, -0.03125, 0.03125, -0.03125, -0.09375, 0.09375, 0.09375, 0.06250, 0.00000, 0.00000, 0.06250, 0.00000, 0.00000, -0.06250, -0.12500, -0.03125, -0.03125, 0.00000, -0.03125, -0.03125, 0.03125, -0.06250, 0.03125, 0.06250, -0.06250, 0.03125, -0.06250, -0.03125, 0.00000, 0.03125, -0.06250, 0.00000, 0.06250, -0.03125, -0.06250, 0.09375, 0.03125, -0.03125, 0.03125, -0.09375, 0.00000, 0.00000, -0.03125, 0.03125, 0.03125, -0.03125, 0.09375, 0.06250, -0.03125, -0.03125, -0.06250, -0.03125, 0.03125, 0.00000, 0.09375, 0.06250, -0.09375, -0.03125, -0.06250, 0.00000, -0.09375, -0.03125, -0.12500, -0.03125, -0.09375, 0.00000, -0.03125, -0.06250, 0.00000, 0.00000, -0.09375, -0.09375, -0.12500, 0.00000, 0.09375, -0.03125, -0.03125, -0.15625, -0.09375, 0.09375, -0.03125, -0.15625, -0.09375, 0.06250, -0.06250, 0.03125, 0.00000, -0.06250, -0.12500, 0.00000, -0.03125, -0.03125, 0.03125, -0.06250, 0.00000, 0.06250, -0.03125, -0.06250, 0.06250, -0.06250, 0.00000, 0.06250, 0.12500, 0.03125, 0.00000, 0.00000, -0.03125, -0.03125, 0.03125, -0.09375, 0.03125, 0.03125, 0.03125, 0.00000, 0.03125, 0.06250, -0.12500, 0.09375, 0.00000, 0.00000, -0.06250, 0.06250, 0.06250, 0.06250, 0.09375, -0.09375, 0.03125, -0.06250, 0.03125, -0.09375, -0.12500, -0.06250, 0.03125, 0.03125, 0.03125, 0.03125, -0.03125, -0.03125, -0.03125, 0.00000, -0.03125, 0.03125, 0.06250, 0.00000, 0.00000, 0.00000, 0.03125, 0.09375, 0.00000, -0.06250, 0.15625, -0.15625, 0.00000, 0.03125, 0.00000, -0.03125, 0.03125, -0.03125, -0.03125, -0.06250, 0.03125, 0.06250, 0.00000, 0.03125, 0.03125, 0.06250, -0.09375, -0.12500, -0.06250, -0.06250, 0.09375, 0.03125, -0.03125, 0.06250, 0.06250, 0.06250, -0.03125, 0.03125, 0.00000, 0.03125, 0.06250, 0.03125, 0.03125, 0.09375, -0.06250, -0.06250, 0.03125, -0.15625, -0.03125, 0.03125, 0.00000, 0.09375, -0.03125, 0.03125, 0.00000, -0.09375, -0.03125, 0.03125, 0.00000, -0.03125, -0.09375, -0.09375, -0.09375, 0.03125, 0.03125, 0.06250, 0.00000, -0.12500, 0.00000, 0.03125, -0.06250, 0.09375, -0.03125, 0.06250, -0.06250, 0.09375, 0.06250, 0.00000, 0.00000, 0.00000, -0.06250, -0.09375, -0.03125, 0.06250, -0.06250, 0.06250, -0.06250, 0.06250, 0.00000, 0.00000, 0.03125, 0.06250, -0.03125, -0.03125, -0.06250, 0.09375, -0.06250, 0.00000, -0.06250, 0.03125, 0.00000, 0.03125, -0.03125, 0.00000, -0.03125, -0.06250, 0.00000, 0.06250, 0.06250, 0.00000, 0.03125, 0.06250, -0.06250, 0.03125, 0.00000, 0.09375, -0.03125, 0.00000, -0.03125, -0.03125, 0.03125, -0.15625, -0.09375, 0.12500, -0.06250, 0.00000, -0.06250, 0.06250, -0.06250, -0.06250, 0.03125, 0.03125, 0.00000, 0.03125, -0.03125, 0.09375, 0.09375, -0.03125, 0.00000, -0.03125, 0.06250, -0.03125, -0.06250, 0.03125, -0.03125, -0.03125, 0.03125, 0.06250, 0.00000, 0.03125, 0.03125, 0.00000, 0.03125, -0.15625, -0.06250, 0.06250, -0.03125, 0.03125, -0.03125, -0.03125, -0.03125, -0.12500, -0.06250, 0.09375, -0.06250, -0.03125, 0.03125, 0.03125, 0.06250, 0.03125, -0.03125, 0.00000, -0.03125, 0.03125, -0.06250, -0.03125, 0.00000, 0.09375, -0.06250, -0.03125, -0.03125, 0.09375, 0.03125, 0.12500, -0.06250, 0.03125, -0.09375, -0.09375, -0.12500, -0.03125, 0.06250, -0.09375, -0.03125, 0.00000, -0.12500, -0.03125, -0.03125, -0.06250, 0.00000, -0.03125, 0.12500, 0.06250, 0.03125, -0.06250, 0.09375, 0.00000, 0.00000, 0.12500, -0.03125, 0.00000, 0.12500, -0.09375, 0.03125, 0.06250, 0.03125, 0.09375, -0.09375, -0.03125, -0.03125, 0.03125, -0.12500, -0.09375, 0.03125, 0.03125, -0.06250, 0.00000, 0.00000, -0.03125, 0.06250, 0.09375, 0.06250, 0.00000, 0.00000, 0.03125, -0.15625, 0.03125, -0.06250, 0.03125, 0.00000, -0.06250, -0.09375, 0.03125, 0.03125, 0.00000, -0.03125, -0.06250, -0.03125, -0.06250, -0.03125, 0.00000, 0.03125, 0.03125, 0.00000, 0.06250, -0.09375, 0.00000, -0.03125, 0.03125, -0.06250, 0.09375, 0.03125, -0.03125, -0.06250, -0.03125, -0.06250, -0.03125, 0.00000, -0.12500, 0.03125, 0.06250, -0.03125, 0.03125, 0.03125, 0.03125, 0.15625, -0.06250, -0.03125, 0.03125, 0.00000, -0.03125, 0.00000, 0.03125, 0.00000, -0.03125, 0.12500, 0.00000, 0.00000, -0.06250, -0.06250, 0.03125, -0.06250, 0.00000, -0.03125, -0.06250, 0.03125, 0.06250, 0.00000, 0.00000, 0.03125, 0.00000, 0.09375, 0.09375, 0.00000, 0.06250, 0.00000, -0.03125, -0.03125, 0.09375, -0.03125, -0.03125, 0.03125, 0.06250, 0.00000, 0.06250, -0.03125, 0.00000, 0.15625, 0.09375, -0.03125, 0.09375, -0.09375, 0.00000, -0.12500, 0.09375, 0.06250, 0.03125, 0.00000, -0.12500, 0.00000, 0.03125, 0.15625, 0.03125, -0.03125, 0.00000, -0.06250, 0.00000, 0.03125, 0.15625, -0.06250, 0.09375, 0.00000, -0.06250, 0.03125, 0.00000, 0.09375, 0.03125, 0.03125, -0.03125, 0.06250, 0.06250, -0.12500, -0.06250, 0.03125, -0.06250, 0.09375, -0.06250, 0.09375, 0.06250, 0.00000, 0.03125, 0.00000, 0.06250, 0.09375, 0.03125, 0.00000, -0.03125, 0.06250, 0.03125, -0.03125, 0.03125, -0.03125, 0.03125, 0.12500, 0.00000, 0.03125, -0.06250, 0.03125, -0.03125, -0.03125, -0.03125, 0.09375, 0.06250, -0.09375, -0.06250, 0.00000, 0.03125, 0.09375, 0.03125, -0.03125, -0.06250, 0.03125, -0.15625, 0.00000, -0.06250, 0.09375, -0.03125, 0.03125, -0.06250, 0.03125, 0.00000, -0.06250, -0.09375, -0.09375, 0.03125, 0.00000, 0.00000, 0.12500, 0.00000, 0.09375, 0.09375, -0.03125, -0.03125, 0.12500, -0.06250, 0.00000, 0.09375, 0.15625, 0.06250, 0.06250, 0.06250, 0.03125, 0.00000, 0.09375, 0.00000, 0.03125, -0.12500, 0.03125, 0.00000, 0.00000, 0.00000, 0.00000, 0.03125, -0.03125, 0.09375, 0.06250, -0.03125, 0.03125, 0.03125, -0.03125, 0.00000, -0.06250, -0.03125, 0.03125, 0.00000, 0.12500, 0.00000, 0.03125, 0.03125, 0.06250, 0.00000, 0.00000, -0.09375, 0.00000, 0.15625, 0.00000, 0.09375, -0.03125, 0.03125, 0.09375, 0.12500, -0.03125, -0.03125, -0.03125, 0.03125, 0.03125, -0.06250, 0.03125, 0.03125, 0.00000, 0.00000, 0.00000, 0.00000, 0.00000, 0.00000, 0.00000, -0.06250, 0.03125, 0.09375, -0.06250, -0.09375, -0.03125, 0.09375, 0.03125, 0.09375, 0.09375, 0.09375, 0.03125, 0.06250, -0.09375, 0.03125, 0.09375, -0.03125, 0.03125, -0.03125, -0.06250, 0.00000, 0.06250, 0.03125, 0.06250, 0.00000, 0.06250, 0.00000, -0.03125, -0.06250, 0.03125, 0.12500, -0.03125, -0.06250, 0.03125, -0.09375, -0.03125, -0.03125, 0.00000, 0.00000, 0.06250, 0.03125, 0.00000, -0.12500, 0.06250, -0.15625, -0.06250, 0.00000, -0.09375, 0.00000, 0.00000, 0.00000, -0.03125, 0.09375, -0.09375, -0.09375, 0.06250, -0.06250, 0.00000, -0.03125, 0.09375, -0.03125, -0.09375, 0.03125, 0.09375, 0.03125, 0.03125, 0.09375, -0.03125, 0.03125, 0.03125, 0.00000, -0.06250, 0.03125, 0.03125, -0.03125, -0.03125, -0.03125, 0.00000, 0.06250, 0.00000, 0.12500, 0.06250, -0.03125, 0.03125, -0.06250, 0.00000, 0.00000, -0.09375, -0.18750, 0.03125, 0.06250, 0.06250, 0.03125, 0.06250, 0.12500, 0.06250, 0.09375, 0.03125, 0.00000, -0.06250, -0.06250, -0.06250, -0.06250, -0.09375, 0.03125, 0.00000, 0.00000, 0.03125, 0.00000, 0.06250, 0.09375, -0.06250, 0.09375, 0.00000, 0.00000, -0.06250, 0.03125, -0.06250, 0.06250, -0.09375, 0.03125, 0.03125, 0.03125, 0.00000, 0.09375, -0.06250, -0.12500, 0.03125, 0.03125, -0.03125, -0.09375, -0.03125, 0.00000, 0.06250, 0.03125, 0.06250, 0.03125, 0.03125, 0.00000, -0.03125, 0.00000, 0.00000, 0.03125, 0.06250, 0.03125, -0.03125, -0.21875, -0.03125, -0.06250, -0.06250, 0.00000, 0.15625, 0.06250, 0.00000, 0.00000, 0.00000, -0.09375, -0.12500, 0.12500, 0.00000, 0.03125, 0.09375, -0.03125, -0.03125, -0.03125, -0.03125, 0.03125, 0.00000, 0.00000, -0.03125, 0.00000, 0.00000, 0.03125, 0.12500, 0.00000, -0.06250, -0.03125, -0.12500, 0.06250, 0.03125, 0.03125, 0.03125, 0.18750, 0.00000, 0.09375, 0.06250, 0.00000, -0.06250, 0.03125, -0.03125, -0.03125, 0.00000, 0.03125, -0.03125, -0.06250, -0.06250, -0.09375, -0.09375, 0.09375, 0.00000, 0.00000, 0.06250, -0.06250, 0.03125, -0.03125, 0.00000, 0.06250, 0.00000, -0.06250, 0.03125, 0.03125, 0.03125, -0.03125, -0.06250, -0.03125, -0.06250, 0.06250, -0.03125, 0.00000, 0.06250, 0.06250, -0.06250, 0.00000, 0.06250, -0.09375, -0.03125, 0.03125, -0.03125, -0.09375, 0.00000, 0.06250, 0.00000, 0.03125, 0.12500, 0.03125, 0.00000, 0.03125, 0.00000, 0.06250, -0.09375, -0.12500, -0.03125, 0.06250, 0.06250, 0.03125, 0.03125, 0.00000, -0.09375, 0.00000, 0.00000, 0.03125, 0.03125, 0.00000, 0.03125, 0.00000, -0.09375, -0.03125, -0.09375, 0.03125, 0.03125, -0.09375, -0.03125, -0.09375, 0.00000, 0.00000, 0.03125, 0.00000, 0.06250, 0.00000, 0.00000, 0.03125, 0.09375, 0.03125, 0.00000, 0.03125, 0.00000, 0.06250, -0.09375, 0.06250, 0.00000, 0.00000, 0.00000, 0.09375, 0.03125, 0.03125, 0.03125, -0.06250, -0.06250, 0.03125, 0.03125, -0.06250, 0.03125, 0.09375, -0.06250, 0.06250, 0.12500, 0.03125, 0.00000, -0.03125, -0.06250, -0.06250, 0.00000, -0.03125, 0.00000, -0.03125, 0.00000, 0.03125, 0.00000, -0.12500, 0.09375, 0.06250, -0.06250, -0.06250, -0.03125, 0.06250, 0.06250, 0.00000, 0.00000, -0.03125, 0.03125, 0.15625, -0.03125, 0.09375, 0.06250, -0.06250, -0.03125, 0.03125, 0.03125, 0.03125, -0.03125, 0.12500, 0.03125, 0.00000, -0.09375, 0.03125, -0.03125, 0.00000, -0.06250, 0.00000, 0.00000, 0.00000, -0.06250, -0.15625, -0.06250, 0.06250, 0.06250, 0.09375, 0.00000, -0.03125, 0.00000, -0.03125, 0.03125, -0.06250, 0.03125, 0.03125, 0.00000, 0.03125, 0.06250, 0.12500, -0.03125, 0.09375, -0.06250, -0.03125, -0.06250, 0.06250, 0.00000, 0.03125, -0.06250, 0.06250, 0.15625, 0.12500, 0.00000, 0.00000, -0.09375, 0.09375, 0.03125, -0.06250, 0.06250, 0.09375, 0.06250, -0.03125, 0.03125, 0.00000, -0.03125, 0.03125, -0.06250, 0.03125, 0.06250, -0.03125, -0.03125, 0.06250, 0.00000, 0.12500, -0.03125, 0.06250, 0.00000, 0.00000, -0.06250, -0.06250, 0.06250, 0.09375, 0.00000, -0.06250, 0.09375, -0.03125, 0.00000, 0.03125, 0.00000, -0.03125, 0.03125, -0.06250, 0.00000, 0.00000, -0.12500, 0.03125, -0.03125, 0.00000, -0.06250, -0.06250, 0.03125, -0.06250, 0.06250, 0.00000, 0.00000, 0.03125, 0.06250, 0.06250, 0.00000, 0.03125, -0.09375, -0.06250, -0.03125, 0.12500, 0.03125, 0.00000, 0.03125, 0.00000, 0.09375, 0.03125, -0.03125, -0.12500, 0.03125, 0.06250, -0.06250, 0.03125, 0.09375, 0.03125, -0.06250, -0.06250, 0.00000, -0.09375, -0.03125, 0.03125, -0.03125, -0.03125, -0.09375, 0.03125, 0.03125, -0.03125, -0.06250, 0.09375, 0.06250, 0.00000, -0.03125, 0.06250, -0.06250, -0.06250, -0.03125, 0.00000, -0.03125, 0.09375, 0.00000, 0.00000, 0.00000, 0.00000, 0.06250, 0.12500, 0.06250, 0.00000, 0.03125, 0.00000, -0.06250, -0.03125, 0.15625, -0.06250, -0.03125, -0.03125, 0.00000, -0.06250, 0.03125, 0.09375, 0.09375, 0.03125, -0.12500, 0.03125, 0.03125, 0.03125, 0.06250, -0.06250, -0.03125, 0.09375, 0.00000, 0.00000, 0.15625, 0.00000, -0.03125, 0.00000, 0.00000, 0.03125, -0.03125, -0.09375, -0.09375, 0.00000, -0.06250, 0.09375, 0.00000, -0.06250, 0.03125, 0.03125, 0.06250, -0.09375, 0.03125, 0.06250, -0.06250, -0.06250, 0.06250, -0.03125, -0.03125, 0.06250, -0.09375, 0.06250, -0.06250, 0.03125, 0.03125, 0.06250, -0.06250, 0.12500, -0.03125, 0.06250, 0.06250, -0.03125, -0.06250, -0.03125, -0.09375, -0.09375, -0.09375, -0.15625, 0.00000, -0.09375, 0.06250, -0.06250, -0.06250, -0.09375, 0.03125, 0.03125, -0.09375, -0.06250, -0.03125, -0.12500, -0.06250, -0.03125, -0.03125, -0.06250, 0.00000, -0.03125, -0.03125, 0.09375, -0.06250, 0.03125, -0.03125, 0.09375, -0.03125, -0.03125, -0.12500, 0.09375, 0.03125, 0.03125, 0.06250, 0.03125, -0.06250, 0.09375, 0.06250, 0.09375, 0.03125, 0.00000, 0.09375, 0.09375, -0.06250, 0.06250, -0.06250, 0.06250, -0.03125, -0.06250, 0.03125, 0.06250, 0.00000, 0.00000, 0.00000, -0.06250, 0.06250, 0.06250, -0.03125, -0.06250, -0.06250, -0.09375, 0.03125, -0.03125, -0.03125, 0.03125, 0.03125, -0.12500, -0.12500, -0.03125, 0.00000, 0.00000, 0.03125, 0.06250, 0.03125, -0.03125, 0.09375, -0.06250, 0.00000, -0.06250, -0.03125, -0.09375, 0.03125, 0.09375, -0.06250, 0.09375, 0.00000, -0.03125, -0.12500, 0.06250, -0.03125, -0.03125, 0.06250, 0.09375, -0.09375, -0.03125, -0.03125, 0.03125, -0.09375, 0.03125, -0.03125, 0.06250, 0.06250, 0.00000, 0.00000, 0.03125, 0.03125, -0.09375, 0.06250, -0.03125, -0.06250, 0.00000, 0.03125, -0.06250, 0.00000, -0.03125, 0.00000, 0.00000, 0.03125, -0.03125, -0.09375, 0.00000, -0.09375, 0.09375, 0.00000, -0.09375, -0.06250, 0.03125, -0.12500, -0.03125, -0.09375, 0.00000, -0.03125, 0.06250, 0.03125, 0.03125, -0.03125, 0.06250, -0.03125, 0.06250, -0.03125, 0.06250, -0.03125, 0.00000, -0.03125, -0.12500, -0.09375, -0.03125, -0.03125, 0.03125, -0.06250, -0.06250, -0.03125, 0.00000, 0.06250, 0.00000, -0.03125, -0.06250, -0.09375, 0.06250, -0.06250, -0.03125, -0.03125, 0.00000, 0.06250, 0.00000, 0.09375, -0.03125, -0.06250, 0.00000, 0.00000, 0.06250, 0.09375, 0.03125, -0.06250, 0.09375, -0.06250, -0.06250, 0.03125, 0.00000, 0.06250, -0.03125, 0.09375, 0.06250, 0.03125, 0.00000, 0.06250, -0.03125, 0.03125, -0.03125, 0.06250, -0.12500, 0.03125, 0.03125, 0.00000, 0.00000, 0.03125, 0.00000, 0.06250, 0.06250, 0.03125, -0.03125, 0.03125, 0.09375, -0.03125, 0.03125, 0.06250, -0.12500, 0.06250, 0.09375, 0.03125, 0.06250, -0.12500, 0.03125, -0.06250, -0.03125, 0.03125, -0.09375, 0.03125, 0.03125, -0.06250, 0.00000, -0.06250, -0.06250, -0.09375, 0.03125, 0.03125, -0.18750, 0.00000, -0.03125, -0.03125, 0.03125, 0.09375, -0.03125, -0.09375, 0.03125, 0.00000, 0.00000, 0.03125, 0.00000, -0.06250, 0.00000, -0.03125, 0.03125, -0.06250, 0.00000, 0.15625, 0.09375, 0.00000, 0.12500, -0.09375, -0.03125, 0.18750, -0.03125, -0.09375, 0.03125, 0.09375, 0.00000, -0.06250, -0.03125, 0.03125, 0.15625, 0.06250, 0.06250, 0.12500, -0.06250, -0.03125, 0.03125, -0.06250, 0.06250, 0.06250, 0.06250, 0.00000, 0.06250, -0.03125, 0.00000, -0.06250, 0.00000, 0.00000, 0.03125, -0.06250, 0.06250, -0.03125, -0.03125, -0.09375, 0.03125, -0.03125, -0.03125, -0.06250, -0.03125, 0.03125, 0.00000, 0.12500, -0.06250, 0.00000, 0.00000, 0.03125, -0.12500, 0.12500, 0.09375, -0.09375, 0.03125, -0.06250, 0.00000, 0.00000, -0.15625, 0.00000, -0.09375, 0.03125, 0.00000, -0.03125, 0.03125, -0.06250, -0.03125, -0.06250, 0.09375, 0.03125, 0.12500, 0.09375, -0.15625, 0.03125, 0.00000, -0.06250, -0.03125, -0.09375, -0.06250, 0.12500, -0.03125, 0.03125, 0.00000, -0.12500, 0.03125, 0.00000, -0.06250, -0.06250, 0.00000, -0.03125, -0.03125, 0.03125, -0.03125, 0.06250, -0.06250, 0.00000, 0.06250, 0.03125, -0.09375, 0.03125, 0.03125, 0.00000, -0.06250, 0.03125, 0.00000, 0.06250, -0.06250, -0.09375, -0.06250, 0.09375, 0.00000, 0.06250, 0.00000, 0.03125, 0.03125, 0.09375, 0.06250, -0.03125, 0.09375, 0.03125, -0.12500, 0.00000, 0.00000, 0.12500, -0.12500, 0.00000, -0.09375, -0.03125, 0.03125, 0.00000, 0.00000, 0.03125, -0.06250, -0.03125, -0.03125, 0.00000, -0.06250, 0.03125, 0.00000, 0.00000, 0.03125, 0.03125, -0.03125, 0.00000, 0.00000, 0.00000, 0.09375, 0.00000, 0.09375, 0.09375, -0.03125, 0.03125, -0.06250, -0.03125, 0.00000, 0.09375, 0.03125, 0.00000, 0.00000, 0.00000, 0.00000, -0.09375, -0.06250, 0.06250, -0.03125, 0.09375, 0.06250, 0.09375, 0.00000, 0.03125, 0.03125, 0.03125, 0.03125, -0.09375, 0.00000, 0.03125, -0.12500, 0.09375, 0.00000, 0.00000, -0.03125, 0.00000, 0.03125, -0.12500, -0.06250, -0.06250, 0.00000, -0.03125, 0.03125, 0.00000, 0.12500, 0.03125, 0.06250, 0.00000, 0.06250, -0.03125, -0.09375, 0.03125, 0.00000, -0.06250, 0.00000, 0.00000, -0.03125, -0.03125, -0.06250, 0.09375, 0.00000, -0.03125, 0.03125, 0.00000, 0.00000, 0.09375, -0.03125, 0.03125, 0.03125, -0.03125, 0.03125, -0.03125, -0.09375, -0.06250, -0.03125, 0.03125, -0.03125, 0.09375, 0.03125, 0.06250, 0.06250, 0.00000, 0.03125, 0.15625, 0.06250, -0.03125, -0.06250, 0.00000, -0.03125, -0.06250, -0.03125, 0.06250, 0.12500, 0.03125, 0.03125, 0.06250, -0.09375, -0.06250, -0.06250, 0.06250, 0.00000, 0.00000, -0.18750, -0.03125, 0.00000, -0.06250, -0.18750, 0.00000, 0.00000, -0.03125, -0.03125, 0.09375, 0.00000, 0.03125, 0.03125, 0.12500, 0.12500, -0.03125, -0.03125, -0.03125, -0.03125, 0.03125, -0.06250, 0.06250, -0.06250, 0.09375, -0.03125, 0.12500, 0.00000, 0.03125, 0.00000, 0.00000, -0.06250, -0.06250, 0.06250, -0.12500, 0.09375, -0.06250, 0.00000, 0.03125, -0.09375, 0.06250, -0.06250, 0.00000, -0.03125, 0.06250, -0.03125, 0.00000, -0.15625, -0.03125, 0.00000, -0.06250, -0.06250, -0.06250, -0.06250, 0.06250, 0.00000, -0.03125, 0.09375, 0.06250, 0.00000, -0.03125, -0.03125, -0.03125, 0.03125, 0.06250, 0.03125, -0.06250, 0.00000, -0.03125, 0.09375, 0.00000, 0.03125, -0.06250, -0.03125, -0.03125, 0.09375, 0.06250, -0.03125, 0.18750, -0.09375, 0.09375, 0.00000, 0.00000, -0.06250, 0.06250, 0.00000, -0.03125, 0.03125, 0.00000, 0.09375, -0.03125, 0.09375, 0.03125, 0.06250, 0.06250, 0.12500, 0.06250, 0.00000, 0.09375, 0.06250, -0.06250, -0.03125, 0.03125, 0.09375, 0.00000, 0.03125, -0.03125, -0.03125, 0.06250, -0.06250, 0.00000, 0.03125, 0.06250, 0.03125, 0.00000, 0.03125, -0.06250, 0.06250, 0.00000, 0.00000, -0.06250, 0.03125, 0.06250, 0.06250, -0.03125, 0.06250, -0.03125, 0.00000, 0.00000, 0.06250, -0.06250, 0.03125, -0.03125, 0.06250, -0.03125, 0.03125, -0.06250, 0.00000, 0.03125, -0.03125, 0.03125, -0.09375, -0.06250, 0.09375, -0.03125, 0.03125, -0.06250, -0.09375, 0.00000, 0.00000, -0.03125, -0.06250, 0.03125, 0.00000, -0.03125, -0.03125, 0.09375, 0.06250, -0.03125, 0.03125, 0.06250, 0.09375, -0.12500, -0.03125, 0.03125, -0.03125, 0.12500, 0.06250, -0.03125, -0.03125, 0.03125, -0.09375, 0.00000, 0.00000, 0.03125, -0.03125, 0.03125, 0.03125, 0.00000, -0.03125, 0.09375, 0.06250, -0.03125, 0.12500, 0.06250, 0.06250, 0.18750, -0.09375, 0.00000, 0.00000, -0.06250, -0.03125, -0.09375, 0.06250, -0.06250, -0.06250, -0.06250, 0.03125, 0.03125, 0.00000, 0.03125, 0.03125, -0.03125, 0.12500, 0.15625, 0.06250, 0.03125, 0.09375, 0.06250, -0.03125, -0.03125, 0.00000, -0.06250, 0.06250, -0.03125, -0.12500, -0.03125, -0.09375, -0.03125, -0.03125, 0.06250, 0.00000, -0.03125, -0.06250, -0.03125, -0.09375, 0.03125, 0.03125, 0.00000, 0.06250, 0.00000, -0.03125, -0.03125, -0.09375, 0.06250, -0.03125, 0.00000, 0.12500, -0.06250, -0.09375, -0.03125, 0.03125, -0.03125, 0.03125, -0.06250, -0.09375, -0.12500, 0.03125, 0.03125, 0.06250, -0.09375, 0.00000, -0.09375, 0.00000, -0.09375, 0.06250, 0.03125, 0.00000, -0.06250, 0.03125, 0.09375, 0.12500, -0.06250, 0.06250, -0.09375, 0.06250, 0.06250, -0.03125, 0.00000, 0.00000, -0.09375, 0.06250, 0.00000, -0.18750, -0.09375, -0.03125, -0.09375, 0.03125, -0.06250, 0.09375, -0.03125, 0.09375, 0.00000, -0.06250, 0.03125, 0.12500, 0.03125, -0.03125, -0.09375, 0.00000, -0.12500, -0.06250, 0.00000, 0.00000, 0.00000, 0.03125, -0.09375, 0.03125, 0.03125, 0.03125, 0.12500, 0.03125, 0.09375, 0.03125, -0.06250, -0.12500, -0.06250, 0.06250, 0.00000, -0.03125, -0.09375, -0.09375, 0.03125, 0.00000, -0.09375, 0.06250, -0.03125, 0.00000, 0.03125, -0.03125, 0.12500, -0.06250, 0.03125, -0.03125, -0.06250, -0.03125, 0.06250, 0.00000, -0.03125, 0.03125, -0.06250, -0.03125, 0.06250, 0.06250, 0.03125, -0.03125, 0.06250, 0.06250, 0.03125, -0.06250, 0.03125, 0.00000, -0.03125, -0.03125, -0.06250, 0.06250, 0.03125, 0.06250, 0.06250, 0.03125, 0.00000, -0.03125, -0.03125, -0.06250, 0.03125, -0.06250, -0.06250, -0.09375, 0.00000, 0.00000, 0.03125, 0.00000, -0.09375, 0.15625, -0.03125, 0.09375, -0.06250, -0.03125, 0.06250, 0.00000, -0.12500, 0.03125, 0.00000, 0.00000, 0.09375, 0.09375, -0.03125, -0.09375, -0.06250, 0.03125, -0.03125, -0.09375, -0.03125, -0.03125, 0.03125, -0.09375, 0.00000, 0.00000, 0.00000, -0.06250, -0.09375, -0.06250, 0.03125, 0.06250, 0.06250, -0.09375, -0.06250, 0.00000, 0.09375, -0.09375, -0.06250, 0.00000, -0.03125, -0.06250, -0.03125, 0.03125, -0.12500, 0.03125, 0.03125, -0.03125, 0.00000, 0.06250, -0.06250, -0.03125, 0.00000, -0.03125, 0.09375, 0.00000, 0.00000, 0.00000, -0.03125, -0.03125, 0.00000, -0.03125, -0.03125, -0.03125, 0.06250, -0.09375, 0.03125, 0.12500, -0.03125, -0.03125, -0.09375, 0.00000, 0.09375, -0.09375, 0.00000, -0.06250, 0.00000, 0.00000, -0.06250, 0.03125, 0.06250, 0.00000, 0.03125, 0.03125, 0.12500, 0.03125, 0.00000, 0.03125, 0.00000, 0.06250, 0.03125, -0.06250, 0.00000, 0.03125, 0.03125, -0.09375, -0.03125, 0.03125, -0.06250, 0.03125, -0.06250, 0.09375, 0.00000, -0.06250, 0.00000, 0.03125, -0.03125, -0.09375, 0.09375, -0.12500, 0.09375, 0.00000, -0.03125, -0.03125, 0.06250, 0.03125, 0.00000, 0.09375, 0.06250, 0.03125, -0.03125, -0.06250, -0.03125, 0.09375, 0.00000, 0.00000, -0.06250, -0.03125, 0.00000, -0.06250, 0.00000, 0.12500, 0.03125, -0.03125, -0.06250, 0.06250, 0.00000, 0.03125, 0.00000, 0.06250, -0.06250, -0.09375, -0.06250, -0.06250, 0.06250, 0.03125, 0.03125, -0.03125, 0.00000, 0.00000, 0.03125, -0.03125, -0.03125, 0.06250, 0.00000, 0.03125, -0.06250, -0.03125, 0.12500, -0.03125, -0.03125, 0.03125, 0.06250, 0.06250, -0.06250, -0.03125, -0.03125, 0.00000, 0.06250, -0.03125, -0.03125, 0.00000, -0.06250, -0.15625, 0.00000, 0.06250, -0.03125, 0.00000, 0.00000, 0.00000, 0.03125, -0.06250, 0.09375, -0.03125, 0.06250, 0.09375, -0.06250, 0.06250, -0.06250, 0.00000, 0.00000, -0.03125, 0.06250, -0.09375, -0.03125, -0.03125, 0.00000, -0.06250, 0.00000, 0.06250, -0.03125, 0.12500, -0.12500, 0.09375, -0.18750, 0.06250, 0.00000, -0.06250, 0.00000, -0.06250, -0.06250, -0.03125, -0.03125, -0.18750, -0.06250, 0.00000, 0.00000, 0.06250, 0.00000, 0.03125, -0.03125, 0.00000, -0.03125, -0.06250, 0.06250, -0.03125, -0.06250, 0.15625, -0.03125, -0.06250, 0.00000, 0.06250, 0.03125, 0.00000, 0.00000, 0.03125, 0.00000, 0.00000, -0.03125, 0.03125, 0.00000, 0.00000, 0.03125, -0.03125, 0.00000, 0.03125, -0.06250, 0.03125, -0.09375, 0.00000, 0.03125, 0.06250, -0.06250, 0.06250, 0.00000, -0.03125, 0.09375, 0.03125, 0.06250, 0.06250, 0.00000, 0.06250, 0.00000, 0.03125, 0.09375, -0.06250, -0.12500, -0.06250, -0.06250, 0.06250, 0.00000, 0.03125, -0.03125, 0.03125, 0.00000, 0.03125, 0.06250, 0.03125, 0.06250, -0.03125, -0.03125, -0.03125, 0.00000, 0.00000, -0.03125, 0.06250, -0.09375, -0.09375, 0.03125, -0.09375, 0.12500, 0.00000, 0.06250, -0.06250, 0.09375, 0.00000, -0.12500, 0.06250, -0.06250, 0.00000, 0.06250, -0.06250, 0.03125, 0.00000, -0.06250, 0.06250, 0.09375, -0.03125, 0.00000, -0.06250, -0.06250, 0.00000, -0.03125, 0.03125, 0.00000, 0.03125, -0.03125, 0.03125, -0.03125, -0.12500, 0.03125, -0.03125, 0.00000, 0.00000, -0.09375, 0.12500, -0.03125, -0.06250, 0.06250, 0.06250, -0.06250, 0.09375, -0.09375, 0.03125, -0.12500, 0.03125, 0.09375, 0.03125, 0.00000, -0.03125, 0.03125, -0.06250, -0.06250, 0.00000, 0.09375, -0.03125, -0.03125, 0.06250, 0.03125, 0.00000, -0.06250, -0.09375, 0.06250, -0.09375, 0.15625, -0.09375, 0.06250, -0.09375, -0.06250, 0.09375, -0.03125, 0.00000, -0.03125, 0.03125, 0.06250, 0.09375, -0.03125, -0.03125, 0.03125, 0.09375, -0.06250, -0.12500, -0.09375, 0.06250, -0.03125, 0.00000, -0.03125, 0.00000, 0.00000, 0.00000, -0.06250, -0.03125, 0.09375, 0.00000, -0.03125, -0.06250, -0.12500, 0.09375, -0.06250, 0.06250, -0.09375, -0.03125, -0.03125, -0.06250, -0.12500, -0.12500, -0.12500, 0.03125, -0.03125, -0.03125, 0.09375, -0.03125, 0.03125, 0.00000, -0.06250, 0.00000, 0.09375, 0.03125, 0.03125, -0.03125, 0.06250, 0.06250, 0.03125, -0.03125, 0.06250, -0.03125, 0.03125, 0.03125, -0.15625, -0.15625, 0.03125, 0.00000, -0.06250, -0.03125, 0.03125, -0.06250, -0.06250, 0.09375, -0.12500, 0.00000, 0.06250, 0.00000, 0.00000, -0.09375, 0.03125, 0.03125, 0.06250, 0.00000, -0.09375, 0.03125, 0.09375, 0.03125, -0.09375, 0.00000, -0.09375, -0.06250, -0.03125, 0.00000, -0.03125, 0.00000, 0.03125, 0.06250, 0.03125, 0.03125, -0.12500, 0.03125, 0.00000, -0.03125, 0.03125, -0.06250, 0.00000, -0.06250, 0.03125, -0.06250, -0.03125, 0.06250, 0.03125, 0.00000, -0.03125, 0.00000, -0.12500, 0.06250, 0.00000, 0.06250, 0.03125, 0.09375, -0.09375, 0.09375, 0.09375, 0.00000, -0.15625, 0.03125, -0.06250, -0.03125, 0.03125, -0.06250, -0.03125, 0.03125, 0.00000, 0.00000, -0.12500, 0.06250, -0.03125, -0.03125, 0.03125, 0.00000, -0.09375, -0.06250, -0.03125, -0.06250, 0.03125, 0.03125, -0.06250, 0.09375, 0.03125, 0.03125, 0.00000, 0.15625, -0.06250, 0.09375, 0.03125, 0.03125, -0.06250, -0.06250, 0.03125, 0.06250, -0.09375, 0.03125, 0.09375, 0.03125, 0.03125, -0.09375, -0.09375, -0.06250, -0.03125, -0.06250, 0.00000, -0.03125, 0.03125, -0.06250, -0.09375, 0.03125, 0.00000, -0.12500, -0.03125, 0.03125, -0.03125, 0.09375, -0.18750, 0.00000, -0.09375, -0.06250, -0.09375, 0.00000, -0.09375, 0.03125, -0.09375, -0.03125, -0.09375, 0.00000, 0.12500, 0.03125, 0.06250, 0.00000, -0.03125, -0.03125, -0.03125, -0.03125, -0.09375, -0.03125, 0.00000, 0.09375, 0.00000, 0.00000, -0.06250, 0.00000, 0.03125, 0.03125, -0.03125, -0.03125, -0.12500, 0.06250, 0.03125, -0.03125, -0.03125, 0.06250, -0.06250, 0.03125, -0.03125, 0.00000, 0.03125, 0.00000, -0.09375, 0.00000, 0.06250, -0.03125, 0.18750, 0.03125, -0.06250, 0.06250, -0.06250, -0.03125, 0.09375, -0.03125, 0.00000, 0.00000, 0.06250, 0.03125, -0.03125, -0.03125, 0.09375, -0.06250, 0.00000, 0.03125, -0.03125, 0.06250, 0.00000, -0.03125, -0.03125, -0.03125, 0.06250, 0.03125, 0.00000, -0.12500, 0.00000, 0.00000, 0.09375, -0.03125, -0.06250, -0.12500, -0.03125, 0.12500, -0.12500, 0.06250, 0.00000, 0.03125, -0.09375, -0.06250, 0.03125, -0.06250, 0.03125, -0.06250, -0.03125, 0.00000, -0.03125, 0.00000, 0.06250, -0.03125, -0.03125, -0.12500, 0.00000, 0.06250, -0.03125, 0.00000, -0.09375, -0.03125, -0.03125, 0.00000, 0.06250, 0.06250, 0.03125, 0.03125, -0.03125, 0.03125, -0.06250, 0.00000, -0.03125, 0.00000, 0.03125, -0.06250, -0.09375, -0.06250, 0.00000, 0.06250, -0.12500, 0.12500, -0.09375, 0.00000, 0.03125, -0.03125, 0.06250, -0.03125, 0.03125, -0.09375, -0.03125, 0.06250, 0.03125, 0.03125, 0.00000, 0.03125, 0.00000, 0.00000, -0.12500, -0.03125, -0.12500, 0.03125, -0.06250, -0.06250, 0.03125, 0.06250, -0.09375, -0.06250, 0.00000, -0.09375, 0.12500, 0.00000, -0.06250, 0.00000, -0.03125, 0.03125, 0.00000, 0.00000, -0.06250, 0.12500, 0.09375, 0.06250, -0.15625, 0.09375, 0.03125, 0.06250, 0.06250, 0.09375, 0.03125, 0.06250, 0.06250, -0.09375, -0.03125, -0.03125, 0.00000, -0.06250, 0.00000, 0.03125, 0.06250, 0.03125, -0.03125, -0.06250, 0.12500, 0.00000, 0.06250, -0.03125, 0.06250, 0.03125, -0.06250, -0.03125, 0.00000, -0.03125, 0.06250, 0.00000, 0.06250, 0.06250, 0.15625, -0.09375, -0.03125, 0.12500, 0.12500, 0.00000, 0.03125, 0.00000, -0.09375, -0.03125, -0.06250, 0.03125, 0.00000, 0.00000, -0.06250, 0.03125, 0.03125, 0.03125, -0.03125, 0.03125, 0.06250, 0.03125, 0.09375, 0.00000, 0.03125, -0.03125, -0.06250, -0.03125, -0.06250, 0.03125, -0.09375, -0.06250, -0.06250, 0.06250, 0.06250, 0.06250, 0.09375, 0.00000, 0.00000, 0.00000, 0.00000, -0.06250, 0.03125, 0.06250, 0.06250, 0.00000, 0.00000, 0.03125, 0.12500, -0.03125, 0.00000, -0.03125, 0.03125, -0.03125, 0.03125, 0.00000, -0.06250, 0.03125, -0.06250, -0.03125, -0.06250, -0.06250, 0.00000, -0.03125, -0.09375, 0.09375, -0.03125, -0.03125, 0.12500, -0.06250, 0.09375, 0.06250, -0.06250, 0.09375, -0.03125, 0.00000, 0.03125, 0.00000, -0.03125, -0.06250, -0.09375, 0.03125, 0.00000, -0.06250, 0.03125, 0.03125, 0.06250, -0.12500, -0.09375, 0.12500, 0.03125, 0.03125, 0.06250, 0.09375, 0.03125, -0.06250, 0.09375, -0.06250, 0.06250, 0.00000, 0.03125, 0.06250, 0.06250, -0.03125, 0.00000, 0.03125, -0.09375, 0.03125, -0.06250, 0.00000, 0.06250, 0.00000, 0.00000, 0.00000, 0.06250, 0.00000, 0.00000, -0.09375, 0.03125, 0.15625, 0.06250, -0.03125, 0.00000, -0.06250, 0.03125, 0.06250, -0.06250, 0.03125, 0.03125, 0.03125, 0.00000, -0.03125, -0.03125, -0.09375, 0.03125, 0.00000, 0.03125, -0.09375, 0.03125, 0.06250, 0.09375, -0.09375, 0.03125, -0.03125, -0.03125, 0.00000, -0.12500, 0.12500, -0.09375, 0.00000, 0.00000, 0.09375, -0.06250, -0.06250, -0.03125, -0.06250, 0.00000, -0.06250, -0.06250, -0.03125, 0.03125, 0.06250, -0.03125, 0.09375, -0.06250, 0.09375, 0.00000, 0.03125, 0.00000, 0.06250, 0.00000, -0.12500, 0.12500, 0.09375, -0.06250, 0.00000, -0.06250, 0.00000, 0.00000, 0.06250, -0.06250, 0.06250, 0.00000, -0.06250, -0.06250, -0.06250, -0.03125, 0.00000, 0.00000, 0.09375, 0.03125, -0.03125, -0.03125, -0.15625, 0.03125, -0.06250, 0.00000, 0.03125, 0.00000, -0.03125, -0.03125, -0.06250, -0.06250, 0.12500, -0.03125, -0.06250, -0.03125, -0.12500, 0.00000, 0.00000, 0.00000, 0.03125, -0.03125, -0.06250, -0.06250, 0.03125, 0.12500, -0.03125, 0.00000, -0.03125, -0.03125, -0.18750, 0.00000, -0.03125, -0.12500, 0.00000, 0.00000, 0.09375, 0.00000, -0.06250, 0.12500, 0.03125, -0.09375, 0.06250, 0.06250, 0.03125, 0.12500, 0.00000, -0.03125, -0.03125, 0.06250, 0.00000, 0.00000, 0.12500, 0.00000, 0.09375, -0.06250, 0.03125, 0.00000, 0.03125, 0.00000, 0.00000, 0.03125, 0.06250, 0.09375, 0.00000, 0.12500, -0.09375, -0.06250, 0.12500, 0.00000, 0.00000, 0.03125, -0.03125, 0.06250, 0.06250, 0.00000, -0.06250, -0.03125, 0.06250, -0.03125, 0.09375, -0.09375, 0.03125, 0.03125, 0.06250, 0.00000, 0.06250, -0.03125, -0.12500, -0.03125, -0.09375, -0.03125, -0.09375, -0.03125, 0.06250, -0.03125, 0.00000, 0.06250, -0.09375, -0.03125, -0.03125, -0.03125, 0.06250, -0.03125, -0.06250, -0.03125, 0.03125, 0.03125, 0.00000, 0.06250, 0.03125, 0.06250, -0.03125, 0.03125, 0.06250, 0.00000, 0.03125, 0.03125, 0.03125, 0.06250, -0.06250, 0.03125, -0.03125, 0.06250, 0.00000, -0.09375, 0.00000, 0.00000, -0.06250, 0.03125, 0.03125, 0.00000, -0.03125, -0.03125, 0.00000, -0.09375, -0.06250, 0.09375, 0.15625, 0.15625, -0.09375, 0.00000, 0.09375, -0.06250, 0.03125, 0.06250, 0.03125, -0.03125, 0.00000, -0.03125, 0.00000, -0.03125, 0.00000, -0.03125, -0.06250, -0.09375, 0.03125, -0.12500, 0.06250, -0.03125, -0.03125, -0.06250, 0.03125, -0.06250, 0.06250, -0.03125, 0.03125, 0.09375, -0.09375, 0.03125, 0.00000, 0.06250, -0.03125, -0.03125, -0.09375, 0.12500, 0.06250, -0.03125, -0.09375, -0.06250, -0.09375, -0.03125, -0.09375, 0.00000, 0.00000, 0.03125, -0.12500, -0.03125, -0.03125, -0.12500, 0.00000, 0.06250, 0.06250, 0.00000, 0.00000, 0.03125, -0.03125, -0.09375, -0.03125, 0.00000, 0.06250, 0.03125, -0.09375, 0.00000, -0.06250, 0.06250, 0.09375, -0.06250, -0.06250, -0.06250, 0.09375, 0.00000, 0.03125, 0.03125, -0.03125, 0.09375, -0.03125, 0.09375, 0.00000, -0.06250, 0.00000, 0.06250, -0.03125, 0.03125, 0.00000, -0.18750, 0.06250, 0.09375, 0.03125, -0.03125, -0.12500, 0.03125, -0.12500, -0.03125, 0.00000, -0.03125, -0.09375, 0.06250, 0.03125, -0.03125, -0.03125, 0.00000, 0.00000, -0.03125, 0.00000, 0.03125, 0.06250, -0.09375, 0.09375, -0.06250, -0.09375, 0.09375, -0.03125, -0.06250, -0.03125, 0.00000, 0.09375, 0.00000, -0.03125, 0.03125, -0.03125, 0.06250, -0.03125, -0.03125, 0.06250, 0.03125, 0.00000, -0.06250, -0.15625, 0.00000, 0.03125, -0.03125, 0.03125, 0.00000, -0.03125, -0.09375, -0.06250, 0.03125, 0.06250, -0.06250, -0.03125, 0.00000, 0.06250, 0.00000, 0.06250, 0.06250, -0.06250, 0.00000, -0.06250, 0.00000, -0.03125, 0.18750, 0.00000, -0.03125, -0.03125, 0.00000, 0.00000, -0.03125, -0.03125, -0.06250, 0.03125, -0.09375, 0.12500, -0.06250, 0.09375, -0.06250, -0.06250, -0.06250, 0.03125, -0.03125, -0.03125, 0.06250, -0.03125, 0.03125, -0.06250, 0.00000, -0.03125, 0.00000, 0.09375, -0.03125, 0.00000, 0.00000, -0.03125, -0.03125, -0.06250, -0.03125, 0.00000, -0.06250, -0.03125, -0.06250, -0.06250, 0.03125, -0.12500, 0.03125, -0.06250, -0.03125, 0.00000, 0.03125, -0.06250, -0.15625, 0.06250, 0.09375, -0.06250, 0.09375, 0.03125, -0.03125, -0.06250, 0.12500, 0.00000, 0.00000, 0.00000, -0.09375, 0.03125, 0.09375, -0.06250, -0.06250, 0.03125, 0.03125, -0.03125, -0.03125, -0.12500, 0.09375, 0.00000, -0.03125, 0.09375, -0.03125, -0.03125, 0.06250, 0.03125, 0.09375, -0.03125, 0.00000, -0.03125, -0.03125, 0.00000, 0.03125, 0.12500, 0.00000, -0.09375, 0.03125, 0.00000, 0.09375, 0.03125, 0.06250, 0.06250, -0.09375, -0.03125, -0.06250, -0.03125, 0.00000, -0.06250, -0.03125, -0.03125, -0.03125, 0.03125, -0.03125, -0.06250, 0.03125, 0.03125, 0.00000, -0.09375, 0.12500, -0.06250, -0.06250, 0.03125, -0.09375, 0.00000, -0.06250, 0.06250, -0.12500, 0.00000, -0.06250, -0.12500, -0.06250, 0.06250, -0.06250, 0.03125, 0.00000, -0.12500, -0.09375, 0.03125, -0.09375, -0.03125, -0.03125, 0.00000, -0.03125, 0.00000, -0.06250, -0.06250, 0.09375, -0.03125, -0.12500, 0.00000, 0.03125, -0.03125, 0.00000, -0.03125, -0.06250, 0.03125, -0.03125, 0.09375, -0.12500, -0.06250, -0.03125, -0.03125, -0.09375, -0.15625, -0.06250, -0.03125, 0.18750, 0.03125, 0.06250, -0.06250, -0.09375, -0.06250, 0.00000, 0.00000, -0.06250, -0.15625, -0.06250, -0.03125, 0.03125, 0.00000, 0.06250, -0.03125, 0.03125, 0.09375, 0.06250, -0.03125, -0.09375, -0.06250, -0.06250, 0.09375, -0.03125, -0.06250, 0.00000, 0.03125, -0.03125, 0.06250, -0.09375, 0.12500, -0.03125, -0.03125, 0.00000, -0.15625, 0.00000, -0.03125, -0.03125, 0.00000, -0.12500, 0.00000, 0.06250, -0.06250, -0.06250, 0.03125, 0.03125, -0.03125, -0.06250, 0.09375, 0.00000, -0.09375, -0.06250, 0.06250, 0.06250, 0.03125, 0.03125, -0.06250, -0.03125, 0.06250, -0.03125, -0.06250, 0.09375, -0.03125, -0.09375, 0.00000, -0.06250, 0.00000, 0.06250, 0.00000, -0.03125, -0.03125, 0.03125, 0.03125, 0.00000, 0.00000, 0.06250, 0.03125, -0.12500, -0.03125, -0.06250, -0.03125, 0.03125, -0.03125, 0.06250, -0.12500, 0.03125, -0.03125, -0.09375, 0.00000, 0.03125, 0.06250, -0.06250, -0.06250, -0.06250, 0.00000, -0.03125, 0.00000, -0.06250, 0.03125, -0.09375, 0.09375, -0.06250, 0.03125, 0.00000, 0.03125, 0.06250, -0.09375, 0.00000, 0.03125, -0.06250, 0.06250, -0.03125, -0.06250, -0.06250, 0.03125, 0.09375, 0.06250, 0.03125, 0.06250, -0.03125, 0.00000, 0.00000, -0.09375, -0.09375, 0.00000, -0.03125, 0.06250, 0.00000, 0.03125, 0.00000, 0.12500, 0.00000, -0.03125, 0.00000, 0.03125, -0.06250, 0.03125, 0.00000, 0.06250, 0.00000, -0.03125, 0.00000, 0.00000, -0.03125, 0.00000, -0.06250, -0.06250, -0.06250, -0.03125, 0.06250, 0.06250, -0.06250, 0.06250, -0.06250, -0.06250, 0.03125, -0.06250, 0.00000, 0.03125, 0.03125, 0.03125, 0.00000, -0.03125, 0.03125, 0.00000, 0.09375, 0.06250, -0.09375, -0.06250, 0.03125, 0.09375, 0.03125, 0.03125, 0.09375, -0.06250, -0.03125, 0.06250, 0.03125, 0.06250, -0.12500, 0.06250, -0.06250, 0.06250, 0.00000, 0.03125, 0.06250, -0.06250, 0.00000, 0.06250, 0.00000, -0.09375, 0.00000, 0.09375, 0.06250, -0.03125, 0.00000, 0.00000, 0.06250, 0.03125, 0.09375, -0.06250, 0.06250, -0.03125, 0.09375, 0.00000, 0.12500, -0.09375, 0.00000, -0.15625, 0.00000, 0.12500, -0.03125, -0.03125, 0.06250, -0.06250, 0.00000, 0.03125, -0.03125, -0.09375, -0.09375, 0.06250, -0.15625, -0.06250, -0.03125, -0.03125, 0.00000, -0.09375, -0.12500, -0.06250, -0.06250, 0.09375, -0.03125, -0.03125, 0.09375, -0.03125, -0.06250, 0.00000, 0.03125, 0.09375, 0.06250, 0.00000, -0.03125, 0.06250, 0.03125, 0.00000, 0.09375, 0.06250, 0.00000, -0.06250, 0.03125, 0.06250, -0.03125, 0.03125, -0.12500, -0.03125, 0.06250, -0.03125, -0.06250, 0.00000, -0.09375, -0.03125, 0.00000, 0.06250, 0.00000, -0.06250, -0.03125, -0.09375, 0.03125, -0.06250, 0.03125, 0.00000, -0.09375, -0.03125, 0.00000, -0.06250, 0.03125, 0.09375, 0.00000, -0.06250, 0.00000, 0.00000, -0.03125, 0.06250, 0.00000, -0.12500, -0.03125, 0.03125, -0.03125, 0.00000, -0.03125, 0.00000, 0.00000, 0.03125, -0.03125, 0.00000, -0.03125, 0.09375, -0.03125, -0.06250, 0.06250, 0.03125, -0.03125, 0.09375, -0.03125, 0.00000, -0.06250, -0.03125, 0.06250, 0.00000, 0.03125, 0.00000, -0.06250, 0.00000, -0.03125, -0.03125, -0.06250, 0.03125, 0.00000, 0.06250, -0.03125, -0.06250, 0.03125, 0.03125, -0.03125, 0.03125, -0.06250, 0.00000, -0.12500, 0.00000, -0.09375, -0.03125, 0.06250, -0.15625, -0.03125, 0.09375, 0.00000, 0.03125, -0.12500, -0.03125, 0.12500, -0.09375, 0.06250, 0.00000, 0.03125, -0.03125, 0.00000, 0.03125, -0.03125, 0.00000, -0.03125, 0.06250, 0.03125, -0.03125, -0.09375, 0.00000, 0.06250, 0.09375, -0.12500, 0.03125, -0.12500, 0.12500, -0.03125, -0.12500, -0.06250, 0.00000, 0.00000, 0.06250, 0.00000, 0.06250, 0.00000, 0.03125, 0.00000, -0.03125, 0.00000, 0.00000, 0.03125, 0.00000, -0.03125, 0.00000, -0.12500, -0.06250, -0.12500, 0.06250, 0.00000, 0.03125, 0.06250, -0.03125, -0.09375, -0.03125, 0.00000, 0.09375, 0.03125, -0.03125, -0.03125, -0.03125, 0.00000, -0.09375, -0.09375, 0.06250, 0.00000, -0.03125, 0.06250, 0.03125, 0.03125, 0.00000, -0.03125, 0.15625, -0.03125, -0.09375, 0.03125, 0.03125, 0.03125, 0.00000, -0.03125, 0.03125, -0.12500, -0.12500, 0.09375, -0.03125, -0.03125, 0.03125, 0.06250, 0.00000, 0.00000, -0.03125, -0.03125, -0.03125, -0.06250, 0.00000, 0.03125, 0.12500, 0.09375, 0.09375, 0.00000, 0.06250, 0.06250, 0.00000, 0.00000, 0.00000, 0.03125, -0.03125, 0.00000, 0.06250, 0.00000, -0.03125, 0.00000, 0.00000, -0.09375, 0.06250, -0.03125, -0.12500, -0.03125, 0.03125, -0.12500, -0.09375, 0.00000, 0.00000, 0.06250, 0.03125, 0.00000, -0.06250, 0.00000, -0.12500, 0.00000, 0.03125, 0.00000, 0.00000, 0.06250, 0.09375, 0.03125, 0.06250, 0.03125, 0.00000, 0.03125, -0.06250, 0.06250, 0.06250, -0.03125, -0.06250, 0.06250, 0.00000, 0.06250, 0.00000, -0.06250, -0.12500, -0.06250, -0.06250, 0.03125, 0.00000, -0.03125, -0.03125, -0.03125, 0.03125, 0.09375, -0.06250, 0.06250, 0.00000, 0.03125, 0.03125, -0.09375, 0.06250, 0.00000, 0.03125, 0.03125, 0.00000, 0.06250, 0.06250, -0.03125, 0.03125, -0.03125, 0.03125, 0.03125, -0.06250, 0.00000, 0.06250, 0.03125, -0.03125, -0.09375, 0.06250, 0.09375, -0.03125, 0.00000, 0.00000, 0.09375, 0.00000, -0.03125, 0.06250, -0.06250, 0.03125, 0.00000, -0.09375, -0.03125, -0.06250, 0.00000, -0.06250, 0.03125, 0.06250, 0.03125, 0.12500, -0.03125, 0.00000, -0.06250, 0.00000, 0.03125, -0.12500, 0.03125, -0.09375, 0.00000, 0.06250, -0.15625, 0.00000, -0.09375, -0.03125, -0.03125, 0.00000, 0.00000, -0.06250, -0.03125, -0.03125, -0.09375, 0.06250, -0.03125, 0.09375, -0.03125, 0.03125, 0.00000, 0.06250, -0.06250, -0.06250, 0.06250, -0.09375, 0.00000, 0.03125, -0.03125, 0.06250, 0.03125, -0.03125, -0.12500, 0.03125, 0.00000, -0.09375, -0.09375, 0.06250, 0.12500, 0.00000, 0.06250, 0.03125, -0.06250, 0.06250, -0.06250, -0.09375, 0.03125, -0.03125, -0.06250, -0.12500, 0.03125, -0.15625, 0.00000, -0.12500, 0.00000, 0.03125, 0.09375, 0.09375, 0.09375, 0.06250, -0.06250, -0.15625, 0.06250, 0.03125, 0.03125, 0.06250, -0.03125, -0.03125, -0.06250, -0.03125, -0.06250, 0.00000, 0.00000, -0.06250, -0.03125, -0.03125, 0.00000, -0.09375, 0.00000, 0.00000, -0.03125, 0.09375, 0.00000, -0.12500, 0.03125, -0.03125, 0.06250, 0.00000, 0.03125, 0.00000, 0.00000, -0.03125, -0.06250, -0.12500, -0.06250, 0.00000, 0.09375, 0.06250, 0.00000, -0.12500, 0.03125, -0.03125, -0.06250, 0.00000, 0.03125, 0.00000, 0.03125, 0.00000, -0.09375, 0.12500, 0.00000, 0.09375, 0.00000, -0.06250, 0.00000, 0.03125, 0.09375, 0.06250, 0.03125, -0.09375, -0.12500, 0.00000, -0.03125, 0.00000, 0.09375, 0.00000, -0.09375, 0.00000, 0.06250, 0.00000, 0.06250, -0.03125, -0.06250, 0.03125, -0.12500, 0.09375, 0.00000, -0.03125, -0.09375, -0.15625, 0.00000, 0.06250, 0.12500, -0.03125, 0.06250, 0.03125, 0.00000, 0.00000, 0.03125, 0.06250, -0.06250, 0.03125, 0.00000, -0.06250, -0.03125, -0.03125, -0.03125, 0.06250, 0.03125, 0.00000, 0.03125, -0.03125, 0.12500, 0.00000, -0.09375, 0.09375, 0.03125, -0.15625, -0.03125, 0.09375, 0.06250, 0.06250, -0.03125, 0.03125, 0.09375, -0.03125, -0.03125, -0.03125, -0.06250, 0.09375, -0.03125, 0.09375, -0.06250, 0.06250, -0.09375, -0.03125, 0.06250, 0.06250, -0.06250, 0.06250, -0.03125, -0.06250, -0.06250, 0.06250, -0.03125, 0.00000, -0.06250, -0.03125, 0.06250, -0.03125, -0.06250, 0.00000, 0.09375, -0.06250, 0.00000, 0.03125, 0.03125, -0.09375, 0.00000, -0.03125, -0.03125, 0.03125, -0.03125, 0.06250, 0.00000, 0.03125, 0.03125, 0.03125, -0.03125, 0.06250, 0.06250, 0.12500, 0.03125, 0.00000, 0.00000, 0.03125, 0.03125, 0.03125, -0.12500, -0.12500, -0.06250, -0.09375, 0.12500, 0.06250, 0.00000, -0.06250, 0.03125, -0.06250, -0.09375, -0.03125, -0.09375, -0.03125, 0.06250, 0.06250, 0.00000, 0.03125, -0.03125, 0.09375, -0.09375, 0.00000, 0.00000, 0.00000, 0.00000, 0.09375, 0.06250, -0.03125, 0.06250, 0.03125, -0.03125, 0.00000, -0.09375, 0.03125, 0.00000, 0.00000, 0.00000, 0.03125, 0.03125, 0.00000, 0.00000, 0.09375, 0.03125, -0.06250, -0.03125, -0.06250, 0.03125, 0.00000, -0.06250, -0.03125, -0.03125, -0.03125, 0.06250, 0.03125, 0.00000, 0.00000, -0.03125, 0.12500, 0.00000, -0.03125, 0.00000, -0.12500, 0.12500, -0.09375, 0.03125, 0.00000, -0.06250, 0.09375, -0.03125, 0.03125, -0.12500, 0.03125, 0.00000, 0.00000, 0.00000, -0.03125, 0.00000, 0.00000, 0.00000, 0.00000, -0.03125, 0.00000, -0.06250, 0.09375, -0.06250, 0.03125, -0.06250, 0.03125, -0.09375, 0.09375, 0.03125, -0.03125, 0.09375, 0.03125, -0.03125, -0.06250, 0.03125, -0.12500, 0.00000, 0.03125, 0.09375, 0.03125, -0.06250, 0.00000, -0.09375, 0.03125, 0.06250, 0.00000, -0.09375, 0.03125, -0.06250, 0.00000, 0.06250, 0.00000, -0.06250, -0.09375, -0.06250, -0.03125, -0.03125, 0.09375, 0.06250, 0.00000, 0.00000, -0.03125, -0.06250, 0.03125, 0.00000, 0.03125, 0.12500, 0.00000, 0.03125, -0.03125, 0.09375, 0.00000, -0.06250, -0.03125, -0.03125, 0.03125, -0.03125, -0.06250, -0.09375, -0.03125, -0.06250, -0.03125, -0.03125, 0.06250, 0.03125, 0.06250, 0.03125, -0.09375, 0.00000, 0.06250, -0.03125, 0.06250, -0.03125, -0.03125, 0.09375, 0.06250, -0.06250, -0.03125, -0.15625, 0.06250, 0.03125, 0.03125, 0.06250, -0.03125, -0.03125, 0.06250, -0.03125, 0.00000, 0.03125, -0.03125, 0.06250, 0.00000, 0.00000, 0.00000, 0.12500, 0.00000, 0.03125, 0.00000, -0.03125, 0.00000, -0.09375, 0.03125, -0.12500, 0.03125, 0.00000, 0.00000, -0.03125, -0.06250, -0.03125, 0.03125, -0.12500, 0.03125, 0.03125, -0.06250, 0.06250, -0.09375, -0.12500, -0.09375, -0.03125, 0.00000, 0.03125, 0.00000, 0.03125, -0.12500, 0.00000, -0.09375, 0.00000, -0.06250, -0.09375, -0.06250, -0.06250, 0.06250, -0.06250, 0.12500, -0.06250, 0.00000, 0.03125, 0.03125, 0.00000, -0.12500, -0.03125, 0.00000, -0.03125, 0.03125, 0.06250, -0.03125, 0.00000, -0.03125, 0.12500, 0.00000, -0.03125, -0.09375, -0.09375, 0.06250, -0.03125, 0.00000, 0.03125, 0.03125, 0.06250, 0.00000, 0.06250, 0.00000, -0.03125, 0.03125, -0.03125, -0.06250, 0.00000, 0.12500, 0.06250, 0.06250, 0.00000, -0.03125, 0.03125, 0.03125, -0.06250, 0.00000, -0.15625, 0.00000, 0.09375, 0.03125, 0.00000, 0.00000, 0.12500, 0.06250, -0.09375, -0.03125, -0.06250, 0.12500, 0.00000, 0.03125, 0.00000, -0.06250, -0.03125, -0.06250, 0.00000, 0.15625, -0.06250, -0.15625, -0.03125, 0.03125, 0.09375, -0.03125, 0.00000, 0.00000, 0.06250, 0.06250, 0.00000, 0.12500, 0.00000, 0.06250, 0.00000, 0.15625, 0.03125, -0.03125, 0.06250, 0.06250, -0.06250, -0.03125, -0.06250, 0.12500, -0.06250, 0.03125, -0.03125, -0.03125, 0.00000, 0.03125, -0.15625, -0.03125, 0.03125, 0.06250, 0.03125, 0.06250, -0.03125, 0.00000, 0.06250, 0.03125, 0.09375, -0.03125, -0.03125, 0.03125, 0.00000, 0.09375, 0.00000, 0.03125, 0.06250, -0.03125, -0.03125, 0.00000, 0.12500, 0.03125, 0.03125, 0.06250, 0.06250, 0.00000, 0.00000, 0.03125, 0.00000, 0.03125, -0.03125, 0.03125, 0.09375, 0.03125, 0.00000, 0.03125, 0.03125, 0.09375, -0.03125, 0.09375, 0.03125, 0.00000, 0.12500, 0.06250, 0.03125, 0.03125, -0.06250, 0.03125, -0.09375, -0.06250, -0.09375, 0.00000, -0.09375, 0.03125, 0.00000, -0.09375, 0.06250, 0.03125, -0.03125, 0.09375, 0.03125, 0.03125, 0.06250, -0.12500, 0.09375, 0.00000, 0.09375, 0.00000, 0.09375, 0.06250, -0.03125, 0.03125, 0.03125, -0.03125, 0.12500, 0.00000, -0.03125, -0.03125, -0.03125, 0.12500, 0.00000, 0.06250, 0.00000, -0.09375, 0.00000, 0.06250, -0.03125, 0.06250, -0.03125, 0.00000, 0.12500, 0.00000, 0.09375, 0.00000, 0.00000, -0.09375, 0.00000, 0.00000, 0.12500, -0.03125, 0.03125, 0.06250, -0.03125, 0.03125, 0.09375, 0.00000, 0.09375, -0.09375, -0.06250, 0.03125, -0.03125, -0.03125, 0.03125, 0.00000, 0.12500, -0.06250, -0.03125, -0.03125, 0.09375, -0.03125, 0.03125, 0.06250, 0.15625, 0.00000, -0.03125, 0.03125, -0.03125, 0.06250, -0.03125, 0.03125, -0.09375, -0.06250, 0.09375, -0.06250, -0.09375, -0.06250, -0.06250, -0.03125, 0.06250, 0.06250, -0.03125, 0.03125, 0.00000, -0.06250, 0.06250, -0.03125, -0.03125, 0.03125, 0.06250, 0.03125, 0.03125, -0.03125, -0.03125, 0.09375, 0.09375, 0.15625, -0.09375, -0.09375, -0.09375, 0.03125, 0.03125, 0.00000, 0.00000, -0.03125, -0.03125, 0.03125, 0.00000, 0.00000, 0.00000, 0.00000, 0.03125, -0.09375, -0.06250, -0.03125, -0.09375, -0.06250, -0.12500, 0.00000, 0.00000, 0.00000, 0.00000, 0.03125, -0.06250, 0.00000, 0.03125, 0.03125, 0.09375, 0.03125, -0.06250, -0.03125, 0.00000, -0.03125, 0.06250, -0.03125, 0.00000, -0.09375, 0.03125, -0.09375, 0.09375, 0.06250, 0.03125, 0.03125, 0.03125, -0.09375, -0.03125, 0.12500, 0.00000, 0.00000, 0.03125, 0.09375, 0.00000, -0.06250, -0.06250, -0.03125, 0.00000, 0.06250, 0.00000, -0.03125, 0.00000, -0.12500, -0.03125, 0.09375, 0.06250, 0.00000, -0.03125, 0.03125, 0.03125, -0.03125, 0.06250, 0.06250, 0.00000, -0.03125, 0.09375, 0.03125, 0.00000, -0.09375, -0.03125, 0.06250, -0.12500, 0.03125, 0.00000, -0.06250, -0.09375, -0.06250, 0.12500, 0.06250, -0.03125, 0.00000, -0.03125, 0.00000, -0.12500, -0.03125, -0.06250, 0.00000, 0.00000, 0.00000, 0.06250, -0.03125, 0.06250, 0.12500, -0.03125, -0.03125, -0.03125, 0.03125, -0.03125, 0.03125, -0.03125, -0.03125, 0.03125, 0.03125, -0.12500, -0.03125, -0.03125, 0.00000, -0.06250, 0.00000, 0.03125, 0.12500, 0.09375, 0.12500, -0.12500, 0.06250, -0.12500, -0.09375, -0.12500, 0.03125, 0.06250, 0.09375, 0.00000, -0.03125, -0.03125, 0.15625, 0.21875, -0.09375, 0.03125, -0.06250, 0.03125, 0.03125, 0.06250, 0.00000, 0.03125, -0.03125, 0.03125, 0.06250, 0.00000, 0.03125, 0.03125, 0.03125, -0.06250, 0.03125, 0.06250, 0.06250, -0.09375, 0.06250, 0.06250, 0.12500, 0.03125, -0.03125, 0.03125, 0.00000, 0.00000, 0.03125, -0.03125, 0.00000, -0.06250, -0.03125, -0.09375, -0.06250, 0.03125, -0.03125, 0.00000, 0.00000, 0.00000, 0.00000, -0.06250, 0.00000, 0.06250, 0.00000, 0.03125, -0.03125, -0.06250, 0.03125, 0.03125, 0.00000, 0.03125, 0.09375, -0.09375, 0.12500, -0.03125, 0.00000, 0.00000, -0.09375, 0.06250, 0.00000, 0.03125, 0.03125, 0.06250, 0.00000, 0.06250, -0.06250, -0.03125, 0.06250, 0.03125, -0.03125, 0.06250, 0.03125, -0.03125, 0.03125, 0.00000, 0.00000, -0.03125, 0.03125, -0.03125, 0.03125, 0.06250, 0.00000, -0.06250, 0.06250, -0.12500, 0.03125, -0.06250, 0.06250, -0.03125, -0.03125, 0.00000, -0.09375, -0.12500, 0.09375, 0.00000, 0.00000, -0.09375, -0.03125, 0.00000, -0.03125, 0.03125, 0.03125, 0.03125, 0.00000, 0.00000, 0.00000, -0.03125, 0.09375, -0.06250, 0.00000, -0.03125, 0.03125, -0.12500, -0.09375, 0.00000, 0.06250, 0.00000, 0.09375, 0.03125, -0.09375, -0.03125, 0.00000, 0.09375, 0.03125, 0.00000, 0.03125, 0.06250, 0.00000, 0.00000, 0.03125, -0.03125, 0.06250, -0.03125, 0.09375, 0.00000, 0.15625, 0.03125, 0.00000, 0.03125, -0.03125, -0.06250, 0.03125, 0.06250, -0.09375, 0.00000, 0.00000, 0.00000, 0.03125, 0.03125, -0.03125, -0.06250, 0.09375, 0.00000, 0.06250, -0.03125, -0.03125, 0.00000, -0.03125, -0.03125, 0.00000, 0.06250, 0.06250, 0.03125, 0.00000, -0.03125, 0.06250, -0.06250, -0.03125, -0.03125, -0.03125, -0.09375, 0.18750, 0.03125, -0.06250, 0.03125, -0.03125, 0.03125, 0.00000, -0.06250, -0.03125, -0.03125, 0.15625, -0.06250, 0.00000, -0.06250, -0.03125, -0.06250, -0.06250, 0.00000, -0.03125, 0.00000, -0.12500, 0.03125, 0.00000, -0.06250, 0.03125, -0.12500, -0.09375, 0.06250, 0.09375, -0.03125, 0.00000, 0.03125, -0.09375, -0.03125, -0.03125, 0.18750, 0.03125, -0.09375, 0.03125, -0.03125, 0.03125, -0.03125, 0.03125, -0.09375, 0.00000, 0.00000, -0.06250, -0.06250, -0.06250, 0.00000, 0.06250, -0.09375, -0.03125, -0.15625, 0.12500, -0.03125, -0.06250, -0.03125, 0.03125, 0.03125, -0.06250, 0.03125, 0.06250, 0.09375, 0.00000, 0.03125, -0.03125, 0.06250, 0.03125, -0.03125, 0.00000, 0.03125, -0.03125, -0.06250, 0.00000, -0.25000, 0.00000, -0.03125, 0.00000, -0.03125, -0.06250, -0.09375, 0.00000, -0.03125, -0.03125, 0.06250, -0.09375, -0.03125, 0.03125, -0.03125, 0.03125, 0.06250, -0.03125, 0.00000, 0.00000, 0.06250, -0.03125, -0.03125, 0.09375, 0.06250, -0.03125, 0.03125, 0.06250, 0.03125, -0.03125, 0.00000, 0.00000, -0.03125, -0.15625, 0.06250, -0.06250, 0.00000, 0.06250, -0.09375, 0.00000, -0.06250, 0.03125, -0.06250, -0.06250, 0.03125, 0.09375, 0.06250, -0.12500, 0.06250, 0.06250, 0.00000, 0.00000, -0.06250, 0.09375, -0.03125, -0.03125, -0.12500, -0.06250, -0.06250, -0.06250, 0.00000, 0.03125, 0.00000, -0.03125, 0.06250, 0.00000, 0.06250, -0.03125, -0.03125, -0.03125, -0.06250, -0.03125, 0.03125, 0.00000, 0.06250, -0.09375, -0.09375, 0.00000, 0.00000, -0.06250, 0.06250, 0.03125, -0.18750, 0.03125, 0.03125, 0.06250, -0.03125, 0.09375, 0.03125, 0.06250, -0.06250, 0.00000, -0.03125, -0.03125, -0.03125, 0.03125, 0.00000, 0.09375, 0.03125, 0.06250, -0.06250, 0.03125, 0.09375, 0.00000, 0.15625, 0.00000, -0.09375, -0.06250, -0.12500, -0.06250, -0.06250, -0.03125, 0.00000, 0.00000, 0.00000, 0.03125, 0.09375, 0.06250, 0.00000, -0.03125, 0.00000, 0.09375, -0.03125, 0.03125, 0.00000, 0.00000, -0.03125, 0.03125, 0.00000, 0.03125, 0.00000, 0.06250, 0.03125, -0.06250, -0.09375, -0.06250, 0.00000, -0.09375, -0.03125, -0.12500, -0.06250, -0.03125, -0.03125, -0.06250, 0.09375, -0.06250, 0.06250, 0.06250, -0.09375, -0.03125, 0.06250, -0.09375, 0.09375, 0.06250, 0.06250, -0.15625, 0.06250, -0.09375, -0.09375, -0.06250, -0.03125, 0.00000, 0.03125, -0.03125, 0.00000, -0.06250, 0.00000, -0.03125, -0.03125, 0.06250, 0.00000, -0.06250, 0.00000, -0.09375, -0.06250, 0.00000, 0.00000, -0.03125, 0.06250, -0.03125, -0.03125, 0.03125, -0.09375, 0.00000, 0.09375, 0.12500, 0.00000, 0.00000, 0.03125, -0.09375, 0.06250, 0.00000, 0.03125, -0.06250, 0.00000, -0.06250, -0.03125, -0.03125, -0.03125, 0.00000, 0.03125, 0.03125, 0.06250, -0.03125, -0.09375, -0.06250, 0.00000, -0.03125, 0.06250, -0.03125, 0.00000, -0.03125, -0.12500, -0.03125, 0.00000, -0.06250, 0.03125, 0.00000, -0.18750, 0.06250, 0.00000, -0.15625, -0.09375, 0.09375, 0.06250, 0.00000, 0.03125, 0.00000, 0.03125, 0.03125, -0.03125, -0.03125, 0.03125, 0.00000, -0.03125, -0.03125, -0.03125, 0.03125, 0.00000, 0.09375, -0.06250, -0.09375, 0.09375, -0.09375, 0.03125, 0.03125, 0.03125, -0.03125, -0.06250, 0.00000, 0.00000, 0.03125, 0.03125, -0.03125, -0.03125, -0.09375, 0.09375, -0.03125, 0.06250, 0.03125, 0.09375, -0.06250, 0.06250, -0.06250, -0.15625, 0.09375, -0.06250, -0.06250, -0.03125, 0.00000, 0.03125, -0.06250, -0.03125, -0.06250, 0.06250, 0.00000, -0.03125, 0.03125, -0.12500, 0.00000, 0.03125, -0.06250, -0.09375, -0.03125, 0.15625, -0.09375, 0.03125, -0.03125, -0.03125, 0.03125, -0.06250, 0.06250, 0.00000, -0.09375, 0.00000, -0.12500, -0.03125, 0.12500, 0.00000, -0.03125, 0.03125, 0.03125, 0.09375, 0.15625, -0.06250, -0.03125, -0.03125, 0.06250, 0.06250, 0.00000, 0.09375, 0.15625, 0.00000, 0.09375, 0.09375, 0.21875, 0.03125, 0.00000, -0.03125, 0.00000, 0.03125, 0.00000, 0.06250, -0.06250, 0.00000, 0.00000, -0.03125, 0.00000, -0.03125, -0.09375, 0.03125, 0.00000, 0.09375, -0.09375, -0.03125, -0.06250, 0.00000, 0.06250, -0.06250, 0.06250, 0.09375, 0.06250, 0.03125, 0.06250, -0.09375, -0.12500, -0.09375, 0.00000, -0.06250, 0.06250, -0.06250, 0.09375, 0.03125, 0.00000, -0.09375, -0.03125, -0.06250, 0.03125, -0.03125, 0.06250, 0.00000, 0.00000, 0.00000, -0.03125, 0.06250, 0.06250, 0.03125, 0.06250, 0.00000, 0.03125, -0.06250, 0.06250, 0.06250, -0.03125, -0.15625, 0.06250, 0.03125, 0.03125, 0.06250, 0.03125, 0.00000, -0.03125, 0.03125, 0.03125, 0.00000, 0.03125, -0.06250, -0.03125, 0.03125, -0.06250, -0.06250, 0.03125, 0.03125, -0.03125, 0.00000, 0.03125, 0.12500, 0.03125, -0.09375, -0.03125, 0.09375, -0.09375, 0.06250, -0.03125, 0.03125, 0.00000, -0.03125, -0.12500, 0.00000, -0.09375, 0.06250, 0.03125, 0.00000, 0.00000, 0.06250, 0.06250, -0.03125, -0.06250, 0.00000, -0.06250, -0.09375, -0.06250, 0.09375, -0.09375, 0.03125, 0.12500, 0.09375, 0.00000, 0.06250, 0.09375, 0.00000, 0.03125, 0.00000, 0.00000, 0.00000, -0.03125, -0.03125, 0.03125, 0.06250, 0.09375, 0.09375, -0.09375, 0.03125, 0.06250, -0.03125, 0.15625, -0.09375, 0.00000, 0.00000, 0.09375, -0.03125, 0.00000, -0.06250, 0.06250, 0.09375, 0.00000, -0.03125, 0.03125, 0.06250, 0.00000, 0.03125, 0.03125, 0.00000, 0.03125, 0.06250, 0.03125, 0.00000, 0.09375, 0.03125, -0.03125, 0.00000, 0.00000, 0.00000, -0.09375, 0.06250, 0.00000, 0.00000, 0.03125, -0.03125, 0.06250, 0.00000, 0.03125, -0.12500, -0.06250, -0.03125, -0.03125, 0.03125, 0.06250, -0.15625, -0.06250, 0.06250, -0.06250, 0.06250, 0.03125, 0.09375, 0.15625, 0.03125, -0.09375, -0.03125, 0.06250, 0.03125, 0.00000, 0.03125, -0.03125, -0.03125, 0.00000, 0.09375, 0.00000, 0.00000, -0.06250, -0.06250, 0.06250, 0.12500, -0.06250, 0.06250, -0.03125, -0.06250, 0.06250, 0.12500, -0.12500, -0.06250, 0.03125, 0.06250, 0.00000, 0.00000, -0.03125, -0.03125, -0.03125, 0.03125, 0.00000, 0.00000, 0.06250, 0.03125, -0.06250, 0.06250, 0.03125, 0.00000, -0.03125, 0.03125, 0.06250, 0.06250, -0.09375, -0.06250, 0.06250, -0.03125, -0.03125, -0.06250, 0.00000, 0.03125, 0.06250, -0.06250, -0.06250, 0.03125, -0.03125, 0.03125, 0.00000, 0.09375, -0.03125, 0.06250, 0.00000, -0.06250, 0.03125, 0.03125, 0.03125, 0.00000, 0.06250, 0.03125, 0.09375, 0.00000, 0.00000, -0.12500, 0.12500, 0.03125, 0.12500, 0.00000, 0.09375, -0.03125, 0.12500, -0.03125, -0.06250, -0.03125, 0.03125, 0.03125, -0.03125, 0.06250, 0.12500, 0.00000, -0.03125, 0.06250, 0.00000, -0.03125, 0.00000, 0.00000, 0.00000, 0.00000, 0.09375, -0.06250, -0.09375, -0.06250, 0.09375, 0.00000, 0.06250, 0.03125, 0.06250, -0.06250, 0.06250, 0.15625, 0.09375, 0.03125, 0.00000, -0.06250, -0.03125, -0.03125, 0.06250, 0.09375, 0.06250, 0.09375, -0.06250, 0.03125, 0.06250, 0.03125, 0.06250, 0.00000, 0.03125, 0.09375, -0.06250, -0.03125, 0.09375, -0.09375, 0.12500, 0.03125, -0.06250, -0.09375, -0.12500, 0.00000, -0.03125, 0.03125, 0.00000, -0.09375, 0.03125, -0.06250, 0.03125, 0.06250, 0.03125, -0.03125, 0.03125, -0.03125, 0.00000, -0.03125, 0.00000, -0.09375, 0.00000, 0.15625, 0.03125, 0.06250, 0.03125, 0.03125, -0.09375, 0.00000, -0.03125, 0.00000, 0.00000, 0.00000, 0.00000, -0.06250, 0.06250, -0.03125, -0.03125, 0.00000, 0.03125, 0.00000, 0.03125, 0.12500, 0.06250, -0.09375, -0.06250, 0.03125, -0.12500, 0.15625, 0.03125, 0.03125, -0.03125, 0.12500, 0.06250, 0.00000, -0.03125, 0.03125, 0.03125, 0.06250, 0.06250, 0.06250, 0.03125, 0.09375, -0.03125, -0.09375, -0.09375, 0.09375, 0.00000, -0.09375, -0.03125, 0.09375, 0.00000, -0.03125, -0.03125, 0.00000, 0.03125, 0.00000, 0.00000, 0.03125, 0.00000, 0.06250, 0.03125, 0.03125, 0.00000, -0.06250, -0.06250, 0.12500, 0.06250, 0.09375, 0.00000, -0.09375, -0.12500, -0.03125, 0.06250, 0.03125, 0.00000, -0.06250, -0.06250, 0.00000, 0.09375, -0.06250, 0.09375, 0.06250, -0.03125, 0.09375, 0.03125, -0.03125, 0.06250, 0.03125, -0.03125, -0.06250, -0.03125, 0.09375, -0.03125, 0.06250, -0.06250, 0.03125, 0.03125, -0.09375, -0.09375, 0.00000, 0.00000, 0.09375, 0.03125, 0.06250, -0.06250, -0.03125, -0.03125, 0.03125, -0.06250, 0.00000, -0.03125, 0.03125, -0.06250, -0.03125, 0.06250, -0.09375, -0.03125, 0.03125, 0.00000, 0.03125, 0.06250, -0.03125, -0.09375, 0.06250, 0.06250, -0.06250, 0.00000, 0.09375, 0.03125, 0.03125, -0.09375, 0.00000, 0.00000, -0.03125, 0.03125, 0.00000, 0.03125, 0.09375, -0.03125, -0.09375, -0.03125, -0.09375, 0.06250, -0.03125, 0.06250, 0.06250, 0.06250, 0.06250, -0.09375, 0.06250, -0.03125, 0.00000, 0.09375, 0.03125, -0.03125, 0.09375, 0.15625, 0.06250, 0.06250, -0.06250, 0.03125, -0.06250, -0.06250, 0.03125, 0.12500, 0.00000, 0.00000, -0.03125, 0.03125, -0.03125, -0.09375, 0.00000, 0.09375, 0.00000, -0.06250, 0.06250, 0.06250, -0.03125, -0.06250, 0.00000, 0.06250, -0.03125, 0.09375, 0.06250, 0.09375, -0.03125, 0.03125, 0.00000, -0.03125, 0.06250, 0.03125, 0.18750, 0.06250, 0.00000, 0.03125, 0.03125, 0.06250, 0.09375, 0.00000, -0.03125, 0.00000, 0.03125, 0.00000, 0.00000, 0.03125, 0.03125, 0.03125, -0.03125, 0.03125, 0.12500, -0.03125, 0.03125, -0.03125, 0.00000, 0.03125, 0.00000, -0.06250, 0.09375, 0.03125, -0.09375, 0.03125, 0.12500, 0.00000, 0.00000, 0.00000, 0.00000, 0.09375, 0.00000, -0.09375, -0.03125, 0.00000, 0.03125, 0.09375, 0.09375, 0.03125, 0.06250, 0.15625, 0.12500, -0.09375, 0.00000, -0.06250, -0.06250, -0.06250, 0.00000, -0.09375, -0.03125, 0.03125, 0.09375, 0.00000, -0.06250, -0.03125, -0.03125, -0.03125, 0.03125, 0.03125, -0.15625, 0.03125, -0.09375, -0.12500, -0.06250, -0.06250, -0.09375, -0.09375, -0.03125, 0.00000, -0.03125, -0.09375, 0.06250, 0.06250, 0.00000, 0.00000, 0.03125, 0.03125, -0.03125, -0.09375, -0.06250, -0.06250, 0.09375, 0.00000, 0.09375, 0.03125, -0.09375, -0.03125, -0.03125, -0.03125, -0.03125, 0.06250, -0.06250, 0.03125, 0.03125, -0.03125, 0.21875, 0.03125, 0.06250, 0.00000, 0.00000, 0.06250, 0.03125, 0.00000, 0.09375, 0.00000, 0.00000, -0.06250, 0.00000, 0.03125, -0.03125, -0.03125, 0.06250, 0.06250, 0.06250, -0.06250, 0.03125, 0.03125, 0.00000, -0.03125, 0.06250, -0.09375, 0.00000, 0.00000, -0.03125, 0.00000, -0.09375, 0.03125, 0.00000, -0.06250, 0.06250, -0.06250, 0.06250, -0.15625, -0.03125, 0.00000, 0.03125, -0.03125, -0.03125, 0.00000, -0.06250, 0.00000, -0.06250, 0.00000, 0.03125, 0.00000, 0.06250, 0.00000, 0.09375, 0.09375, -0.03125, 0.12500, 0.09375, 0.06250, -0.06250, -0.03125, 0.03125, -0.06250, -0.09375, 0.06250, -0.06250, -0.06250, -0.03125, 0.00000, 0.06250, -0.03125, 0.06250, -0.03125, 0.06250, 0.00000, 0.09375, -0.03125, -0.09375, -0.03125, -0.06250, -0.06250, -0.03125, -0.06250, 0.03125, 0.03125, 0.09375, -0.06250, 0.03125, -0.03125, 0.06250, 0.06250, -0.06250, -0.06250, 0.06250, 0.03125, -0.03125, 0.03125, 0.03125, 0.06250, 0.09375, 0.00000, 0.03125, 0.00000, 0.03125, -0.09375, 0.03125, 0.15625, 0.06250, 0.09375, -0.03125, -0.06250, 0.06250, 0.00000, -0.09375, -0.03125, 0.06250, -0.06250, 0.09375, -0.03125, -0.03125, 0.00000, 0.06250, 0.09375, -0.03125, 0.00000, -0.12500, 0.00000, -0.03125, -0.03125, -0.06250, 0.00000, 0.03125, 0.00000, 0.06250, 0.03125, -0.06250, 0.09375, 0.03125, 0.03125, 0.03125, 0.00000, 0.06250, -0.06250, 0.03125, 0.00000, 0.00000, -0.03125, 0.00000, 0.00000, 0.00000, -0.06250, 0.00000, 0.03125, -0.09375, 0.03125, 0.12500, 0.09375, 0.06250, -0.03125, -0.03125, -0.03125, 0.00000, 0.00000, 0.18750, 0.09375, 0.06250, 0.15625, -0.03125, 0.06250, -0.03125, 0.03125, 0.03125, 0.06250, -0.09375, 0.03125, 0.00000, -0.06250, -0.12500, -0.12500, -0.09375, -0.06250, 0.06250, 0.09375, -0.03125, -0.06250, 0.03125, -0.09375, -0.03125, 0.03125, -0.06250, 0.03125, -0.06250, 0.09375, -0.03125, 0.03125, 0.06250, 0.06250, -0.03125, -0.03125, 0.00000, 0.03125, -0.03125, 0.06250, 0.00000, 0.00000, 0.03125, 0.03125, 0.00000, -0.09375, -0.06250, 0.03125, 0.06250, 0.03125, 0.03125, 0.15625, -0.09375, 0.00000, -0.03125, 0.06250, 0.09375, 0.09375, 0.00000, -0.03125, 0.00000, 0.06250, -0.03125, -0.06250, -0.09375, -0.06250, 0.00000, 0.03125, -0.06250, 0.06250, -0.03125, -0.03125, 0.06250, 0.06250, -0.03125, 0.03125, 0.09375, -0.06250, 0.03125, -0.09375, 0.06250, -0.06250, -0.03125, -0.03125, -0.09375, 0.06250, -0.03125, 0.09375, -0.06250, -0.03125, 0.06250, -0.06250, -0.03125, -0.09375, -0.06250, 0.03125, -0.06250, -0.03125, 0.00000, -0.03125, -0.06250, 0.00000, -0.06250, -0.06250, 0.03125, -0.03125, 0.00000, 0.15625, -0.06250, 0.06250, -0.12500, 0.09375, -0.12500, 0.00000, 0.06250, -0.03125, 0.03125, 0.00000, -0.09375, 0.09375, 0.09375, 0.03125, -0.03125, 0.00000, 0.00000, 0.06250, -0.12500, 0.03125, 0.03125, -0.03125, 0.00000, 0.12500, 0.03125, 0.00000, 0.03125, -0.09375, -0.06250, 0.09375, 0.09375, 0.03125, -0.09375, 0.00000, 0.12500, 0.03125, 0.06250, 0.00000, 0.00000, 0.09375, -0.06250, 0.03125, -0.03125, 0.00000, 0.06250, 0.06250, -0.15625, 0.00000, -0.03125, -0.09375, 0.00000, 0.09375, -0.06250, 0.06250, -0.03125, 0.06250, -0.03125, 0.03125, 0.00000, -0.03125, 0.03125, 0.03125, -0.06250, -0.06250, -0.03125, 0.00000, 0.00000, 0.03125, 0.06250, 0.00000, 0.03125, 0.03125, 0.03125, -0.03125, -0.06250, -0.03125, -0.06250, 0.03125, 0.03125, 0.15625, -0.06250, 0.03125, -0.09375, 0.03125, 0.06250, 0.00000, -0.03125, -0.06250, -0.03125, 0.00000, 0.00000, 0.00000, -0.09375, 0.00000, 0.03125, 0.03125, 0.03125, 0.03125, -0.06250, -0.03125, 0.03125, -0.06250, 0.00000, 0.03125, 0.00000, -0.03125, 0.00000, 0.03125, -0.03125, 0.06250, 0.00000, -0.06250, 0.06250, 0.03125, -0.06250, 0.00000, 0.09375, 0.12500, 0.03125, -0.06250, 0.00000, 0.00000, 0.03125, -0.03125, -0.03125, -0.06250, 0.00000, 0.00000, -0.06250, 0.06250, -0.06250, -0.03125, 0.06250, -0.06250, 0.06250, 0.00000, 0.00000, 0.03125, -0.06250, -0.06250, -0.12500, -0.06250, -0.03125, 0.03125, 0.03125, -0.03125, 0.03125, 0.00000, -0.03125, 0.00000, 0.12500, -0.06250, 0.09375, 0.00000, -0.06250, 0.06250, -0.03125, -0.03125, 0.03125, 0.00000, 0.03125, -0.06250, -0.06250, 0.03125, -0.06250, 0.03125, 0.00000, 0.00000, -0.03125, -0.06250, -0.09375, 0.06250, 0.00000, -0.03125, 0.06250, 0.00000, -0.12500, 0.00000, -0.06250, 0.06250, 0.03125, 0.03125, 0.00000, 0.03125, -0.06250, -0.06250, 0.03125, -0.09375, -0.03125, 0.12500, 0.12500, -0.12500, -0.15625, -0.09375, 0.03125, 0.00000, 0.03125, 0.03125, -0.03125, -0.06250, 0.03125, -0.09375, 0.00000, 0.12500, 0.03125, 0.03125, -0.06250, -0.03125, 0.00000, -0.06250, 0.00000, -0.09375, -0.03125, 0.00000, -0.09375, 0.03125, 0.00000, 0.03125, -0.15625, 0.00000, 0.06250, 0.03125, -0.03125, 0.03125, 0.06250, -0.03125, 0.00000, -0.06250, -0.06250, -0.03125, 0.00000, 0.03125, -0.06250, -0.06250, -0.09375, 0.09375, 0.03125, 0.00000, 0.03125, 0.03125, 0.00000, 0.06250, 0.00000, 0.03125, 0.06250, 0.06250, 0.12500, -0.12500, 0.06250, -0.03125, 0.00000, 0.12500, -0.06250, 0.00000, 0.00000, -0.09375, -0.03125, -0.06250, -0.09375, 0.00000, 0.06250, -0.06250, -0.09375, -0.06250, -0.03125, -0.06250, 0.09375, -0.09375, 0.00000, 0.06250, -0.06250, 0.06250, -0.15625, 0.00000, -0.03125, 0.06250, 0.00000, -0.09375, 0.00000, -0.03125, -0.06250, -0.03125, 0.09375, -0.09375, 0.03125, -0.03125, 0.06250, -0.06250, 0.12500, 0.03125, -0.06250, 0.03125, -0.03125, -0.09375, 0.12500, 0.03125, 0.09375, 0.03125, 0.00000, -0.03125, -0.06250, -0.03125, 0.00000, 0.00000, -0.03125, 0.03125, -0.09375, 0.09375, 0.06250, 0.03125, -0.03125, 0.03125, 0.03125, 0.06250, 0.03125, -0.09375, 0.03125, 0.03125, -0.06250, 0.00000, 0.03125, 0.00000, -0.03125, 0.12500, 0.06250, 0.00000, 0.03125, -0.06250, 0.06250, 0.03125, -0.06250, 0.06250, 0.03125, 0.00000, -0.03125, 0.03125, 0.03125, 0.09375, 0.03125, -0.03125, -0.03125, 0.00000, 0.03125, -0.06250, -0.09375, 0.00000, -0.06250, 0.00000, 0.09375, 0.09375, -0.03125, -0.06250, 0.00000, -0.15625, -0.06250, -0.03125, 0.03125, -0.03125, 0.00000, 0.03125, 0.06250, 0.03125, 0.00000, 0.03125, 0.06250, 0.03125, -0.09375, -0.03125, 0.00000, 0.15625, 0.00000, -0.06250, 0.12500, -0.12500, 0.12500, -0.06250, 0.00000, 0.00000, -0.09375, 0.03125, 0.00000, 0.03125, 0.03125, 0.00000, -0.06250, 0.03125, 0.00000, -0.03125, -0.03125, 0.06250, 0.03125, -0.03125, -0.06250, 0.03125, -0.06250, 0.06250, -0.03125, 0.03125, -0.09375, -0.03125, -0.03125, 0.00000, -0.09375, 0.00000, -0.09375, 0.00000, -0.03125, -0.03125, 0.00000, 0.03125, -0.12500, 0.12500, 0.00000, 0.00000, -0.06250, -0.03125, -0.03125, -0.03125, 0.00000, -0.06250, 0.00000, 0.03125, -0.06250, 0.00000, 0.03125, 0.00000, -0.06250, -0.06250, -0.03125, 0.00000, 0.00000, 0.00000, -0.12500, 0.03125, 0.00000, 0.06250, -0.06250, 0.03125, -0.03125, 0.00000, 0.00000, 0.15625, -0.03125, 0.00000, 0.00000, 0.03125, 0.03125, -0.09375, 0.00000, 0.00000, -0.03125, 0.09375, 0.00000, -0.03125, -0.03125, 0.00000, -0.06250, 0.00000, -0.03125, -0.09375, -0.06250, 0.03125, -0.06250, -0.06250, 0.06250, 0.00000, -0.03125, 0.06250, -0.12500, 0.00000, 0.00000, 0.09375, -0.18750, -0.09375, -0.06250, -0.03125, -0.09375, -0.09375, -0.03125, -0.03125, -0.09375, -0.03125, -0.06250, -0.03125, -0.03125, -0.03125, 0.03125, -0.03125, 0.03125, 0.00000, 0.00000, -0.06250, 0.03125, -0.03125, -0.03125, 0.06250, 0.06250, 0.00000, 0.03125, -0.18750, 0.09375, -0.06250, 0.09375, -0.03125, 0.00000, 0.00000, -0.03125, 0.06250, -0.12500, 0.00000, 0.00000, -0.12500, 0.03125, 0.09375, -0.03125, -0.06250, 0.03125, 0.06250, 0.00000, -0.06250, 0.03125, -0.06250, 0.00000, -0.06250, -0.03125, -0.06250, -0.06250, -0.09375, -0.03125, 0.00000, 0.00000, 0.09375, 0.00000, 0.03125, -0.06250, 0.00000, 0.06250, 0.09375, 0.03125, -0.03125, -0.09375, -0.06250, 0.09375, 0.03125, 0.03125, -0.03125, -0.06250, 0.03125, 0.03125, -0.09375, 0.03125, -0.06250, 0.06250, 0.06250, 0.03125, -0.03125, -0.03125, 0.09375, -0.03125, 0.00000, -0.03125, -0.03125, -0.09375, 0.12500, -0.09375, 0.03125, -0.03125, -0.06250, 0.09375, 0.12500, 0.06250, -0.15625, 0.03125, 0.00000, 0.09375, 0.03125, -0.09375, 0.00000, 0.15625, -0.03125, 0.00000, 0.00000, -0.03125, 0.03125, -0.03125, 0.03125, -0.06250, 0.03125, -0.03125, 0.12500, -0.06250, -0.06250, 0.09375, 0.00000, -0.09375, -0.03125, -0.03125, 0.03125, -0.06250, -0.03125, 0.09375, 0.00000, -0.03125, -0.06250, 0.03125, -0.06250, -0.03125, 0.06250, -0.03125, -0.03125, -0.03125, 0.15625, 0.03125, 0.09375, 0.03125, -0.06250, -0.06250, -0.09375, 0.00000, 0.03125, 0.00000, 0.00000, 0.06250, 0.03125, 0.12500, 0.00000, 0.03125, 0.09375, -0.06250, -0.06250, -0.09375, 0.06250, 0.06250, 0.00000, 0.12500, -0.03125, 0.03125, -0.06250, 0.03125, 0.06250, -0.06250, 0.09375, 0.00000, -0.03125, 0.06250, -0.03125, -0.03125, -0.03125, -0.03125, -0.06250, 0.06250, 0.03125, 0.00000, -0.06250, 0.00000, -0.03125, -0.06250, 0.06250, 0.03125, -0.03125, -0.06250, 0.06250, 0.06250, 0.12500, 0.12500, 0.00000, 0.06250, -0.06250, -0.06250, -0.06250, -0.06250, 0.12500, -0.06250, -0.06250, -0.12500, -0.03125, -0.15625, -0.03125, 0.00000, 0.00000, 0.00000, -0.06250, -0.06250, -0.06250, 0.15625, -0.03125, 0.12500, 0.00000, 0.00000, 0.00000, 0.00000, -0.03125, -0.06250, 0.09375, 0.03125, -0.03125, 0.00000, 0.09375, 0.00000, 0.03125, 0.03125, -0.06250, 0.00000, 0.09375, 0.00000, 0.03125, 0.00000, 0.00000, 0.06250, -0.06250, -0.03125, 0.00000, -0.12500, 0.06250, -0.03125, -0.06250, -0.03125, 0.03125, 0.06250, -0.03125, -0.03125, -0.03125, 0.06250, 0.06250, -0.03125, 0.09375, 0.03125, -0.03125, 0.09375, 0.00000, 0.12500, 0.00000, 0.00000, -0.06250, -0.03125, 0.06250, -0.06250, 0.03125, 0.03125, -0.06250, -0.03125, -0.06250, -0.06250, -0.03125, 0.00000, 0.00000, 0.03125, -0.03125, 0.09375, -0.06250, -0.06250, -0.03125, 0.00000, 0.03125, -0.03125, 0.03125, 0.12500, -0.06250, 0.00000, -0.03125, -0.03125, -0.06250, 0.03125, -0.03125, -0.03125, 0.09375, -0.03125, -0.06250, 0.00000, -0.03125, 0.00000, -0.03125, -0.06250, 0.06250, 0.03125, -0.06250, -0.06250, -0.03125, -0.06250, -0.12500, 0.03125, -0.09375, -0.06250, -0.06250, 0.03125, 0.12500, 0.06250, 0.06250, 0.06250, 0.06250, 0.00000, 0.03125, -0.03125, -0.09375, -0.03125, 0.03125, -0.03125, -0.09375, 0.03125, 0.03125, 0.03125, 0.06250, 0.06250, 0.06250, -0.09375, 0.00000, 0.00000, 0.00000, 0.03125, -0.03125, -0.03125, -0.03125, 0.03125, -0.06250, -0.06250, 0.03125, -0.06250, -0.06250, -0.18750, 0.03125, -0.12500, 0.00000, -0.03125, -0.03125, -0.06250, -0.06250, 0.09375, 0.00000, -0.09375, 0.03125, -0.03125, 0.00000, -0.03125, 0.03125, 0.09375, -0.03125, 0.00000, 0.09375, -0.03125, 0.03125, 0.00000, 0.09375, -0.03125, -0.03125, -0.06250, 0.03125, 0.06250, -0.03125, -0.03125, 0.00000, 0.00000, 0.06250, 0.00000, -0.03125, -0.09375, 0.09375, 0.09375, 0.06250, 0.03125, 0.03125, -0.03125, 0.06250, -0.12500, 0.00000, -0.06250, 0.06250, 0.03125, 0.15625, 0.03125, -0.03125, -0.03125, 0.00000, -0.03125, 0.00000, 0.03125, -0.06250, -0.15625, -0.06250, -0.06250, 0.00000, -0.06250, 0.06250, 0.12500, 0.03125, 0.03125, -0.03125, -0.03125, -0.09375, 0.03125, -0.06250, 0.00000, -0.09375, 0.06250, 0.00000, -0.06250, 0.00000, -0.03125, -0.03125, -0.09375, 0.03125, 0.09375, 0.00000, -0.09375, 0.00000, -0.03125, 0.03125, 0.00000, 0.00000, -0.09375, 0.09375, 0.00000, -0.06250, 0.00000, 0.06250, 0.03125, 0.12500, 0.00000, 0.00000, 0.00000, 0.03125, -0.09375, 0.09375, 0.00000, 0.00000, 0.00000, 0.03125, -0.06250, -0.06250, -0.12500, -0.03125, -0.06250, 0.00000, -0.03125, 0.06250, 0.03125, -0.03125, -0.03125, -0.06250, 0.09375, 0.00000, -0.03125, 0.03125, -0.06250, -0.03125, 0.06250, -0.03125, 0.00000, 0.06250, 0.03125, 0.15625, 0.03125, 0.03125, -0.09375, -0.12500, -0.03125, 0.00000, -0.06250, 0.00000, 0.00000, 0.06250, -0.06250, 0.00000, -0.03125, 0.00000, 0.00000, 0.00000, -0.06250, 0.00000, 0.06250, 0.03125, -0.06250, 0.15625, -0.06250, 0.00000, -0.06250, -0.09375, 0.06250, -0.12500, -0.03125, 0.03125, -0.03125, 0.06250, 0.15625, -0.15625, -0.09375, -0.06250, 0.03125, 0.03125, -0.03125, 0.03125, -0.03125, -0.09375, 0.00000, -0.06250, -0.03125, 0.03125, -0.09375, -0.06250, -0.06250, 0.03125, 0.00000, 0.06250, -0.12500, 0.21875, -0.06250, 0.00000, 0.00000, 0.00000, 0.03125, -0.12500, -0.06250, -0.03125, 0.09375, 0.00000, 0.03125, -0.03125, -0.03125, 0.03125, -0.03125, 0.06250, 0.00000, 0.03125, 0.00000, 0.00000, 0.00000, 0.00000, -0.06250, 0.03125, 0.00000, 0.00000, -0.09375, -0.12500, 0.00000, -0.12500, 0.00000, 0.00000, 0.00000, 0.03125, -0.06250, 0.03125, -0.03125, 0.03125, 0.03125, 0.06250, -0.09375, -0.03125, 0.15625, 0.06250, 0.00000, 0.03125, 0.00000, 0.00000, -0.06250, 0.03125, 0.03125, 0.06250, 0.03125, 0.12500, 0.09375, 0.00000, 0.06250, -0.03125, 0.09375, -0.03125, 0.06250, 0.03125, 0.06250, 0.06250, -0.03125, -0.09375, -0.03125, 0.00000, -0.06250, -0.09375, 0.06250, 0.09375, 0.06250, 0.00000, 0.00000, -0.03125, -0.03125, 0.00000, -0.03125, 0.06250, -0.03125, -0.06250, -0.03125, 0.06250, -0.06250, 0.06250, -0.03125, 0.00000, 0.06250, 0.03125, -0.06250, 0.03125, -0.03125, 0.03125, -0.06250, 0.06250, -0.09375, -0.03125, 0.00000, 0.03125, 0.06250, 0.03125, 0.06250, 0.00000, 0.03125, 0.00000, 0.00000, 0.06250, 0.15625, -0.06250, 0.06250, -0.03125, -0.03125, -0.09375, -0.03125, 0.03125, 0.09375, 0.00000, 0.18750, 0.00000, -0.06250, -0.03125, 0.03125, 0.06250, 0.03125, 0.06250, 0.06250, 0.03125, -0.03125, 0.06250, -0.03125, 0.00000, 0.09375, 0.06250, 0.03125, 0.00000, 0.06250, -0.06250, -0.09375, 0.06250, 0.00000, 0.00000, -0.09375, 0.03125, 0.00000, -0.03125, 0.00000, 0.03125, 0.00000, 0.00000, 0.03125, -0.06250, 0.06250, 0.09375, 0.03125, 0.00000, 0.09375, 0.06250, 0.15625, -0.03125, 0.06250, 0.06250, 0.03125, 0.06250, 0.00000, 0.03125, 0.03125, -0.03125, 0.06250, -0.06250, -0.06250, 0.00000, 0.00000, -0.15625, 0.03125, 0.00000, -0.03125, 0.03125, -0.06250, 0.00000, 0.00000, 0.00000, 0.00000, 0.00000, -0.12500, 0.03125, 0.09375, -0.09375, -0.03125, 0.00000, 0.09375, 0.00000, -0.18750, 0.03125, -0.06250, 0.03125, 0.03125, 0.12500, -0.06250, -0.03125, 0.00000, 0.06250, 0.03125, 0.09375, 0.00000, -0.12500, 0.00000, -0.03125, 0.09375, 0.00000, 0.00000, 0.06250, 0.03125, -0.03125, 0.00000, -0.03125, 0.09375, 0.15625, -0.03125, -0.09375, 0.00000, -0.15625, 0.09375, -0.03125, 0.03125, -0.12500, 0.09375, 0.06250, 0.12500, 0.03125, 0.00000, 0.06250, 0.00000, -0.03125, 0.09375, 0.03125, -0.15625, 0.06250, -0.09375, 0.06250, -0.03125, 0.09375, -0.03125, -0.03125, -0.06250, 0.09375, 0.00000, 0.00000, 0.03125, -0.09375, 0.03125, 0.03125, 0.00000, 0.03125, 0.03125, -0.09375, 0.06250, 0.03125, 0.03125, -0.03125, 0.09375, 0.03125, -0.03125, 0.06250, -0.06250, 0.00000, -0.03125, 0.09375, 0.09375, -0.03125, 0.03125, 0.00000, 0.00000, -0.06250, -0.09375, 0.00000, 0.00000, -0.06250, -0.12500, 0.12500, 0.00000, -0.03125, 0.03125, 0.03125, 0.00000, -0.03125, 0.06250, 0.06250, 0.06250, -0.06250, 0.03125, 0.00000, 0.09375, -0.03125, 0.09375, 0.06250, 0.00000, -0.03125, 0.06250, 0.03125, 0.00000, -0.03125, -0.03125, -0.03125, -0.09375, 0.00000, 0.03125, 0.06250, -0.03125, -0.03125, 0.03125, 0.06250, 0.06250, 0.03125, -0.03125, 0.03125, 0.03125, 0.03125, -0.06250, -0.03125, -0.09375, 0.03125, 0.03125, 0.09375, 0.09375, 0.00000, 0.03125, 0.09375, 0.03125, 0.06250, 0.03125, 0.06250, -0.03125, -0.03125, -0.03125, -0.03125, 0.00000, -0.06250, -0.06250, -0.06250, -0.12500, 0.00000, 0.03125, 0.00000, 0.00000, 0.03125, 0.03125, 0.06250, -0.09375, -0.03125, -0.03125, 0.06250, 0.00000, 0.03125, -0.06250, 0.00000, 0.12500, 0.15625, 0.03125, 0.03125, 0.06250, 0.00000, 0.03125, 0.06250, 0.03125, -0.09375, 0.00000, 0.09375, 0.03125, 0.06250, 0.00000, 0.15625, -0.03125, 0.06250, 0.06250, 0.06250, -0.06250, 0.03125, 0.03125, 0.00000, -0.09375, -0.06250, 0.03125, 0.03125, -0.03125, 0.06250, -0.03125, 0.03125, 0.09375, -0.12500, -0.09375, 0.03125, -0.06250, 0.00000, -0.03125, 0.03125, 0.06250, 0.00000, 0.00000, -0.21875, -0.09375, 0.00000, 0.00000, 0.12500, 0.03125, 0.00000, 0.06250, 0.00000, 0.00000, -0.03125, -0.09375, 0.06250, 0.06250, 0.06250, 0.09375, 0.12500, -0.03125, 0.09375, 0.00000, 0.00000, -0.06250, -0.03125, 0.00000, 0.00000, 0.03125, -0.06250, 0.06250, 0.00000, 0.00000, -0.03125, -0.03125, 0.03125, 0.15625, 0.00000, 0.06250, -0.06250, -0.06250, -0.03125, 0.06250, 0.12500, 0.09375, 0.00000, 0.03125, -0.06250, 0.09375, -0.03125, 0.03125, 0.09375, 0.03125, 0.00000, -0.03125, 0.03125, -0.09375, 0.06250, -0.03125, 0.03125, 0.06250, -0.06250, 0.06250, -0.03125, -0.03125, 0.12500, -0.06250, -0.03125, 0.00000, 0.03125, 0.00000, -0.06250, 0.09375, 0.09375, 0.00000, -0.06250, 0.00000, 0.06250, -0.15625, -0.06250, 0.03125, -0.09375, 0.00000, 0.06250, 0.06250, -0.06250, -0.06250, -0.03125, -0.03125, 0.00000, 0.00000, -0.03125, 0.03125, -0.09375, 0.00000, 0.00000, 0.03125, 0.03125, 0.03125, -0.09375, -0.03125, -0.06250, -0.06250, -0.12500, 0.03125, 0.15625, 0.00000, 0.03125, -0.06250, 0.06250, -0.06250, 0.03125, 0.03125, 0.03125, -0.09375, 0.09375, 0.00000, 0.06250, 0.03125, -0.03125, -0.06250, -0.09375, 0.00000, 0.03125, -0.03125, -0.09375, -0.06250, 0.03125, 0.06250, 0.00000, 0.09375, -0.06250, 0.09375, 0.00000, 0.00000, 0.00000, -0.12500, -0.09375, -0.09375, 0.03125, 0.03125, -0.06250, -0.03125, -0.06250, 0.03125, 0.03125, 0.00000, 0.15625, 0.00000, 0.00000, 0.12500, 0.03125, 0.06250, 0.03125, 0.12500, 0.00000, -0.03125, 0.00000, -0.03125, 0.00000, -0.06250, 0.09375, 0.00000, 0.00000, 0.06250, -0.06250, -0.03125, 0.06250, -0.06250, -0.06250, 0.00000, 0.00000, -0.06250, -0.09375, 0.06250, 0.06250, -0.06250, -0.06250, -0.09375, 0.06250, -0.09375, -0.03125, 0.03125, -0.03125, 0.00000, 0.00000, 0.00000, 0.09375, 0.06250, -0.03125, 0.03125, 0.15625, -0.06250, -0.03125, 0.00000, 0.06250, -0.03125, -0.03125, -0.09375, -0.03125, -0.03125, -0.03125, 0.00000, 0.06250, 0.00000, 0.00000, 0.06250, 0.12500, 0.00000, -0.06250, -0.09375, 0.00000, 0.00000, 0.00000, -0.06250, -0.06250, 0.00000, 0.00000, -0.06250, -0.03125, 0.00000, -0.03125, -0.03125, 0.09375, 0.00000, -0.03125, 0.00000, -0.06250, -0.03125, -0.12500, 0.00000, 0.03125, -0.03125, 0.03125, -0.06250, -0.09375, 0.00000, -0.03125, -0.09375, -0.06250, -0.06250, 0.09375, 0.00000, 0.12500, 0.00000, 0.06250, -0.03125, 0.06250, 0.06250, 0.00000, 0.00000, -0.03125, 0.03125, -0.03125, -0.15625, -0.09375, 0.06250, 0.06250, 0.06250, 0.00000, -0.06250, 0.06250, -0.03125, 0.00000, 0.00000, 0.06250, -0.09375, 0.03125, 0.00000, 0.09375, -0.06250, 0.03125, 0.06250, -0.06250, -0.06250, 0.09375, -0.03125, -0.06250, -0.09375, -0.06250, 0.03125, -0.06250, 0.00000, 0.00000, -0.03125, -0.03125, -0.06250, -0.03125, 0.06250, 0.00000, 0.00000, -0.06250, 0.09375, -0.09375, 0.00000, 0.00000, -0.15625, -0.12500, 0.03125, -0.03125, 0.06250, -0.06250, -0.03125, -0.06250, 0.03125, 0.03125, 0.03125, -0.06250, 0.00000, -0.06250, 0.03125, -0.09375, 0.06250, 0.09375, 0.00000, -0.06250, -0.03125, -0.06250, -0.09375, 0.06250, 0.00000, -0.03125, -0.06250, 0.06250, 0.12500, 0.03125, 0.03125, 0.09375, -0.12500, 0.06250, -0.06250, -0.03125, 0.00000, -0.06250, 0.00000, 0.00000, -0.09375, -0.06250, -0.03125, 0.06250, -0.06250, -0.03125, 0.00000, 0.00000, -0.06250, -0.03125, -0.09375, 0.03125, -0.09375, -0.03125, -0.12500, -0.03125, 0.06250, 0.00000, -0.06250, -0.03125, 0.06250, 0.03125, 0.09375, 0.09375, -0.03125, -0.06250, -0.06250, 0.00000, 0.00000, 0.03125, -0.06250, -0.03125, -0.12500, 0.06250, 0.00000, 0.03125, -0.06250, 0.03125, -0.03125, 0.00000, -0.03125, -0.03125, -0.09375, -0.03125, -0.09375, 0.03125, -0.09375, 0.09375, -0.03125, 0.00000, -0.03125, 0.00000, 0.12500, 0.00000, -0.03125, -0.06250, -0.06250, 0.00000, 0.00000, 0.00000, -0.09375, -0.03125, 0.00000, 0.06250, -0.06250, 0.00000, -0.12500, 0.15625, 0.06250, -0.03125, -0.03125, 0.00000, 0.03125, 0.00000, 0.06250, 0.00000, 0.00000, 0.03125, 0.03125, -0.03125, 0.03125, -0.03125, -0.06250, 0.03125, 0.03125, -0.06250, 0.03125, -0.03125, 0.00000, 0.06250, 0.00000, 0.06250, 0.00000, 0.00000, 0.12500, -0.12500, -0.06250, 0.03125, -0.06250, -0.03125, -0.03125, -0.03125, 0.15625, 0.00000, -0.03125, 0.06250, 0.06250, -0.06250, -0.15625, 0.03125, 0.00000, -0.03125, -0.03125, -0.03125, -0.06250, -0.03125, 0.03125, 0.09375, 0.09375, -0.09375, -0.06250, 0.00000, 0.03125, 0.06250, 0.09375, -0.06250, -0.09375, 0.03125, 0.00000, 0.00000, -0.12500, 0.03125, -0.09375, -0.03125, -0.06250, 0.00000, 0.06250, 0.03125, 0.03125, -0.12500, -0.09375, -0.06250, -0.09375, 0.06250, -0.03125, 0.12500, -0.06250, -0.06250, -0.06250, -0.03125, 0.00000, -0.06250, -0.03125, 0.09375, -0.03125, 0.00000, -0.09375, 0.03125, 0.03125, 0.03125, 0.09375, -0.03125, -0.03125, -0.06250, 0.00000, 0.03125, -0.03125, -0.03125, -0.03125, -0.12500, -0.06250, 0.06250, -0.06250, 0.06250, -0.03125, -0.03125, -0.09375, -0.06250, 0.00000, -0.03125, -0.06250, -0.03125, 0.03125, 0.03125, -0.03125, -0.15625, -0.09375, -0.03125, -0.06250, 0.18750, 0.06250, -0.03125, 0.03125, 0.03125, -0.03125, 0.09375, -0.03125, 0.03125, 0.00000, 0.06250, -0.09375, 0.00000, -0.06250, 0.06250, -0.03125, 0.15625, 0.00000, 0.00000, 0.03125, 0.03125, 0.03125, -0.06250, -0.03125, -0.03125, 0.09375, -0.06250, -0.03125, 0.00000, 0.00000, 0.09375, -0.09375, 0.03125, 0.00000, -0.06250, -0.06250, -0.06250, 0.00000, -0.03125, 0.03125, 0.03125, 0.00000, 0.00000, 0.00000, 0.00000, -0.09375, -0.06250, -0.03125, 0.00000, -0.06250, -0.06250, 0.03125, -0.03125, -0.03125, 0.03125, -0.03125, -0.06250, -0.12500, 0.03125, 0.06250, 0.00000, 0.00000, 0.03125, 0.00000, -0.03125, 0.03125, 0.00000, 0.06250, -0.03125, -0.09375, 0.09375, 0.03125, 0.03125, -0.06250, 0.06250, -0.03125, -0.03125, 0.15625, 0.06250, -0.09375, -0.03125, 0.03125, -0.06250, 0.00000, -0.03125, 0.09375, -0.06250, -0.06250, 0.00000, 0.00000, 0.09375, 0.00000, 0.03125, -0.06250, -0.09375, -0.09375, -0.09375, -0.09375, -0.12500, 0.06250, 0.03125, -0.09375, 0.09375, -0.03125, 0.09375, -0.03125, 0.00000, 0.00000, -0.03125, -0.06250, 0.06250, -0.09375, 0.06250, 0.06250, 0.15625, -0.09375, 0.06250, 0.00000, 0.09375, -0.03125, -0.03125, 0.09375, 0.03125, 0.06250, 0.00000, -0.12500, 0.00000, 0.03125, 0.00000, 0.03125, -0.03125, 0.00000, 0.00000, 0.09375, 0.00000, 0.00000, -0.09375, -0.03125, -0.03125, 0.00000, 0.03125, -0.09375, 0.03125, 0.00000, 0.06250, 0.03125, -0.03125, -0.03125, 0.03125, -0.03125, 0.03125, -0.12500, 0.00000, -0.03125, -0.03125, 0.09375, -0.12500, -0.06250, -0.03125, 0.06250, 0.09375, -0.06250, -0.03125, 0.03125, 0.00000, 0.03125, 0.03125, 0.00000, 0.03125, -0.06250, -0.03125, 0.00000, 0.00000, -0.03125, -0.09375, 0.03125, -0.06250, 0.06250, -0.06250, 0.00000, -0.09375, 0.00000, -0.03125, 0.06250, 0.09375, 0.00000, 0.00000, 0.00000, 0.09375, 0.03125, 0.06250, -0.12500, -0.15625, -0.03125, 0.00000, 0.03125, 0.00000, -0.03125, 0.25000, 0.03125, 0.00000, 0.00000, 0.00000, -0.03125, 0.06250, 0.06250, -0.03125, -0.03125, 0.00000, 0.00000, 0.00000, -0.06250, 0.00000, -0.03125, -0.09375, 0.06250, -0.06250, 0.00000, 0.03125, -0.03125, -0.06250, 0.03125, 0.15625, 0.12500, -0.09375, -0.12500, 0.06250, 0.00000, 0.03125, -0.03125, 0.15625, -0.06250, 0.06250, 0.00000, -0.06250, 0.06250, 0.03125, 0.09375, 0.03125, -0.09375, 0.06250, -0.09375, 0.00000, -0.06250, 0.03125, 0.03125, -0.03125, -0.09375, 0.03125, -0.12500, 0.09375, -0.03125, 0.03125, -0.03125, 0.06250, 0.03125, -0.03125, -0.03125, 0.00000, 0.00000, -0.06250, 0.06250, 0.15625, 0.00000, -0.03125, -0.06250, 0.09375, 0.03125, 0.03125, 0.03125, 0.00000, 0.12500, -0.03125, 0.03125, 0.03125, -0.03125, 0.03125, 0.03125, 0.06250, 0.00000, 0.03125, 0.06250, 0.06250, 0.03125, 0.06250, 0.09375, 0.00000, -0.09375, 0.00000, -0.03125, -0.06250, 0.09375, 0.03125, -0.03125, 0.09375, 0.06250, 0.06250, 0.06250, 0.03125, -0.03125, 0.06250, -0.09375, 0.00000, -0.09375, 0.06250, 0.03125, -0.03125, 0.09375, 0.06250, 0.09375, 0.00000, 0.03125, -0.09375, -0.03125, 0.12500, -0.03125, 0.12500, -0.06250, 0.03125, -0.03125, -0.06250, -0.03125, 0.06250, 0.03125, 0.03125, 0.00000, 0.09375, 0.00000, -0.06250, -0.03125, -0.09375, -0.03125, 0.12500, 0.09375, 0.03125, -0.12500, 0.00000, 0.06250, -0.03125, 0.06250, -0.03125, -0.03125, 0.03125, -0.09375, -0.06250, 0.03125, -0.03125, -0.09375, 0.03125, 0.00000, 0.00000, 0.06250, 0.06250, 0.06250, -0.06250, -0.03125, 0.06250, 0.09375, 0.03125, 0.00000, 0.00000, 0.03125, -0.09375, 0.06250, -0.03125, 0.00000, 0.03125, -0.06250, -0.03125, 0.09375, 0.12500, 0.03125, -0.03125, 0.06250, 0.00000, 0.03125, -0.09375, -0.03125, 0.03125, 0.06250, 0.00000, 0.03125, -0.06250, 0.00000, 0.03125, 0.03125, -0.12500, -0.03125, 0.00000, 0.03125, 0.00000, 0.03125, 0.03125, 0.06250, -0.03125, 0.00000, 0.03125, 0.09375, 0.03125, 0.03125, 0.06250, -0.09375, 0.00000, -0.03125, -0.06250, 0.00000, 0.03125, -0.09375, 0.00000, -0.03125, 0.00000, -0.09375, -0.03125, -0.03125, -0.03125, -0.03125, 0.03125, 0.00000, 0.00000, -0.06250, -0.03125, -0.03125, 0.06250, 0.00000, 0.03125, 0.03125, 0.06250, 0.06250, 0.06250, 0.12500, -0.03125, 0.03125, -0.09375, 0.06250, 0.09375, 0.06250, 0.06250, -0.03125, -0.06250, 0.09375, 0.03125, 0.09375, -0.03125, 0.06250, 0.03125, -0.03125, 0.06250, 0.12500, 0.18750, 0.00000, 0.09375, 0.06250, -0.06250, 0.03125, 0.06250, 0.06250, 0.00000, -0.06250, -0.03125, 0.00000, 0.03125, 0.12500, 0.03125, 0.00000, -0.06250, 0.00000, 0.06250, 0.03125, 0.00000, 0.03125, 0.03125, -0.06250, 0.06250, 0.03125, 0.00000, 0.15625, 0.00000, -0.09375, 0.00000, 0.03125, -0.06250, 0.06250, 0.03125, -0.03125, -0.03125, 0.06250, -0.09375, 0.06250, 0.06250, -0.03125, 0.09375, 0.03125, 0.03125, 0.06250, 0.03125, -0.03125, 0.00000, 0.00000, 0.12500, 0.15625, -0.06250, 0.15625, -0.03125, -0.06250, 0.00000, 0.03125, 0.09375, -0.06250, 0.00000, 0.06250, 0.00000, -0.06250, -0.06250, -0.03125, 0.03125, 0.00000, 0.09375, 0.12500, 0.06250, -0.06250, 0.03125, 0.06250, 0.00000, 0.03125, -0.09375, -0.06250, 0.03125, 0.03125, 0.00000, -0.03125, -0.03125, 0.06250, 0.06250, 0.00000, 0.06250, 0.00000, 0.06250, 0.06250, 0.03125, 0.00000, 0.00000, -0.06250, 0.06250, -0.12500, 0.12500, 0.15625, 0.00000, -0.03125, -0.06250, 0.00000, 0.06250, -0.06250, 0.06250, 0.06250, 0.00000, 0.09375, -0.03125, 0.03125, -0.06250, 0.03125, -0.09375, -0.03125, -0.09375, -0.03125, -0.09375, 0.03125, -0.12500, -0.03125, -0.03125, -0.09375, 0.06250, 0.03125, 0.09375, 0.06250, 0.00000, -0.06250, 0.03125, -0.09375, -0.06250, -0.03125, -0.06250, 0.06250, 0.00000, 0.00000, 0.00000, 0.03125, 0.12500, 0.00000, 0.03125, -0.03125, -0.03125, -0.09375, 0.03125, -0.06250, -0.06250, 0.03125, 0.09375, -0.03125, -0.03125, -0.15625, -0.06250, -0.06250, 0.00000, -0.12500, 0.00000, 0.00000, 0.06250, 0.06250, 0.00000, -0.03125, -0.03125, 0.06250, 0.03125, -0.03125, 0.03125, -0.06250, -0.03125, 0.00000, -0.03125, 0.03125, 0.12500, -0.09375, 0.03125, 0.09375, 0.03125, 0.00000, -0.09375, 0.03125, 0.00000, -0.06250, 0.06250, 0.06250, 0.00000, -0.03125, 0.00000, -0.03125, -0.12500, 0.06250, 0.03125, -0.03125, -0.03125, 0.06250, -0.03125, -0.03125, -0.09375, 0.06250, -0.03125, -0.09375, -0.06250, 0.06250, 0.03125, -0.03125, 0.03125, -0.09375, 0.00000, 0.03125, 0.09375, 0.06250, 0.00000, -0.03125, -0.06250, -0.03125, -0.09375, -0.03125, 0.00000, -0.03125, 0.00000, 0.00000, -0.03125, 0.06250, -0.06250, 0.00000, -0.12500, 0.00000, 0.03125, -0.03125, 0.00000, -0.06250, 0.06250, -0.06250, -0.09375, -0.09375, 0.03125, -0.03125, -0.06250, 0.00000, 0.09375, -0.03125, 0.00000, 0.00000, 0.00000, 0.09375, -0.09375, -0.06250, -0.03125, -0.06250, 0.03125, 0.06250, -0.03125, -0.12500, 0.03125, 0.03125, -0.03125, -0.09375, -0.06250, -0.09375, 0.09375, 0.00000, -0.12500, 0.00000, -0.12500, -0.06250, -0.03125, 0.03125, -0.06250, 0.06250, -0.06250, -0.03125, 0.00000, 0.00000, -0.03125, 0.06250, 0.06250, 0.06250, 0.00000, 0.00000, 0.12500, 0.00000, -0.03125, -0.06250, -0.09375, -0.03125, 0.03125, -0.03125, -0.06250, -0.03125, 0.03125, -0.06250, -0.06250, 0.06250, 0.00000, 0.03125, -0.06250, -0.06250, 0.09375, -0.03125, 0.06250, -0.09375, -0.03125, 0.00000, 0.00000, 0.06250, 0.03125, 0.00000, -0.09375, -0.03125, 0.03125, 0.03125, 0.03125, -0.03125, -0.09375, -0.03125, 0.06250, -0.06250, 0.00000, -0.03125, 0.03125, -0.03125, 0.09375, -0.03125, -0.03125, 0.09375, -0.03125, -0.15625, 0.03125, 0.00000, 0.06250, 0.03125, 0.09375, -0.06250, 0.00000, 0.00000, 0.03125, 0.12500, -0.06250, 0.06250, 0.03125, 0.03125, 0.03125, 0.09375, 0.09375, 0.03125, -0.03125, -0.06250, -0.03125, 0.00000, -0.18750, 0.03125, 0.09375, 0.06250, 0.06250, 0.03125, 0.06250, 0.09375, 0.00000, 0.03125, 0.03125, 0.12500, -0.12500, 0.09375, 0.00000, 0.12500, -0.03125, -0.06250, 0.00000, 0.00000, -0.09375, 0.00000, 0.00000, -0.09375, 0.03125, 0.00000, 0.03125, 0.03125, 0.03125, -0.06250, -0.06250, 0.06250, -0.03125, -0.12500, -0.03125, -0.03125, -0.12500, 0.00000, 0.12500, -0.03125, -0.09375, -0.09375, 0.09375, 0.09375, -0.06250, -0.06250, 0.09375, -0.15625, -0.06250, 0.03125, -0.03125, -0.09375, -0.06250, 0.00000, 0.00000, -0.06250, -0.03125, -0.12500, 0.00000, 0.06250, 0.00000, -0.12500, 0.03125, 0.00000, 0.00000, 0.06250, -0.03125, 0.00000, 0.03125, -0.03125, 0.00000, 0.00000, -0.03125, 0.00000, -0.03125, 0.03125, 0.09375, -0.06250, 0.06250, 0.00000, 0.03125, -0.03125, -0.03125, 0.00000, -0.03125, 0.00000, -0.03125, -0.06250, -0.09375, -0.09375, 0.03125, -0.03125, -0.03125, 0.00000, 0.03125, 0.03125, 0.00000, -0.03125, -0.03125, -0.03125, 0.00000, 0.03125, 0.00000, 0.03125, 0.09375, 0.03125, 0.03125};
#endif

#endif
