//Numpy array shape [1, 128, 128]
//Min -7.448103904724
//Max 6.637169361115
//Number of zeros 0

#ifndef W56_H_
#define W56_H_

#ifndef __SYNTHESIS__
model_default_t w56[16384];
#else
model_default_t w56[16384] = {0.0871140286326408386, -0.4738033115863800049, -0.9984483718872070312, 0.7752754688262939453, 0.5649085044860839844, 1.4009310007095336914, -0.0257324315607547760, 0.8063074350357055664, -0.4913698732852935791, -0.5981163382530212402, -0.5084224939346313477, -3.9469947814941406250, 0.2779887616634368896, -0.8222599625587463379, -1.0009945631027221680, -5.4243311882019042969, -0.3246794641017913818, -4.4819860458374023438, -0.8315956592559814453, -0.8376675844192504883, -4.2772068977355957031, 1.6844292879104614258, -1.2121069431304931641, -0.4813328981399536133, -0.3941664993762969971, 0.9215251803398132324, -1.2857120037078857422, -0.5574629306793212891, -0.4524171054363250732, -0.4559624791145324707, -0.6102309226989746094, 0.8344894647598266602, 0.1633551120758056641, -0.4264550209045410156, -0.3158488869667053223, -0.8463781476020812988, 0.6174690127372741699, 1.8164499998092651367, -0.5902471542358398438, -0.3374420702457427979, -0.5128368735313415527, 0.9503828287124633789, 0.6317015886306762695, -0.4347039759159088135, -0.8333668112754821777, -1.3718199729919433594, -0.3730108737945556641, -0.9518666863441467285, -0.5413356423377990723, -0.7558844089508056641, 2.7263448238372802734, -0.5430145859718322754, -1.6671167612075805664, 1.3375715017318725586, -0.4153196513652801514, -0.9064937233924865723, -0.7349088191986083984, -0.4450735449790954590, -0.7616277933120727539, -1.0945196151733398438, -0.3308542072772979736, 0.4510920047760009766, -6.1684656143188476562, -0.5707935094833374023, -4.7518882751464843750, -0.5480215549468994141, -0.5051366686820983887, -0.4569386243820190430, -0.3900037705898284912, -0.5948042869567871094, -0.7835274934768676758, -3.1655583381652832031, -0.6735367178916931152, -0.3320361971855163574, -0.7063077688217163086, -4.8065052032470703125, -4.6671099662780761719, -5.6235599517822265625, -1.8569352626800537109, -0.3887892961502075195, 1.3658142089843750000, -0.5976516604423522949, 1.9367074966430664062, -0.2727310061454772949, -0.6706232428550720215, -0.6470547318458557129, -0.4983497560024261475, -0.3234086930751800537, 0.7338863015174865723, -1.4449123144149780273, -5.6527323722839355469, 1.2457603216171264648, -0.1962362825870513916, 1.2216061353683471680, -0.9347271323204040527, -0.5758176445960998535, -0.4641540050506591797, -2.0165603160858154297, -0.1199317499995231628, 0.7002547383308410645, -0.1971291303634643555, -5.3303723335266113281, -0.7799784541130065918, -5.5877356529235839844, -1.9259063005447387695, -0.5438245534896850586, -0.4212636649608612061, -4.2885265350341796875, -0.6388803720474243164, -4.7751803398132324219, -1.9431190490722656250, -0.4871951341629028320, 1.5984934568405151367, -0.3643548786640167236, -0.4912311732769012451, -1.1830362081527709961, 2.4737596511840820312, -4.9733667373657226562, -0.2968016862869262695, 0.1996445059776306152, -5.1861062049865722656, 0.0048940237611532211, -0.5158211588859558105, -0.0532214194536209106, 0.4918737709522247314, -5.3944029808044433594, -0.3323476612567901611, -0.3141525089740753174, 0.6030184030532836914, -1.4273887872695922852, 0.7866138815879821777, 0.8174199461936950684, 0.3479516804218292236, 0.1159158796072006226, -0.6264157295227050781, -0.1391411125659942627, 1.4465984106063842773, 0.9676316380500793457, 1.1156191825866699219, -2.3664941787719726562, 0.1906692385673522949, 1.4999252557754516602, 0.9304691553115844727, -3.5638928413391113281, 1.0667040348052978516, -2.4802339076995849609, 1.3410316705703735352, 1.4459822177886962891, -5.0582880973815917969, 0.8676927685737609863, 2.8472783565521240234, 2.1971163749694824219, 1.3910441398620605469, 1.5940604209899902344, -0.8617526292800903320, 1.3804483413696289062, 1.2824125289916992188, 1.3918480873107910156, 1.7747029066085815430, -0.1572588533163070679, -1.2259776592254638672, 1.3710012435913085938, 1.3740875720977783203, 1.4832838773727416992, -1.0281283855438232422, 0.0254351571202278137, 0.8691221475601196289, 3.6472477912902832031, 1.7231807708740234375, 0.7679926753044128418, 1.9895799160003662109, 1.0271697044372558594, 1.3085224628448486328, -0.7839075326919555664, 1.2081363201141357422, 0.0959727615118026733, 1.2799237966537475586, 1.5474684238433837891, 0.4524936974048614502, 1.1485546827316284180, -1.4856503009796142578, -0.6756140589714050293, 1.2379846572875976562, 1.3980144262313842773, 1.3426098823547363281, 1.2084701061248779297, 1.4049934148788452148, -1.5442109107971191406, 1.1427395343780517578, 2.1347942352294921875, -4.0273008346557617188, 1.5066320896148681641, -3.5581614971160888672, 1.6568615436553955078, 1.5109863281250000000, 1.3992863893508911133, 1.2989832162857055664, 1.1614168882369995117, 1.2755850553512573242, -0.3376095890998840332, 1.7065557241439819336, 1.0572131872177124023, 1.4440038204193115234, -3.3843524456024169922, -3.5519499778747558594, -3.3027560710906982422, 0.8213956356048583984, 1.2481249570846557617, 2.9874927997589111328, 1.4158363342285156250, 2.6591501235961914062, 1.2821530103683471680, 1.5710978507995605469, 1.5119903087615966797, 1.8565934896469116211, 0.6994421482086181641, -0.7018154859542846680, -1.2431080341339111328, -3.4894156455993652344, 0.5801894664764404297, 1.4807777404785156250, -0.6453341841697692871, -1.6249899864196777344, 1.3287609815597534180, 1.9939476251602172852, 2.3228878974914550781, -0.9995058178901672363, -0.1343354284763336182, -0.3215203285217285156, -3.0904071331024169922, 1.2301799058914184570, -0.1891658157110214233, 1.0337699651718139648, 1.0303282737731933594, 1.2776135206222534180, -2.5043425559997558594, 1.6743371486663818359, -4.4672956466674804688, -0.2202864736318588257, 1.3642017841339111328, 0.1819257140159606934, 1.2951501607894897461, 1.5144306421279907227, -1.0841169357299804688, 0.0121474033221602440, -4.1809787750244140625, 0.9634693264961242676, 0.4637699723243713379, -3.3428623676300048828, 0.5577157139778137207, 1.4404345750808715820, 1.3715480566024780273, 2.8227641582489013672, -3.1268916130065917969, 1.6411921977996826172, 1.1323812007904052734, -3.1175127029418945312, -0.4583603441715240479, -2.3572134971618652344, -1.5229839086532592773, -1.9842476844787597656, -2.2566163539886474609, 1.0477396249771118164, -1.6420310735702514648, -1.4973852634429931641, -0.8930487036705017090, -0.7097027301788330078, 1.6040153503417968750, -2.5196230411529541016, -1.8009778261184692383, -2.4117796421051025391, 6.2954134941101074219, -0.7547534704208374023, 3.1526391506195068359, -1.3757709264755249023, -2.9645180702209472656, 5.0077037811279296875, -1.8213731050491333008, -3.2870306968688964844, -3.2478284835815429688, -1.2621351480484008789, -0.2611173391342163086, 0.6279711127281188965, -1.5734263658523559570, -1.4754248857498168945, -1.4528856277465820312, -1.5107245445251464844, -2.1538956165313720703, -2.2870564460754394531, -1.3369367122650146484, -1.4911439418792724609, -1.3246034383773803711, -0.3911330699920654297, -1.5764300823211669922, -2.6516489982604980469, -1.0037513971328735352, -1.4274183511734008789, -1.2340880632400512695, -0.8091512918472290039, -0.4326048493385314941, -1.6181709766387939453, 0.8972576260566711426, -0.9360279440879821777, -2.0224537849426269531, -1.3611273765563964844, -1.6886966228485107422, -2.6075067520141601562, -1.0922904014587402344, -0.3150183558464050293, -3.1334450244903564453, -1.2415227890014648438, -1.9091010093688964844, -1.6380182504653930664, -1.0037120580673217773, -1.6821938753128051758, -1.5214070081710815430, -0.8619626760482788086, -1.5185136795043945312, 1.9436534643173217773, -1.9584445953369140625, 2.3401818275451660156, -1.5964317321777343750, -1.3955204486846923828, -1.5648125410079956055, -1.2211743593215942383, -1.3830884695053100586, -1.2724827527999877930, 0.4530996084213256836, -1.4464702606201171875, -1.4877972602844238281, -1.6783030033111572266, 2.4907243251800537109, 1.5795087814331054688, 1.7818303108215332031, -4.2199020385742187500, -1.1234906911849975586, -3.2699234485626220703, -1.2981395721435546875, -2.8233683109283447266, -0.7601252198219299316, -1.7740594148635864258, -1.5826828479766845703, -1.4291481971740722656, -2.4951689243316650391, 0.6426972746849060059, -1.3635420799255371094, 2.8669679164886474609, -1.2221678495407104492, -1.2844582796096801758, -3.2093870639801025391, -1.8301757574081420898, -1.3545651435852050781, -1.8570780754089355469, -2.2692954540252685547, -1.5620908737182617188, -1.4972012042999267578, 1.2821210622787475586, 2.5329203605651855469, -1.4145183563232421875, 2.4863505363464355469, -1.3700731992721557617, -1.1964634656906127930, -1.3013265132904052734, 2.8626260757446289062, -1.2355997562408447266, 4.1545214653015136719, -0.8678919076919555664, -1.4864311218261718750, -1.7352898120880126953, -1.3379911184310913086, -1.1733901500701904297, -1.9252929687500000000, -1.5285481214523315430, 3.3989055156707763672, -1.2014892101287841797, -3.3684444427490234375, 1.8797653913497924805, -3.4633972644805908203, -1.1889023780822753906, -3.6123580932617187500, -1.1442626714706420898, 2.2671561241149902344, -1.8667596578598022461, -1.5375313758850097656, 0.1759045124053955078, -1.3204746246337890625, 0.7695004343986511230, 0.7045540213584899902, 0.8949676156044006348, -0.2677835822105407715, -0.8486597537994384766, 0.1254946142435073853, 1.1746721267700195312, 0.9256723523139953613, 1.0467488765716552734, -2.3818347454071044922, 0.0168541409075260162, 1.3760516643524169922, 1.1821265220642089844, -3.5045647621154785156, 1.0453672409057617188, -2.5591158866882324219, 1.4625446796417236328, 1.5303735733032226562, -4.4768462181091308594, 0.6155379414558410645, 2.4852142333984375000, 2.0260601043701171875, 1.2754604816436767578, 1.1610018014907836914, -0.6358912587165832520, 1.4413247108459472656, 1.3935222625732421875, 1.4783291816711425781, 1.5464373826980590820, 0.0468344129621982574, -1.2927800416946411133, 1.6006013154983520508, 1.3404271602630615234, 1.1229124069213867188, -1.1291449069976806641, 0.0647012591361999512, 0.8207948803901672363, 3.6039648056030273438, 1.3612753152847290039, 0.8598326444625854492, 1.7188935279846191406, 1.1341507434844970703, 1.2964508533477783203, -1.2387359142303466797, 0.9439266324043273926, 1.1149777173995971680, 1.4192869663238525391, 1.5668350458145141602, 0.4426838159561157227, 1.1894719600677490234, -1.6510207653045654297, -0.8232026696205139160, 1.2308442592620849609, 1.4457843303680419922, 1.1935123205184936523, 1.0693709850311279297, 1.4081430435180664062, -1.5527387857437133789, 1.1846276521682739258, 2.3003594875335693359, -3.9761919975280761719, 1.6100803613662719727, -3.4463953971862792969, 1.4151408672332763672, 1.5392602682113647461, 1.3682199716567993164, 1.4299446344375610352, 1.2010648250579833984, 1.2295897006988525391, -0.3363406062126159668, 1.3636935949325561523, 1.3546276092529296875, 1.6592671871185302734, -3.6373419761657714844, -3.5693924427032470703, -3.4581427574157714844, 1.3775330781936645508, 1.3694323301315307617, 2.7464814186096191406, 1.5201913118362426758, 2.6174390316009521484, 1.0725656747817993164, 1.4613127708435058594, 1.2450048923492431641, 1.5741343498229980469, 0.6740769743919372559, -0.6809084415435791016, -1.8303158283233642578, -3.8340282440185546875, 0.7125293612480163574, 1.5374863147735595703, -0.6504034399986267090, -1.5651986598968505859, 1.3738284111022949219, 1.2590688467025756836, 2.1493282318115234375, -0.9066100716590881348, -0.4592155814170837402, -0.5261515974998474121, -3.3841452598571777344, 1.2493557929992675781, -0.1844508051872253418, 1.2805039882659912109, 0.9321732521057128906, 1.3470010757446289062, -2.5333995819091796875, 1.4917037487030029297, -4.6327276229858398438, -0.2922079861164093018, 1.2506794929504394531, 0.0869050770998001099, 1.3529939651489257812, 1.3314383029937744141, -1.2363996505737304688, -0.1997795999050140381, -4.3477568626403808594, 1.1905308961868286133, 0.2629805505275726318, -3.6306846141815185547, 0.6800030469894409180, 1.1921057701110839844, 1.9263525009155273438, 2.6824526786804199219, -3.3343470096588134766, 1.5390067100524902344, 1.6605532169342041016, 0.4552181363105773926, -1.1714648008346557617, 0.7393119335174560547, 1.0764889717102050781, 0.6609758138656616211, 0.0939591675996780396, -0.3935748934745788574, 0.3147181570529937744, 1.6488896608352661133, 1.2385810613632202148, 1.3690384626388549805, -2.2102062702178955078, -0.3062318265438079834, 1.7774453163146972656, 1.1780887842178344727, -3.0132799148559570312, 1.3270907402038574219, -2.3081409931182861328, 1.6107342243194580078, 1.6486800909042358398, -4.7888765335083007812, 1.1081936359405517578, 2.6562442779541015625, 2.2024385929107666016, 1.5956859588623046875, 1.6675038337707519531, -0.7528352737426757812, 1.6956074237823486328, 1.4479629993438720703, 1.4081363677978515625, 1.7508322000503540039, 0.0810597017407417297, -1.4194655418395996094, 1.6718029975891113281, 1.5890237092971801758, 1.5262316465377807617, -0.9578167200088500977, 0.0525746308267116547, 0.8310570716857910156, 3.8479578495025634766, 1.8800536394119262695, 1.2663562297821044922, 2.0626139640808105469, 1.5900448560714721680, 1.4441683292388916016, -0.8057670593261718750, 1.3630695343017578125, 0.4686217010021209717, 1.4365783929824829102, 1.7819477319717407227, 0.5640855431556701660, 1.6206380128860473633, -1.3906784057617187500, -0.7064773440361022949, 1.4510494470596313477, 1.7173546552658081055, 1.6662560701370239258, 1.3808727264404296875, 1.5420396327972412109, -1.7198840379714965820, 1.3084158897399902344, 2.3305976390838623047, -3.9171183109283447266, 1.3272370100021362305, -3.4885063171386718750, 1.6582355499267578125, 1.7334649562835693359, 1.6034191846847534180, 1.5463793277740478516, 1.6281517744064331055, 1.4169565439224243164, -0.4147774875164031982, 1.6761738061904907227, 1.5730847120285034180, 1.4803738594055175781, -3.4515075683593750000, -3.4836993217468261719, -3.3012382984161376953, 0.6911017894744873047, 1.4020727872848510742, 2.9476139545440673828, 1.5757359266281127930, 2.8662252426147460938, 1.3831723928451538086, 1.7335002422332763672, 1.7108120918273925781, 1.8781626224517822266, 0.9365192055702209473, -0.5188028812408447266, -1.3638409376144409180, -3.4096012115478515625, 0.7807379364967346191, 1.7066397666931152344, -0.6925402879714965820, -1.7026541233062744141, 1.5975756645202636719, 1.8429371118545532227, 2.4726905822753906250, -1.0622110366821289062, 0.0217946674674749374, -0.2800155580043792725, -3.1761760711669921875, 1.5255559682846069336, 0.1215272098779678345, 1.2891774177551269531, 1.5043791532516479492, 1.3755841255187988281, -1.8882917165756225586, 1.8037049770355224609, -4.5334630012512207031, -0.1742989122867584229, 1.5446779727935791016, 0.0569866634905338287, 1.4354679584503173828, 1.5987458229064941406, -1.1200382709503173828, 0.0875782892107963562, -4.1110110282897949219, 1.4255558252334594727, 0.4635170996189117432, -3.6379358768463134766, 0.4587622284889221191, 1.3140153884887695312, 1.3089134693145751953, 2.9139947891235351562, -3.2210919857025146484, 1.7770648002624511719, 1.4324833154678344727, -2.0526700019836425781, -1.4503922462463378906, -1.7716054916381835938, -3.0551795959472656250, -2.8852319717407226562, -3.0336153507232666016, 0.0638187825679779053, -2.4877209663391113281, -2.0570366382598876953, -1.6937549114227294922, -2.0404362678527832031, 2.8093304634094238281, -1.9892449378967285156, -1.9803853034973144531, -1.3640035390853881836, 4.5074563026428222656, -1.6301606893539428711, 2.9819660186767578125, -2.0027184486389160156, -2.2869958877563476562, 4.5731406211853027344, -2.9793703556060791016, -1.8665374517440795898, -0.5973407030105590820, -2.0794875621795654297, -0.7732005715370178223, 0.6862779259681701660, -2.2188239097595214844, -2.0730931758880615234, -1.8489555120468139648, -1.9737112522125244141, -3.4185578823089599609, -0.1116844266653060913, -2.3630917072296142578, -1.6234146356582641602, -1.8968290090560913086, -0.7531782984733581543, -2.9132153987884521484, -2.0205938816070556641, -0.5410233139991760254, -1.8205883502960205078, -2.5270256996154785156, -0.9144757390022277832, -1.9895167350769042969, -2.1682329177856445312, 0.4052457213401794434, -1.7115429639816284180, -1.7334990501403808594, -2.0720129013061523438, -1.9148693084716796875, -2.0940599441528320312, -1.9518780708312988281, -0.5576533079147338867, -2.2861132621765136719, -2.1643500328063964844, -2.2912268638610839844, -2.1985263824462890625, -2.0481593608856201172, -2.1071240901947021484, 0.6267342567443847656, -1.7628628015518188477, -1.3053215742111206055, 3.6791088581085205078, -1.1631441116333007812, 3.8539628982543945312, -2.0057544708251953125, -2.2723977565765380859, -2.1702942848205566406, -2.3743579387664794922, -2.0948750972747802734, -2.0834510326385498047, 0.5322523117065429688, -1.9313720464706420898, -2.2351975440979003906, -1.7787244319915771484, 3.4534804821014404297, 4.1838393211364746094, 4.1159043312072753906, -1.0773108005523681641, -2.0075342655181884766, -0.4270690679550170898, -2.1710002422332763672, -0.8983876705169677734, -1.8642617464065551758, -2.0799984931945800781, -2.1850516796112060547, -2.0559051036834716797, -2.2874999046325683594, -0.0533543266355991364, -1.9234592914581298828, 3.8194100856781005859, 0.3113454878330230713, -1.9490021467208862305, -2.1547677516937255859, -0.5973255634307861328, -2.3327291011810302734, -1.4325349330902099609, -1.9535493850708007812, -2.0711100101470947266, -1.4653837680816650391, 0.7197152972221374512, 3.5641930103302001953, -2.0706906318664550781, 1.6301544904708862305, -0.7094703316688537598, -1.8228698968887329102, -2.1199762821197509766, 3.6964445114135742188, -1.9196524620056152344, 4.7904863357543945312, 0.1268464922904968262, -2.1857306957244873047, -3.3268711566925048828, -2.1433317661285400391, -1.8248922824859619141, -1.5600271224975585938, 0.6471424102783203125, 4.8386688232421875000, -1.4066210985183715820, -1.9283741712570190430, 4.3635892868041992188, -2.3700523376464843750, -1.7224490642547607422, -1.1743316650390625000, -1.1598631143569946289, 4.2123470306396484375, -1.8883304595947265625, -1.3187943696975708008, 1.3832652568817138672, -1.5604774951934814453, 3.1320576667785644531, -1.8164633512496948242, -2.7992773056030273438, -1.0468398332595825195, -1.9231622219085693359, -2.1450035572052001953, 1.0741432905197143555, 0.4951143264770507812, 0.4850168228149414062, -0.1383060812950134277, -2.4392752647399902344, 0.9477835893630981445, 2.0158452987670898438, 0.0436199344694614410, 0.1933984458446502686, -2.2042958736419677734, 0.9779804348945617676, 3.5252237319946289062, -1.6756318807601928711, -2.2145361900329589844, 2.9610257148742675781, 2.0593490600585937500, 1.1669776439666748047, 0.9082683324813842773, -0.3764180839061737061, 1.2974231243133544922, 1.1483620405197143555, 1.2890725135803222656, 1.1735308170318603516, -2.4232823848724365234, -0.8978905677795410156, 1.4862248897552490234, 1.8713049888610839844, 0.8259741663932800293, 0.5270214676856994629, -1.9335786104202270508, 1.9716449975967407227, 3.5875010490417480469, 1.0099987983703613281, -1.9773265123367309570, 0.6292039752006530762, 0.4328817129135131836, 0.8556292653083801270, -1.5914182662963867188, 0.6114935278892517090, 1.1274831295013427734, 0.8059992194175720215, 1.0061454772949218750, -2.3292365074157714844, 0.7618508934974670410, -2.0111184120178222656, -2.8623301982879638672, 1.0230050086975097656, 1.3525016307830810547, 0.9145978093147277832, 0.6854071617126464844, 1.0363460779190063477, -2.2454729080200195312, 0.6959456801414489746, 1.9790732860565185547, -0.5767082571983337402, 3.0084962844848632812, -0.3238382041454315186, 1.2875479459762573242, 0.9848788380622863770, 1.0854882001876831055, 0.8750745058059692383, 1.0050773620605468750, 0.9172260761260986328, 2.7225351333618164062, 1.2249956130981445312, 1.3467304706573486328, 1.4087017774581909180, -0.4283056259155273438, 0.9762323498725891113, 0.6072385907173156738, 2.3666577339172363281, 1.0208665132522583008, 1.9706537723541259766, 0.8523796796798706055, 0.7201595306396484375, 0.5219141840934753418, 1.1015732288360595703, 0.9207753539085388184, 1.2048735618591308594, 1.7707873582839965820, -1.8260899782180786133, -0.8242196440696716309, -0.5834619402885437012, 0.4644774794578552246, 1.3399578332901000977, -2.8368916511535644531, -1.2117528915405273438, 1.0310455560684204102, 1.9932868480682373047, 3.0964267253875732422, -2.2129120826721191406, 1.8264045715332031250, -1.8210951089859008789, -0.8853735923767089844, 1.0560910701751708984, 3.4898269176483154297, 3.9388608932495117188, 0.5036633014678955078, 0.9955672621726989746, -2.3077816963195800781, 1.2407670021057128906, -0.1276399642229080200, -0.4926704466342926025, 1.5140304565429687500, -2.6654219627380371094, 1.0069680213928222656, 0.8113826513290405273, -2.9062530994415283203, -2.5095191001892089844, -1.9074823856353759766, 0.7019373774528503418, -3.8739869594573974609, -0.7588114142417907715, 1.7112196683883666992, 0.5918610692024230957, 3.5504434108734130859, 1.7000111341476440430, -0.8851990699768066406, 1.1661394834518432617, 1.5763527154922485352, -0.1903669834136962891, -0.8803445100784301758, 0.5841423273086547852, 0.3790728449821472168, 0.2224923223257064819, -0.0891031622886657715, -1.1598070859909057617, 0.1594053059816360474, 0.6240869164466857910, 0.1895265430212020874, -0.1072555482387542725, -0.9497351646423339844, -0.4469004869461059570, 0.5855573415756225586, -0.4752489924430847168, -2.2763717174530029297, 0.0381516702473163605, -0.6562053561210632324, 0.3258720636367797852, 0.8294475078582763672, -3.2472307682037353516, -0.1610118448734283447, 1.6377247571945190430, 1.2000542879104614258, 0.2408856898546218872, 0.4357674419879913330, -1.6653357744216918945, 0.4599681794643402100, 0.3758058249950408936, 0.2572892606258392334, 0.6669517159461975098, -0.4086646735668182373, -3.5966963768005371094, 0.2290914952754974365, 0.3398720622062683105, 0.3895546197891235352, -1.9699293375015258789, -0.2251571118831634521, -0.3619575202465057373, 2.2378706932067871094, 0.4704238772392272949, 0.2163984626531600952, 0.3222230374813079834, -0.1322800070047378540, 0.1581607609987258911, -1.6295937299728393555, -0.0978553444147109985, -0.4282191395759582520, 0.0666342899203300476, 0.4618902504444122314, -0.4329993426799774170, 0.1063713133335113525, -1.7507899999618530273, -1.0313144922256469727, 0.0894580185413360596, 0.2852439284324645996, 0.3736384510993957520, 0.0421102717518806458, 0.1386764198541641235, -2.0722379684448242188, 0.1018703430891036987, 0.7930375933647155762, -1.9744027853012084961, 0.3112643063068389893, -2.0153577327728271484, 0.5011697411537170410, 0.2717286646366119385, 0.2993903458118438721, 0.1731722354888916016, 0.1958561837673187256, 0.2730431556701660156, 0.7343541979789733887, 0.5704441666603088379, 0.1320098340511322021, 0.2330828011035919189, -1.8902502059936523438, -1.9733687639236450195, -2.1684350967407226562, -0.0932475328445434570, 0.0826916694641113281, 0.4892680943012237549, 0.3184243440628051758, 0.8149764537811279297, 0.2594168186187744141, 0.6498784422874450684, 0.2490032315254211426, 0.6105529069900512695, 0.1352802664041519165, -2.3015482425689697266, -1.0648324489593505859, -2.6457936763763427734, 1.9105635881423950195, 0.2776845395565032959, -1.0290341377258300781, -3.8724908828735351562, 0.3881209194660186768, 0.1462782919406890869, 0.7803543806076049805, -1.1059497594833374023, -1.4586915969848632812, -1.5078717470169067383, -1.5163542032241821289, 0.2389606237411499023, 0.4769234359264373779, 0.6546327471733093262, 0.1799974888563156128, 0.2278715968132019043, -0.7254425287246704102, 0.5810702443122863770, -2.4845700263977050781, -2.4810719490051269531, 0.1066417545080184937, -0.0026571024209260941, 0.1688495725393295288, 0.5121089816093444824, -1.2409447431564331055, -1.7410873174667358398, -2.5038623809814453125, -0.3458831310272216797, 0.1010268107056617737, -2.0183198451995849609, -0.3230732977390289307, 0.3986264467239379883, -0.0908470302820205688, 0.8675883412361145020, -1.8433240652084350586, 0.4093048870563507080, -0.1599872857332229614, 2.5858547687530517578, -0.2477898895740509033, 3.4253196716308593750, -1.6752090454101562500, -1.9105410575866699219, -1.9124739170074462891, 0.3535308837890625000, -2.5517563819885253906, 1.4552738666534423828, 1.0024735927581787109, 1.0842305421829223633, 0.4258785843849182129, -2.9467887878417968750, 1.3929141759872436523, 1.6120561361312866211, 0.9597459435462951660, 0.8413550853729248047, -0.7965226769447326660, 1.6177971363067626953, 3.8292641639709472656, -1.6945723295211791992, -2.9550790786743164062, 2.9768776893615722656, 1.9524282217025756836, 1.5783692598342895508, 1.6500042676925659180, -0.1022096276283264160, 1.7050863504409790039, 1.5131161212921142578, 1.6002238988876342773, 1.6107858419418334961, -3.0722203254699707031, -1.9068183898925781250, 1.8538100719451904297, 1.7882266044616699219, 1.4421328306198120117, 0.7645127773284912109, -3.3276195526123046875, 2.5022213459014892578, 3.1763129234313964844, 1.4924291372299194336, -2.0717625617980957031, 1.3323616981506347656, 0.9045588374137878418, 1.6047931909561157227, -0.8929975628852844238, 1.0082849264144897461, 2.6473219394683837891, 1.4718506336212158203, 1.7213467359542846680, -3.4315838813781738281, 1.0876296758651733398, -1.8288888931274414062, -2.9708294868469238281, 1.2138589620590209961, 1.8628282546997070312, 1.5620135068893432617, 1.0621881484985351562, 1.6780909299850463867, -0.7962834239006042480, 1.0927357673645019531, 2.1104123592376708984, 0.2849626541137695312, 2.5318877696990966797, 0.0411987230181694031, 1.8405710458755493164, 1.4792735576629638672, 1.5368946790695190430, 1.3395206928253173828, 1.4929192066192626953, 1.4517257213592529297, 4.0346584320068359375, 1.6912521123886108398, 1.6536196470260620117, 1.7843288183212280273, -0.3847726285457611084, 0.4503117799758911133, -0.0960027948021888733, 1.9046511650085449219, 1.3808308839797973633, 0.6542432308197021484, 1.3486598730087280273, 2.2130188941955566406, 1.1339952945709228516, 1.8426848649978637695, 1.3334871530532836914, 1.8061231374740600586, 2.9115753173828125000, -1.4991345405578613281, -0.1910849809646606445, -0.2597819864749908447, 1.0605672597885131836, 1.8122594356536865234, -2.7044200897216796875, -1.5243222713470458984, 1.4932138919830322266, 0.8129714727401733398, 3.3633761405944824219, -1.4350465536117553711, 2.2164082527160644531, -0.4387366473674774170, 0.7737609148025512695, 1.4423977136611938477, 5.2045049667358398438, 3.0519340038299560547, 1.3608845472335815430, 1.5392239093780517578, -1.5021125078201293945, 1.6443008184432983398, 0.0903463959693908691, -0.1015354916453361511, 1.7156488895416259766, -2.9269816875457763672, 1.4111620187759399414, 1.3709660768508911133, -1.0130904912948608398, -2.3791673183441162109, -0.0946221873164176941, 1.1064168214797973633, -3.3759164810180664062, 0.9556989669799804688, 2.4688510894775390625, 1.1944565773010253906, 2.5829446315765380859, 2.0523447990417480469, 0.9125800728797912598, 1.8083070516586303711, 1.6593981981277465820, 0.2725817859172821045, -1.6019204854965209961, 0.8443480134010314941, 0.6141636967658996582, 0.8367365598678588867, -0.0324325375258922577, -0.7087044119834899902, 0.0439667217433452606, 1.4241688251495361328, 0.7894297242164611816, 1.1477267742156982422, -2.3537573814392089844, -0.2223535627126693726, 1.3340513706207275391, 1.4164934158325195312, -3.4887015819549560547, 0.8193509578704833984, -2.3441789150238037109, 1.3650701045989990234, 1.1715688705444335938, -4.4660882949829101562, 0.5214222669601440430, 2.3047173023223876953, 2.0024738311767578125, 1.4064254760742187500, 1.3814208507537841797, -0.8483859300613403320, 1.4832959175109863281, 1.3766826391220092773, 1.3349652290344238281, 1.5374902486801147461, 0.1061473414301872253, -1.4036631584167480469, 1.5242036581039428711, 1.2629450559616088867, 1.2190471887588500977, -1.0499868392944335938, 0.1236719116568565369, 0.8576313257217407227, 3.1475315093994140625, 1.4988918304443359375, 1.0493047237396240234, 1.4879786968231201172, 1.0078986883163452148, 1.1521565914154052734, -1.0077953338623046875, 1.1627111434936523438, 0.9791644811630249023, 1.4061439037322998047, 1.6689926385879516602, 0.3358106613159179688, 1.2799313068389892578, -1.7820641994476318359, -0.7651939988136291504, 1.3123886585235595703, 1.3263788223266601562, 1.3139986991882324219, 1.1887654066085815430, 1.2722392082214355469, -1.4633421897888183594, 1.2079452276229858398, 2.2583262920379638672, -3.8823411464691162109, 1.5480885505676269531, -3.4757313728332519531, 1.3971000909805297852, 1.5511791706085205078, 1.4754500389099121094, 1.4013936519622802734, 1.2622431516647338867, 1.0914652347564697266, -0.4846317172050476074, 1.3004316091537475586, 1.3931653499603271484, 1.5375334024429321289, -3.4888670444488525391, -3.4979279041290283203, -3.4565248489379882812, 1.2629916667938232422, 1.3383210897445678711, 2.6923351287841796875, 1.6379637718200683594, 2.7460143566131591797, 1.0814670324325561523, 1.6025459766387939453, 1.3012837171554565430, 1.4976439476013183594, 0.6567447185516357422, -0.5181788206100463867, -1.6891874074935913086, -4.0920023918151855469, 0.3437065482139587402, 1.2732501029968261719, -0.8290948271751403809, -1.6117697954177856445, 1.2780053615570068359, 1.1796666383743286133, 1.9076803922653198242, -1.2226219177246093750, -0.1732525825500488281, -0.6348647475242614746, -3.5156488418579101562, 1.4744337797164916992, -0.1744424402713775635, 1.3033217191696166992, 0.8708209991455078125, 1.3482019901275634766, -2.5209999084472656250, 1.5586394071578979492, -4.5052847862243652344, -0.6604102849960327148, 1.2908600568771362305, 0.2742044329643249512, 1.3897368907928466797, 1.2572697401046752930, -1.3068894147872924805, -0.1730750054121017456, -4.3237223625183105469, 0.9821096062660217285, 0.2390803396701812744, -3.5899450778961181641, 0.3715430498123168945, 1.1209474802017211914, 1.7530958652496337891, 2.5650110244750976562, -3.2065913677215576172, 1.3823723793029785156, 1.7939305305480957031, 0.4961856603622436523, -1.2166668176651000977, 1.0384782552719116211, 1.0996444225311279297, 1.0783628225326538086, 0.2027857303619384766, -0.4994385838508605957, 0.3266643881797790527, 1.4514019489288330078, 1.0779085159301757812, 1.2092260122299194336, -2.8027718067169189453, -0.4134543836116790771, 1.3780968189239501953, 1.3052121400833129883, -3.4490416049957275391, 1.2929589748382568359, -2.3623807430267333984, 1.7451300621032714844, 1.4764859676361083984, -4.3384165763854980469, 0.6398732066154479980, 2.7549285888671875000, 1.7219187021255493164, 1.5319858789443969727, 1.6489757299423217773, -0.4107019305229187012, 1.5490518808364868164, 1.7367296218872070312, 1.3873918056488037109, 1.6878216266632080078, 0.0458727963268756866, -1.6659296751022338867, 1.5576075315475463867, 1.2861649990081787109, 1.3899577856063842773, -1.3303463459014892578, 0.2340776175260543823, 0.8829932808876037598, 3.5214896202087402344, 1.6352100372314453125, 1.0708544254302978516, 1.7517173290252685547, 1.3372923135757446289, 1.3124432563781738281, -0.9751338362693786621, 1.3541861772537231445, 1.1059565544128417969, 1.5218501091003417969, 1.9096015691757202148, 0.5155177712440490723, 1.2329506874084472656, -1.6391762495040893555, -0.9574483036994934082, 1.5363904237747192383, 1.4794775247573852539, 1.4777517318725585938, 1.3840497732162475586, 1.6110411882400512695, -1.9092253446578979492, 1.0643522739410400391, 2.5884199142456054688, -3.9069130420684814453, 1.5563026666641235352, -3.4815790653228759766, 1.5788959264755249023, 1.5754560232162475586, 1.6808401346206665039, 1.6930884122848510742, 1.4552656412124633789, 1.3960360288619995117, -0.1454290449619293213, 1.4353913068771362305, 1.4165941476821899414, 1.6550592184066772461, -3.6584422588348388672, -3.2780497074127197266, -3.6680693626403808594, 1.1500847339630126953, 1.5165716409683227539, 2.8594136238098144531, 1.7938444614410400391, 2.8663835525512695312, 1.1350474357604980469, 1.4503967761993408203, 1.7393203973770141602, 1.6914620399475097656, 0.8105252385139465332, -0.6482027173042297363, -1.2943794727325439453, -3.8960478305816650391, 0.6823783516883850098, 1.7003461122512817383, -0.8501780629158020020, -1.6318508386611938477, 1.6053640842437744141, 1.3046543598175048828, 2.2837443351745605469, -0.8142392039299011230, 0.1064828783273696899, -0.2331096529960632324, -3.5671241283416748047, 1.4778491258621215820, -0.2758896350860595703, 1.5602316856384277344, 1.2330133914947509766, 1.5065399408340454102, -2.2121016979217529297, 1.5633112192153930664, -4.7863998413085937500, -0.5089753866195678711, 1.5259878635406494141, 0.3558136820793151855, 1.5756220817565917969, 1.3549768924713134766, -1.3529148101806640625, 0.0497557036578655243, -4.2286157608032226562, 1.3486311435699462891, -0.0237763095647096634, -3.7575101852416992188, 0.4710790812969207764, 1.3834204673767089844, 1.8238059282302856445, 2.9902119636535644531, -3.3904805183410644531, 1.5037472248077392578, 1.8907136917114257812, 0.3482288122177124023, -1.4012454748153686523, 0.7688952088356018066, 0.6608583331108093262, 0.7543330192565917969, -0.0355933085083961487, -0.5227506160736083984, 0.0444427244365215302, 1.2993028163909912109, 0.8806833028793334961, 1.0771735906600952148, -2.4996709823608398438, -0.2185145467519760132, 1.3881394863128662109, 1.2309393882751464844, -3.4917585849761962891, 0.8758869171142578125, -2.5277512073516845703, 1.4250220060348510742, 1.4258307218551635742, -4.5943474769592285156, 0.7303423285484313965, 2.4287502765655517578, 2.0646841526031494141, 1.4215283393859863281, 1.1316648721694946289, -0.6084087491035461426, 1.2963500022888183594, 1.2516624927520751953, 1.5011104345321655273, 1.5210291147232055664, 0.0043080793693661690, -1.4198417663574218750, 1.3542219400405883789, 1.1975460052490234375, 1.1674188375473022461, -1.1610337495803833008, 0.0122081385925412178, 0.8611946105957031250, 3.4468007087707519531, 1.3687252998352050781, 0.9002144336700439453, 1.5137436389923095703, 1.1306427717208862305, 1.2388586997985839844, -1.0932137966156005859, 0.9308610558509826660, 0.9938747882843017578, 1.2856857776641845703, 1.6342908143997192383, 0.2846039235591888428, 1.2619094848632812500, -1.7528414726257324219, -0.9831187725067138672, 1.2114220857620239258, 1.3886345624923706055, 1.3421951532363891602, 1.1983941793441772461, 1.3018493652343750000, -1.4129269123077392578, 1.1680953502655029297, 2.2446742057800292969, -3.8558661937713623047, 1.5203816890716552734, -3.4342715740203857422, 1.4870946407318115234, 1.4137998819351196289, 1.4974216222763061523, 1.4043931961059570312, 1.4387995004653930664, 1.1388812065124511719, -0.2717344760894775391, 1.4992153644561767578, 1.1905286312103271484, 1.6103334426879882812, -3.7756297588348388672, -3.3264939785003662109, -3.4932577610015869141, 1.3598210811614990234, 1.2703912258148193359, 2.8737270832061767578, 1.3810690641403198242, 2.8965487480163574219, 1.1634206771850585938, 1.4390971660614013672, 1.2848659753799438477, 1.5993778705596923828, 0.7760722637176513672, -0.6431040763854980469, -1.5924570560455322266, -4.0982794761657714844, 0.4000794589519500732, 1.3975511789321899414, -0.6772803664207458496, -1.6625441312789916992, 1.2592422962188720703, 1.3687689304351806641, 2.0761334896087646484, -1.2508608102798461914, -0.2800061106681823730, -0.5326216220855712891, -3.3545460700988769531, 1.1822818517684936523, -0.1465123295783996582, 1.3757667541503906250, 0.9037682414054870605, 1.3191378116607666016, -2.5881390571594238281, 1.1960420608520507812, -4.6545085906982421875, -0.5204491019248962402, 1.2773827314376831055, 0.2676572799682617188, 1.4518228769302368164, 1.2016724348068237305, -1.1410124301910400391, -0.3024288713932037354, -4.3586435317993164062, 1.1645425558090209961, 0.3126827478408813477, -3.4656589031219482422, 0.3033988475799560547, 1.2150105237960815430, 1.9514194726943969727, 2.5421793460845947266, -2.9834094047546386719, 1.4289078712463378906, 1.8863546848297119141, 0.1670933365821838379, -1.5089336633682250977, 0.5697962045669555664, 0.5450642108917236328, 0.6734559535980224609, -0.3096578121185302734, -0.6597526669502258301, -0.0814884901046752930, 1.4484876394271850586, 0.9346648454666137695, 1.2043030261993408203, -2.2589244842529296875, -0.2374827563762664795, 1.4640482664108276367, 1.2361991405487060547, -3.4571774005889892578, 1.0159657001495361328, -2.2319564819335937500, 1.4652358293533325195, 1.6592535972595214844, -4.3278446197509765625, 0.4468723535537719727, 2.4265868663787841797, 2.0706419944763183594, 1.1697829961776733398, 1.2754908800125122070, -0.6020200252532958984, 1.5552377700805664062, 1.5105084180831909180, 1.3287849426269531250, 1.5127810239791870117, 0.0347682274878025055, -1.4716912508010864258, 1.4723792076110839844, 1.0855362415313720703, 1.2480808496475219727, -1.3056981563568115234, -0.0201565530151128769, 0.8254629373550415039, 3.4634132385253906250, 1.2904180288314819336, 0.7921487092971801758, 1.4248877763748168945, 1.2741554975509643555, 1.2798489332199096680, -1.1102981567382812500, 1.2086011171340942383, 0.9209873080253601074, 1.4387285709381103516, 1.8407654762268066406, 0.4115816056728363037, 1.2247273921966552734, -1.4094421863555908203, -0.7854775190353393555, 1.3971297740936279297, 1.3859026432037353516, 1.4144514799118041992, 1.1951656341552734375, 1.3186026811599731445, -1.5234313011169433594, 1.1032670736312866211, 2.1133539676666259766, -3.8339140415191650391, 1.3891184329986572266, -3.4836568832397460938, 1.7127041816711425781, 1.5158436298370361328, 1.4582197666168212891, 1.5633400678634643555, 1.3257424831390380859, 1.1198658943176269531, -0.2755303680896759033, 1.4258121252059936523, 1.4343492984771728516, 1.6582278013229370117, -3.5635471343994140625, -3.1255459785461425781, -3.4091413021087646484, 1.2447128295898437500, 1.2610157728195190430, 2.8093276023864746094, 1.6415805816650390625, 2.8207292556762695312, 1.2255387306213378906, 1.4711645841598510742, 1.2897430658340454102, 1.5366876125335693359, 0.8184416890144348145, -0.5094972252845764160, -1.6656627655029296875, -3.8155701160430908203, 0.4643287360668182373, 1.2121739387512207031, -0.6424790620803833008, -1.5819069147109985352, 1.3216263055801391602, 1.1997289657592773438, 2.0558822154998779297, -1.0734491348266601562, -0.5271793007850646973, -0.7967232465744018555, -3.3827924728393554688, 1.4291208982467651367, 0.0121334772557020187, 1.3830054998397827148, 1.2082594633102416992, 1.4074749946594238281, -2.3532183170318603516, 1.6315786838531494141, -4.5521798133850097656, -0.4602870941162109375, 1.4169139862060546875, 0.2347506433725357056, 1.4302182197570800781, 1.3030313253402709961, -1.0828781127929687500, -0.0744162946939468384, -4.1481285095214843750, 1.0904626846313476562, 0.2441007792949676514, -3.3404760360717773438, 0.3469697535037994385, 0.9469446539878845215, 1.8754349946975708008, 2.7024822235107421875, -2.9307618141174316406, 1.3607898950576782227, 1.9172259569168090820, -1.9941469430923461914, -1.1599369049072265625, -1.4978779554367065430, -2.9675810337066650391, -2.6817281246185302734, -2.9218990802764892578, -0.3313412368297576904, -2.4102959632873535156, -2.3495907783508300781, -2.0305662155151367188, -1.8811264038085937500, 2.8192763328552246094, -1.6778819561004638672, -2.3254303932189941406, -1.4308364391326904297, 4.5761194229125976562, -2.0181636810302734375, 2.9707276821136474609, -2.3260693550109863281, -1.7524825334548950195, 4.8114323616027832031, -3.0019457340240478516, -2.0328259468078613281, -1.1077599525451660156, -2.4142508506774902344, -1.1084551811218261719, 0.0426984615623950958, -2.4662089347839355469, -2.3410799503326416016, -2.2588090896606445312, -2.2848584651947021484, -3.0783183574676513672, -0.1934878677129745483, -2.3550882339477539062, -1.8349781036376953125, -2.1330606937408447266, -0.7147464752197265625, -2.7122981548309326172, -2.4143960475921630859, -0.5418657660484313965, -2.2507650852203369141, -2.5761289596557617188, -0.7401131987571716309, -2.2460143566131591797, -2.4431254863739013672, -0.2229805886745452881, -2.0605199337005615234, -2.0431623458862304688, -2.3672041893005371094, -2.0429944992065429688, -2.2297549247741699219, -1.9618450403213500977, 0.0763790756464004517, -2.1723823547363281250, -2.2700932025909423828, -2.2563929557800292969, -2.3965473175048828125, -2.2488286495208740234, -2.3966937065124511719, 0.6298089027404785156, -2.0402200222015380859, -1.4151986837387084961, 4.0197658538818359375, -0.9692434668540954590, 3.6693077087402343750, -2.0965745449066162109, -2.3337426185607910156, -2.3992035388946533203, -2.3792088031768798828, -2.1506762504577636719, -2.2663924694061279297, 0.6575140357017517090, -1.9142264127731323242, -2.2940649986267089844, -1.9788928031921386719, 4.0616436004638671875, 4.3998904228210449219, 4.4349565505981445312, -1.0363278388977050781, -2.2734906673431396484, -0.7505480051040649414, -2.1483550071716308594, -0.8184831142425537109, -2.2884974479675292969, -2.1821603775024414062, -2.4301867485046386719, -2.3275308609008789062, -2.4571411609649658203, -0.4881467521190643311, -1.4991899728775024414, 4.3156137466430664062, 0.3584333658218383789, -2.1819279193878173828, -1.9634084701538085938, -0.2968325614929199219, -2.3058018684387207031, -1.3061228990554809570, -1.5684602260589599609, -1.7260230779647827148, -1.7831554412841796875, -0.0698677301406860352, 4.0434918403625488281, -2.2427976131439208984, 1.3094125986099243164, -1.3471542596817016602, -2.1466443538665771484, -2.4918429851531982422, 4.2033262252807617188, -2.2958848476409912109, 4.9797716140747070312, 0.3306713402271270752, -2.4620404243469238281, -3.0194447040557861328, -2.3936479091644287109, -1.9947404861450195312, -1.4246394634246826172, 0.1959455460309982300, 4.9171028137207031250, -1.8450174331665039062, -1.8760453462600708008, 4.4539089202880859375, -2.6456799507141113281, -1.9553257226943969727, -0.8310738801956176758, -1.5562132596969604492, 4.4334082603454589844, -2.0517098903656005859, -1.5777622461318969727, 1.1203821897506713867, -1.2574638128280639648, 1.3210402727127075195, 1.1304920911788940430, 1.2544052600860595703, 0.2119700312614440918, 0.1965729147195816040, 0.5987613201141357422, 1.3892297744750976562, 1.1917076110839843750, 1.3330407142639160156, -2.9350390434265136719, -0.2651782333850860596, 1.3392649888992309570, 1.3201125860214233398, -4.1096277236938476562, 1.1822876930236816406, -2.4905476570129394531, 1.6016281843185424805, 1.7645466327667236328, -4.1297988891601562500, 0.5116704702377319336, 2.9058513641357421875, 1.6633487939834594727, 1.0922751426696777344, 2.2585265636444091797, -0.3257497847080230713, 1.4776616096496582031, 1.6269774436950683594, 1.5063689947128295898, 1.6729917526245117188, 0.0593707039952278137, -1.4056222438812255859, 1.6025292873382568359, 1.2875161170959472656, 1.2942805290222167969, -0.6593768000602722168, 0.3162661194801330566, 1.2267013788223266602, 3.4020218849182128906, 1.6025770902633666992, 1.2413585186004638672, 2.2144322395324707031, 1.3060723543167114258, 1.3850871324539184570, -0.4215906560420989990, 1.1446231603622436523, 1.3456668853759765625, 1.6515946388244628906, 1.8998121023178100586, 0.1709640026092529297, 1.3279914855957031250, -1.8835486173629760742, -0.9939245581626892090, 1.4891089200973510742, 1.4490791559219360352, 1.5137919187545776367, 1.3587735891342163086, 1.6906261444091796875, -1.9073801040649414062, 1.3535073995590209961, 2.9742984771728515625, -4.0546278953552246094, 1.3057208061218261719, -3.4027309417724609375, 1.5037853717803955078, 1.7635405063629150391, 1.5524495840072631836, 1.4662197828292846680, 1.5577224493026733398, 1.4190709590911865234, -0.2125018239021301270, 1.4456987380981445312, 1.1114795207977294922, 1.7575275897979736328, -3.7366445064544677734, -3.3879339694976806641, -3.5722832679748535156, 1.2936052083969116211, 1.3512440919876098633, 2.5172045230865478516, 1.6164183616638183594, 3.1977665424346923828, 1.2727520465850830078, 1.4767488241195678711, 1.5632587671279907227, 1.4208315610885620117, 1.2420248985290527344, -0.0804225280880928040, -1.3909397125244140625, -3.8597226142883300781, 0.5239095091819763184, 1.3834574222564697266, -1.0842894315719604492, -1.3769301176071166992, 1.4572906494140625000, 1.4116524457931518555, 2.6531834602355957031, -0.6307297945022583008, 0.4179326891899108887, 0.0913748368620872498, -3.6224193572998046875, 1.6501579284667968750, -0.4251647591590881348, 1.3968604803085327148, 1.3321149349212646484, 1.5238040685653686523, -2.5702223777770996094, 1.4948135614395141602, -4.4368715286254882812, -0.6712610721588134766, 1.4680726528167724609, 0.7986043691635131836, 1.4546139240264892578, 1.7071073055267333984, -1.4112403392791748047, 0.0681779757142066956, -4.5783882141113281250, 1.2995131015777587891, -0.2458146363496780396, -3.7716965675354003906, 0.6511547565460205078, 1.3158836364746093750, 1.7708656787872314453, 2.9963142871856689453, -3.3522696495056152344, 1.7725932598114013672, 1.4842462539672851562, -2.5442020893096923828, -2.0400991439819335938, -2.0817697048187255859, -2.7879626750946044922, -3.3118522167205810547, -2.9840416908264160156, -0.2475086599588394165, -2.9545602798461914062, -1.8043847084045410156, -1.6703693866729736328, -1.6678562164306640625, 2.7754397392272949219, -1.6455804109573364258, -1.8404361009597778320, -1.1400849819183349609, 4.5121583938598632812, -1.5017434358596801758, 3.0056061744689941406, -1.8992432355880737305, -2.6707131862640380859, 4.3579545021057128906, -2.6049244403839111328, -2.2585818767547607422, -0.4657433032989501953, -1.8797249794006347656, -1.0232467651367187500, 0.9891774058341979980, -2.1276247501373291016, -2.0867061614990234375, -1.7916628122329711914, -1.9506483078002929688, -3.3405275344848632812, 0.4374630749225616455, -2.1732819080352783203, -1.6775275468826293945, -1.9696565866470336914, -1.2635393142700195312, -2.6735837459564208984, -2.2814409732818603516, -1.0029374361038208008, -1.5239552259445190430, -2.4918849468231201172, -0.7865029573440551758, -1.6166218519210815430, -1.9005099534988403320, 0.5159853696823120117, -1.6423501968383789062, -1.9754003286361694336, -2.0843672752380371094, -1.7530103921890258789, -1.6679574251174926758, -1.6801363229751586914, -0.3559595942497253418, -1.7975277900695800781, -1.9118137359619140625, -1.8664923906326293945, -1.9775400161743164062, -1.7696536779403686523, -1.7900713682174682617, 0.6268393397331237793, -2.2010941505432128906, -1.5946757793426513672, 3.8983695507049560547, -1.3943661451339721680, 3.8796069622039794922, -1.9681242704391479492, -2.0106194019317626953, -1.9824924468994140625, -2.0955116748809814453, -1.8475451469421386719, -1.8780910968780517578, 0.2123982757329940796, -1.6570191383361816406, -1.8947438001632690430, -1.5077700614929199219, 3.8049070835113525391, 4.1434750556945800781, 4.0854778289794921875, -0.7487618923187255859, -2.0370969772338867188, -0.4568254351615905762, -2.1035764217376708984, -1.1498706340789794922, -1.6729352474212646484, -1.7378827333450317383, -1.9886094331741333008, -1.6874234676361083984, -2.4108376502990722656, -0.6127225160598754883, -1.9718040227890014648, 3.8196899890899658203, -0.0515194460749626160, -1.7940742969512939453, -1.6765233278274536133, 0.0494575016200542450, -1.9306408166885375977, -1.4564213752746582031, -2.3362052440643310547, -2.2639181613922119141, -1.4238133430480957031, 0.7613258957862854004, 3.4892373085021972656, -1.9886760711669921875, 1.4959146976470947266, -0.7471560239791870117, -1.7826339006423950195, -2.1727244853973388672, 3.7068877220153808594, -1.8291366100311279297, 4.8336935043334960938, 0.1841455101966857910, -1.6945837736129760742, -3.2512211799621582031, -1.9401191473007202148, -1.5209300518035888672, -1.1518712043762207031, 0.4686293303966522217, 4.4333839416503906250, -1.3800251483917236328, -1.7549360990524291992, 4.4771332740783691406, -2.0130021572113037109, -1.4977494478225708008, -1.2794151306152343750, -1.0498200654983520508, 4.4348354339599609375, -1.4837329387664794922, -1.2276102304458618164, 2.1193623542785644531, -0.5849164724349975586, 3.4416127204895019531, -0.9778169989585876465, -1.2364127635955810547, -0.0256874151527881622, -2.3154246807098388672, -1.0203602313995361328, 1.0301272869110107422, 0.5921443700790405273, 0.8656274676322937012, 0.7976636886596679688, -2.5314714908599853516, 0.9663319587707519531, 3.1273381710052490234, -0.9421918988227844238, 0.6985347270965576172, -0.9841900467872619629, 1.4926520586013793945, 4.9054865837097167969, -3.3621399402618408203, -1.4032860994338989258, 4.7333269119262695312, 3.4881050586700439453, 1.3648740053176879883, 0.5151903629302978516, -0.2201036512851715088, 1.3753907680511474609, 1.2800542116165161133, 1.5908190011978149414, 1.1046400070190429688, -1.9129741191864013672, -0.3376536965370178223, 1.3588076829910278320, 2.0140612125396728516, 0.8626268506050109863, 0.4677453339099884033, -1.7403068542480468750, 2.3676869869232177734, 5.6049661636352539062, 1.0409337282180786133, -0.9707660079002380371, 0.6285673975944519043, 0.6059361100196838379, 1.1921732425689697266, -1.8158931732177734375, 0.7633776664733886719, 1.5616054534912109375, 1.1484562158584594727, 1.6673412322998046875, -1.3062554597854614258, 0.7014963030815124512, -1.2682343721389770508, -2.7951152324676513672, 1.2167819738388061523, 1.6159484386444091797, 1.2633119821548461914, 0.6829671263694763184, 1.3197065591812133789, -2.5431568622589111328, 0.9793745875358581543, 2.2666101455688476562, -0.4449752867221832275, 2.3941035270690917969, 0.5679243206977844238, 1.4569176435470581055, 1.4405128955841064453, 1.2607024908065795898, 1.0626350641250610352, 1.3345885276794433594, 0.9867619872093200684, 3.8352587223052978516, 1.2014884948730468750, 1.6107356548309326172, 1.5128915309906005859, 0.4770119786262512207, 0.9381967782974243164, 1.3261690139770507812, 3.1690273284912109375, 1.1002169847488403320, 2.9569888114929199219, 0.7919941544532775879, 2.2264394760131835938, 0.4808551967144012451, 1.1621341705322265625, 0.8705319762229919434, 1.3503592014312744141, 2.3888385295867919922, -1.1721253395080566406, 0.3986656069755554199, -0.9039233922958374023, -0.0614676438271999359, 1.5389008522033691406, -2.7947278022766113281, -0.7049775719642639160, 1.1880412101745605469, 2.0179262161254882812, 4.4352650642395019531, -0.8977890610694885254, 0.9143583774566650391, -1.9990894794464111328, -0.7510271668434143066, 1.3098324537277221680, 4.7541298866271972656, 4.7399454116821289062, 0.8559843897819519043, 1.2907962799072265625, -0.7968922853469848633, 1.3532077074050903320, -0.8408785462379455566, 0.2544932365417480469, 1.7905067205429077148, -1.1107188463211059570, 1.2878572940826416016, 0.8302464485168457031, -1.9800412654876708984, -1.6562923192977905273, -2.0391848087310791016, 0.8089824914932250977, -2.5948660373687744141, -1.1308760643005371094, 1.4432556629180908203, 0.6578573584556579590, 3.9280440807342529297, 2.6919505596160888672, -1.2858214378356933594, 1.2607448101043701172, 1.7109957933425903320, -1.8949664831161499023, -1.2655432224273681641, -1.6899197101593017578, -3.0301272869110107422, -3.0443124771118164062, -2.7414608001708984375, -0.0088723357766866684, -2.5173144340515136719, -2.1495962142944335938, -1.8131771087646484375, -1.8309035301208496094, 2.7808132171630859375, -2.0216608047485351562, -1.9452165365219116211, -1.4036142826080322266, 4.4180350303649902344, -1.6406307220458984375, 3.2273631095886230469, -2.0153908729553222656, -1.9566305875778198242, 4.9826979637145996094, -2.9608125686645507812, -1.6705131530761718750, -1.0899471044540405273, -2.0369312763214111328, -0.9476182460784912109, 0.4927116334438323975, -2.1845846176147460938, -2.3909609317779541016, -1.9728107452392578125, -2.3578951358795166016, -3.2093219757080078125, -0.6633098125457763672, -2.2022035121917724609, -1.7161699533462524414, -1.9994292259216308594, -0.5971353054046630859, -3.1236331462860107422, -1.9490404129028320312, -0.6179103255271911621, -2.0781977176666259766, -2.7580192089080810547, -0.3637799322605133057, -1.9771890640258789062, -2.2634444236755371094, 0.4753416180610656738, -1.7896506786346435547, -1.7384003400802612305, -2.1851987838745117188, -1.7926404476165771484, -3.0189995765686035156, -2.0145416259765625000, -0.7603741884231567383, -2.4326927661895751953, -1.9629799127578735352, -2.2405416965484619141, -2.1229875087738037109, -1.9006955623626708984, -2.1146254539489746094, 0.6671539545059204102, -1.8920464515686035156, -1.2898855209350585938, 3.8488447666168212891, -1.0237581729888916016, 3.8477134704589843750, -2.2233362197875976562, -2.1084105968475341797, -2.1900804042816162109, -2.2802662849426269531, -2.2557063102722167969, -2.2118842601776123047, 0.6967900991439819336, -1.9826877117156982422, -2.3053321838378906250, -1.7008007764816284180, 3.4017338752746582031, 4.7420330047607421875, 4.2921643257141113281, -0.9460023045539855957, -2.0662460327148437500, -0.8051967620849609375, -2.1405544281005859375, -0.7784034013748168945, -2.0140068531036376953, -2.1837289333343505859, -2.3951022624969482422, -2.0422470569610595703, -2.2020449638366699219, -0.1869385838508605957, -1.6313406229019165039, 3.9609720706939697266, -0.0535806119441986084, -2.1351156234741210938, -2.1873095035552978516, -0.7062194347381591797, -2.2295269966125488281, -1.1237072944641113281, -1.7933918237686157227, -1.8709514141082763672, -1.4172085523605346680, 0.6492896080017089844, 4.0227108001708984375, -2.0295040607452392578, 1.2152354717254638672, -1.1158075332641601562, -1.6455951929092407227, -2.3340213298797607422, 3.6471459865570068359, -2.1579701900482177734, 5.4099688529968261719, -0.3001762330532073975, -2.0755193233489990234, -3.2493786811828613281, -2.1198518276214599609, -1.8080421686172485352, -1.5139843225479125977, 0.6121725440025329590, 4.7326526641845703125, -1.6269896030426025391, -1.9929243326187133789, 4.2484121322631835938, -2.2440154552459716797, -1.7323215007781982422, -0.8617369532585144043, -1.2493510246276855469, 3.9614701271057128906, -2.0323798656463623047, -1.4532743692398071289, -2.1373679637908935547, -1.5652252435684204102, -1.6886416673660278320, -3.1267304420471191406, -2.8858411312103271484, -3.0099425315856933594, -0.1982399672269821167, -2.7830989360809326172, -2.3440625667572021484, -1.9615420103073120117, -1.9028267860412597656, 2.8794972896575927734, -1.9727346897125244141, -2.1982426643371582031, -1.2937339544296264648, 4.4422726631164550781, -2.1036014556884765625, 2.7975296974182128906, -2.2291939258575439453, -2.4110510349273681641, 4.6166400909423828125, -3.2268009185791015625, -1.9190318584442138672, -1.1527196168899536133, -2.1325089931488037109, -1.1620711088180541992, 0.5537319779396057129, -2.0277121067047119141, -2.3870763778686523438, -2.2735450267791748047, -2.2187409400939941406, -3.3710582256317138672, -0.1373083442449569702, -2.3848776817321777344, -1.8139332532882690430, -2.2340672016143798828, -0.6424651145935058594, -3.0166804790496826172, -2.3281159400939941406, -0.6507916450500488281, -2.2203767299652099609, -2.8514792919158935547, -1.1645469665527343750, -2.2036051750183105469, -2.3644022941589355469, 0.0136727849021553993, -2.1468050479888916016, -2.0592856407165527344, -2.3815054893493652344, -1.8872066736221313477, -3.1401448249816894531, -2.0274178981781005859, -0.4830583631992340088, -2.3325309753417968750, -2.3702955245971679688, -2.2690997123718261719, -2.3476519584655761719, -2.0060343742370605469, -2.1920089721679687500, 0.4859369099140167236, -2.0318491458892822266, -1.4005116224288940430, 4.0942015647888183594, -1.0842024087905883789, 3.7067382335662841797, -2.1647911071777343750, -2.2707240581512451172, -2.0575332641601562500, -2.4098734855651855469, -2.2650976181030273438, -2.3007853031158447266, 0.7357721328735351562, -2.1016783714294433594, -2.3879115581512451172, -2.0600352287292480469, 4.2222480773925781250, 4.5763640403747558594, 4.6845459938049316406, -1.4287501573562622070, -2.1387946605682373047, -1.0600531101226806641, -2.3461947441101074219, -0.9573929905891418457, -2.0206763744354248047, -2.2248749732971191406, -2.2628583908081054688, -2.0302195549011230469, -2.5762653350830078125, -0.3088102638721466064, -1.8019685745239257812, 4.5041127204895019531, 0.0378201864659786224, -2.0486381053924560547, -2.3916211128234863281, -0.3624144196510314941, -2.4282910823822021484, -1.6680397987365722656, -1.2771033048629760742, -2.0150921344757080078, -1.5869987010955810547, 0.5573370456695556641, 4.1687016487121582031, -2.2163002490997314453, 1.4202038049697875977, -1.5973768234252929688, -2.1079897880554199219, -2.5570690631866455078, 3.8815383911132812500, -1.9532924890518188477, 4.8266506195068359375, 0.0463992245495319366, -2.3008294105529785156, -3.3719637393951416016, -2.2741394042968750000, -2.0066788196563720703, -1.5895957946777343750, 0.1803760528564453125, 4.4949526786804199219, -1.7365632057189941406, -2.0256350040435791016, 4.3444976806640625000, -2.5076799392700195312, -1.6102508306503295898, -1.0456881523132324219, -1.3464355468750000000, 4.2136549949645996094, -2.0616173744201660156, -1.5590362548828125000, -0.3160821497440338135, -0.0806484222412109375, -0.9893180131912231445, -0.6435142755508422852, -0.8327996134757995605, 1.2124243974685668945, 0.0484631545841693878, 1.1069208383560180664, -1.1878939867019653320, -1.6852333545684814453, -1.6541037559509277344, -3.6857671737670898438, -1.8441756963729858398, -1.1757051944732666016, -1.2881104946136474609, -2.9096341133117675781, -1.5722966194152832031, -5.2464609146118164062, -1.3623002767562866211, 0.0030913017690181732, -4.7858839035034179688, 0.0660388395190238953, -0.5680871605873107910, -2.1487188339233398438, -0.9372063279151916504, 1.3302769660949707031, -1.7923885583877563477, -1.4103704690933227539, -1.2641429901123046875, -1.3795186281204223633, -0.9269395470619201660, -0.0962669625878334045, -1.6293504238128662109, -1.3238527774810791016, -0.7736054658889770508, -1.7179298400878906250, -0.8254348039627075195, 0.9984124898910522461, -0.7571034431457519531, 1.5438911914825439453, -1.2052727937698364258, -0.4518560171127319336, 0.8604729175567626953, -1.1739422082901000977, -1.8711659908294677734, -1.4396500587463378906, -1.3088918924331665039, -0.9716743826866149902, -1.2537220716476440430, -1.6230666637420654297, 0.2480327486991882324, -1.1863328218460083008, -0.4358494579792022705, -1.4236476421356201172, -1.5041613578796386719, -1.6773860454559326172, -1.5539208650588989258, -1.2818896770477294922, -1.3500080108642578125, -2.8052077293395996094, -1.3620549440383911133, -0.1651245504617691040, -5.1249732971191406250, 0.4415708184242248535, -3.9813148975372314453, -1.1890327930450439453, -1.2810363769531250000, -1.2925378084182739258, -1.2252113819122314453, -1.3070279359817504883, -1.7027249336242675781, -2.4311509132385253906, -1.1132125854492187500, -1.2325321435928344727, -1.3793667554855346680, -3.7468240261077880859, -3.1357855796813964844, -4.3416509628295898438, -0.8242880105972290039, -1.5502153635025024414, -0.9018362760543823242, -1.3405709266662597656, 0.1592818051576614380, -1.4627004861831665039, -1.2910383939743041992, -1.4255961179733276367, -0.9496505260467529297, -0.3165914714336395264, 0.5869303941726684570, -0.2021746635437011719, -4.6850342750549316406, -1.7714027166366577148, -1.1295803785324096680, -1.2888865470886230469, -2.4611506462097167969, -1.4709097146987915039, -0.6883502602577209473, -0.5759739875793457031, 1.2662597894668579102, -1.5460438728332519531, -0.3803949058055877686, -5.2387852668762207031, -1.4544955492019653320, -3.7235977649688720703, -0.7405464053153991699, -1.7328364849090576172, -1.4478231668472290039, -3.8795249462127685547, -1.0968916416168212891, -2.4589953422546386719, -0.5506467819213867188, -1.2017507553100585938, 0.7525771856307983398, -1.3897964954376220703, -1.2829331159591674805, -2.5385096073150634766, 3.6348965167999267578, -6.1164984703063964844, -1.5849490165710449219, -2.2653474807739257812, -6.4049105644226074219, -0.9568582773208618164, -1.3578217029571533203, -0.0442550554871559143, 0.1544199883937835693, -5.5730218887329101562, -1.0237541198730468750, -0.9838733077049255371, -1.4194533824920654297, -1.0600568056106567383, -1.0147839784622192383, -1.3847264051437377930, -0.9425765872001647949, -0.6154702305793762207, 0.5773785710334777832, -0.3188188672065734863, -1.5093377828598022461, -1.8419986963272094727, -1.5328687429428100586, -1.5141342878341674805, -1.9570235013961791992, -1.6205310821533203125, -0.8059726953506469727, 0.5274468064308166504, -1.7711802721023559570, -2.3977742195129394531, -1.4473464488983154297, -0.6085609197616577148, -0.7621429562568664551, -0.4244237840175628662, -0.0638338029384613037, -0.7224466800689697266, -1.1210573911666870117, 0.2769170403480529785, -0.4502214193344116211, -1.4505693912506103516, -1.5402084589004516602, -1.4947842359542846680, -1.4093424081802368164, -0.9295573830604553223, -0.0484744235873222351, -1.3086038827896118164, -0.9651395678520202637, -2.0094816684722900391, -1.5949950218200683594, 0.3522639870643615723, -1.2365691661834716797, 3.0673668384552001953, -1.2992751598358154297, -0.8487151861190795898, 0.1282325387001037598, -1.4096063375473022461, -1.9691109657287597656, -0.8709799647331237793, -1.6056189537048339844, -1.6944668292999267578, -1.6603289842605590820, -1.6342591047286987305, -0.1219114363193511963, -1.3923081159591674805, -0.0094329863786697388, -2.1148147583007812500, -1.7322340011596679688, -1.8064671754837036133, -1.5438870191574096680, -1.5439609289169311523, -1.6816241741180419922, -1.3411293029785156250, -1.5662446022033691406, 1.2254201173782348633, -1.6385626792907714844, 0.3031220138072967529, -0.3429773449897766113, -1.4266401529312133789, -1.4443368911743164062, -1.5037102699279785156, -1.3011149168014526367, -1.7051995992660522461, -1.9827938079833984375, -1.5342862606048583984, -1.4312123060226440430, -1.4198030233383178711, -1.3008345365524291992, -0.9131902456283569336, 0.4439215064048767090, -0.4173108339309692383, -0.3590320348739624023, -1.5231930017471313477, 0.5136499404907226562, -1.4804134368896484375, -1.7249462604522705078, -1.3264753818511962891, -1.5870009660720825195, -1.7715075016021728516, -1.5029592514038085938, -1.3015722036361694336, -0.7324652075767517090, -0.8880884051322937012, -0.4046575427055358887, -0.2936033606529235840, -1.2073315382003784180, -2.1387286186218261719, -1.3212554454803466797, -1.5209367275238037109, -0.8457074761390686035, -0.5047228932380676270, -1.0481276512145996094, -0.9398903846740722656, -0.0219481028616428375, -1.8042911291122436523, -1.4586668014526367188, -0.8507923483848571777, -0.3361573815345764160, -1.8732802867889404297, -1.5819114446640014648, -1.1901881694793701172, -1.4704856872558593750, 1.0398921966552734375, 1.5487860441207885742, -1.1043356657028198242, -1.2147781848907470703, -1.5812909603118896484, -1.7929219007492065430, -1.7846716642379760742, 1.2543666362762451172, -1.9762953519821166992, -1.5781811475753784180, -1.3986520767211914062, -2.7276313304901123047, -1.8458610773086547852, -1.5607521533966064453, 0.1967619657516479492, -0.0078243501484394073, -2.6948962211608886719, -1.3854575157165527344, -1.3316991329193115234, 0.6775949597358703613, -1.5606929063796997070, 1.1194955110549926758, 1.0346180200576782227, 0.9595829844474792480, -0.1986223459243774414, -0.5057454705238342285, 0.3103904426097869873, 1.2324609756469726562, 1.2290874719619750977, 1.3040162324905395508, -2.5708947181701660156, -0.5464917421340942383, 1.3822474479675292969, 0.8833580613136291504, -3.6081905364990234375, 1.2390514612197875977, -2.6295135021209716797, 1.6968075037002563477, 1.6567393541336059570, -4.6949410438537597656, 0.6680326461791992188, 2.8918967247009277344, 1.6054509878158569336, 1.3876631259918212891, 1.5019878149032592773, -0.4197391271591186523, 1.5493024587631225586, 1.4290808439254760742, 1.2867335081100463867, 1.6548817157745361328, -0.2510440647602081299, -1.3785303831100463867, 1.6029350757598876953, 1.1095116138458251953, 1.5615930557250976562, -1.2037659883499145508, 0.0484371520578861237, 0.9513409137725830078, 3.3272781372070312500, 1.3237341642379760742, 1.2543054819107055664, 1.6274431943893432617, 1.3194662332534790039, 1.4348431825637817383, -0.7609055042266845703, 1.3438297510147094727, 0.7819547653198242188, 1.6115254163742065430, 1.9175964593887329102, -0.0400444976985454559, 1.2540862560272216797, -1.7791297435760498047, -1.0247602462768554688, 1.6253350973129272461, 1.4631168842315673828, 1.5854129791259765625, 1.2740119695663452148, 1.4792588949203491211, -1.8852579593658447266, 1.3888885974884033203, 2.5620851516723632812, -3.6537957191467285156, 1.3440661430358886719, -3.5940575599670410156, 1.5319492816925048828, 1.6393523216247558594, 1.4997780323028564453, 1.6251910924911499023, 1.6553720235824584961, 1.4888926744461059570, 0.0653255507349967957, 1.2285746335983276367, 1.2816209793090820312, 1.5048174858093261719, -3.3958158493041992188, -3.5840892791748046875, -3.3150954246520996094, 0.6780100464820861816, 1.4283894300460815430, 2.6432516574859619141, 1.7762081623077392578, 2.9737966060638427734, 1.2380697727203369141, 1.2762969732284545898, 1.5659425258636474609, 1.2558064460754394531, 0.8525391221046447754, -0.7085093259811401367, -1.1589694023132324219, -3.6822268962860107422, 0.6468740701675415039, 1.2912763357162475586, -0.8845185637474060059, -1.5765570402145385742, 1.5494897365570068359, 1.2187238931655883789, 2.4467535018920898438, -0.6477017402648925781, 0.1947519779205322266, -0.1486643105745315552, -3.3023569583892822266, 1.6762164831161499023, 0.0074428534135222435, 1.5766701698303222656, 1.2504423856735229492, 1.6166255474090576172, -2.3905935287475585938, 1.3271974325180053711, -4.4936914443969726562, -0.5714440941810607910, 1.6437547206878662109, -0.0070032500661909580, 1.4851130247116088867, 1.6369867324829101562, -1.5238429307937622070, -0.1812706887722015381, -4.3725018501281738281, 1.2836246490478515625, 0.1732736080884933472, -3.6709356307983398438, 0.6574797034263610840, 1.3792878389358520508, 1.2820585966110229492, 3.1010398864746093750, -3.3659720420837402344, 1.4140158891677856445, 1.2129112482070922852, -2.2168333530426025391, -1.8425668478012084961, -2.1288063526153564453, -2.9464058876037597656, -2.8861801624298095703, -3.0355322360992431641, -0.0220329295843839645, -2.7127027511596679688, -1.9462964534759521484, -1.6487598419189453125, -1.9399608373641967773, 2.8536953926086425781, -1.5277460813522338867, -1.8956351280212402344, -1.3871105909347534180, 4.4833445549011230469, -1.9005360603332519531, 3.2662205696105957031, -2.0901889801025390625, -2.5077159404754638672, 4.3417744636535644531, -2.7019541263580322266, -1.9382920265197753906, -0.6919024586677551270, -1.9380474090576171875, -0.7836789488792419434, 0.6909381151199340820, -1.9471895694732666016, -1.9340693950653076172, -1.8219105005264282227, -1.7230442762374877930, -3.3127577304840087891, 0.0533394403755664825, -2.1224462985992431641, -1.6783323287963867188, -1.8889240026473999023, -0.8873147964477539062, -3.0630974769592285156, -2.2389745712280273438, -0.6490646600723266602, -1.8077443838119506836, -2.4609942436218261719, -0.9769645333290100098, -1.8260930776596069336, -2.0464208126068115234, 0.2367343604564666748, -1.6987137794494628906, -1.7458769083023071289, -2.0510239601135253906, -1.6815609931945800781, -2.2034578323364257812, -1.8165438175201416016, -0.8085874319076538086, -2.0486216545104980469, -2.0412552356719970703, -1.9983272552490234375, -2.0490248203277587891, -1.7803238630294799805, -1.9041725397109985352, 0.5590672492980957031, -1.8621958494186401367, -1.3283742666244506836, 3.8554220199584960938, -1.3065191507339477539, 3.7998914718627929688, -1.9477688074111938477, -2.0587458610534667969, -2.1223793029785156250, -2.0632719993591308594, -1.9829946756362915039, -1.7775498628616333008, 0.2105912715196609497, -1.8183054924011230469, -2.0972921848297119141, -1.5857176780700683594, 3.5409207344055175781, 4.2363476753234863281, 4.1454434394836425781, -1.0109399557113647461, -2.1410343647003173828, -0.4392202496528625488, -1.9945638179779052734, -0.8982619643211364746, -1.8743077516555786133, -1.8161072731018066406, -2.2097752094268798828, -1.9472036361694335938, -2.4110660552978515625, -0.2559821307659149170, -2.1558923721313476562, 3.7021732330322265625, 0.1429237872362136841, -1.7950359582901000977, -1.6243356466293334961, -0.2596328854560852051, -1.8096253871917724609, -1.3903017044067382812, -2.0146951675415039062, -2.0056133270263671875, -1.3426553010940551758, 0.7956828474998474121, 3.6762039661407470703, -1.9142184257507324219, 1.4153373241424560547, -0.6227251291275024414, -1.8588882684707641602, -2.2221329212188720703, 4.0135216712951660156, -1.9906306266784667969, 4.7678861618041992188, -0.0796462967991828918, -2.0534744262695312500, -3.4104359149932861328, -1.9928339719772338867, -1.8469009399414062500, -1.1144417524337768555, 0.4437561333179473877, 4.8012862205505371094, -1.5544505119323730469, -1.6421859264373779297, 4.3674726486206054688, -2.2494239807128906250, -1.7220290899276733398, -0.9702392816543579102, -0.9947604537010192871, 4.2943987846374511719, -1.7375862598419189453, -1.3184814453125000000, 0.0336851626634597778, -0.2647665143013000488, -0.4819521903991699219, 1.4974424839019775391, 1.0888231992721557617, 0.7256619334220886230, 3.2371776103973388672, 0.5864382386207580566, -0.4869454503059387207, -0.2987352907657623291, -0.5957441926002502441, -4.0307874679565429688, 1.1228938102722167969, -0.5507339239120483398, -0.2092448025941848755, -3.2592525482177734375, -0.3350518643856048584, -4.0199618339538574219, -0.5797739028930664062, -0.5525515079498291016, -1.9688274860382080078, 1.7353235483169555664, -0.6070601940155029297, 0.9618455171585083008, -0.3295025527477264404, 2.4242932796478271484, 0.4105718731880187988, -0.7316929101943969727, -0.5911517739295959473, -0.7309792637825012207, -0.4804424345493316650, 1.3313859701156616211, 1.9380335807800292969, -0.6462847590446472168, -0.1634880751371383667, -0.6828173995018005371, 1.1800270080566406250, 2.2072710990905761719, -0.6679787039756774902, 0.9254144430160522461, -0.4672673046588897705, 1.5894343852996826172, 3.0193459987640380859, -0.5212159752845764160, -0.8351825475692749023, 0.4705848395824432373, -0.5161564350128173828, 1.1525417566299438477, -0.5657123923301696777, -0.7887100577354431152, 3.2264289855957031250, -0.2102310508489608765, 1.6301298141479492188, 1.0984923839569091797, -0.5328890681266784668, -0.9403691291809082031, -0.5256967544555664062, -0.2053463608026504517, -0.7939423322677612305, -0.2515705823898315430, -0.5485786795616149902, 1.3930662870407104492, -3.7541847229003906250, 0.1877133548259735107, -3.7710795402526855469, -0.3636167049407958984, -0.4692278504371643066, -0.5741596221923828125, -0.7368002533912658691, -0.6212088465690612793, -0.6255317330360412598, -3.9941504001617431641, -0.4171392917633056641, -0.3513008356094360352, -0.6661230325698852539, -4.2109551429748535156, -2.6482486724853515625, -3.7704825401306152344, 1.5546108484268188477, -0.6161405444145202637, 2.6797978878021240234, -0.4797597229480743408, 1.3352345228195190430, -0.2119543403387069702, -0.3403421044349670410, -0.5140213370323181152, -0.2768495082855224609, -1.0035108327865600586, 0.9890140891075134277, -0.7319697737693786621, -2.8889985084533691406, 0.6882157325744628906, -0.3234793841838836670, 0.9048548936843872070, 1.6380190849304199219, -0.5431955456733703613, 0.1520771086215972900, -1.2816227674484252930, 1.1842670440673828125, 2.8605284690856933594, 1.9203703403472900391, -3.6445384025573730469, -0.8242224454879760742, -4.2435503005981445312, -0.5264681577682495117, -0.6805013418197631836, -0.7328372001647949219, -1.7206951379776000977, -0.3640000522136688232, -3.0234901905059814453, 1.5806989669799804688, -0.3910827040672302246, -0.1950227469205856323, -0.3380184769630432129, -0.4211858212947845459, -0.1671235263347625732, 3.5390701293945312500, -3.5350978374481201172, -0.7550724744796752930, 1.3571168184280395508, -4.0574073791503906250, -1.1166038513183593750, -0.5302720665931701660, 1.3919702768325805664, 0.4991691112518310547, -3.6227922439575195312, -0.5336595773696899414, -0.4673528969287872314, -3.8643512725830078125, -0.4914885759353637695, -3.1326127052307128906, -1.6836169958114624023, -2.2062456607818603516, -2.2187032699584960938, -0.1158355027437210083, -1.4504004716873168945, -1.3235514163970947266, -1.0099525451660156250, -0.9925035238265991211, 1.7277230024337768555, -2.9392888545989990234, -1.2528413534164428711, -1.3923015594482421875, 6.5937128067016601562, -1.1894590854644775391, 2.9158723354339599609, -1.4938977956771850586, -3.4649333953857421875, 5.6319055557250976562, -1.5298801660537719727, -4.4868121147155761719, -4.5205097198486328125, -0.9260381460189819336, -1.1265168190002441406, 0.4599680304527282715, -1.2893192768096923828, -1.2748060226440429688, -1.1259896755218505859, -1.3298122882843017578, -1.8398547172546386719, -1.3348859548568725586, -1.0842065811157226562, -1.0374345779418945312, -1.1877233982086181641, -0.9470905661582946777, -0.9039573073387145996, -2.8052196502685546875, -1.7925595045089721680, -1.3645799160003662109, -1.6103234291076660156, -2.0848500728607177734, -0.6898431777954101562, -1.4004896879196166992, 0.9290131926536560059, -0.9996201992034912109, -2.6103017330169677734, -1.0895550251007080078, -1.3205590248107910156, -1.9758976697921752930, -0.9199818968772888184, -0.2484251409769058228, -3.4546568393707275391, -1.2632483243942260742, -1.6801259517669677734, -1.4127848148345947266, -0.8226566910743713379, -1.3331001996994018555, -1.1314381361007690430, -1.1735925674438476562, -2.4732291698455810547, 2.2728946208953857422, -1.7288579940795898438, 4.0134592056274414062, -1.1752858161926269531, -1.4528110027313232422, -1.4202827215194702148, -1.0168346166610717773, -1.1498194932937622070, -1.1813102960586547852, 0.6647486686706542969, -1.2889343500137329102, -1.5288375616073608398, -1.2998752593994140625, 3.5611381530761718750, 2.7019340991973876953, 2.4096288681030273438, -2.8092091083526611328, -1.1188333034515380859, -4.6834349632263183594, -1.0999523401260375977, -4.2065939903259277344, -0.8226912021636962891, -1.3846243619918823242, -1.4084374904632568359, -1.1204499006271362305, -2.1567831039428710938, 0.3437010347843170166, -1.3001329898834228516, 3.5136399269104003906, -1.5663644075393676758, -1.0661412477493286133, -3.3843455314636230469, -1.9645177125930786133, -1.3207345008850097656, -1.1501673460006713867, -3.5821654796600341797, -1.8906465768814086914, -2.2999067306518554688, 0.1035998240113258362, 2.5536141395568847656, -1.4357696771621704102, 2.1043765544891357422, -0.4931321740150451660, -1.1272217035293579102, -1.2367597818374633789, 3.9644470214843750000, -1.2162140607833862305, 5.2446975708007812500, -0.2028850913047790527, -1.2872021198272705078, -1.4730557203292846680, -1.0460426807403564453, -1.1317956447601318359, -2.2835774421691894531, -1.0293987989425659180, 3.6469261646270751953, -0.8753600120544433594, -3.7699656486511230469, 2.4944787025451660156, -3.4389667510986328125, -1.1083385944366455078, -2.3374481201171875000, -2.6527776718139648438, 2.8994169235229492188, -1.3532160520553588867, -0.8193569183349609375, 2.3167247772216796875, -1.5818126201629638672, 3.0773129463195800781, -1.4566411972045898438, -1.0038834810256958008, -0.8990659117698669434, -1.3274798393249511719, -1.4369311332702636719, 2.5001990795135498047, 1.4776456356048583984, 1.7010643482208251953, 0.5534753203392028809, -1.6330467462539672852, 2.4689493179321289062, 3.0688118934631347656, -3.2819945812225341797, 1.5364948511123657227, -1.1486570835113525391, 2.6219477653503417969, 2.5156915187835693359, -2.9846489429473876953, -0.8659405112266540527, 2.2380514144897460938, 1.7100542783737182617, 2.2955889701843261719, 2.6190121173858642578, -0.4208769202232360840, 2.6592354774475097656, 2.4630198478698730469, 2.5196135044097900391, 2.8306694030761718750, -1.6383340358734130859, 0.4465908110141754150, 2.5796744823455810547, 2.6737854480743408203, 2.3370974063873291016, -0.2492714226245880127, -0.9438906311988830566, 2.7108647823333740234, 2.9646680355072021484, 2.5251233577728271484, -1.2276536226272583008, 1.7024767398834228516, 1.6731579303741455078, 2.5173079967498779297, -2.1629781723022460938, 1.7342504262924194336, 1.7097330093383789062, 2.5497987270355224609, 2.9626691341400146484, -0.6315783262252807617, 1.9642784595489501953, -1.5463387966156005859, -1.2706028223037719727, 2.2119631767272949219, 2.9968273639678955078, 2.5760595798492431641, 2.0393559932708740234, 2.4321618080139160156, -1.5699275732040405273, 1.9195249080657958984, 2.9776155948638916016, -1.8404994010925292969, 4.6014075279235839844, -1.1654208898544311523, 2.6838004589080810547, 2.5620837211608886719, 2.6341800689697265625, 2.5633254051208496094, 2.3692560195922851562, 2.1589741706848144531, 2.0263757705688476562, 2.6545155048370361328, 2.2277951240539550781, 2.7591168880462646484, -1.7236949205398559570, -1.3897986412048339844, -1.8028941154479980469, 2.7025434970855712891, 2.1837334632873535156, 1.2028931379318237305, 2.4305915832519531250, 3.3262810707092285156, 1.8602257966995239258, 2.6277806758880615234, 2.5918257236480712891, 2.6918685436248779297, 2.7378506660461425781, -2.3062376976013183594, -2.1922612190246582031, -3.0758414268493652344, 0.3507413268089294434, 2.4759945869445800781, -0.8257821798324584961, -0.0931341648101806641, 2.3883826732635498047, 3.0365822315216064453, 2.3928799629211425781, -2.4983808994293212891, 0.8346604108810424805, -1.3240991830825805664, -1.4254393577575683594, 2.2721030712127685547, 1.5079247951507568359, 2.9794678688049316406, 2.1045453548431396484, 2.5953445434570312500, -2.9161050319671630859, 2.6118888854980468750, -1.2620067596435546875, -0.3242736160755157471, 2.4163506031036376953, -0.5099840760231018066, 2.3499462604522705078, 2.3462564945220947266, -0.2723051607608795166, -0.6939390897750854492, -2.0258834362030029297, 1.8654865026473999023, -1.5600826740264892578, -0.0635294392704963684, 3.2064521312713623047, 2.2249908447265625000, 4.2559351921081542969, 2.8295578956604003906, -0.5321711301803588867, 2.7017292976379394531, 2.8143043518066406250, 1.7140526771545410156, 0.0508644729852676392, 3.0876352787017822266, -0.6967833042144775391, -1.9780544042587280273, -0.4590337276458740234, -2.2614984512329101562, -0.9935062527656555176, 1.7551097869873046875, 0.9250526428222656250, 0.7080568075180053711, -1.1797907352447509766, -1.7862958908081054688, 1.8184723854064941406, 1.8876457214355468750, -3.0415308475494384766, 0.8616750240325927734, -3.1391408443450927734, 1.3294728994369506836, 2.6160769462585449219, -4.1635832786560058594, -0.7726061344146728516, 1.4918769598007202148, 1.8515846729278564453, 1.9055309295654296875, 1.1587969064712524414, -0.0815716981887817383, 1.7111885547637939453, 1.4132728576660156250, 1.4240510463714599609, 1.6539168357849121094, -0.9563624858856201172, -0.3534554243087768555, 1.8152633905410766602, 2.0558497905731201172, 0.9299954175949096680, -0.1732204109430313110, -0.6783457398414611816, 1.3591281175613403320, 4.3924655914306640625, 1.6477571725845336914, -1.1478570699691772461, 0.5782740712165832520, 0.7852516174316406250, 1.2608668804168701172, -0.4976931810379028320, 1.1049555540084838867, 0.3559335172176361084, 1.3743250370025634766, 1.4147005081176757812, -0.3428587317466735840, 1.5927554368972778320, -0.9842285513877868652, -2.1294147968292236328, 1.0957638025283813477, 1.8859428167343139648, 1.4506769180297851562, 1.0276660919189453125, 1.6807783842086791992, -2.1591310501098632812, 1.1484302282333374023, 2.3360836505889892578, -1.9043295383453369141, 2.4656984806060791016, -2.7201237678527832031, 1.7181077003479003906, 1.1972960233688354492, 1.6298602819442749023, 1.0450712442398071289, 1.5048290491104125977, 1.2070429325103759766, 1.7284011840820312500, 1.9254939556121826172, 1.9140025377273559570, 1.2186084985733032227, -2.8208131790161132812, -2.0489115715026855469, -2.6383044719696044922, 2.2908072471618652344, 1.0976419448852539062, 3.1508777141571044922, 0.9933485984802246094, 1.5569065809249877930, 1.7649579048156738281, 2.0862016677856445312, 1.2342039346694946289, 1.9179222583770751953, 1.6519021987915039062, -1.8402775526046752930, -1.8274641036987304688, -2.4437556266784667969, 0.0388573370873928070, 2.0635712146759033203, -2.4282770156860351562, -0.9713024497032165527, 1.8279708623886108398, 2.2916293144226074219, 1.7268890142440795898, -1.7163225412368774414, 0.8879276514053344727, -1.4757670164108276367, -2.2909889221191406250, 1.2217843532562255859, 1.7226061820983886719, 3.5477032661437988281, 0.8823520541191101074, 0.8232100009918212891, -4.5243301391601562500, 1.8110905885696411133, -2.7966728210449218750, 0.0064049027860164642, 1.8580690622329711914, -1.8121774196624755859, 1.3449602127075195312, 1.0288189649581909180, -1.3763145208358764648, -1.1762681007385253906, -3.2173128128051757812, 1.3682007789611816406, -0.9229478836059570312, -3.0085151195526123047, 2.5288012027740478516, 0.8615412712097167969, 3.1189968585968017578, 2.6183576583862304688, -2.5194146633148193359, 1.6669218540191650391, 1.2728211879730224609, 0.7683317065238952637, 0.8519803881645202637, 0.1110365837812423706, 0.1176699548959732056, 1.2038860321044921875, 1.9228615760803222656, 1.5437668561935424805, 2.6389954090118408203, -2.0590124130249023438, -2.1532504558563232422, -2.1094410419464111328, 0.3406373858451843262, 0.6493178009986877441, -2.1175465583801269531, -2.1814336776733398438, 1.7226161956787109375, -2.1772923469543457031, 1.2677345275878906250, -1.7947254180908203125, 0.1312826126813888550, 1.5477962493896484375, -0.2417570799589157104, 0.8162736296653747559, -0.7722552418708801270, -2.0525405406951904297, 1.2156906127929687500, -1.1573361158370971680, -1.9305548667907714844, -2.3488621711730957031, -2.2793245315551757812, -1.8769693374633789062, 0.0751721486449241638, 0.3455508351325988770, -2.0865409374237060547, -1.9832866191864013672, -2.1065149307250976562, 2.0721764564514160156, 0.1778018325567245483, 0.6198307871818542480, 1.8053909540176391602, -1.9913265705108642578, -0.1050067320466041565, 1.4544795751571655273, -2.1594805717468261719, -2.4703295230865478516, -1.5601660013198852539, -1.9744591712951660156, 0.0739573836326599121, -2.1711359024047851562, -2.1911423206329345703, -0.5476801395416259766, -2.0916671752929687500, 0.2560606300830841064, 0.1065515726804733276, -2.3280403614044189453, -2.2931728363037109375, -2.1357836723327636719, -1.9601368904113769531, -2.0202364921569824219, -0.1868878602981567383, -1.9857422113418579102, 0.9595624804496765137, 1.1483552455902099609, -0.0449209138751029968, -0.1970700621604919434, -1.9091098308563232422, -2.0069859027862548828, -1.7940975427627563477, -2.1947965621948242188, -2.1908099651336669922, -2.2857663631439208984, -0.9627736806869506836, -1.8998624086380004883, -2.0658662319183349609, -2.2521195411682128906, -0.2034978568553924561, 1.5946900844573974609, 0.8589201569557189941, -1.1997499465942382812, -2.0150945186614990234, -0.1038665845990180969, -2.0381836891174316406, -0.2801530361175537109, -1.9491813182830810547, -2.0294597148895263672, -2.0724508762359619141, -2.0042228698730468750, 0.4793920814990997314, 1.8802628517150878906, 0.8875126242637634277, 1.7213325500488281250, 1.3772797584533691406, -1.9961543083190917969, 0.0409020557999610901, 0.1816407144069671631, -2.0386857986450195312, -1.6909704208374023438, -0.5737630128860473633, 1.1565068960189819336, 0.5208098292350769043, 0.2681480050086975098, 1.2650107145309448242, -2.1653103828430175781, 0.0671609044075012207, -2.6269242763519287109, -2.1849501132965087891, -2.3314137458801269531, 0.5300092697143554688, -1.9927273988723754883, 0.7265551686286926270, -0.8876831531524658203, -2.2588329315185546875, 1.4540114402770996094, -2.0894393920898437500, -1.6978052854537963867, -0.7772618532180786133, 1.0298018455505371094, 1.4365402460098266602, -2.0670287609100341797, -0.0395508483052253723, -0.5876609683036804199, -2.1001777648925781250, -1.8587274551391601562, -2.3095614910125732422, 0.4393032789230346680, -0.8746767640113830566, -1.8951236009597778320, -2.2945208549499511719, -1.7528864145278930664, -0.9307543635368347168, -1.1084619760513305664, -3.1237370967864990234, -2.6648094654083251953, -2.5207064151763916016, -0.2989226281642913818, -2.1702308654785156250, -2.3151886463165283203, -2.2023155689239501953, -2.0897123813629150391, 2.2578215599060058594, -1.8240653276443481445, -2.3402562141418457031, -1.4045873880386352539, 4.1053123474121093750, -2.0369613170623779297, 2.4140362739562988281, -2.4067239761352539062, -1.7450397014617919922, 4.7122220993041992188, -3.1377782821655273438, -1.5226974487304687500, -1.2833801507949829102, -2.2001934051513671875, -0.9709105491638183594, -0.0661282911896705627, -2.3432929515838623047, -2.3933777809143066406, -2.3004248142242431641, -2.3084352016448974609, -3.2025454044342041016, -0.2482112199068069458, -2.3750538825988769531, -1.9281778335571289062, -2.3076045513153076172, -0.4039293527603149414, -2.5614228248596191406, -1.9243652820587158203, -0.8312966227531433105, -2.2810230255126953125, -2.4057013988494873047, -0.7862613201141357422, -2.3443489074707031250, -2.2773978710174560547, -0.3742201924324035645, -1.9847443103790283203, -1.7203534841537475586, -2.3357162475585937500, -2.2740466594696044922, -3.2166607379913330078, -2.3434925079345703125, -0.2618865072727203369, -2.4295892715454101562, -2.5299925804138183594, -2.4758439064025878906, -2.4528491497039794922, -2.1847455501556396484, -2.4067511558532714844, 0.0184407029300928116, -2.2278361320495605469, -1.2066280841827392578, 3.8543670177459716797, -0.7549426555633544922, 3.6815669536590576172, -2.2658772468566894531, -2.3525950908660888672, -2.4445352554321289062, -2.5835988521575927734, -2.2040126323699951172, -2.3750171661376953125, 0.6328808069229125977, -2.1330907344818115234, -2.4308798313140869141, -2.1466493606567382812, 3.7279956340789794922, 4.6571993827819824219, 4.2943978309631347656, -1.0438292026519775391, -2.3112316131591796875, -1.0397911071777343750, -2.3994057178497314453, -0.5507420897483825684, -2.2345581054687500000, -2.3830616474151611328, -2.4096870422363281250, -2.2873566150665283203, -2.2112369537353515625, -0.0339807085692882538, -1.2094111442565917969, 3.8954839706420898438, 0.2560419440269470215, -2.4475641250610351562, -2.2737872600555419922, -0.5639223456382751465, -2.5102035999298095703, -1.5336296558380126953, -1.3184088468551635742, -1.1789807081222534180, -1.2218186855316162109, 0.0274183228611946106, 3.8539395332336425781, -2.2701795101165771484, 0.9780496358871459961, -1.8222807645797729492, -2.1982917785644531250, -2.6053829193115234375, 3.6758375167846679688, -2.3221302032470703125, 4.9242248535156250000, -0.0631554871797561646, -2.1508080959320068359, -2.9773831367492675781, -2.4317908287048339844, -2.0817024707794189453, -1.5707105398178100586, 0.3807269334793090820, 4.3364906311035156250, -1.7247972488403320312, -1.9578547477722167969, 3.9195587635040283203, -2.5572144985198974609, -1.9865649938583374023, -0.7749969363212585449, -1.5718932151794433594, 3.8762111663818359375, -2.1911067962646484375, -1.9209045171737670898, -3.4292199611663818359, -0.7213630080223083496, -3.3416070938110351562, -0.5477931499481201172, -1.7704236507415771484, -2.2602958679199218750, 0.1901491731405258179, -1.6254568099975585938, -0.7333762645721435547, -1.0643887519836425781, -0.9297087192535400391, 1.2973450422286987305, -2.0468869209289550781, -1.0356470346450805664, -1.7262227535247802734, 5.7636256217956542969, -0.8039698600769042969, 3.3129875659942626953, -1.4652349948883056641, -3.1290171146392822266, 5.1260251998901367188, -0.8067858219146728516, -2.9457492828369140625, -3.5657837390899658203, -1.0220228433609008789, -1.0711821317672729492, 1.1295641660690307617, -1.2223894596099853516, -1.3452087640762329102, -1.0489754676818847656, -1.4023878574371337891, -2.0193216800689697266, -1.8053699731826782227, -1.0944199562072753906, -0.9192527532577514648, -1.3173555135726928711, -1.4444047212600708008, -1.5900409221649169922, -2.5920579433441162109, -0.9935309886932373047, -1.0407063961029052734, -0.9151364564895629883, -2.0302145481109619141, -0.6396889686584472656, -1.4266319274902343750, 1.4113119840621948242, -0.9450362920761108398, -3.0124433040618896484, -1.2243746519088745117, -1.4939428567886352539, -2.0218632221221923828, -1.1029903888702392578, 0.2095266878604888916, -3.5591239929199218750, -1.1203601360321044922, -1.3379992246627807617, -1.7963364124298095703, -1.1761014461517333984, -1.3098955154418945312, -1.1093671321868896484, -0.7218764424324035645, -2.5539708137512207031, 2.8279216289520263672, -1.4255671501159667969, 3.9175615310668945312, -1.0558393001556396484, -1.2173599004745483398, -1.2036207914352416992, -0.7781876325607299805, -1.2872703075408935547, -0.9899592399597167969, 1.5773046016693115234, -0.8473938703536987305, -0.7829798460006713867, -1.6216754913330078125, 3.3947968482971191406, 3.7846789360046386719, 3.6158363819122314453, -2.6662666797637939453, -1.0774958133697509766, -3.9258480072021484375, -1.2446495294570922852, -3.2819392681121826172, -1.0454270839691162109, -0.9434564709663391113, -1.2604929208755493164, -0.9353809356689453125, -2.4239947795867919922, -0.2605676352977752686, -0.2319897413253784180, 4.0461606979370117188, -1.2231876850128173828, -0.8450206518173217773, -3.7840943336486816406, -1.4460288286209106445, -1.2244064807891845703, -0.9931222200393676758, -3.3958261013031005859, -0.5709629654884338379, -1.5912661552429199219, 0.4553456008434295654, 3.0722272396087646484, -1.1919702291488647461, 2.9520440101623535156, -0.8391684293746948242, -1.2530287504196166992, -1.2323758602142333984, 4.2540707588195800781, -0.8979593515396118164, 4.4515876770019531250, 0.6698573827743530273, -0.8471642732620239258, -1.7832698822021484375, -1.0179846286773681641, -1.1667894124984741211, -2.0479080677032470703, -2.9213724136352539062, 4.0941371917724609375, -1.1355764865875244141, -2.9922268390655517578, 2.4825205802917480469, -4.5763411521911621094, -1.0676345825195312500, -3.2697150707244873047, -1.7940106391906738281, 2.4003412723541259766, -0.8166161179542541504, -1.5956554412841796875, -0.5570099949836730957, 0.2551607489585876465, -1.2372294664382934570, -0.6464642882347106934, 0.0572495535016059875, -0.1284116655588150024, 0.9253329634666442871, 0.6059436798095703125, -2.4240674972534179688, -2.8474345207214355469, -2.6460063457489013672, 1.0682784318923950195, 0.8181887269020080566, -2.3792474269866943359, -2.7369661331176757812, 1.1538283824920654297, -2.9129955768585205078, 2.1115286350250244141, -2.4851379394531250000, -1.1725717782974243164, 2.0260424613952636719, -1.1706857681274414062, -0.3797842562198638916, -0.7242127060890197754, -2.5620880126953125000, -0.2104723900556564331, -1.7560751438140869141, -2.5401079654693603516, -2.6731908321380615234, -2.7970294952392578125, -2.3349955081939697266, -0.0597231201827526093, 0.5173724889755249023, -2.7090446949005126953, -2.2549078464508056641, -2.5416021347045898438, 0.4518464207649230957, -0.5856807827949523926, -1.2739918231964111328, 0.1794849932193756104, -2.1971807479858398438, -0.3934996128082275391, 0.0614482834935188293, -2.5523567199707031250, -2.6188907623291015625, -1.9103342294692993164, -2.6669902801513671875, -0.7925479412078857422, -2.6938858032226562500, -2.0312757492065429688, -0.4355819821357727051, -2.6557953357696533203, 0.0376367568969726562, 0.4361778199672698975, -2.5828373432159423828, -2.3929858207702636719, -2.5456776618957519531, -2.7098660469055175781, -2.6395130157470703125, 0.3286102712154388428, -2.8565716743469238281, -0.3158599138259887695, 2.0163378715515136719, 0.3735906779766082764, 0.5716454386711120605, -2.4094724655151367188, -2.3271265029907226562, -2.2782659530639648438, -2.7219188213348388672, -2.7670333385467529297, -2.4109513759613037109, -0.8648887276649475098, -2.3670029640197753906, -2.6209516525268554688, -2.5470192432403564453, -0.0077497726306319237, 1.8710947036743164062, 0.6190330386161804199, -0.7016864418983459473, -2.8590009212493896484, -1.0054893493652343750, -2.4179894924163818359, -1.3086024522781372070, -2.4146175384521484375, -2.3991482257843017578, -2.5759809017181396484, -2.3489682674407958984, -1.1150239706039428711, -0.0711954310536384583, 0.4932802915573120117, 1.2528959512710571289, 1.0410830974578857422, -2.6759700775146484375, 0.3153912127017974854, 0.9164045453071594238, -2.7656378746032714844, -1.8110127449035644531, -1.5773085355758666992, 0.4495293498039245605, -0.2629629671573638916, -0.3422131538391113281, 1.9397468566894531250, -2.6715528964996337891, -0.3787235021591186523, -2.1218328475952148438, -2.5387661457061767578, -2.6581673622131347656, 1.9638789892196655273, -2.3536593914031982422, 0.8627212643623352051, -0.2795132696628570557, -2.7812285423278808594, -0.0425952225923538208, -2.9160597324371337891, -2.2941131591796875000, -0.6200423836708068848, 1.1231489181518554688, 2.1616394519805908203, -2.9893465042114257812, -0.2236806154251098633, 0.1440258771181106567, -2.1585071086883544922, -2.3639645576477050781, -1.3634992837905883789, -1.0697258710861206055, -0.2593832314014434814, -2.4075031280517578125, -2.8621358871459960938, -2.3451077938079833984, -1.7947206497192382812, -1.9563075304031372070, -2.8261034488677978516, -3.0361206531524658203, -3.1676406860351562500, -0.0912952572107315063, -2.8638854026794433594, -2.0334229469299316406, -1.7140269279479980469, -1.5866410732269287109, 2.8009362220764160156, -1.6607956886291503906, -1.8848752975463867188, -1.3342306613922119141, 4.6170029640197753906, -1.4772657155990600586, 3.0362720489501953125, -2.0411818027496337891, -2.2065720558166503906, 4.4832153320312500000, -2.8467164039611816406, -1.9868047237396240234, -0.5384857058525085449, -2.0921778678894042969, -1.0832186937332153320, 0.7096930742263793945, -2.0897595882415771484, -2.1577801704406738281, -2.1661522388458251953, -1.9027369022369384766, -3.1706871986389160156, 0.1553537398576736450, -2.2098491191864013672, -1.6796199083328247070, -2.1261994838714599609, -0.8551256656646728516, -3.0303249359130859375, -1.8923513889312744141, -0.4409397542476654053, -1.8768697977066040039, -2.4482221603393554688, -0.8323737382888793945, -1.9734001159667968750, -1.9608038663864135742, 0.2668439149856567383, -1.8052726984024047852, -1.9843795299530029297, -2.0366921424865722656, -1.6676778793334960938, -1.8206068277359008789, -1.8857227563858032227, -0.4696244597434997559, -2.1217696666717529297, -2.0745646953582763672, -2.0470423698425292969, -2.0152492523193359375, -1.7810318470001220703, -2.0576889514923095703, 0.6546967625617980957, -1.6293389797210693359, -1.4481414556503295898, 3.7633378505706787109, -1.2580151557922363281, 3.9605877399444580078, -2.1012566089630126953, -2.1076509952545166016, -2.1439929008483886719, -2.1375579833984375000, -1.9966452121734619141, -1.9045717716217041016, 0.4085454046726226807, -1.9010251760482788086, -2.0818016529083251953, -1.5493113994598388672, 3.3009381294250488281, 4.2408523559570312500, 3.8994531631469726562, -1.0103228092193603516, -2.1129543781280517578, -0.1516497731208801270, -2.2158691883087158203, -0.9958233237266540527, -1.8662530183792114258, -1.9917278289794921875, -2.0678594112396240234, -1.9136731624603271484, -2.5727279186248779297, -0.2048730850219726562, -1.8571212291717529297, 3.9104351997375488281, 0.3419539630413055420, -1.7686268091201782227, -2.2343997955322265625, -0.6286030411720275879, -2.0548906326293945312, -1.3701294660568237305, -2.0889754295349121094, -2.0615639686584472656, -1.3602648973464965820, 0.5671961903572082520, 3.8228168487548828125, -1.8623039722442626953, 1.5253607034683227539, -0.5720084309577941895, -1.8530833721160888672, -2.0130422115325927734, 3.8800268173217773438, -2.1360392570495605469, 5.1433253288269042969, 0.1265388727188110352, -1.9937610626220703125, -3.2281482219696044922, -2.0881853103637695312, -1.7236157655715942383, -1.3704230785369873047, 0.5493242740631103516, 4.8306608200073242188, -1.3436087369918823242, -1.5912194252014160156, 4.4643969535827636719, -2.4439585208892822266, -1.7020056247711181641, -1.2165392637252807617, -1.2642471790313720703, 4.2968974113464355469, -1.8058491945266723633, -1.2925071716308593750, 0.4469472169876098633, -1.4529435634613037109, 0.8364342451095581055, 0.9896013736724853516, 0.9947605729103088379, -0.1302228271961212158, -0.3203646838665008545, 0.3038236200809478760, 1.4028472900390625000, 1.1971924304962158203, 1.3234814405441284180, -2.7305984497070312500, -0.2306092679500579834, 1.5099987983703613281, 1.0603586435317993164, -3.7053749561309814453, 1.2047412395477294922, -2.2356045246124267578, 1.5810067653656005859, 1.5301518440246582031, -4.2962632179260253906, 0.6187673807144165039, 2.5856471061706542969, 2.0413405895233154297, 1.5272380113601684570, 1.5186144113540649414, -0.5556795001029968262, 1.5440230369567871094, 1.7915041446685791016, 1.2284708023071289062, 1.7546238899230957031, -0.0104915183037519455, -1.5121792554855346680, 1.5884885787963867188, 1.1767592430114746094, 1.2781894207000732422, -0.9375461339950561523, 0.2534264028072357178, 1.0229452848434448242, 3.3934261798858642578, 1.6392126083374023438, 1.2528673410415649414, 1.7604309320449829102, 1.4239429235458374023, 1.4867401123046875000, -0.7915566563606262207, 1.1530917882919311523, 0.9535187482833862305, 1.3139297962188720703, 1.7448478937149047852, 0.5803902745246887207, 1.3271898031234741211, -1.9573341608047485352, -0.7915427088737487793, 1.4340162277221679688, 1.5952212810516357422, 1.3715810775756835938, 1.2387286424636840820, 1.5596158504486083984, -1.6046184301376342773, 1.3038823604583740234, 2.3353223800659179688, -3.8387877941131591797, 1.5045541524887084961, -3.6287877559661865234, 1.5689728260040283203, 1.7820038795471191406, 1.6632959842681884766, 1.5816420316696166992, 1.5046306848526000977, 1.2927169799804687500, -0.5584816336631774902, 1.4059411287307739258, 1.1427541971206665039, 1.8449424505233764648, -3.6743199825286865234, -3.8246293067932128906, -3.6438934803009033203, 1.1751208305358886719, 1.4655843973159790039, 2.6864688396453857422, 1.5529613494873046875, 2.6872379779815673828, 1.3299845457077026367, 1.3994609117507934570, 1.5612958669662475586, 1.5393422842025756836, 0.9469906091690063477, -0.5299916267395019531, -1.5410538911819458008, -4.1087107658386230469, 0.4683869481086730957, 1.2289767265319824219, -0.8261002302169799805, -1.7768487930297851562, 1.5111751556396484375, 1.4141514301300048828, 2.2218649387359619141, -0.8771777749061584473, 0.0141262095421552658, -0.1219825297594070435, -3.4658920764923095703, 1.3596949577331542969, -0.3099196255207061768, 1.4545094966888427734, 1.0736231803894042969, 1.3842536211013793945, -2.4873411655426025391, 1.4278770685195922852, -4.6891498565673828125, -0.7540575265884399414, 1.2395743131637573242, 0.2778186202049255371, 1.4479751586914062500, 1.3585826158523559570, -1.3251488208770751953, -0.3398883342742919922, -4.3992042541503906250, 1.2055968046188354492, -0.0267100855708122253, -3.6468000411987304688, 0.4057477116584777832, 1.3255542516708374023, 1.8952727317810058594, 2.9093577861785888672, -3.2825088500976562500, 1.5253388881683349609, 2.0595510005950927734, 0.4621292054653167725, -1.3958878517150878906, 1.0955259799957275391, 1.1917461156845092773, 0.9939287304878234863, 0.0041524944826960564, -0.5705217123031616211, 0.3229892551898956299, 1.4614310264587402344, 1.0160753726959228516, 1.4242992401123046875, 