//Numpy array shape [3, 3, 128, 128]
//Min -0.156250000000
//Max 0.156250000000
//Number of zeros 55977

#ifndef W76_H_
#define W76_H_

#ifndef __SYNTHESIS__
weight76_t w76[147456];
#else
weight76_t w76[147456] = {0.00000, 0.09375, 0.00000, 0.00000, 0.03125, -0.06250, -0.03125, 0.03125, -0.03125, 0.00000, 0.00000, 0.00000, 0.03125, 0.00000, 0.00000, 0.06250, 0.03125, 0.03125, 0.03125, 0.00000, 0.06250, 0.03125, 0.06250, -0.03125, 0.00000, 0.03125, 0.03125, -0.03125, 0.03125, 0.00000, 0.03125, 0.03125, 0.00000, 0.03125, 0.03125, 0.00000, 0.00000, 0.00000, 0.03125, 0.03125, 0.03125, -0.03125, 0.03125, 0.00000, 0.03125, 0.03125, 0.00000, 0.00000, 0.00000, -0.03125, 0.03125, 0.06250, 0.00000, 0.03125, 0.03125, 0.03125, 0.00000, 0.00000, -0.03125, 0.03125, 0.03125, -0.03125, 0.00000, -0.03125, 0.00000, 0.06250, -0.09375, 0.00000, 0.00000, 0.03125, 0.00000, 0.00000, 0.00000, -0.03125, -0.03125, 0.00000, -0.03125, -0.03125, 0.00000, -0.03125, 0.03125, -0.03125, 0.06250, 0.00000, -0.03125, 0.06250, -0.03125, 0.00000, -0.03125, 0.00000, 0.00000, 0.00000, -0.03125, -0.03125, 0.00000, 0.00000, 0.00000, -0.03125, 0.00000, 0.06250, -0.03125, -0.03125, 0.00000, -0.03125, -0.03125, 0.00000, 0.00000, 0.00000, -0.03125, 0.00000, 0.00000, -0.03125, 0.00000, -0.06250, 0.03125, 0.00000, 0.00000, 0.00000, 0.06250, 0.00000, 0.06250, 0.00000, -0.03125, 0.03125, -0.06250, 0.00000, -0.03125, 0.00000, -0.03125, -0.03125, -0.09375, 0.00000, 0.03125, -0.03125, -0.09375, -0.03125, -0.03125, 0.00000, 0.00000, -0.06250, 0.00000, 0.00000, 0.06250, -0.06250, -0.03125, 0.03125, -0.03125, 0.00000, 0.09375, 0.00000, -0.03125, 0.03125, 0.00000, 0.00000, -0.03125, 0.00000, -0.03125, -0.03125, -0.03125, 0.00000, -0.03125, 0.00000, 0.00000, 0.00000, 0.03125, 0.00000, 0.00000, 0.03125, 0.12500, -0.03125, 0.00000, 0.00000, -0.03125, 0.06250, 0.00000, 0.03125, 0.03125, -0.03125, 0.00000, 0.00000, -0.03125, 0.03125, 0.00000, -0.03125, -0.03125, 0.00000, 0.00000, 0.03125, 0.03125, 0.03125, 0.06250, -0.03125, 0.00000, 0.00000, 0.00000, -0.03125, -0.03125, 0.00000, 0.03125, 0.00000, 0.00000, 0.03125, -0.06250, -0.06250, 0.00000, -0.06250, -0.06250, 0.00000, 0.06250, -0.03125, 0.03125, -0.03125, -0.03125, 0.00000, -0.06250, 0.00000, 0.00000, 0.03125, 0.00000, -0.06250, 0.00000, 0.00000, -0.03125, 0.00000, -0.03125, -0.03125, 0.03125, 0.00000, 0.00000, 0.03125, 0.00000, 0.03125, 0.00000, -0.03125, -0.03125, 0.03125, -0.03125, -0.03125, -0.03125, -0.03125, -0.03125, 0.00000, 0.03125, 0.03125, 0.00000, -0.06250, -0.06250, 0.00000, 0.03125, 0.00000, -0.03125, -0.03125, 0.00000, 0.00000, 0.03125, 0.00000, -0.03125, 0.00000, -0.06250, 0.00000, 0.00000, 0.00000, -0.03125, 0.06250, -0.03125, -0.06250, 0.03125, -0.03125, 0.03125, 0.00000, 0.00000, 0.00000, 0.00000, 0.03125, -0.09375, 0.03125, 0.09375, 0.00000, 0.03125, -0.03125, -0.03125, 0.00000, 0.03125, -0.03125, -0.03125, -0.06250, 0.00000, 0.00000, 0.00000, 0.00000, 0.03125, 0.00000, 0.03125, 0.00000, 0.00000, 0.03125, 0.00000, 0.00000, 0.06250, 0.00000, 0.06250, 0.03125, 0.03125, 0.06250, 0.03125, -0.03125, 0.06250, 0.03125, -0.03125, 0.03125, 0.03125, 0.00000, -0.06250, 0.03125, -0.03125, 0.03125, 0.00000, 0.03125, 0.03125, -0.03125, 0.03125, -0.03125, 0.00000, 0.00000, 0.06250, -0.03125, -0.03125, 0.03125, -0.06250, -0.03125, -0.03125, 0.06250, 0.00000, -0.03125, 0.00000, 0.00000, -0.03125, -0.03125, 0.03125, 0.06250, 0.00000, -0.03125, 0.00000, -0.03125, 0.06250, -0.03125, 0.03125, -0.03125, 0.03125, 0.06250, 0.03125, 0.00000, 0.03125, -0.03125, -0.06250, -0.03125, -0.03125, -0.03125, -0.03125, -0.09375, -0.03125, -0.06250, 0.00000, 0.00000, 0.03125, -0.03125, -0.03125, 0.03125, -0.06250, -0.03125, -0.03125, 0.00000, -0.03125, 0.00000, 0.06250, 0.00000, 0.03125, -0.03125, 0.03125, 0.03125, -0.03125, 0.06250, 0.00000, 0.00000, -0.09375, -0.06250, 0.03125, 0.00000, 0.03125, -0.03125, -0.06250, -0.03125, 0.00000, 0.06250, 0.03125, 0.00000, 0.00000, 0.03125, 0.00000, 0.00000, -0.03125, 0.00000, 0.00000, 0.06250, 0.09375, 0.00000, 0.00000, -0.03125, -0.03125, 0.00000, 0.03125, 0.03125, -0.06250, 0.00000, -0.03125, 0.03125, -0.03125, 0.03125, 0.00000, 0.03125, 0.03125, 0.03125, 0.06250, 0.03125, 0.00000, 0.00000, 0.06250, 0.00000, -0.03125, 0.03125, 0.00000, -0.03125, -0.06250, -0.03125, 0.03125, 0.00000, -0.03125, 0.03125, 0.00000, 0.03125, 0.00000, 0.00000, 0.03125, 0.06250, 0.00000, 0.03125, 0.03125, 0.00000, 0.03125, 0.00000, 0.00000, 0.00000, -0.03125, 0.03125, 0.00000, -0.03125, 0.00000, 0.00000, -0.03125, -0.03125, -0.09375, 0.00000, 0.00000, 0.03125, -0.03125, 0.03125, -0.03125, -0.06250, 0.00000, -0.03125, 0.03125, 0.03125, -0.03125, 0.00000, 0.00000, -0.03125, -0.03125, -0.03125, 0.00000, 0.00000, -0.03125, -0.03125, 0.03125, -0.03125, 0.03125, -0.03125, 0.03125, 0.00000, -0.06250, 0.03125, 0.06250, 0.00000, 0.00000, -0.03125, 0.00000, 0.00000, 0.03125, 0.03125, 0.00000, -0.06250, 0.00000, 0.00000, -0.03125, -0.03125, 0.03125, 0.03125, -0.03125, -0.03125, -0.03125, 0.00000, -0.03125, 0.03125, -0.09375, 0.00000, -0.03125, 0.03125, 0.03125, 0.00000, -0.06250, -0.03125, -0.06250, -0.03125, 0.00000, -0.03125, -0.03125, 0.00000, 0.00000, -0.06250, 0.03125, -0.03125, -0.03125, -0.03125, 0.00000, 0.00000, 0.00000, 0.00000, 0.00000, -0.03125, 0.00000, 0.00000, 0.00000, 0.00000, 0.03125, 0.03125, -0.03125, 0.00000, 0.00000, -0.03125, 0.03125, -0.03125, 0.03125, -0.03125, 0.03125, 0.00000, -0.09375, -0.03125, 0.00000, -0.03125, 0.06250, 0.00000, -0.03125, 0.00000, 0.00000, -0.03125, 0.00000, 0.03125, -0.03125, 0.03125, 0.00000, -0.03125, 0.00000, -0.03125, -0.03125, 0.06250, -0.06250, 0.00000, 0.03125, 0.06250, -0.06250, 0.00000, 0.00000, 0.00000, 0.06250, 0.00000, 0.03125, 0.03125, -0.03125, 0.00000, 0.00000, -0.03125, -0.03125, -0.03125, 0.03125, 0.00000, -0.03125, -0.03125, 0.00000, -0.03125, -0.03125, 0.00000, 0.00000, 0.00000, -0.03125, 0.03125, -0.03125, -0.09375, -0.06250, -0.06250, -0.03125, -0.03125, -0.06250, 0.00000, 0.06250, 0.03125, 0.03125, 0.00000, 0.00000, -0.03125, -0.03125, -0.06250, -0.06250, -0.03125, 0.00000, 0.00000, -0.03125, 0.03125, -0.03125, 0.03125, 0.00000, -0.03125, -0.03125, -0.03125, 0.00000, 0.03125, 0.03125, 0.00000, -0.03125, -0.06250, 0.00000, 0.00000, 0.00000, 0.03125, 0.00000, -0.03125, 0.03125, -0.03125, 0.00000, 0.06250, -0.06250, -0.03125, -0.03125, -0.03125, 0.03125, -0.06250, 0.03125, 0.00000, -0.03125, 0.03125, 0.03125, -0.03125, 0.09375, -0.03125, 0.00000, 0.03125, 0.00000, 0.00000, 0.03125, -0.03125, -0.03125, 0.00000, 0.03125, 0.00000, 0.03125, 0.00000, 0.00000, -0.06250, -0.03125, -0.03125, 0.00000, -0.03125, 0.03125, 0.00000, 0.00000, 0.03125, 0.03125, 0.00000, 0.06250, -0.03125, 0.00000, -0.03125, 0.00000, 0.03125, 0.00000, 0.06250, -0.03125, 0.06250, -0.06250, -0.03125, 0.00000, 0.06250, -0.03125, 0.03125, 0.03125, -0.03125, 0.03125, -0.03125, 0.00000, 0.00000, 0.03125, 0.00000, -0.03125, 0.03125, -0.03125, 0.00000, -0.03125, -0.03125, -0.03125, -0.06250, -0.06250, -0.03125, -0.03125, 0.06250, 0.00000, 0.00000, 0.03125, -0.03125, -0.03125, 0.00000, 0.03125, 0.00000, -0.03125, -0.06250, 0.03125, 0.00000, -0.03125, 0.03125, 0.00000, 0.00000, 0.03125, 0.03125, 0.03125, 0.00000, 0.03125, 0.00000, -0.03125, 0.03125, -0.03125, 0.00000, 0.00000, 0.00000, -0.03125, 0.09375, -0.03125, 0.00000, -0.06250, -0.03125, -0.03125, -0.03125, 0.00000, 0.00000, 0.06250, 0.00000, 0.06250, -0.03125, -0.03125, 0.03125, -0.03125, 0.00000, -0.03125, 0.03125, -0.06250, 0.00000, 0.00000, 0.03125, -0.03125, 0.06250, 0.00000, -0.03125, 0.00000, 0.00000, 0.03125, -0.03125, 0.00000, 0.03125, 0.00000, 0.00000, -0.03125, 0.00000, 0.06250, -0.06250, 0.00000, 0.00000, 0.03125, 0.00000, 0.06250, -0.03125, 0.00000, -0.06250, 0.09375, 0.03125, 0.00000, -0.06250, -0.06250, 0.00000, -0.03125, 0.06250, -0.03125, 0.00000, 0.00000, 0.00000, 0.03125, 0.00000, 0.00000, 0.03125, 0.03125, 0.06250, -0.06250, 0.00000, -0.03125, 0.03125, 0.03125, 0.00000, -0.03125, 0.06250, 0.03125, 0.00000, 0.00000, -0.03125, 0.06250, 0.00000, -0.03125, 0.03125, -0.03125, 0.00000, 0.00000, 0.03125, 0.03125, 0.00000, -0.03125, -0.03125, 0.00000, -0.03125, 0.03125, 0.00000, 0.00000, -0.03125, -0.03125, 0.03125, 0.03125, 0.00000, -0.03125, 0.03125, 0.00000, -0.03125, 0.00000, 0.00000, 0.03125, -0.06250, -0.03125, 0.00000, -0.03125, 0.03125, 0.00000, 0.00000, 0.00000, 0.00000, 0.00000, 0.06250, 0.03125, 0.00000, 0.00000, 0.00000, 0.00000, 0.03125, -0.03125, 0.00000, -0.03125, -0.03125, 0.00000, 0.00000, 0.00000, -0.06250, -0.03125, 0.03125, -0.06250, 0.00000, 0.00000, 0.03125, 0.03125, -0.03125, 0.00000, 0.03125, -0.03125, 0.03125, -0.03125, 0.00000, 0.00000, -0.09375, -0.03125, 0.06250, -0.03125, -0.03125, 0.00000, 0.00000, 0.00000, 0.00000, -0.06250, 0.00000, 0.00000, 0.00000, -0.03125, 0.00000, 0.00000, -0.06250, -0.03125, -0.03125, 0.03125, -0.03125, 0.00000, 0.06250, 0.00000, -0.03125, -0.03125, -0.03125, 0.00000, 0.00000, 0.03125, 0.03125, -0.03125, -0.03125, 0.00000, 0.00000, 0.03125, 0.03125, 0.00000, 0.00000, 0.00000, -0.03125, -0.06250, 0.00000, 0.03125, 0.00000, 0.00000, 0.00000, 0.00000, -0.03125, 0.03125, 0.00000, 0.00000, 0.00000, -0.03125, 0.00000, 0.00000, 0.00000, 0.03125, 0.00000, 0.00000, 0.03125, 0.00000, 0.00000, -0.03125, -0.03125, 0.00000, -0.03125, 0.00000, 0.00000, -0.03125, -0.03125, 0.03125, 0.00000, 0.00000, 0.00000, -0.06250, 0.03125, 0.00000, 0.00000, -0.03125, 0.03125, 0.00000, 0.00000, -0.03125, -0.03125, -0.03125, 0.00000, -0.06250, 0.00000, -0.06250, 0.03125, 0.03125, 0.03125, 0.00000, 0.00000, 0.00000, -0.03125, 0.03125, -0.03125, 0.00000, -0.06250, 0.00000, -0.03125, 0.00000, 0.00000, -0.03125, -0.03125, 0.00000, -0.03125, 0.00000, -0.03125, -0.03125, 0.00000, 0.00000, 0.03125, -0.03125, 0.06250, -0.03125, 0.03125, 0.00000, 0.00000, -0.06250, -0.03125, -0.03125, -0.06250, 0.00000, 0.00000, -0.06250, 0.03125, 0.00000, -0.03125, -0.03125, 0.03125, 0.00000, 0.00000, -0.03125, 0.00000, 0.00000, -0.09375, 0.00000, -0.03125, 0.00000, -0.03125, 0.00000, 0.03125, 0.00000, 0.00000, 0.06250, 0.03125, 0.00000, 0.00000, 0.00000, -0.03125, 0.03125, -0.03125, -0.06250, 0.00000, 0.03125, 0.00000, 0.00000, 0.00000, -0.03125, 0.03125, 0.03125, 0.00000, 0.03125, 0.00000, -0.06250, 0.00000, 0.00000, 0.00000, -0.03125, 0.00000, 0.00000, -0.03125, -0.03125, -0.03125, 0.00000, 0.03125, 0.06250, 0.03125, -0.03125, -0.03125, -0.06250, 0.06250, -0.06250, 0.00000, -0.06250, 0.00000, 0.06250, -0.03125, 0.00000, 0.03125, 0.00000, 0.03125, 0.00000, 0.03125, 0.00000, 0.00000, 0.00000, 0.00000, 0.00000, 0.03125, 0.00000, 0.00000, 0.00000, 0.00000, 0.00000, -0.03125, -0.03125, 0.03125, 0.03125, 0.00000, -0.03125, 0.03125, 0.00000, 0.00000, -0.06250, 0.00000, 0.00000, -0.03125, 0.03125, -0.03125, 0.00000, 0.00000, 0.00000, 0.00000, -0.03125, -0.06250, 0.00000, -0.03125, -0.06250, 0.00000, 0.00000, 0.00000, 0.03125, 0.03125, 0.03125, 0.03125, 0.00000, -0.06250, -0.06250, -0.03125, 0.03125, -0.03125, -0.03125, 0.00000, 0.03125, 0.03125, 0.00000, 0.03125, -0.03125, -0.06250, 0.03125, 0.06250, 0.00000, -0.03125, -0.09375, -0.03125, -0.03125, 0.03125, 0.00000, -0.03125, 0.00000, 0.03125, -0.03125, -0.03125, -0.03125, -0.03125, 0.03125, 0.06250, 0.03125, 0.00000, 0.00000, 0.00000, 0.00000, 0.00000, 0.00000, -0.09375, 0.03125, 0.00000, 0.00000, 0.03125, 0.03125, 0.06250, 0.03125, -0.03125, 0.00000, 0.00000, 0.00000, -0.03125, -0.03125, 0.00000, 0.00000, 0.06250, -0.03125, 0.06250, 0.00000, 0.00000, 0.00000, 0.03125, -0.06250, 0.00000, 0.00000, -0.03125, -0.03125, 0.03125, 0.00000, 0.03125, 0.00000, 0.03125, 0.03125, 0.00000, 0.00000, -0.03125, 0.03125, 0.03125, 0.00000, 0.00000, -0.03125, -0.03125, -0.03125, -0.03125, 0.00000, 0.03125, 0.00000, -0.03125, -0.03125, -0.03125, -0.03125, 0.00000, 0.03125, 0.00000, 0.03125, 0.00000, -0.06250, 0.00000, 0.03125, -0.06250, 0.00000, -0.03125, 0.00000, 0.00000, 0.03125, 0.00000, 0.03125, 0.03125, -0.03125, 0.03125, 0.03125, -0.03125, -0.03125, -0.03125, -0.03125, -0.03125, -0.06250, 0.00000, 0.03125, 0.03125, 0.03125, 0.03125, -0.06250, 0.00000, 0.00000, 0.00000, -0.03125, 0.03125, -0.06250, -0.03125, 0.03125, 0.00000, 0.00000, 0.03125, -0.03125, 0.00000, -0.03125, -0.03125, 0.00000, -0.03125, 0.00000, -0.03125, 0.00000, -0.03125, -0.03125, -0.03125, -0.06250, -0.06250, 0.03125, 0.00000, 0.03125, 0.03125, -0.03125, 0.03125, 0.03125, -0.06250, -0.06250, -0.03125, -0.03125, -0.03125, 0.00000, 0.00000, 0.00000, 0.03125, 0.03125, 0.00000, 0.06250, -0.03125, 0.03125, 0.03125, 0.00000, 0.03125, 0.03125, 0.00000, 0.03125, 0.00000, 0.03125, -0.03125, 0.00000, 0.06250, 0.00000, 0.00000, 0.03125, 0.03125, -0.03125, 0.03125, 0.03125, 0.00000, 0.03125, 0.03125, 0.03125, 0.00000, -0.06250, 0.03125, 0.00000, -0.03125, 0.00000, 0.00000, 0.00000, 0.06250, 0.00000, 0.06250, 0.00000, 0.00000, 0.00000, -0.06250, 0.00000, 0.00000, -0.03125, -0.06250, 0.00000, 0.03125, 0.06250, 0.03125, -0.06250, 0.00000, 0.00000, 0.03125, -0.03125, 0.00000, 0.00000, 0.00000, -0.03125, 0.00000, 0.00000, 0.03125, -0.03125, -0.03125, 0.00000, 0.03125, -0.03125, -0.03125, 0.00000, -0.06250, -0.03125, 0.03125, 0.03125, 0.06250, -0.03125, 0.00000, -0.06250, 0.03125, -0.03125, 0.00000, -0.03125, 0.00000, -0.03125, 0.00000, 0.03125, 0.00000, 0.00000, 0.00000, -0.06250, 0.03125, 0.00000, 0.00000, 0.03125, 0.00000, 0.03125, 0.00000, 0.00000, 0.00000, 0.00000, 0.03125, 0.00000, -0.03125, -0.03125, -0.06250, 0.00000, 0.06250, 0.03125, -0.06250, 0.00000, 0.00000, -0.03125, 0.03125, 0.00000, 0.00000, -0.03125, -0.06250, 0.03125, 0.03125, 0.03125, 0.00000, -0.03125, 0.00000, 0.03125, 0.03125, -0.03125, 0.00000, 0.03125, -0.03125, -0.03125, -0.03125, 0.06250, -0.03125, 0.00000, 0.03125, 0.00000, 0.00000, 0.03125, 0.00000, 0.03125, 0.00000, 0.00000, -0.03125, 0.00000, 0.00000, 0.00000, 0.00000, 0.03125, -0.03125, 0.03125, -0.03125, 0.00000, 0.06250, -0.03125, 0.06250, 0.06250, 0.03125, 0.03125, 0.03125, 0.00000, 0.06250, 0.03125, 0.06250, 0.00000, 0.00000, 0.00000, 0.03125, 0.03125, -0.03125, -0.03125, -0.03125, 0.06250, -0.06250, -0.12500, 0.00000, -0.06250, -0.03125, 0.03125, 0.03125, 0.03125, 0.03125, 0.09375, -0.03125, 0.00000, 0.00000, -0.03125, 0.00000, 0.00000, 0.00000, -0.06250, 0.00000, 0.00000, 0.00000, -0.03125, 0.00000, 0.03125, 0.00000, -0.06250, 0.03125, 0.03125, 0.03125, 0.06250, -0.03125, -0.06250, -0.03125, 0.00000, 0.00000, -0.03125, 0.00000, 0.00000, -0.03125, 0.00000, 0.00000, 0.06250, -0.03125, 0.03125, -0.03125, 0.00000, -0.03125, -0.03125, -0.03125, -0.03125, -0.06250, 0.03125, 0.00000, 0.03125, -0.03125, 0.00000, 0.00000, 0.00000, -0.03125, 0.03125, 0.00000, -0.06250, 0.00000, 0.06250, 0.00000, -0.03125, 0.00000, 0.00000, -0.03125, -0.03125, -0.03125, 0.00000, 0.00000, -0.03125, 0.00000, 0.00000, 0.00000, 0.03125, 0.00000, -0.03125, 0.03125, 0.03125, 0.03125, 0.00000, 0.00000, 0.06250, 0.00000, 0.00000, -0.03125, 0.00000, 0.03125, -0.06250, 0.03125, 0.00000, -0.03125, -0.03125, -0.03125, -0.03125, 0.00000, 0.03125, 0.00000, 0.00000, -0.03125, 0.00000, -0.03125, -0.06250, -0.06250, 0.06250, 0.03125, 0.03125, 0.00000, 0.03125, -0.06250, -0.03125, -0.03125, -0.03125, 0.00000, -0.03125, -0.03125, -0.03125, 0.03125, 0.00000, 0.06250, 0.00000, 0.00000, -0.03125, 0.00000, 0.03125, 0.03125, -0.06250, 0.00000, 0.00000, 0.00000, 0.06250, 0.03125, 0.03125, -0.03125, -0.03125, -0.03125, 0.00000, 0.06250, 0.00000, 0.00000, 0.03125, 0.03125, 0.00000, 0.03125, -0.03125, 0.00000, 0.00000, 0.00000, -0.06250, 0.00000, 0.03125, -0.06250, 0.06250, 0.00000, 0.00000, 0.03125, -0.06250, 0.00000, 0.03125, -0.03125, 0.06250, 0.00000, 0.00000, 0.00000, 0.00000, 0.00000, -0.03125, -0.06250, -0.06250, -0.03125, 0.06250, -0.03125, -0.03125, -0.03125, -0.03125, -0.09375, 0.03125, 0.00000, -0.03125, 0.00000, -0.03125, 0.03125, 0.03125, 0.03125, -0.06250, -0.03125, 0.00000, 0.00000, -0.06250, -0.03125, 0.00000, 0.00000, -0.03125, -0.03125, 0.00000, 0.03125, -0.06250, 0.00000, 0.03125, 0.03125, 0.00000, -0.03125, 0.00000, -0.03125, 0.00000, 0.00000, -0.03125, 0.06250, 0.06250, -0.03125, 0.03125, -0.06250, 0.03125, 0.03125, 0.03125, 0.03125, 0.00000, -0.03125, 0.03125, 0.00000, 0.00000, 0.03125, 0.00000, 0.00000, -0.03125, 0.00000, -0.03125, -0.03125, 0.00000, 0.00000, -0.03125, -0.03125, 0.00000, 0.03125, 0.06250, 0.00000, 0.00000, 0.00000, 0.03125, -0.03125, 0.03125, 0.03125, 0.00000, -0.03125, 0.06250, 0.00000, -0.03125, 0.03125, 0.06250, 0.03125, 0.03125, -0.03125, 0.03125, 0.00000, -0.03125, 0.03125, 0.03125, -0.06250, 0.00000, 0.00000, -0.03125, 0.03125, 0.00000, 0.03125, 0.00000, 0.03125, 0.00000, 0.03125, 0.00000, 0.03125, 0.00000, 0.00000, 0.00000, 0.03125, 0.00000, -0.03125, 0.00000, 0.00000, -0.03125, -0.09375, 0.00000, 0.03125, 0.03125, 0.03125, -0.06250, 0.00000, 0.00000, -0.03125, -0.03125, -0.03125, 0.00000, 0.06250, -0.03125, 0.00000, -0.03125, -0.03125, 0.00000, 0.00000, 0.00000, -0.03125, -0.06250, 0.03125, 0.00000, 0.00000, 0.03125, 0.03125, 0.03125, -0.03125, 0.00000, 0.00000, -0.03125, 0.00000, -0.03125, 0.03125, 0.03125, -0.03125, 0.03125, 0.03125, 0.00000, 0.00000, -0.06250, 0.06250, -0.06250, -0.06250, 0.00000, -0.03125, 0.03125, -0.03125, 0.00000, 0.00000, 0.03125, -0.06250, 0.03125, 0.06250, 0.00000, 0.00000, 0.00000, 0.00000, 0.03125, 0.00000, 0.06250, 0.00000, 0.06250, 0.00000, -0.03125, 0.00000, 0.00000, 0.00000, 0.00000, -0.03125, 0.09375, -0.06250, 0.03125, -0.03125, 0.00000, -0.06250, 0.03125, 0.03125, 0.00000, -0.03125, 0.00000, -0.03125, -0.03125, 0.00000, 0.00000, -0.03125, 0.00000, 0.06250, 0.03125, 0.00000, 0.00000, 0.06250, 0.00000, -0.03125, 0.03125, -0.03125, 0.03125, 0.00000, -0.03125, 0.00000, -0.06250, 0.00000, -0.03125, -0.03125, 0.00000, 0.00000, 0.00000, -0.03125, 0.00000, 0.00000, 0.00000, 0.03125, -0.03125, -0.06250, 0.06250, 0.00000, 0.03125, -0.03125, 0.03125, 0.03125, 0.00000, -0.03125, 0.03125, 0.03125, 0.00000, 0.00000, 0.03125, -0.03125, 0.03125, -0.03125, -0.03125, 0.00000, -0.06250, -0.03125, 0.00000, 0.03125, 0.00000, 0.03125, 0.03125, 0.00000, 0.00000, -0.06250, 0.03125, -0.03125, -0.03125, 0.00000, -0.03125, 0.03125, 0.00000, 0.00000, 0.00000, -0.06250, 0.03125, 0.00000, -0.06250, 0.03125, 0.00000, 0.00000, 0.06250, 0.00000, 0.03125, 0.00000, -0.03125, -0.03125, 0.00000, -0.09375, -0.03125, 0.00000, 0.00000, -0.06250, -0.06250, -0.03125, 0.03125, -0.03125, -0.03125, 0.06250, -0.03125, 0.00000, 0.00000, -0.03125, -0.03125, 0.06250, -0.06250, 0.00000, 0.06250, 0.00000, 0.00000, -0.03125, 0.06250, -0.03125, 0.06250, 0.06250, 0.00000, 0.09375, 0.00000, 0.00000, 0.00000, 0.00000, -0.03125, 0.00000, -0.03125, 0.03125, 0.00000, -0.03125, 0.03125, -0.03125, -0.03125, -0.06250, 0.00000, 0.06250, 0.00000, -0.03125, 0.00000, 0.06250, -0.03125, -0.03125, 0.06250, 0.03125, 0.00000, 0.00000, 0.03125, 0.03125, -0.03125, 0.00000, 0.00000, -0.06250, 0.00000, -0.03125, 0.00000, -0.03125, 0.03125, 0.00000, 0.00000, -0.06250, 0.09375, 0.00000, 0.00000, -0.03125, 0.00000, 0.03125, 0.03125, -0.06250, 0.00000, -0.03125, 0.03125, -0.03125, 0.00000, 0.03125, 0.03125, 0.06250, 0.00000, -0.03125, -0.03125, 0.00000, 0.00000, 0.00000, 0.00000, 0.00000, 0.06250, 0.00000, -0.06250, -0.03125, 0.00000, 0.03125, 0.00000, 0.06250, 0.00000, -0.03125, -0.03125, -0.06250, 0.03125, -0.06250, -0.06250, 0.00000, 0.03125, 0.00000, -0.03125, 0.00000, -0.03125, 0.00000, 0.00000, 0.00000, 0.00000, -0.03125, 0.00000, 0.00000, 0.00000, 0.03125, -0.03125, 0.00000, 0.00000, -0.03125, 0.03125, 0.00000, 0.03125, -0.03125, 0.03125, 0.03125, 0.00000, -0.03125, 0.00000, 0.03125, -0.03125, 0.03125, 0.00000, 0.00000, -0.06250, 0.00000, 0.03125, 0.00000, 0.00000, -0.06250, 0.03125, 0.00000, 0.06250, -0.03125, 0.06250, -0.03125, 0.06250, 0.00000, 0.03125, 0.00000, -0.03125, 0.00000, -0.06250, -0.06250, 0.00000, 0.03125, 0.00000, 0.06250, 0.03125, 0.00000, 0.03125, -0.03125, 0.06250, 0.00000, 0.03125, 0.06250, 0.00000, 0.00000, 0.03125, -0.03125, 0.00000, -0.03125, 0.03125, 0.03125, -0.03125, -0.03125, 0.03125, 0.03125, -0.03125, 0.03125, 0.00000, 0.00000, -0.03125, 0.00000, 0.03125, 0.03125, -0.03125, 0.00000, 0.00000, 0.00000, 0.00000, -0.03125, 0.00000, 0.00000, 0.03125, 0.00000, 0.03125, 0.00000, 0.03125, 0.00000, -0.03125, 0.03125, 0.00000, 0.06250, 0.00000, 0.03125, -0.03125, 0.00000, 0.00000, 0.03125, 0.06250, 0.03125, 0.00000, 0.00000, 0.03125, 0.00000, 0.03125, -0.03125, 0.06250, 0.00000, 0.00000, 0.03125, -0.03125, 0.00000, -0.03125, 0.00000, 0.03125, -0.03125, -0.03125, -0.06250, -0.03125, 0.03125, -0.06250, 0.03125, 0.00000, 0.03125, 0.03125, 0.00000, 0.03125, 0.03125, 0.06250, 0.00000, 0.00000, -0.03125, 0.00000, -0.06250, 0.06250, 0.00000, -0.06250, -0.03125, -0.06250, -0.06250, -0.03125, -0.03125, -0.06250, 0.00000, 0.00000, -0.03125, -0.03125, 0.00000, 0.00000, 0.00000, 0.00000, 0.00000, 0.00000, -0.03125, 0.03125, 0.00000, 0.00000, 0.00000, -0.03125, 0.00000, 0.00000, 0.03125, 0.03125, 0.00000, 0.06250, 0.03125, 0.03125, -0.06250, 0.00000, 0.00000, 0.00000, 0.00000, 0.03125, 0.00000, -0.03125, 0.00000, 0.06250, 0.03125, 0.03125, 0.03125, 0.06250, 0.00000, 0.00000, 0.03125, 0.00000, -0.06250, -0.03125, 0.03125, 0.06250, 0.03125, 0.03125, 0.09375, 0.03125, 0.00000, 0.09375, 0.03125, 0.00000, 0.06250, 0.00000, 0.00000, 0.00000, 0.00000, 0.00000, 0.00000, 0.00000, -0.06250, 0.03125, 0.00000, 0.00000, -0.03125, 0.03125, 0.00000, 0.00000, 0.06250, 0.00000, -0.03125, 0.00000, -0.03125, 0.03125, -0.06250, -0.03125, -0.03125, -0.03125, 0.00000, -0.06250, -0.03125, -0.03125, 0.03125, 0.00000, 0.06250, -0.06250, 0.00000, 0.00000, 0.00000, 0.03125, -0.03125, 0.00000, -0.06250, 0.00000, -0.03125, -0.06250, 0.00000, 0.03125, -0.06250, 0.00000, 0.00000, 0.03125, 0.00000, 0.03125, -0.03125, 0.00000, -0.06250, 0.06250, 0.06250, -0.03125, 0.00000, 0.03125, 0.03125, 0.00000, 0.03125, 0.03125, 0.00000, 0.03125, 0.03125, 0.00000, -0.06250, 0.00000, 0.03125, 0.00000, -0.03125, -0.03125, -0.03125, 0.03125, 0.00000, 0.00000, 0.03125, 0.03125, 0.03125, 0.03125, 0.00000, -0.03125, 0.00000, 0.00000, -0.06250, 0.00000, -0.03125, 0.00000, -0.03125, 0.03125, -0.03125, 0.03125, 0.00000, 0.03125, 0.00000, 0.03125, -0.03125, 0.03125, 0.00000, -0.06250, 0.06250, 0.00000, -0.03125, 0.06250, 0.03125, -0.06250, 0.00000, 0.03125, 0.00000, 0.00000, 0.00000, -0.06250, 0.00000, 0.06250, 0.03125, -0.03125, 0.03125, 0.00000, -0.09375, 0.03125, -0.03125, 0.03125, -0.03125, -0.03125, 0.00000, 0.00000, 0.03125, -0.03125, -0.03125, 0.03125, 0.00000, -0.06250, 0.00000, 0.03125, 0.00000, 0.00000, -0.03125, 0.00000, -0.03125, 0.00000, 0.00000, -0.03125, -0.03125, -0.06250, -0.03125, -0.03125, 0.06250, 0.00000, -0.03125, 0.03125, 0.00000, 0.00000, 0.00000, -0.03125, 0.00000, 0.00000, -0.03125, 0.00000, 0.00000, 0.00000, 0.00000, 0.03125, 0.03125, 0.00000, -0.03125, 0.03125, 0.00000, 0.00000, -0.06250, 0.00000, 0.06250, -0.03125, 0.03125, -0.03125, 0.03125, -0.03125, 0.03125, 0.03125, 0.03125, 0.00000, 0.00000, 0.00000, 0.00000, 0.03125, -0.03125, 0.00000, -0.03125, 0.03125, 0.00000, -0.03125, 0.00000, 0.00000, 0.00000, -0.03125, 0.00000, 0.06250, 0.00000, 0.00000, 0.03125, -0.03125, 0.00000, 0.00000, 0.00000, -0.03125, 0.03125, 0.09375, 0.00000, 0.00000, 0.03125, 0.00000, 0.03125, 0.03125, -0.03125, 0.03125, 0.03125, -0.03125, -0.03125, 0.00000, -0.03125, -0.03125, -0.03125, 0.00000, 0.06250, 0.00000, 0.06250, -0.03125, -0.06250, 0.00000, -0.03125, 0.03125, 0.00000, 0.00000, 0.00000, -0.03125, 0.00000, 0.00000, 0.06250, 0.00000, 0.00000, -0.03125, 0.00000, -0.03125, -0.06250, 0.00000, 0.03125, -0.03125, -0.03125, 0.00000, -0.06250, 0.00000, -0.03125, -0.06250, 0.03125, 0.00000, -0.03125, 0.03125, -0.06250, 0.03125, -0.06250, 0.06250, 0.00000, -0.03125, 0.00000, -0.03125, 0.03125, 0.00000, -0.03125, -0.03125, 0.00000, 0.00000, -0.03125, -0.03125, -0.06250, 0.03125, 0.00000, -0.03125, 0.00000, 0.03125, 0.06250, 0.00000, 0.00000, -0.03125, 0.00000, 0.00000, 0.00000, 0.00000, -0.03125, 0.00000, 0.03125, -0.06250, 0.00000, -0.03125, 0.03125, -0.06250, 0.00000, -0.03125, -0.03125, 0.03125, 0.00000, -0.03125, -0.03125, -0.03125, 0.03125, 0.00000, -0.03125, -0.06250, 0.00000, 0.03125, -0.03125, 0.03125, -0.03125, 0.03125, 0.00000, 0.03125, 0.00000, 0.03125, -0.03125, 0.03125, 0.06250, 0.03125, 0.00000, -0.06250, 0.00000, 0.03125, 0.03125, 0.00000, 0.00000, 0.03125, 0.00000, 0.00000, 0.00000, 0.03125, -0.03125, 0.00000, -0.06250, 0.03125, -0.03125, -0.03125, 0.03125, 0.03125, 0.00000, -0.03125, 0.03125, -0.06250, 0.00000, -0.03125, -0.03125, -0.03125, 0.00000, -0.03125, -0.03125, 0.00000, -0.03125, -0.03125, 0.03125, -0.03125, -0.03125, 0.00000, 0.00000, 0.03125, -0.03125, 0.00000, -0.03125, 0.06250, 0.00000, 0.03125, -0.03125, 0.00000, 0.06250, 0.03125, 0.03125, 0.00000, 0.00000, 0.03125, -0.03125, 0.00000, -0.03125, -0.03125, -0.03125, 0.03125, -0.06250, 0.06250, 0.06250, 0.03125, -0.06250, 0.00000, 0.00000, 0.00000, 0.00000, 0.00000, 0.03125, 0.03125, 0.00000, 0.03125, 0.03125, 0.00000, -0.06250, 0.00000, -0.06250, 0.00000, -0.03125, 0.06250, -0.03125, -0.03125, 0.00000, 0.00000, -0.03125, 0.03125, 0.06250, 0.00000, -0.03125, 0.03125, 0.03125, 0.03125, -0.03125, 0.00000, 0.03125, 0.00000, -0.03125, -0.06250, 0.03125, 0.00000, 0.06250, 0.00000, 0.00000, 0.00000, 0.00000, 0.00000, -0.06250, 0.06250, 0.06250, 0.00000, 0.03125, 0.03125, 0.00000, -0.03125, 0.03125, 0.03125, 0.03125, -0.06250, -0.03125, 0.00000, 0.00000, 0.03125, 0.03125, 0.00000, 0.00000, 0.00000, 0.06250, 0.00000, 0.00000, 0.00000, 0.00000, 0.00000, 0.03125, 0.06250, 0.03125, 0.03125, 0.00000, -0.06250, 0.00000, 0.03125, 0.00000, 0.00000, 0.03125, 0.06250, 0.00000, -0.06250, 0.00000, 0.00000, -0.03125, 0.00000, 0.00000, 0.03125, -0.03125, 0.00000, 0.00000, 0.00000, 0.06250, 0.00000, -0.06250, 0.03125, 0.03125, -0.03125, 0.00000, -0.03125, -0.06250, 0.00000, -0.06250, -0.03125, 0.00000, -0.03125, 0.00000, -0.06250, -0.03125, -0.03125, -0.03125, 0.03125, -0.03125, -0.03125, 0.03125, -0.06250, -0.03125, 0.00000, 0.00000, 0.00000, -0.03125, 0.00000, -0.03125, -0.03125, -0.06250, 0.00000, 0.00000, 0.00000, -0.03125, 0.03125, 0.00000, 0.00000, 0.03125, -0.03125, 0.09375, 0.00000, 0.03125, 0.03125, 0.03125, 0.00000, 0.00000, 0.00000, 0.03125, -0.03125, -0.03125, -0.03125, 0.03125, 0.03125, -0.03125, -0.03125, -0.03125, -0.03125, 0.03125, -0.03125, -0.03125, 0.00000, 0.00000, -0.03125, 0.00000, 0.09375, 0.00000, 0.03125, -0.06250, -0.03125, 0.03125, 0.00000, 0.03125, 0.00000, 0.03125, 0.03125, -0.03125, 0.06250, 0.06250, -0.03125, 0.00000, -0.03125, 0.00000, -0.06250, 0.00000, -0.03125, 0.03125, 0.00000, 0.03125, 0.03125, 0.03125, 0.06250, -0.03125, 0.03125, 0.06250, 0.00000, -0.03125, 0.06250, -0.03125, 0.00000, 0.06250, 0.06250, 0.00000, 0.03125, 0.00000, -0.03125, 0.00000, 0.00000, 0.00000, -0.03125, 0.00000, 0.00000, 0.00000, 0.00000, 0.00000, 0.06250, 0.03125, 0.00000, 0.03125, 0.00000, -0.03125, -0.03125, 0.00000, 0.03125, 0.00000, 0.03125, -0.03125, 0.06250, -0.06250, 0.06250, 0.03125, 0.00000, 0.00000, 0.03125, 0.03125, 0.03125, 0.00000, -0.03125, 0.00000, -0.03125, 0.00000, -0.06250, 0.00000, 0.00000, 0.00000, -0.06250, -0.06250, 0.00000, 0.06250, -0.06250, -0.03125, -0.03125, -0.03125, -0.03125, -0.03125, 0.00000, 0.00000, 0.03125, 0.03125, 0.03125, 0.03125, -0.03125, 0.03125, 0.06250, 0.00000, 0.00000, 0.00000, -0.03125, 0.03125, 0.03125, -0.03125, 0.00000, 0.00000, 0.06250, -0.03125, 0.00000, 0.03125, 0.03125, -0.03125, 0.00000, 0.00000, 0.00000, 0.03125, -0.06250, 0.00000, -0.03125, 0.00000, 0.00000, 0.03125, -0.03125, -0.03125, 0.00000, 0.03125, 0.00000, -0.06250, 0.03125, -0.03125, -0.03125, 0.00000, -0.03125, 0.00000, -0.03125, -0.03125, 0.00000, 0.03125, 0.03125, 0.03125, -0.03125, 0.03125, -0.03125, -0.03125, 0.00000, 0.00000, 0.00000, 0.03125, 0.00000, 0.03125, 0.03125, 0.00000, -0.03125, 0.00000, 0.00000, 0.03125, 0.06250, 0.03125, 0.00000, 0.00000, -0.03125, 0.03125, -0.03125, 0.00000, 0.03125, -0.03125, 0.03125, 0.00000, -0.03125, -0.03125, 0.00000, 0.06250, -0.03125, -0.03125, -0.03125, 0.00000, 0.00000, 0.00000, 0.00000, -0.03125, -0.06250, 0.03125, -0.06250, 0.00000, -0.03125, 0.00000, 0.00000, 0.00000, 0.03125, 0.00000, 0.00000, -0.06250, -0.03125, 0.03125, 0.00000, 0.00000, 0.00000, -0.03125, -0.03125, 0.00000, 0.00000, 0.03125, -0.06250, 0.00000, 0.00000, 0.00000, -0.03125, -0.03125, 0.00000, 0.06250, -0.03125, -0.06250, 0.00000, -0.06250, 0.00000, 0.00000, 0.00000, -0.03125, 0.00000, 0.00000, 0.03125, -0.06250, 0.03125, 0.03125, 0.00000, 0.00000, -0.06250, 0.00000, 0.03125, 0.03125, 0.03125, 0.03125, 0.00000, 0.00000, -0.03125, 0.00000, 0.00000, -0.03125, 0.03125, 0.00000, 0.00000, 0.00000, 0.00000, 0.00000, -0.03125, 0.03125, -0.03125, 0.06250, 0.00000, 0.00000, 0.03125, 0.00000, -0.03125, 0.00000, 0.03125, 0.00000, -0.03125, 0.03125, 0.06250, 0.06250, -0.03125, 0.00000, 0.03125, 0.03125, 0.06250, 0.00000, 0.00000, 0.03125, -0.03125, 0.00000, 0.03125, 0.00000, 0.03125, 0.00000, -0.03125, 0.00000, 0.00000, 0.00000, 0.03125, 0.00000, 0.03125, 0.03125, 0.00000, 0.03125, -0.06250, -0.03125, -0.03125, 0.03125, 0.03125, 0.03125, -0.03125, 0.00000, 0.00000, -0.06250, 0.00000, 0.00000, -0.03125, 0.00000, 0.03125, -0.03125, 0.06250, 0.03125, 0.00000, 0.03125, 0.09375, 0.00000, 0.03125, 0.00000, -0.09375, 0.00000, 0.03125, -0.06250, 0.03125, 0.03125, 0.00000, 0.00000, 0.03125, 0.00000, -0.06250, 0.03125, 0.00000, 0.03125, 0.03125, -0.03125, 0.00000, 0.00000, -0.03125, 0.00000, 0.00000, 0.00000, -0.09375, -0.06250, -0.03125, -0.06250, -0.03125, 0.03125, 0.06250, -0.03125, -0.03125, -0.06250, 0.03125, -0.03125, 0.03125, -0.03125, 0.00000, 0.00000, -0.03125, -0.06250, 0.00000, -0.03125, 0.00000, 0.00000, 0.06250, 0.03125, 0.00000, 0.03125, 0.00000, 0.03125, 0.03125, 0.00000, 0.06250, 0.00000, 0.00000, -0.03125, 0.00000, -0.03125, 0.00000, 0.00000, 0.06250, 0.00000, 0.00000, 0.00000, 0.03125, 0.03125, -0.06250, 0.06250, 0.03125, -0.03125, 0.00000, -0.06250, 0.00000, 0.06250, 0.00000, 0.00000, -0.03125, 0.00000, 0.03125, 0.00000, 0.03125, 0.00000, -0.03125, 0.00000, 0.00000, 0.00000, 0.00000, -0.03125, -0.03125, -0.06250, -0.03125, 0.03125, 0.00000, 0.00000, -0.03125, 0.00000, 0.00000, 0.06250, 0.03125, 0.00000, -0.06250, 0.00000, -0.03125, 0.00000, 0.03125, -0.03125, 0.00000, -0.03125, 0.06250, -0.03125, -0.03125, 0.03125, 0.00000, 0.00000, 0.03125, -0.03125, 0.00000, -0.06250, -0.03125, 0.00000, 0.00000, -0.03125, 0.00000, 0.00000, -0.03125, 0.03125, 0.00000, 0.00000, -0.03125, -0.03125, -0.06250, 0.03125, 0.00000, 0.00000, 0.00000, 0.00000, 0.00000, 0.00000, 0.06250, 0.00000, 0.03125, 0.00000, -0.03125, 0.03125, 0.03125, 0.00000, -0.03125, 0.00000, -0.06250, 0.03125, -0.09375, 0.00000, 0.00000, 0.03125, 0.00000, 0.00000, -0.03125, 0.00000, -0.06250, 0.03125, 0.03125, -0.03125, 0.03125, -0.09375, 0.03125, 0.00000, -0.03125, -0.03125, 0.03125, -0.03125, 0.03125, 0.00000, 0.06250, 0.00000, 0.00000, 0.03125, 0.03125, -0.03125, -0.03125, -0.03125, 0.00000, 0.03125, 0.00000, 0.03125, 0.00000, -0.06250, 0.03125, 0.00000, -0.06250, -0.03125, 0.00000, 0.03125, 0.03125, -0.03125, -0.03125, -0.03125, 0.00000, 0.03125, 0.03125, -0.06250, -0.03125, 0.03125, -0.03125, 0.03125, -0.06250, -0.03125, 0.03125, -0.03125, -0.03125, 0.06250, 0.00000, 0.03125, -0.06250, 0.00000, 0.00000, -0.03125, 0.00000, -0.03125, 0.00000, -0.03125, -0.06250, 0.00000, 0.00000, 0.03125, -0.03125, 0.00000, 0.03125, -0.06250, 0.03125, -0.03125, 0.03125, 0.06250, 0.00000, -0.03125, 0.00000, -0.03125, 0.00000, -0.03125, 0.03125, 0.00000, -0.03125, -0.03125, -0.03125, 0.00000, 0.00000, 0.06250, 0.00000, 0.00000, 0.03125, 0.03125, -0.03125, -0.06250, 0.00000, 0.00000, 0.00000, 0.06250, -0.06250, 0.00000, -0.03125, -0.03125, -0.03125, -0.06250, 0.00000, 0.00000, -0.03125, 0.06250, -0.03125, 0.00000, 0.00000, 0.00000, 0.03125, 0.03125, 0.03125, 0.00000, 0.00000, 0.00000, 0.03125, 0.00000, -0.03125, 0.00000, -0.03125, -0.03125, 0.00000, -0.03125, -0.03125, -0.03125, -0.06250, -0.03125, 0.00000, -0.06250, 0.00000, -0.03125, 0.03125, 0.03125, 0.00000, 0.03125, -0.03125, -0.03125, 0.00000, 0.00000, 0.03125, 0.00000, 0.03125, 0.00000, 0.00000, -0.03125, 0.03125, 0.03125, 0.03125, 0.00000, 0.03125, -0.03125, -0.06250, -0.03125, 0.03125, 0.00000, 0.03125, 0.00000, 0.00000, 0.00000, 0.03125, 0.03125, 0.00000, 0.00000, 0.00000, -0.03125, -0.03125, -0.03125, 0.00000, -0.03125, 0.03125, 0.06250, 0.00000, 0.03125, 0.03125, -0.03125, 0.00000, -0.06250, 0.03125, 0.00000, -0.03125, 0.00000, 0.00000, 0.06250, -0.03125, 0.00000, 0.06250, -0.03125, -0.03125, 0.03125, 0.00000, 0.03125, -0.03125, -0.03125, 0.00000, 0.00000, 0.06250, 0.00000, -0.03125, 0.03125, 0.00000, 0.00000, 0.00000, 0.00000, -0.06250, -0.06250, 0.00000, -0.03125, 0.00000, 0.00000, 0.00000, 0.03125, 0.00000, 0.06250, -0.03125, 0.06250, 0.00000, -0.03125, 0.03125, 0.00000, 0.06250, 0.00000, -0.03125, -0.03125, -0.03125, 0.00000, 0.03125, 0.00000, 0.00000, -0.03125, -0.03125, 0.06250, 0.03125, -0.03125, -0.03125, 0.03125, 0.00000, 0.00000, 0.03125, 0.09375, -0.03125, -0.03125, 0.03125, 0.00000, 0.03125, 0.00000, 0.03125, -0.03125, 0.00000, 0.06250, 0.03125, 0.00000, -0.03125, 0.06250, 0.03125, 0.03125, 0.03125, -0.03125, -0.03125, 0.03125, 0.06250, 0.00000, 0.03125, 0.03125, 0.03125, -0.03125, 0.03125, 0.03125, 0.03125, -0.03125, -0.06250, 0.06250, -0.06250, 0.00000, 0.00000, 0.00000, 0.03125, -0.03125, -0.03125, 0.03125, 0.06250, 0.00000, -0.03125, 0.03125, 0.03125, -0.03125, 0.03125, 0.00000, 0.00000, 0.00000, 0.06250, -0.03125, -0.06250, 0.00000, 0.03125, 0.03125, 0.00000, -0.03125, -0.03125, 0.03125, 0.00000, 0.00000, 0.00000, -0.03125, 0.00000, -0.03125, 0.00000, 0.03125, -0.03125, -0.06250, -0.03125, -0.03125, -0.09375, 0.00000, 0.00000, 0.06250, -0.03125, 0.00000, 0.03125, 0.03125, 0.00000, -0.03125, -0.03125, 0.03125, 0.00000, 0.00000, 0.03125, -0.06250, -0.03125, -0.03125, 0.03125, -0.03125, -0.03125, -0.03125, 0.03125, -0.03125, 0.00000, 0.03125, -0.03125, 0.00000, 0.00000, 0.00000, 0.00000, 0.03125, 0.00000, -0.09375, -0.06250, 0.00000, 0.00000, 0.00000, -0.03125, 0.06250, -0.03125, 0.00000, 0.03125, 0.00000, -0.06250, 0.00000, -0.03125, 0.03125, 0.00000, -0.03125, 0.00000, 0.00000, -0.03125, 0.00000, 0.03125, -0.03125, 0.06250, 0.00000, 0.00000, 0.00000, 0.03125, 0.06250, 0.00000, 0.03125, 0.03125, 0.06250, 0.00000, -0.03125, -0.03125, 0.00000, 0.00000, 0.06250, -0.06250, 0.03125, -0.06250, 0.03125, -0.03125, 0.00000, 0.03125, -0.06250, -0.06250, 0.00000, -0.06250, 0.00000, 0.03125, -0.03125, -0.06250, -0.03125, -0.03125, -0.06250, 0.03125, 0.00000, -0.03125, 0.00000, -0.06250, 0.06250, 0.00000, -0.03125, 0.00000, 0.00000, -0.03125, 0.03125, -0.03125, -0.03125, -0.03125, -0.06250, 0.03125, 0.00000, 0.03125, 0.00000, 0.00000, 0.00000, 0.00000, -0.03125, 0.06250, 0.00000, 0.03125, 0.00000, 0.00000, 0.00000, 0.00000, -0.03125, 0.00000, -0.03125, 0.03125, 0.03125, 0.00000, -0.03125, 0.03125, -0.03125, 0.00000, 0.00000, 0.00000, -0.03125, 0.00000, 0.03125, 0.00000, 0.00000, 0.00000, 0.03125, 0.00000, 0.00000, 0.00000, -0.03125, 0.00000, 0.00000, 0.00000, 0.00000, 0.03125, -0.03125, -0.03125, -0.03125, 0.00000, 0.00000, -0.03125, -0.03125, -0.03125, 0.03125, -0.03125, 0.06250, 0.00000, 0.03125, 0.00000, -0.03125, 0.03125, 0.03125, 0.00000, 0.00000, 0.06250, 0.00000, 0.00000, 0.00000, 0.03125, -0.03125, -0.03125, -0.03125, 0.00000, 0.06250, -0.03125, 0.00000, -0.03125, 0.00000, 0.03125, 0.09375, -0.06250, 0.00000, -0.03125, 0.00000, 0.00000, 0.00000, 0.00000, 0.03125, 0.03125, 0.00000, 0.00000, 0.00000, -0.03125, 0.00000, 0.03125, 0.00000, 0.00000, 0.03125, -0.03125, 0.00000, 0.00000, -0.03125, 0.00000, 0.00000, -0.03125, -0.03125, 0.03125, 0.00000, 0.00000, -0.06250, -0.06250, 0.00000, 0.03125, 0.00000, 0.00000, -0.03125, 0.00000, -0.03125, -0.03125, -0.06250, 0.00000, -0.06250, 0.00000, 0.03125, 0.00000, 0.00000, 0.03125, -0.06250, 0.09375, 0.00000, 0.03125, 0.06250, -0.06250, 0.00000, 0.00000, -0.03125, 0.03125, 0.00000, -0.03125, 0.06250, 0.06250, -0.03125, -0.06250, 0.00000, -0.03125, 0.00000, -0.03125, -0.03125, 0.03125, 0.03125, -0.03125, -0.09375, 0.03125, 0.06250, 0.00000, 0.00000, -0.03125, -0.03125, 0.03125, 0.03125, 0.00000, -0.03125, 0.03125, -0.03125, 0.03125, 0.03125, 0.06250, -0.03125, -0.03125, 0.00000, 0.00000, -0.06250, 0.03125, 0.00000, 0.03125, 0.00000, 0.06250, -0.03125, -0.03125, 0.00000, 0.00000, -0.03125, -0.03125, 0.00000, 0.00000, -0.03125, 0.03125, 0.03125, 0.00000, 0.03125, -0.03125, 0.00000, -0.06250, -0.03125, -0.03125, -0.03125, 0.00000, 0.00000, 0.06250, 0.03125, 0.00000, -0.06250, -0.03125, 0.03125, -0.03125, -0.03125, 0.03125, 0.03125, -0.06250, 0.00000, 0.06250, 0.00000, 0.00000, 0.06250, 0.06250, 0.09375, 0.00000, 0.06250, 0.03125, 0.03125, -0.03125, 0.03125, 0.03125, 0.03125, 0.03125, 0.03125, -0.06250, 0.00000, 0.06250, 0.06250, 0.03125, 0.00000, -0.09375, 0.00000, -0.03125, 0.00000, 0.00000, -0.03125, -0.06250, -0.03125, 0.03125, -0.03125, 0.00000, 0.03125, 0.03125, 0.00000, 0.00000, 0.06250, 0.00000, 0.03125, 0.00000, -0.03125, -0.03125, 0.06250, 0.03125, 0.00000, 0.03125, 0.06250, 0.03125, -0.03125, -0.03125, 0.00000, 0.00000, 0.00000, 0.00000, -0.06250, 0.00000, 0.03125, 0.03125, -0.06250, 0.03125, 0.00000, -0.03125, -0.03125, 0.00000, -0.06250, 0.00000, -0.03125, 0.00000, -0.03125, 0.00000, 0.03125, 0.00000, 0.03125, -0.03125, 0.00000, 0.03125, -0.03125, -0.03125, 0.03125, 0.00000, -0.03125, -0.03125, -0.03125, 0.03125, 0.00000, 0.03125, 0.00000, 0.03125, 0.03125, 0.00000, -0.03125, -0.03125, -0.06250, -0.03125, -0.03125, 0.00000, -0.06250, 0.03125, 0.03125, -0.03125, -0.03125, -0.03125, -0.03125, 0.06250, 0.06250, 0.00000, 0.03125, 0.00000, 0.00000, -0.06250, 0.00000, -0.03125, 0.03125, 0.03125, 0.03125, 0.03125, 0.03125, 0.03125, 0.03125, 0.00000, 0.00000, -0.06250, -0.03125, 0.03125, 0.03125, -0.06250, -0.03125, 0.00000, 0.00000, -0.03125, 0.00000, 0.03125, 0.06250, 0.00000, 0.03125, 0.03125, 0.00000, 0.00000, 0.00000, 0.03125, 0.00000, 0.00000, 0.00000, 0.00000, 0.00000, 0.03125, 0.00000, 0.03125, 0.00000, 0.00000, -0.03125, 0.03125, -0.03125, 0.00000, 0.00000, -0.03125, -0.03125, 0.00000, 0.00000, 0.00000, -0.03125, 0.06250, 0.00000, 0.06250, 0.00000, -0.06250, -0.03125, 0.00000, 0.00000, 0.03125, 0.03125, 0.00000, 0.00000, 0.00000, 0.00000, 0.00000, -0.06250, 0.00000, 0.06250, 0.06250, 0.00000, 0.00000, -0.03125, 0.03125, 0.03125, 0.03125, 0.03125, 0.00000, 0.00000, -0.09375, -0.03125, 0.00000, 0.00000, 0.00000, 0.03125, 0.03125, 0.03125, 0.00000, 0.00000, 0.03125, -0.03125, -0.03125, 0.00000, 0.03125, 0.03125, 0.03125, 0.00000, -0.03125, 0.00000, 0.00000, 0.03125, 0.03125, -0.03125, 0.06250, -0.03125, 0.03125, 0.00000, 0.00000, -0.06250, 0.03125, 0.00000, -0.09375, -0.03125, 0.00000, 0.00000, 0.03125, 0.03125, 0.00000, 0.00000, 0.00000, 0.00000, -0.03125, 0.06250, 0.00000, 0.00000, -0.03125, 0.00000, 0.00000, 0.00000, 0.00000, 0.00000, 0.00000, -0.03125, -0.03125, 0.03125, -0.03125, 0.03125, 0.06250, 0.00000, 0.00000, 0.00000, 0.03125, 0.06250, 0.00000, 0.03125, 0.00000, 0.00000, 0.00000, -0.03125, 0.03125, 0.12500, 0.00000, 0.00000, 0.03125, -0.03125, -0.03125, 0.00000, 0.03125, 0.00000, 0.06250, 0.03125, 0.00000, 0.03125, -0.03125, 0.03125, 0.06250, -0.06250, 0.00000, 0.00000, 0.03125, -0.03125, 0.03125, 0.00000, 0.00000, -0.03125, 0.00000, -0.09375, -0.03125, -0.03125, -0.06250, -0.03125, -0.03125, -0.03125, 0.00000, 0.00000, 0.00000, 0.03125, -0.03125, 0.06250, 0.03125, -0.03125, 0.00000, 0.03125, 0.03125, 0.00000, -0.03125, -0.06250, 0.06250, 0.00000, 0.00000, 0.00000, 0.03125, -0.03125, -0.03125, -0.03125, -0.03125, 0.09375, 0.00000, 0.06250, 0.03125, 0.03125, 0.00000, -0.03125, 0.00000, -0.03125, -0.03125, 0.00000, 0.00000, 0.00000, 0.03125, 0.00000, 0.00000, 0.03125, 0.00000, 0.00000, 0.03125, 0.00000, 0.03125, -0.03125, 0.06250, 0.03125, 0.03125, 0.00000, 0.00000, 0.03125, 0.00000, -0.03125, 0.00000, -0.03125, -0.06250, 0.00000, 0.00000, 0.00000, -0.06250, -0.06250, -0.03125, -0.03125, 0.00000, 0.03125, -0.03125, 0.00000, 0.00000, -0.03125, -0.03125, 0.00000, 0.03125, 0.03125, 0.03125, -0.03125, 0.00000, 0.00000, -0.03125, 0.00000, 0.03125, -0.03125, 0.03125, 0.06250, 0.00000, -0.06250, 0.03125, 0.00000, 0.00000, -0.03125, 0.03125, -0.03125, 0.03125, -0.06250, -0.03125, 0.06250, 0.03125, 0.03125, 0.03125, -0.06250, -0.03125, 0.00000, 0.03125, 0.03125, 0.06250, 0.00000, 0.00000, 0.06250, 0.03125, 0.00000, 0.03125, 0.00000, -0.06250, -0.03125, -0.06250, 0.00000, 0.03125, 0.00000, 0.00000, 0.03125, 0.00000, 0.03125, 0.00000, -0.03125, 0.00000, -0.03125, -0.03125, 0.03125, -0.03125, 0.03125, -0.03125, 0.00000, 0.00000, -0.03125, 0.03125, 0.00000, 0.03125, 0.00000, 0.09375, 0.00000, 0.00000, 0.00000, 0.00000, 0.00000, -0.06250, 0.00000, -0.03125, 0.03125, 0.00000, 0.00000, -0.03125, -0.03125, 0.00000, -0.06250, 0.09375, 0.00000, 0.00000, -0.03125, -0.03125, -0.03125, 0.03125, -0.03125, -0.03125, 0.00000, 0.00000, -0.03125, 0.06250, 0.03125, 0.06250, 0.03125, 0.03125, 0.00000, 0.00000, 0.00000, 0.03125, 0.00000, 0.06250, 0.00000, 0.00000, -0.03125, 0.00000, -0.03125, -0.03125, 0.00000, -0.03125, -0.03125, 0.00000, -0.06250, -0.03125, 0.00000, -0.03125, -0.03125, -0.03125, -0.03125, -0.03125, -0.03125, -0.03125, 0.03125, 0.00000, 0.00000, -0.03125, -0.03125, 0.06250, 0.03125, 0.06250, 0.00000, 0.00000, -0.03125, 0.00000, 0.00000, 0.03125, -0.03125, -0.03125, 0.00000, 0.06250, 0.06250, 0.00000, 0.06250, -0.03125, 0.00000, 0.03125, 0.00000, -0.06250, 0.06250, -0.03125, 0.00000, 0.00000, 0.00000, 0.00000, 0.00000, 0.00000, 0.00000, 0.00000, 0.06250, -0.03125, 0.00000, 0.00000, 0.00000, 0.03125, 0.00000, 0.03125, 0.03125, 0.00000, 0.00000, 0.00000, -0.03125, 0.00000, 0.03125, 0.06250, 0.00000, -0.03125, -0.03125, 0.00000, 0.00000, 0.00000, 0.00000, 0.03125, 0.00000, -0.03125, -0.06250, 0.00000, 0.03125, 0.00000, 0.00000, 0.00000, 0.00000, -0.03125, 0.00000, -0.03125, 0.00000, 0.06250, -0.03125, 0.03125, 0.03125, 0.00000, 0.03125, 0.03125, 0.00000, 0.00000, 0.00000, 0.03125, -0.06250, 0.03125, -0.06250, 0.03125, -0.03125, -0.03125, -0.09375, -0.06250, 0.03125, -0.03125, 0.00000, -0.03125, -0.03125, 0.00000, -0.03125, -0.06250, 0.03125, 0.06250, 0.03125, 0.03125, 0.00000, 0.06250, 0.03125, 0.00000, -0.03125, 0.00000, 0.03125, 0.00000, 0.03125, -0.03125, 0.03125, 0.03125, 0.00000, 0.00000, -0.06250, -0.03125, -0.03125, 0.00000, 0.00000, 0.03125, 0.03125, -0.03125, 0.00000, -0.03125, 0.00000, -0.06250, 0.03125, 0.03125, 0.03125, 0.00000, 0.03125, 0.03125, 0.03125, 0.00000, 0.03125, 0.03125, -0.03125, 0.00000, -0.03125, 0.00000, 0.00000, 0.06250, -0.03125, -0.03125, 0.00000, 0.06250, -0.06250, 0.03125, 0.00000, 0.00000, 0.06250, 0.03125, 0.00000, -0.06250, -0.03125, 0.00000, 0.00000, 0.00000, 0.03125, 0.03125, 0.06250, 0.00000, 0.03125, 0.00000, 0.03125, 0.00000, 0.03125, 0.00000, 0.00000, 0.03125, -0.06250, 0.00000, 0.03125, 0.03125, 0.03125, 0.00000, 0.00000, 0.03125, -0.03125, -0.06250, 0.06250, 0.03125, 0.03125, -0.03125, 0.00000, -0.03125, 0.00000, -0.03125, 0.00000, 0.03125, -0.03125, 0.00000, -0.06250, 0.00000, 0.00000, -0.06250, -0.03125, 0.03125, 0.03125, -0.03125, -0.03125, 0.00000, 0.03125, 0.00000, -0.06250, 0.03125, 0.03125, 0.03125, 0.00000, 0.00000, -0.03125, 0.06250, 0.03125, 0.00000, 0.00000, -0.06250, -0.03125, 0.00000, 0.03125, 0.00000, 0.00000, 0.00000, -0.03125, -0.03125, 0.06250, 0.06250, 0.00000, 0.03125, -0.03125, 0.06250, 0.06250, -0.03125, 0.03125, 0.00000, 0.03125, 0.00000, -0.03125, 0.03125, 0.00000, 0.03125, -0.06250, -0.03125, 0.06250, 0.00000, 0.03125, 0.00000, -0.06250, 0.03125, -0.06250, 0.03125, 0.00000, -0.03125, -0.03125, -0.03125, 0.06250, 0.03125, -0.06250, 0.00000, 0.06250, 0.00000, 0.00000, 0.03125, 0.00000, 0.00000, 0.03125, 0.00000, -0.06250, -0.06250, -0.03125, -0.03125, 0.00000, 0.00000, -0.06250, 0.06250, 0.00000, 0.03125, 0.06250, 0.03125, 0.00000, 0.09375, -0.03125, 0.00000, -0.06250, 0.00000, 0.00000, 0.00000, 0.03125, 0.03125, -0.03125, 0.00000, -0.03125, 0.00000, 0.00000, -0.03125, 0.03125, 0.00000, 0.00000, -0.03125, 0.03125, -0.03125, 0.00000, -0.03125, 0.00000, 0.00000, 0.00000, 0.00000, 0.00000, -0.03125, -0.03125, 0.00000, 0.03125, -0.03125, 0.00000, -0.03125, -0.03125, -0.03125, 0.03125, 0.03125, -0.06250, 0.03125, -0.03125, -0.03125, 0.06250, 0.00000, 0.00000, -0.03125, 0.03125, -0.06250, -0.03125, 0.00000, 0.00000, 0.03125, 0.00000, -0.03125, 0.00000, 0.00000, 0.03125, 0.00000, -0.06250, 0.03125, 0.00000, -0.06250, -0.03125, 0.00000, 0.03125, 0.00000, 0.00000, 0.00000, 0.00000, 0.00000, 0.00000, 0.00000, 0.00000, 0.03125, 0.00000, 0.03125, -0.03125, 0.06250, 0.03125, -0.06250, -0.03125, -0.03125, -0.06250, 0.03125, -0.03125, 0.00000, 0.00000, 0.03125, 0.00000, -0.03125, 0.00000, 0.00000, -0.03125, -0.06250, -0.03125, 0.00000, 0.00000, -0.03125, 0.00000, 0.03125, 0.03125, 0.00000, -0.03125, 0.03125, -0.03125, 0.06250, 0.03125, 0.06250, -0.03125, 0.00000, 0.03125, 0.00000, 0.00000, 0.00000, -0.03125, -0.03125, -0.03125, 0.00000, -0.03125, 0.03125, -0.03125, 0.00000, 0.00000, 0.00000, 0.03125, -0.03125, 0.03125, 0.03125, 0.00000, 0.03125, 0.03125, -0.03125, 0.03125, 0.03125, -0.03125, 0.00000, 0.06250, -0.03125, 0.00000, -0.06250, 0.03125, 0.00000, -0.03125, -0.03125, 0.00000, -0.03125, 0.06250, -0.06250, -0.03125, 0.00000, -0.06250, 0.00000, 0.03125, -0.03125, -0.03125, 0.00000, 0.00000, 0.00000, 0.00000, 0.06250, 0.03125, 0.00000, 0.00000, 0.03125, 0.00000, -0.03125, 0.03125, 0.03125, 0.03125, 0.00000, 0.09375, -0.06250, -0.06250, 0.03125, 0.00000, 0.03125, 0.00000, 0.06250, 0.00000, -0.03125, 0.00000, 0.03125, -0.03125, 0.00000, 0.00000, 0.00000, 0.00000, 0.00000, 0.03125, 0.03125, -0.06250, -0.03125, -0.03125, 0.00000, 0.00000, 0.00000, 0.00000, 0.06250, 0.00000, 0.03125, -0.03125, 0.00000, 0.03125, 0.00000, 0.00000, 0.00000, -0.03125, -0.03125, 0.00000, 0.00000, 0.03125, -0.03125, 0.00000, 0.06250, 0.00000, 0.06250, 0.00000, -0.03125, 0.03125, 0.00000, 0.03125, -0.03125, 0.03125, 0.00000, -0.06250, 0.03125, 0.03125, 0.00000, 0.03125, 0.06250, 0.00000, 0.06250, 0.00000, 0.06250, 0.03125, -0.03125, -0.03125, -0.03125, -0.06250, 0.03125, 0.00000, -0.03125, 0.06250, 0.03125, -0.03125, 0.03125, -0.06250, 0.03125, 0.00000, 0.03125, 0.00000, 0.00000, -0.03125, 0.03125, 0.00000, -0.03125, 0.00000, 0.00000, -0.03125, -0.03125, 0.00000, -0.03125, 0.03125, 0.00000, 0.03125, 0.00000, 0.00000, 0.00000, 0.03125, 0.00000, -0.06250, -0.06250, 0.00000, 0.00000, -0.03125, -0.03125, 0.03125, -0.03125, -0.03125, 0.03125, 0.03125, -0.03125, 0.09375, 0.03125, 0.03125, -0.06250, 0.03125, 0.03125, 0.03125, -0.03125, 0.00000, 0.06250, 0.00000, -0.03125, -0.03125, 0.00000, 0.00000, 0.03125, 0.03125, -0.03125, -0.06250, 0.09375, 0.03125, -0.03125, -0.06250, -0.03125, 0.06250, -0.03125, 0.00000, -0.03125, 0.03125, -0.03125, 0.00000, 0.00000, 0.00000, -0.03125, 0.03125, -0.03125, -0.03125, -0.03125, 0.00000, 0.00000, -0.03125, -0.03125, 0.03125, 0.06250, 0.06250, 0.00000, -0.03125, 0.00000, 0.00000, 0.00000, 0.03125, -0.03125, 0.03125, 0.03125, -0.03125, -0.03125, 0.06250, 0.06250, 0.00000, 0.06250, 0.03125, 0.03125, -0.03125, 0.00000, 0.00000, -0.03125, 0.03125, 0.00000, 0.03125, -0.03125, -0.06250, 0.00000, 0.03125, -0.03125, 0.03125, 0.00000, -0.03125, 0.03125, 0.03125, 0.06250, 0.06250, -0.03125, -0.03125, -0.09375, -0.03125, -0.03125, 0.03125, 0.03125, 0.00000, -0.06250, 0.03125, 0.00000, -0.03125, 0.00000, 0.03125, 0.09375, -0.03125, 0.03125, 0.00000, -0.03125, 0.03125, 0.00000, -0.03125, 0.00000, 0.00000, 0.00000, 0.00000, 0.03125, 0.03125, 0.06250, 0.03125, -0.03125, 0.00000, 0.06250, 0.00000, -0.03125, -0.06250, 0.00000, 0.03125, 0.00000, -0.03125, -0.03125, 0.00000, -0.03125, 0.00000, 0.03125, 0.06250, 0.00000, 0.00000, -0.03125, 0.00000, -0.03125, 0.03125, -0.06250, 0.00000, 0.03125, -0.03125, -0.03125, 0.00000, -0.03125, -0.06250, -0.03125, 0.00000, 0.06250, 0.03125, 0.03125, -0.03125, 0.03125, 0.03125, 0.03125, -0.03125, -0.03125, 0.03125, 0.00000, 0.03125, 0.00000, 0.06250, 0.06250, -0.03125, 0.00000, 0.00000, 0.03125, 0.03125, 0.03125, -0.06250, 0.00000, 0.00000, 0.00000, 0.03125, 0.00000, 0.06250, 0.03125, 0.00000, 0.00000, 0.03125, -0.03125, -0.03125, 0.00000, -0.06250, -0.03125, -0.03125, 0.03125, 0.03125, 0.03125, -0.03125, 0.00000, 0.00000, -0.03125, -0.03125, 0.03125, -0.03125, 0.00000, 0.00000, 0.00000, 0.03125, -0.03125, -0.03125, 0.03125, 0.03125, -0.03125, 0.06250, -0.03125, 0.03125, 0.03125, -0.03125, 0.06250, 0.06250, 0.06250, 0.00000, 0.06250, -0.06250, 0.00000, 0.03125, 0.03125, 0.00000, 0.00000, 0.00000, -0.03125, 0.00000, 0.03125, -0.03125, 0.06250, 0.03125, 0.03125, 0.00000, -0.03125, 0.00000, 0.03125, 0.03125, -0.03125, 0.03125, 0.00000, -0.03125, 0.00000, 0.00000, 0.06250, 0.03125, 0.00000, 0.03125, 0.03125, -0.03125, 0.00000, 0.00000, 0.00000, 0.03125, 0.00000, -0.03125, 0.00000, -0.06250, 0.00000, -0.03125, 0.00000, -0.03125, 0.03125, 0.03125, 0.00000, -0.03125, -0.03125, -0.03125, 0.00000, 0.03125, 0.00000, -0.03125, 0.00000, -0.06250, 0.00000, 0.03125, -0.03125, -0.03125, 0.03125, -0.03125, 0.00000, 0.00000, -0.03125, 0.00000, 0.03125, -0.03125, 0.00000, 0.03125, -0.03125, -0.03125, 0.00000, -0.03125, 0.00000, 0.00000, 0.00000, -0.06250, -0.06250, 0.03125, 0.06250, -0.03125, 0.00000, 0.00000, -0.03125, 0.00000, -0.03125, -0.03125, 0.03125, 0.00000, 0.03125, 0.03125, -0.03125, -0.03125, 0.03125, 0.00000, 0.09375, 0.03125, 0.00000, -0.06250, 0.03125, 0.00000, -0.03125, -0.03125, 0.00000, 0.03125, 0.00000, 0.03125, 0.03125, -0.06250, -0.03125, -0.03125, -0.03125, 0.03125, -0.06250, 0.03125, 0.03125, -0.03125, 0.00000, 0.03125, -0.03125, 0.06250, 0.00000, 0.00000, 0.00000, -0.06250, 0.09375, 0.06250, 0.00000, 0.03125, 0.03125, 0.03125, 0.00000, 0.03125, 0.03125, -0.03125, 0.00000, -0.03125, -0.03125, -0.03125, -0.03125, -0.03125, 0.03125, -0.03125, 0.00000, -0.03125, 0.03125, 0.03125, -0.03125, -0.03125, 0.00000, -0.03125, 0.03125, -0.03125, 0.06250, 0.00000, 0.00000, -0.03125, -0.03125, 0.06250, -0.03125, 0.00000, -0.06250, 0.03125, -0.03125, -0.03125, 0.00000, 0.00000, 0.00000, 0.00000, 0.00000, -0.03125, 0.03125, 0.00000, -0.03125, 0.00000, -0.03125, 0.00000, 0.00000, 0.00000, -0.09375, -0.03125, 0.00000, 0.00000, 0.00000, 0.00000, -0.03125, -0.03125, -0.03125, 0.03125, 0.03125, 0.03125, -0.03125, -0.03125, 0.00000, 0.00000, -0.03125, -0.12500, -0.03125, 0.00000, 0.00000, 0.00000, 0.00000, 0.00000, 0.03125, 0.00000, 0.00000, 0.00000, 0.00000, 0.00000, 0.00000, -0.03125, 0.00000, 0.00000, -0.03125, 0.06250, 0.00000, 0.03125, -0.03125, 0.00000, 0.00000, -0.06250, -0.03125, -0.06250, 0.00000, 0.03125, 0.06250, 0.03125, 0.00000, 0.00000, 0.00000, -0.03125, -0.06250, 0.00000, -0.03125, -0.06250, 0.03125, 0.06250, -0.03125, -0.03125, 0.00000, 0.00000, 0.00000, 0.00000, -0.03125, -0.06250, 0.03125, 0.03125, 0.03125, 0.03125, 0.00000, 0.03125, 0.00000, 0.03125, 0.06250, 0.03125, 0.00000, 0.00000, 0.03125, 0.03125, 0.03125, -0.03125, 0.00000, 0.00000, -0.06250, 0.03125, 0.00000, -0.03125, -0.03125, -0.03125, 0.03125, -0.06250, -0.03125, -0.03125, -0.03125, 0.06250, 0.00000, 0.00000, -0.09375, -0.03125, 0.00000, -0.03125, 0.00000, 0.00000, 0.00000, 0.06250, 0.00000, 0.03125, 0.03125, 0.03125, -0.06250, 0.00000, -0.03125, 0.03125, 0.00000, 0.00000, 0.00000, -0.03125, -0.03125, 0.03125, 0.06250, -0.03125, -0.03125, 0.00000, -0.03125, 0.03125, 0.00000, 0.00000, -0.03125, 0.00000, -0.06250, 0.00000, 0.06250, 0.00000, -0.06250, -0.06250, 0.00000, 0.03125, -0.03125, 0.00000, 0.03125, 0.00000, 0.03125, 0.00000, -0.03125, 0.00000, 0.00000, -0.03125, -0.03125, -0.06250, 0.03125, 0.00000, 0.00000, 0.06250, 0.03125, -0.03125, 0.03125, 0.03125, 0.00000, -0.03125, -0.06250, -0.03125, -0.03125, -0.03125, 0.03125, 0.00000, 0.00000, -0.03125, 0.00000, -0.03125, -0.06250, 0.00000, -0.03125, -0.03125, 0.00000, 0.00000, -0.03125, 0.00000, -0.06250, 0.00000, -0.03125, -0.03125, 0.00000, -0.03125, 0.00000, 0.03125, 0.00000, 0.03125, 0.00000, 0.00000, 0.00000, -0.06250, 0.00000, 0.00000, 0.00000, 0.03125, -0.03125, 0.03125, 0.00000, 0.00000, 0.00000, 0.06250, 0.03125, -0.03125, 0.00000, 0.03125, 0.03125, 0.03125, 0.00000, 0.06250, 0.00000, 0.00000, 0.00000, 0.00000, 0.00000, -0.06250, 0.00000, 0.00000, 0.09375, 0.00000, 0.03125, -0.03125, 0.03125, 0.12500, 0.00000, -0.03125, 0.03125, 0.03125, -0.03125, 0.00000, 0.03125, 0.03125, -0.03125, 0.00000, 0.00000, 0.00000, -0.03125, 0.03125, 0.00000, -0.03125, -0.06250, -0.06250, 0.00000, -0.03125, -0.03125, 0.03125, 0.00000, 0.06250, 0.06250, 0.06250, -0.12500, 0.00000, -0.06250, -0.03125, 0.00000, 0.03125, 0.00000, 0.06250, 0.03125, -0.03125, 0.00000, 0.00000, 0.00000, 0.03125, 0.03125, 0.00000, 0.00000, 0.09375, 0.00000, 0.00000, 0.00000, 0.00000, -0.03125, 0.00000, -0.03125, 0.00000, -0.03125, 0.00000, 0.03125, 0.00000, -0.06250, 0.00000, 0.03125, 0.03125, 0.03125, 0.00000, 0.00000, 0.03125, 0.00000, 0.06250, 0.06250, 0.03125, 0.00000, -0.03125, -0.03125, 0.00000, -0.03125, -0.03125, -0.03125, 0.00000, 0.03125, -0.03125, 0.03125, 0.00000, -0.03125, -0.09375, -0.03125, 0.00000, -0.03125, 0.03125, 0.00000, 0.00000, -0.03125, -0.03125, 0.03125, -0.03125, -0.03125, -0.03125, 0.00000, 0.00000, -0.03125, 0.00000, -0.06250, 0.03125, 0.00000, 0.00000, -0.03125, -0.03125, 0.00000, 0.03125, 0.03125, 0.00000, 0.00000, 0.06250, 0.03125, -0.03125, 0.09375, 0.06250, -0.03125, 0.00000, 0.00000, -0.03125, -0.03125, -0.06250, 0.00000, 0.06250, 0.06250, 0.00000, -0.06250, -0.03125, 0.06250, 0.09375, 0.00000, 0.00000, 0.00000, 0.00000, 0.00000, 0.06250, 0.03125, 0.00000, 0.00000, 0.03125, -0.03125, 0.03125, 0.00000, 0.06250, 0.00000, 0.00000, 0.00000, 0.00000, -0.03125, 0.03125, 0.03125, 0.00000, 0.00000, 0.03125, 0.03125, 0.00000, -0.03125, 0.03125, -0.06250, 0.03125, 0.03125, 0.03125, 0.00000, 0.00000, -0.06250, -0.03125, 0.00000, 0.03125, 0.03125, 0.00000, 0.03125, 0.00000, 0.00000, 0.06250, -0.06250, 0.03125, 0.06250, -0.03125, -0.03125, -0.03125, -0.03125, -0.03125, -0.03125, 0.03125, -0.03125, 0.03125, 0.00000, -0.03125, 0.00000, -0.03125, 0.03125, 0.00000, 0.00000, -0.06250, 0.00000, -0.06250, 0.00000, 0.03125, 0.00000, 0.00000, 0.03125, -0.06250, -0.03125, 0.03125, -0.03125, 0.00000, 0.03125, 0.00000, 0.03125, -0.03125, -0.06250, -0.03125, -0.03125, 0.00000, -0.03125, -0.03125, 0.00000, 0.03125, -0.03125, 0.03125, 0.00000, 0.03125, 0.00000, -0.03125, 0.00000, 0.03125, 0.03125, 0.03125, -0.03125, 0.03125, -0.03125, -0.03125, -0.03125, 0.03125, -0.06250, 0.06250, 0.00000, 0.00000, 0.00000, 0.00000, -0.03125, 0.00000, 0.00000, -0.09375, 0.00000, -0.06250, 0.00000, 0.03125, 0.00000, 0.00000, 0.03125, 0.00000, -0.06250, 0.06250, 0.03125, 0.03125, -0.03125, -0.03125, -0.03125, 0.00000, 0.00000, 0.00000, 0.00000, 0.03125, -0.03125, -0.03125, -0.03125, -0.06250, 0.03125, 0.00000, -0.03125, 0.00000, 0.03125, 0.06250, -0.03125, 0.03125, 0.00000, 0.03125, -0.03125, 0.00000, 0.06250, 0.03125, 0.00000, 0.00000, 0.03125, 0.03125, 0.00000, 0.00000, 0.03125, 0.00000, -0.06250, 0.03125, -0.03125, 0.00000, 0.00000, -0.03125, 0.03125, 0.00000, 0.03125, 0.03125, -0.06250, 0.03125, -0.03125, -0.03125, 0.03125, 0.00000, -0.06250, -0.03125, 0.00000, 0.03125, 0.00000, -0.03125, -0.03125, 0.03125, 0.03125, 0.03125, 0.00000, -0.03125, 0.00000, 0.00000, 0.00000, 0.00000, -0.03125, 0.03125, 0.00000, 0.03125, 0.00000, 0.00000, 0.00000, 0.03125, -0.03125, 0.00000, 0.03125, -0.03125, 0.03125, 0.06250, 0.00000, 0.06250, 0.00000, -0.03125, 0.03125, 0.00000, 0.03125, 0.03125, 0.03125, 0.06250, 0.00000, 0.00000, 0.09375, 0.00000, -0.03125, -0.03125, 0.00000, 0.00000, 0.03125, -0.03125, 0.00000, -0.03125, 0.00000, -0.03125, -0.03125, 0.03125, -0.03125, 0.00000, 0.09375, 0.00000, -0.03125, 0.03125, -0.03125, -0.03125, -0.03125, 0.00000, -0.03125, 0.00000, 0.03125, 0.00000, 0.03125, -0.03125, 0.00000, 0.03125, 0.00000, -0.03125, 0.00000, 0.00000, -0.06250, 0.00000, -0.03125, 0.00000, 0.00000, 0.00000, 0.03125, 0.00000, -0.03125, -0.03125, 0.03125, -0.06250, 0.00000, -0.06250, 0.00000, -0.03125, -0.03125, 0.00000, 0.03125, -0.03125, 0.00000, 0.03125, 0.00000, 0.03125, 0.00000, 0.00000, 0.00000, 0.03125, 0.00000, -0.03125, 0.00000, 0.03125, -0.03125, -0.03125, -0.03125, -0.03125, -0.03125, 0.00000, 0.03125, 0.03125, 0.03125, 0.00000, -0.03125, 0.00000, 0.00000, 0.00000, 0.03125, 0.03125, 0.00000, -0.03125, 0.00000, 0.00000, 0.00000, -0.03125, 0.00000, -0.03125, 0.00000, 0.06250, 0.00000, -0.06250, 0.09375, 0.00000, 0.03125, 0.00000, 0.00000, 0.00000, -0.09375, 0.06250, 0.03125, -0.03125, -0.03125, 0.03125, -0.03125, -0.06250, 0.00000, -0.03125, -0.03125, -0.03125, 0.03125, 0.00000, 0.03125, 0.00000, 0.03125, 0.03125, 0.00000, 0.00000, 0.00000, 0.03125, -0.03125, 0.03125, 0.00000, 0.00000, 0.06250, -0.03125, 0.00000, 0.00000, 0.00000, 0.03125, 0.06250, 0.00000, -0.06250, 0.06250, 0.03125, -0.09375, -0.03125, 0.00000, 0.00000, 0.00000, 0.03125, 0.03125, 0.00000, 0.03125, -0.06250, 0.00000, -0.03125, 0.00000, -0.06250, -0.03125, -0.03125, 0.00000, -0.06250, 0.00000, 0.00000, 0.00000, 0.00000, -0.03125, 0.00000, -0.03125, -0.03125, -0.06250, 0.03125, 0.03125, 0.03125, 0.00000, 0.06250, -0.03125, -0.06250, -0.03125, -0.03125, -0.03125, 0.00000, -0.06250, -0.03125, -0.03125, -0.06250, 0.03125, 0.03125, 0.00000, 0.00000, -0.03125, 0.00000, 0.00000, 0.00000, 0.03125, 0.03125, -0.03125, 0.00000, -0.03125, 0.06250, 0.03125, 0.00000, 0.03125, 0.00000, 0.03125, 0.03125, 0.00000, 0.00000, 0.00000, 0.03125, 0.03125, 0.03125, 0.00000, 0.06250, 0.00000, 0.03125, -0.03125, 0.03125, -0.03125, -0.03125, 0.00000, 0.03125, 0.00000, 0.00000, 0.00000, 0.06250, -0.03125, 0.03125, -0.06250, -0.03125, -0.03125, 0.00000, 0.00000, 0.00000, 0.00000, 0.00000, -0.03125, -0.03125, 0.03125, -0.03125, 0.00000, 0.03125, -0.03125, 0.00000, 0.00000, 0.06250, -0.03125, 0.00000, 0.03125, -0.06250, 0.00000, 0.00000, 0.03125, 0.03125, -0.03125, 0.06250, 0.03125, 0.03125, 0.00000, 0.00000, 0.00000, 0.00000, 0.06250, 0.00000, -0.03125, 0.03125, -0.03125, 0.03125, -0.06250, 0.03125, 0.06250, 0.03125, 0.00000, -0.03125, 0.00000, 0.00000, 0.03125, 0.00000, 0.00000, 0.00000, 0.00000, 0.00000, 0.03125, -0.03125, 0.03125, -0.03125, 0.00000, 0.03125, 0.03125, -0.03125, 0.03125, 0.03125, 0.03125, -0.06250, -0.06250, 0.06250, 0.00000, -0.03125, 0.00000, -0.03125, 0.00000, -0.06250, 0.00000, 0.00000, -0.03125, -0.03125, -0.03125, 0.00000, -0.06250, 0.00000, -0.06250, -0.06250, -0.03125, 0.00000, 0.06250, 0.00000, -0.03125, 0.00000, 0.00000, 0.00000, 0.06250, 0.00000, 0.00000, -0.06250, 0.00000, 0.03125, 0.03125, 0.03125, 0.00000, -0.03125, 0.00000, -0.03125, 0.00000, -0.03125, 0.03125, 0.00000, 0.00000, -0.03125, -0.03125, 0.03125, 0.00000, 0.06250, -0.03125, 0.03125, -0.03125, 0.00000, -0.03125, 0.00000, -0.03125, 0.03125, 0.00000, 0.03125, 0.03125, 0.00000, 0.06250, 0.00000, -0.06250, 0.00000, -0.06250, -0.03125, 0.00000, 0.03125, 0.03125, -0.03125, -0.03125, 0.00000, -0.03125, 0.03125, 0.00000, 0.00000, 0.00000, -0.03125, -0.03125, 0.00000, 0.00000, 0.03125, -0.03125, 0.00000, -0.03125, 0.03125, -0.03125, 0.00000, -0.06250, 0.06250, 0.00000, 0.00000, -0.03125, 0.00000, -0.03125, 0.03125, 0.03125, -0.03125, 0.03125, 0.00000, 0.03125, 0.03125, 0.00000, 0.03125, 0.06250, 0.03125, -0.03125, 0.03125, 0.03125, -0.03125, 0.00000, 0.00000, 0.03125, -0.03125, 0.00000, -0.03125, -0.03125, 0.03125, 0.03125, 0.00000, 0.03125, 0.00000, 0.03125, 0.00000, 0.00000, 0.03125, 0.00000, -0.03125, 0.06250, 0.00000, 0.00000, -0.06250, -0.03125, 0.03125, -0.03125, 0.03125, 0.00000, 0.00000, -0.03125, -0.03125, -0.09375, 0.00000, -0.06250, 0.03125, -0.09375, 0.03125, 0.00000, 0.00000, 0.00000, 0.00000, 0.03125, 0.00000, -0.03125, 0.03125, -0.03125, 0.00000, 0.03125, -0.03125, -0.03125, 0.06250, 0.00000, -0.03125, -0.03125, 0.00000, 0.03125, 0.00000, -0.03125, 0.00000, -0.03125, -0.03125, 0.03125, 0.03125, 0.03125, 0.00000, -0.06250, 0.03125, 0.00000, 0.03125, 0.00000, -0.03125, 0.03125, -0.03125, -0.03125, 0.03125, 0.00000, 0.06250, 0.03125, 0.03125, 0.00000, 0.00000, 0.00000, -0.03125, 0.00000, 0.03125, -0.03125, 0.06250, 0.06250, 0.00000, -0.03125, -0.03125, 0.00000, 0.03125, 0.03125, -0.06250, -0.03125, -0.03125, 0.03125, 0.06250, 0.00000, 0.03125, 0.00000, -0.03125, 0.03125, 0.03125, 0.00000, 0.03125, 0.06250, -0.03125, 0.03125, 0.00000, 0.00000, 0.00000, 0.00000, -0.03125, -0.03125, 0.00000, 0.00000, 0.00000, 0.00000, 0.06250, 0.00000, 0.00000, 0.00000, -0.03125, 0.03125, 0.03125, -0.03125, -0.06250, -0.03125, 0.00000, 0.03125, -0.06250, 0.03125, 0.03125, -0.03125, 0.06250, 0.06250, 0.00000, 0.00000, -0.06250, -0.03125, 0.03125, 0.00000, -0.03125, 0.03125, -0.03125, 0.06250, 0.00000, 0.03125, -0.03125, 0.00000, 0.03125, 0.00000, 0.00000, 0.03125, 0.00000, 0.03125, -0.03125, -0.03125, 0.00000, 0.00000, -0.03125, -0.06250, 0.09375, 0.00000, 0.00000, -0.03125, 0.00000, 0.00000, 0.06250, 0.00000, 0.03125, 0.00000, 0.00000, 0.00000, 0.00000, -0.03125, 0.03125, 0.00000, 0.00000, 0.06250, 0.00000, 0.00000, 0.03125, -0.03125, 0.03125, 0.03125, 0.00000, 0.03125, 0.03125, 0.03125, 0.00000, -0.06250, 0.03125, -0.03125, -0.03125, 0.00000, 0.00000, 0.03125, 0.03125, -0.03125, 0.00000, 0.00000, -0.03125, -0.03125, 0.00000, 0.00000, 0.03125, 0.00000, -0.03125, 0.00000, 0.03125, 0.00000, -0.03125, 0.06250, -0.06250, -0.06250, 0.03125, 0.03125, 0.06250, 0.00000, -0.03125, -0.03125, 0.03125, -0.03125, 0.00000, 0.03125, 0.00000, 0.06250, 0.00000, -0.03125, -0.03125, 0.00000, 0.06250, -0.06250, -0.03125, 0.03125, 0.06250, 0.03125, 0.03125, -0.06250, 0.06250, 0.00000, -0.06250, 0.00000, 0.00000, 0.00000, 0.00000, 0.03125, -0.03125, 0.00000, 0.06250, -0.03125, 0.00000, -0.06250, 0.00000, 0.00000, 0.00000, 0.00000, 0.00000, -0.03125, -0.03125, -0.03125, 0.03125, 0.06250, -0.03125, 0.03125, 0.03125, -0.03125, -0.06250, 0.03125, 0.06250, 0.00000, -0.06250, 0.00000, 0.03125, 0.00000, 0.00000, 0.00000, -0.03125, 0.00000, 0.00000, -0.03125, -0.03125, 0.06250, -0.03125, 0.00000, -0.03125, -0.03125, 0.00000, -0.06250, 0.03125, -0.06250, 0.03125, 0.00000, 0.00000, -0.03125, 0.03125, 0.03125, 0.03125, 0.00000, 0.03125, 0.00000, 0.03125, -0.03125, 0.00000, 0.00000, 0.00000, -0.03125, 0.00000, -0.03125, 0.00000, 0.00000, -0.03125, 0.03125, 0.00000, 0.00000, 0.00000, -0.03125, -0.03125, 0.00000, -0.03125, -0.03125, 0.00000, 0.00000, 0.00000, -0.03125, 0.03125, 0.03125, 0.06250, -0.06250, -0.03125, 0.03125, 0.03125, 0.00000, 0.03125, -0.09375, 0.00000, 0.03125, 0.03125, -0.03125, -0.03125, 0.00000, -0.03125, 0.03125, 0.00000, 0.03125, -0.03125, 0.03125, -0.03125, 0.00000, -0.03125, 0.03125, 0.00000, -0.03125, 0.00000, 0.03125, -0.03125, 0.03125, 0.03125, -0.03125, -0.03125, -0.03125, -0.03125, 0.03125, -0.03125, 0.00000, 0.06250, -0.12500, 0.03125, -0.03125, 0.00000, -0.03125, 0.00000, 0.00000, 0.00000, -0.06250, 0.03125, -0.06250, 0.06250, 0.00000, -0.03125, 0.00000, 0.03125, 0.00000, -0.03125, 0.00000, 0.00000, 0.03125, 0.03125, 0.00000, -0.03125, -0.03125, 0.03125, 0.03125, 0.00000, -0.03125, 0.00000, -0.06250, 0.00000, 0.03125, 0.00000, 0.00000, 0.06250, 0.00000, -0.06250, -0.09375, -0.03125, -0.03125, 0.03125, -0.03125, -0.03125, 0.06250, -0.06250, -0.06250, 0.03125, -0.09375, 0.00000, -0.03125, 0.00000, -0.03125, 0.00000, 0.03125, 0.03125, -0.03125, -0.03125, 0.03125, 0.00000, 0.00000, -0.03125, 0.00000, 0.00000, 0.00000, 0.00000, 0.00000, 0.03125, -0.03125, 0.03125, 0.00000, 0.00000, 0.03125, -0.03125, 0.00000, 0.03125, -0.03125, -0.03125, 0.06250, -0.03125, -0.03125, -0.03125, -0.06250, 0.00000, 0.00000, -0.03125, 0.00000, -0.06250, 0.00000, -0.03125, 0.00000, 0.03125, 0.00000, 0.03125, 0.03125, -0.03125, -0.09375, -0.03125, 0.03125, -0.03125, 0.00000, 0.03125, -0.03125, 0.00000, -0.03125, 0.00000, 0.03125, 0.03125, 0.03125, -0.03125, 0.00000, 0.03125, 0.00000, 0.00000, -0.03125, -0.03125, -0.03125, 0.00000, 0.00000, 0.03125, 0.03125, 0.03125, 0.03125, 0.00000, 0.00000, -0.03125, 0.03125, 0.03125, -0.03125, 0.03125, 0.03125, 0.00000, -0.03125, 0.03125, 0.00000, 0.03125, -0.03125, 0.00000, 0.03125, 0.03125, 0.00000, -0.03125, 0.00000, -0.03125, 0.03125, 0.03125, -0.03125, 0.03125, 0.00000, -0.03125, -0.03125, 0.03125, -0.03125, 0.00000, -0.03125, 0.03125, 0.00000, -0.03125, -0.03125, 0.03125, -0.03125, -0.06250, -0.03125, -0.06250, 0.03125, -0.06250, 0.06250, -0.03125, 0.00000, 0.00000, 0.00000, -0.03125, 0.03125, 0.00000, 0.00000, 0.00000, 0.00000, -0.03125, -0.06250, 0.00000, -0.03125, 0.00000, -0.03125, 0.03125, -0.06250, 0.00000, 0.03125, 0.03125, -0.03125, 0.06250, 0.00000, 0.00000, -0.06250, 0.06250, 0.00000, 0.00000, 0.00000, -0.03125, -0.03125, -0.06250, -0.06250, 0.06250, 0.00000, -0.03125, 0.00000, -0.06250, -0.03125, -0.03125, 0.00000, -0.03125, 0.00000, 0.06250, 0.00000, 0.00000, 0.00000, 0.00000, 0.09375, 0.03125, 0.00000, -0.03125, -0.03125, 0.06250, 0.00000, 0.00000, 0.00000, 0.06250, 0.00000, 0.03125, 0.06250, -0.03125, 0.00000, 0.03125, 0.03125, 0.03125, 0.00000, 0.00000, 0.03125, -0.03125, 0.00000, 0.03125, -0.03125, 0.06250, -0.03125, 0.00000, 0.00000, 0.00000, 0.03125, 0.06250, 0.03125, -0.03125, -0.06250, 0.00000, -0.03125, -0.03125, 0.00000, -0.03125, 0.00000, 0.00000, 0.03125, 0.03125, 0.00000, 0.06250, 0.00000, 0.06250, 0.00000, 0.00000, -0.03125, 0.00000, 0.03125, 0.00000, 0.03125, 0.03125, 0.03125, 0.00000, 0.00000, -0.06250, 0.00000, 0.03125, 0.00000, -0.03125, -0.03125, 0.00000, 0.00000, -0.03125, -0.03125, -0.06250, 0.00000, 0.06250, 0.00000, -0.03125, 0.03125, 0.06250, 0.03125, 0.00000, 0.06250, 0.03125, -0.03125, 0.00000, -0.03125, 0.00000, 0.03125, 0.03125, 0.03125, 0.03125, -0.03125, -0.03125, 0.03125, 0.03125, 0.00000, -0.03125, 0.00000, 0.00000, 0.06250, 0.00000, 0.00000, -0.06250, -0.03125, -0.03125, 0.00000, 0.03125, 0.00000, 0.03125, -0.03125, -0.03125, -0.03125, 0.03125, -0.06250, 0.00000, -0.03125, -0.03125, 0.00000, -0.03125, 0.00000, 0.03125, 0.03125, 0.00000, 0.00000, 0.03125, 0.03125, -0.06250, 0.00000, 0.03125, 0.00000, 0.00000, 0.00000, 0.03125, -0.03125, -0.03125, -0.03125, -0.03125, 0.00000, 0.03125, 0.00000, -0.03125, -0.03125, 0.00000, 0.00000, 0.00000, 0.00000, -0.06250, 0.00000, 0.00000, 0.03125, 0.00000, 0.00000, -0.06250, 0.00000, -0.03125, 0.03125, 0.06250, -0.06250, 0.00000, 0.00000, 0.03125, 0.03125, -0.03125, 0.00000, 0.00000, 0.00000, -0.06250, -0.03125, -0.06250, -0.03125, 0.00000, -0.03125, 0.00000, 0.00000, -0.03125, 0.00000, 0.03125, 0.00000, 0.00000, 0.00000, -0.06250, -0.03125, -0.06250, 0.03125, 0.00000, 0.03125, 0.03125, -0.06250, 0.00000, 0.00000, -0.03125, 0.03125, -0.03125, 0.03125, -0.06250, -0.03125, 0.06250, 0.03125, 0.06250, -0.03125, 0.00000, 0.00000, -0.03125, 0.00000, 0.03125, 0.00000, 0.03125, 0.00000, 0.09375, 0.00000, -0.03125, 0.00000, 0.00000, -0.06250, 0.00000, 0.00000, -0.03125, 0.00000, 0.03125, 0.03125, -0.03125, 0.00000, -0.03125, 0.03125, -0.03125, 0.00000, 0.03125, 0.00000, 0.03125, -0.03125, -0.03125, 0.00000, 0.00000, 0.00000, 0.06250, 0.03125, 0.03125, 0.00000, 0.00000, 0.00000, 0.00000, 0.03125, -0.03125, 0.00000, 0.00000, 0.00000, -0.03125, 0.03125, 0.03125, 0.00000, 0.03125, -0.03125, 0.06250, -0.03125, -0.03125, 0.00000, -0.03125, 0.00000, -0.03125, -0.03125, -0.03125, 0.00000, -0.03125, -0.06250, -0.03125, 0.03125, 0.00000, 0.00000, 0.03125, 0.03125, 0.06250, -0.03125, 0.03125, 0.03125, 0.00000, -0.03125, 0.03125, -0.03125, 0.00000, -0.03125, -0.03125, 0.09375, 0.03125, -0.06250, 0.03125, 0.00000, 0.00000, -0.03125, 0.00000, 0.09375, -0.03125, 0.00000, 0.03125, -0.06250, 0.03125, -0.03125, -0.03125, 0.00000, 0.00000, -0.03125, 0.03125, 0.03125, -0.06250, -0.03125, 0.00000, 0.00000, 0.00000, -0.03125, 0.00000, -0.03125, 0.00000, 0.00000, 0.03125, -0.03125, 0.00000, -0.03125, 0.00000, -0.06250, 0.00000, -0.03125, -0.03125, 0.00000, -0.03125, 0.00000, -0.03125, 0.00000, -0.03125, 0.03125, -0.06250, -0.03125, -0.03125, -0.03125, 0.00000, 0.03125, 0.00000, 0.03125, 0.00000, 0.03125, -0.03125, 0.00000, 0.00000, -0.03125, 0.03125, 0.00000, -0.06250, 0.03125, 0.06250, 0.03125, 0.03125, 0.00000, -0.03125, 0.03125, -0.06250, 0.00000, 0.03125, -0.03125, 0.00000, 0.00000, 0.00000, 0.03125, -0.03125, 0.06250, 0.00000, 0.00000, 0.00000, 0.03125, 0.00000, -0.03125, 0.00000, -0.06250, -0.03125, 0.03125, -0.03125, 0.03125, 0.06250, -0.03125, 0.03125, 0.03125, 0.03125, -0.03125, 0.03125, 0.00000, -0.06250, 0.00000, 0.03125, -0.06250, 0.00000, 0.00000, 0.06250, -0.03125, 0.00000, 0.00000, 0.03125, 0.00000, 0.00000, -0.03125, 0.00000, 0.00000, -0.03125, 0.00000, 0.00000, 0.03125, 0.00000, -0.03125, -0.03125, -0.03125, 0.03125, 0.00000, -0.03125, 0.00000, 0.03125, 0.00000, -0.03125, 0.03125, 0.00000, 0.00000, 0.06250, 0.03125, 0.00000, 0.03125, 0.03125, 0.00000, -0.03125, 0.00000, 0.00000, 0.00000, -0.03125, 0.03125, -0.03125, -0.03125, 0.00000, 0.03125, -0.03125, -0.06250, 0.00000, 0.03125, 0.00000, 0.00000, 0.00000, 0.06250, 0.00000, 0.00000, 0.03125, -0.03125, 0.00000, 0.06250, 0.00000, -0.03125, -0.03125, -0.03125, 0.03125, 0.00000, 0.00000, 0.00000, 0.00000, -0.03125, 0.00000, 0.00000, 0.00000, 0.00000, 0.00000, 0.00000, 0.03125, 0.03125, 0.03125, 0.06250, 0.00000, 0.06250, -0.03125, -0.06250, -0.03125, -0.06250, 0.03125, 0.00000, 0.03125, 0.00000, -0.03125, 0.00000, 0.03125, 0.00000, -0.03125, -0.03125, -0.06250, 0.03125, -0.03125, -0.03125, 0.00000, 0.03125, 0.03125, -0.06250, 0.00000, -0.03125, -0.03125, -0.03125, 0.00000, -0.03125, 0.03125, 0.03125, 0.00000, -0.06250, 0.03125, 0.00000, 0.03125, 0.00000, 0.00000, 0.00000, 0.03125, -0.03125, 0.00000, 0.00000, 0.00000, 0.03125, 0.03125, 0.00000, 0.03125, -0.03125, 0.06250, 0.03125, 0.00000, -0.03125, 0.00000, 0.00000, 0.00000, 0.00000, 0.03125, 0.03125, 0.03125, 0.00000, -0.03125, 0.03125, 0.00000, 0.00000, -0.03125, 0.00000, -0.03125, 0.00000, -0.03125, 0.03125, 0.00000, -0.03125, 0.03125, -0.03125, 0.09375, 0.03125, 0.03125, 0.00000, -0.03125, -0.06250, 0.03125, 0.00000, 0.03125, 0.03125, -0.03125, 0.00000, -0.03125, 0.03125, 0.03125, -0.03125, -0.06250, 0.00000, 0.03125, 0.00000, 0.00000, 0.00000, 0.03125, 0.00000, 0.00000, -0.03125, 0.00000, -0.03125, 0.00000, -0.09375, -0.03125, -0.03125, 0.06250, 0.00000, 0.00000, 0.00000, -0.03125, 0.00000, 0.00000, 0.00000, 0.00000, 0.00000, 0.06250, -0.03125, -0.03125, -0.03125, 0.06250, -0.03125, 0.00000, 0.03125, 0.00000, 0.00000, -0.03125, 0.06250, 0.00000, 0.00000, 0.00000, 0.00000, -0.03125, 0.03125, 0.00000, -0.03125, 0.00000, -0.06250, -0.06250, 0.00000, -0.03125, -0.06250, 0.03125, 0.03125, -0.03125, -0.03125, 0.00000, 0.00000, -0.03125, -0.03125, 0.00000, -0.03125, 0.03125, 0.03125, -0.03125, 0.00000, 0.00000, 0.00000, -0.03125, 0.00000, -0.03125, 0.03125, -0.03125, -0.03125, 0.00000, -0.06250, 0.00000, -0.06250, -0.03125, -0.03125, -0.03125, 0.03125, 0.00000, -0.03125, 0.00000, 0.00000, -0.06250, 0.03125, 0.06250, 0.00000, 0.00000, 0.06250, -0.03125, -0.06250, 0.00000, 0.00000, -0.03125, -0.06250, -0.03125, 0.03125, 0.00000, 0.00000, 0.03125, -0.03125, -0.03125, -0.03125, -0.06250, 0.00000, -0.03125, 0.03125, 0.00000, -0.03125, -0.06250, 0.00000, 0.03125, -0.03125, 0.06250, 0.00000, 0.03125, -0.06250, 0.00000, 0.03125, 0.00000, 0.00000, 0.00000, -0.03125, 0.00000, 0.00000, 0.00000, 0.03125, 0.03125, 0.00000, 0.00000, 0.00000, 0.00000, 0.00000, 0.00000, 0.03125, -0.03125, -0.03125, 0.03125, 0.03125, 0.03125, -0.03125, 0.00000, 0.03125, -0.06250, 0.00000, -0.03125, 0.00000, 0.00000, 0.03125, 0.00000, 0.03125, 0.06250, 0.00000, 0.06250, -0.09375, 0.00000, 0.00000, 0.00000, -0.03125, 0.00000, 0.06250, -0.03125, 0.06250, -0.03125, 0.00000, 0.00000, 0.00000, 0.00000, 0.00000, 0.00000, 0.00000, -0.06250, 0.03125, -0.03125, 0.00000, 0.00000, 0.03125, 0.00000, 0.00000, 0.03125, 0.00000, 0.06250, 0.00000, 0.00000, -0.03125, -0.03125, -0.03125, 0.06250, 0.06250, 0.06250, 0.00000, 0.03125, 0.03125, 0.00000, -0.06250, -0.03125, 0.06250, 0.03125, 0.00000, 0.00000, 0.06250, 0.00000, -0.06250, 0.00000, 0.06250, 0.00000, 0.06250, 0.03125, 0.00000, 0.00000, -0.03125, 0.00000, 0.00000, -0.03125, -0.06250, 0.03125, 0.00000, -0.06250, 0.00000, 0.00000, -0.03125, -0.03125, 0.00000, -0.03125, 0.00000, 0.00000, 0.00000, -0.03125, 0.00000, -0.06250, 0.00000, -0.06250, -0.03125, 0.06250, 0.00000, 0.03125, -0.06250, 0.06250, 0.03125, 0.00000, -0.03125, 0.00000, 0.00000, 0.00000, 0.03125, 0.00000, -0.03125, -0.06250, 0.03125, -0.03125, -0.03125, 0.03125, 0.00000, -0.03125, 0.00000, -0.03125, 0.03125, 0.03125, 0.03125, 0.00000, 0.03125, -0.03125, 0.03125, 0.00000, 0.00000, 0.09375, -0.03125, 0.00000, -0.03125, 0.06250, 0.03125, 0.00000, 0.00000, 0.06250, 0.00000, -0.03125, 0.00000, -0.06250, 0.00000, 0.00000, -0.03125, -0.03125, -0.03125, -0.03125, -0.06250, -0.03125, 0.00000, 0.03125, 0.06250, 0.06250, 0.06250, -0.03125, 0.03125, 0.03125, -0.03125, 0.06250, 0.03125, 0.06250, 0.03125, -0.06250, 0.03125, -0.03125, 0.03125, 0.03125, 0.00000, 0.03125, 0.03125, 0.00000, 0.03125, 0.00000, 0.03125, 0.00000, 0.06250, 0.00000, 0.00000, 0.03125, -0.03125, 0.00000, 0.00000, 0.03125, 0.00000, 0.06250, -0.03125, -0.03125, 0.00000, -0.03125, 0.00000, -0.06250, 0.03125, 0.00000, 0.06250, 0.03125, 0.00000, -0.03125, -0.06250, -0.03125, 0.03125, 0.03125, -0.03125, 0.00000, 0.03125, 0.00000, -0.06250, -0.03125, 0.00000, 0.00000, -0.09375, 0.00000, -0.06250, -0.03125, -0.03125, 0.00000, -0.06250, -0.06250, 0.03125, 0.00000, 0.06250, -0.03125, -0.03125, -0.03125, 0.03125, 0.00000, 0.00000, 0.00000, 0.00000, 0.03125, 0.00000, 0.03125, 0.00000, 0.03125, -0.03125, 0.00000, 0.03125, -0.03125, -0.03125, 0.00000, -0.06250, -0.03125, 0.00000, -0.06250, 0.03125, -0.03125, 0.03125, -0.06250, -0.03125, -0.03125, 0.06250, 0.03125, 0.00000, -0.03125, 0.00000, 0.00000, 0.00000, 0.00000, 0.03125, -0.03125, -0.03125, 0.03125, 0.03125, 0.00000, 0.06250, 0.06250, 0.00000, -0.03125, 0.03125, 0.00000, -0.03125, 0.00000, 0.00000, 0.03125, -0.03125, -0.03125, 0.03125, -0.03125, 0.03125, 0.00000, 0.06250, 0.03125, 0.06250, 0.00000, -0.03125, 0.00000, -0.09375, 0.00000, 0.03125, 0.00000, 0.06250, 0.03125, 0.03125, 0.03125, 0.00000, 0.00000, 0.03125, 0.03125, 0.06250, -0.03125, -0.06250, -0.06250, 0.00000, 0.00000, 0.00000, 0.00000, 0.03125, 0.06250, 0.00000, -0.03125, 0.00000, -0.03125, 0.00000, 0.00000, 0.03125, 0.03125, 0.03125, -0.09375, -0.03125, -0.03125, -0.06250, -0.03125, 0.00000, 0.00000, -0.03125, -0.06250, 0.00000, 0.06250, 0.03125, 0.03125, 0.00000, 0.00000, 0.00000, 0.03125, 0.00000, 0.00000, 0.03125, 0.03125, 0.00000, 0.03125, 0.03125, 0.00000, -0.03125, -0.06250, -0.06250, -0.03125, 0.03125, 0.00000, 0.03125, -0.03125, -0.06250, 0.03125, 0.03125, 0.00000, -0.03125, -0.03125, 0.00000, 0.03125, 0.00000, 0.00000, -0.06250, 0.00000, -0.03125, 0.00000, 0.00000, -0.03125, 0.03125, -0.06250, 0.00000, 0.00000, 0.03125, 0.06250, -0.03125, -0.03125, 0.06250, -0.03125, 0.00000, 0.00000, -0.03125, 0.03125, -0.03125, 0.00000, -0.03125, -0.06250, -0.03125, 0.09375, -0.03125, 0.00000, 0.00000, 0.03125, -0.03125, 0.03125, 0.03125, 0.03125, 0.00000, 0.03125, 0.00000, 0.00000, 0.00000, 0.03125, 0.06250, 0.03125, 0.00000, 0.03125, -0.03125, -0.03125, -0.03125, 0.00000, 0.03125, -0.06250, 0.03125, 0.03125, 0.00000, 0.00000, 0.03125, 0.00000, 0.06250, 0.00000, 0.03125, 0.03125, 0.06250, 0.06250, 0.03125, 0.00000, 0.00000, -0.06250, 0.03125, 0.00000, 0.00000, 0.00000, 0.00000, -0.03125, 0.00000, 0.03125, 0.00000, 0.06250, -0.03125, 0.03125, 0.00000, 0.00000, -0.03125, 0.03125, 0.03125, 0.00000, 0.00000, 0.00000, 0.00000, 0.03125, -0.03125, -0.03125, 0.06250, 0.06250, -0.03125, 0.03125, 0.03125, 0.00000, -0.03125, 0.00000, 0.03125, 0.00000, 0.00000, 0.00000, 0.00000, 0.03125, 0.06250, 0.00000, -0.03125, -0.06250, 0.00000, 0.00000, 0.00000, -0.03125, -0.06250, 0.00000, 0.00000, 0.06250, 0.06250, -0.06250, 0.00000, -0.03125, -0.03125, 0.00000, 0.00000, 0.00000, -0.03125, -0.03125, 0.03125, 0.03125, 0.00000, 0.00000, 0.00000, 0.00000, 0.00000, 0.00000, -0.12500, 0.00000, -0.03125, 0.03125, 0.00000, 0.03125, 0.06250, -0.03125, 0.03125, 0.00000, 0.00000, 0.03125, 0.03125, 0.00000, -0.03125, -0.03125, 0.06250, -0.03125, -0.03125, 0.00000, 0.03125, 0.06250, 0.00000, 0.00000, 0.00000, 0.00000, 0.03125, 0.00000, 0.00000, 0.06250, 0.00000, 0.00000, 0.00000, 0.00000, -0.03125, -0.03125, 0.03125, 0.03125, 0.00000, 0.06250, 0.03125, 0.00000, 0.00000, 0.00000, 0.06250, 0.03125, -0.06250, 0.00000, -0.06250, 0.00000, 0.03125, 0.00000, 0.03125, 0.00000, 0.00000, 0.00000, 0.00000, 0.00000, 0.00000, 0.00000, -0.03125, 0.06250, 0.00000, 0.00000, 0.00000, -0.03125, 0.03125, 0.00000, -0.03125, 0.06250, 0.03125, -0.03125, 0.00000, -0.03125, 0.03125, -0.03125, -0.03125, 0.00000, 0.00000, 0.03125, 0.03125, 0.03125, -0.03125, 0.00000, 0.00000, 0.00000, 0.06250, 0.03125, 0.00000, 0.03125, -0.03125, 0.03125, 0.03125, 0.03125, 0.00000, -0.06250, 0.00000, 0.00000, 0.03125, 0.00000, 0.00000, 0.03125, 0.03125, 0.00000, -0.03125, 0.00000, 0.00000, -0.03125, 0.00000, 0.03125, 0.00000, 0.00000, -0.03125, 0.00000, 0.00000, 0.06250, -0.03125, 0.00000, 0.00000, -0.03125, -0.03125, 0.06250, 0.03125, -0.03125, 0.00000, 0.03125, 0.00000, -0.03125, 0.06250, 0.03125, 0.03125, 0.00000, 0.00000, 0.03125, -0.09375, 0.00000, 0.00000, 0.00000, 0.03125, -0.06250, 0.00000, 0.06250, -0.03125, 0.03125, 0.06250, 0.00000, 0.03125, 0.03125, -0.03125, 0.03125, 0.00000, 0.03125, -0.03125, 0.03125, -0.03125, 0.06250, 0.00000, 0.03125, 0.00000, 0.03125, 0.00000, -0.03125, -0.03125, 0.00000, -0.03125, 0.06250, -0.03125, 0.00000, 0.03125, -0.03125, 0.03125, -0.03125, 0.00000, -0.06250, -0.09375, -0.03125, 0.00000, -0.06250, 0.00000, 0.00000, 0.00000, -0.03125, 0.00000, 0.00000, 0.03125, 0.00000, 0.03125, 0.03125, -0.03125, 0.03125, -0.03125, 0.00000, 0.03125, 0.03125, 0.06250, 0.00000, 0.06250, -0.03125, 0.00000, 0.03125, 0.00000, 0.00000, 0.03125, 0.00000, -0.03125, 0.00000, 0.00000, 0.00000, -0.03125, 0.00000, 0.00000, -0.03125, 0.00000, -0.03125, 0.06250, -0.03125, -0.03125, 0.00000, -0.03125, 0.03125, 0.00000, -0.06250, 0.03125, -0.03125, 0.00000, 0.03125, 0.03125, 0.03125, -0.03125, 0.00000, 0.03125, -0.03125, -0.03125, -0.03125, 0.03125, 0.03125, 0.00000, 0.06250, 0.00000, -0.06250, -0.03125, 0.00000, -0.06250, 0.03125, 0.03125, 0.06250, -0.03125, -0.03125, 0.00000, 0.00000, 0.06250, -0.03125, 0.00000, -0.03125, -0.03125, 0.00000, -0.09375, -0.03125, 0.00000, -0.03125, 0.00000, -0.03125, 0.00000, -0.03125, 0.00000, 0.03125, -0.03125, 0.03125, 0.00000, 0.00000, 0.06250, -0.06250, 0.00000, 0.00000, 0.03125, -0.03125, 0.03125, 0.00000, 0.03125, -0.03125, -0.03125, 0.03125, 0.03125, 0.00000, 0.00000, 0.03125, -0.03125, 0.03125, -0.03125, -0.03125, 0.00000, 0.03125, 0.00000, 0.03125, -0.03125, 0.00000, -0.03125, 0.03125, 0.00000, 0.00000, 0.00000, 0.00000, -0.03125, 0.00000, 0.00000, 0.00000, -0.03125, 0.00000, 0.00000, 0.06250, 0.03125, -0.03125, 0.03125, -0.03125, 0.00000, 0.00000, 0.00000, 0.00000, -0.03125, -0.06250, -0.03125, -0.03125, 0.03125, 0.09375, 0.03125, 0.03125, 0.00000, 0.00000, -0.03125, -0.03125, 0.03125, -0.06250, 0.00000, 0.00000, -0.03125, 0.03125, 0.03125, -0.06250, -0.03125, 0.00000, -0.03125, 0.03125, 0.06250, -0.03125, 0.00000, 0.00000, 0.00000, 0.03125, 0.00000, 0.03125, 0.00000, -0.09375, -0.03125, 0.00000, 0.00000, -0.03125, 0.03125, 0.00000, -0.03125, -0.03125, 0.00000, 0.03125, 0.03125, -0.03125, 0.00000, -0.03125, 0.00000, 0.03125, 0.03125, -0.03125, 0.00000, 0.00000, -0.03125, -0.06250, 0.00000, 0.03125, 0.00000, 0.06250, 0.00000, 0.03125, 0.00000, 0.00000, -0.03125, 0.00000, 0.00000, 0.03125, 0.03125, -0.03125, -0.03125, -0.03125, 0.09375, -0.03125, -0.03125, -0.03125, 0.00000, -0.03125, 0.00000, 0.06250, 0.03125, 0.03125, 0.03125, 0.03125, 0.00000, 0.03125, 0.00000, 0.03125, 0.03125, 0.06250, 0.03125, -0.03125, -0.03125, 0.00000, 0.06250, 0.06250, -0.03125, 0.00000, -0.03125, -0.03125, 0.00000, 0.03125, 0.06250, 0.00000, 0.00000, -0.03125, -0.03125, 0.00000, 0.03125, 0.00000, 0.06250, 0.06250, 0.03125, 0.00000, 0.00000, 0.00000, 0.03125, -0.03125, 0.03125, 0.00000, -0.03125, -0.03125, -0.03125, -0.03125, 0.00000, 0.00000, -0.06250, 0.00000, -0.03125, 0.03125, 0.03125, 0.03125, 0.03125, 0.00000, 0.03125, 0.03125, -0.03125, -0.03125, 0.00000, 0.00000, -0.03125, 0.03125, -0.03125, 0.00000, 0.00000, 0.06250, -0.03125, 0.03125, -0.06250, 0.03125, 0.00000, 0.00000, 0.06250, 0.00000, 0.03125, 0.06250, -0.03125, 0.06250, 0.00000, 0.03125, -0.06250, -0.06250, 0.00000, 0.00000, 0.03125, 0.03125, 0.00000, 0.00000, -0.12500, -0.03125, 0.00000, 0.03125, 0.00000, 0.06250, 0.00000, -0.03125, -0.03125, 0.00000, -0.06250, 0.00000, 0.00000, 0.03125, -0.03125, 0.00000, 0.00000, 0.00000, 0.00000, -0.03125, 0.00000, -0.06250, -0.03125, 0.00000, 0.00000, -0.03125, 0.00000, 0.00000, 0.00000, 0.03125, 0.00000, 0.00000, 0.00000, 0.03125, 0.00000, 0.00000, 0.00000, 0.00000, 0.00000, 0.03125, 0.03125, 0.00000, 0.00000, 0.00000, -0.03125, 0.00000, 0.03125, -0.03125, -0.06250, -0.06250, -0.03125, 0.03125, -0.03125, -0.06250, 0.03125, 0.03125, 0.00000, -0.03125, -0.06250, 0.03125, -0.03125, 0.00000, -0.06250, 0.06250, -0.06250, 0.00000, -0.03125, 0.03125, 0.03125, 0.00000, 0.03125, 0.00000, 0.00000, 0.03125, 0.00000, 0.00000, -0.03125, 0.00000, -0.06250, 0.03125, 0.00000, 0.03125, -0.03125, 0.00000, 0.00000, -0.06250, 0.03125, 0.03125, -0.03125, 0.03125, 0.03125, 0.00000, 0.00000, -0.06250, 0.06250, -0.03125, 0.00000, -0.03125, 0.00000, -0.03125, 0.00000, -0.03125, 0.00000, -0.03125, -0.03125, 0.06250, 0.00000, 0.03125, -0.06250, 0.00000, 0.00000, 0.00000, 0.03125, 0.00000, 0.03125, 0.00000, 0.00000, -0.03125, 0.03125, 0.00000, 0.00000, 0.03125, -0.03125, 0.00000, 0.03125, -0.03125, 0.00000, 0.03125, 0.03125, -0.03125, 0.03125, 0.00000, 0.03125, -0.03125, -0.03125, 0.03125, 0.03125, -0.03125, 0.00000, 0.00000, -0.03125, 0.03125, 0.00000, 0.03125, 0.00000, 0.03125, 0.03125, -0.03125, -0.03125, 0.00000, -0.06250, 0.03125, 0.00000, 0.00000, 0.03125, -0.03125, 0.00000, 0.00000, 0.06250, 0.00000, 0.03125, 0.00000, -0.06250, -0.06250, 0.03125, 0.00000, -0.06250, 0.03125, 0.00000, 0.00000, -0.03125, -0.03125, 0.00000, 0.03125, 0.00000, -0.03125, 0.00000, 0.00000, -0.03125, -0.03125, 0.00000, -0.03125, 0.06250, 0.03125, -0.03125, 0.00000, 0.00000, 0.00000, -0.03125, 0.03125, 0.06250, 0.06250, 0.03125, 0.00000, 0.00000, 0.00000, 0.03125, -0.03125, 0.06250, 0.00000, 0.00000, 0.03125, 0.00000, 0.00000, 0.00000, 0.03125, 0.00000, 0.03125, -0.03125, -0.03125, -0.03125, 0.00000, -0.03125, -0.03125, -0.03125, 0.00000, 0.00000, 0.03125, 0.09375, 0.03125, 0.00000, 0.03125, 0.00000, 0.00000, -0.03125, -0.03125, 0.03125, 0.00000, -0.06250, 0.00000, 0.00000, -0.03125, -0.03125, 0.03125, -0.03125, -0.03125, -0.03125, 0.00000, -0.03125, 0.00000, 0.03125, -0.03125, -0.03125, 0.06250, 0.00000, -0.06250, -0.03125, 0.03125, 0.03125, 0.00000, 0.00000, 0.00000, -0.03125, -0.03125, 0.06250, 0.00000, 0.00000, -0.06250, 0.00000, 0.03125, 0.03125, -0.03125, 0.03125, -0.06250, 0.00000, -0.06250, 0.03125, 0.00000, 0.00000, -0.03125, 0.03125, 0.00000, -0.03125, 0.00000, 0.00000, 0.03125, 0.00000, 0.00000, 0.00000, 0.00000, -0.03125, 0.00000, 0.03125, 0.03125, 0.00000, 0.03125, 0.03125, 0.03125, 0.09375, 0.00000, 0.00000, 0.03125, -0.06250, -0.03125, -0.03125, 0.06250, 0.06250, 0.00000, 0.00000, 0.06250, 0.00000, 0.03125, 0.00000, -0.06250, 0.00000, 0.06250, -0.03125, -0.03125, -0.03125, 0.03125, -0.03125, 0.06250, 0.00000, -0.12500, -0.03125, -0.03125, 0.00000, 0.00000, -0.03125, 0.03125, -0.03125, -0.03125, 0.00000, 0.03125, 0.03125, 0.00000, 0.03125, 0.00000, 0.00000, -0.03125, 0.00000, 0.00000, -0.03125, -0.09375, -0.06250, 0.00000, -0.03125, 0.03125, 0.03125, 0.00000, -0.03125, 0.00000, -0.03125, -0.03125, 0.00000, 0.03125, 0.00000, 0.00000, 0.00000, 0.06250, -0.03125, -0.03125, 0.00000, 0.00000, 0.03125, 0.03125, 0.00000, -0.09375, 0.00000, -0.03125, -0.03125, 0.00000, -0.03125, -0.03125, 0.00000, 0.03125, -0.06250, 0.00000, 0.03125, -0.06250, 0.03125, 0.03125, -0.06250, 0.03125, -0.03125, -0.03125, 0.00000, -0.09375, -0.03125, 0.09375, 0.00000, -0.03125, 0.03125, 0.06250, 0.03125, -0.06250, 0.03125, 0.00000, 0.03125, 0.00000, -0.03125, 0.03125, 0.03125, 0.00000, -0.03125, 0.00000, -0.03125, 0.00000, 0.06250, 0.00000, -0.03125, 0.00000, 0.03125, 0.00000, 0.03125, 0.03125, -0.03125, 0.03125, -0.03125, -0.03125, 0.00000, -0.03125, -0.03125, 0.00000, 0.00000, 0.00000, 0.03125, 0.03125, -0.03125, 0.00000, 0.00000, 0.00000, 0.06250, 0.03125, 0.00000, 0.00000, 0.03125, 0.00000, 0.03125, 0.00000, 0.00000, -0.03125, 0.03125, 0.00000, -0.03125, 0.00000, 0.00000, -0.03125, -0.03125, 0.03125, 0.03125, 0.00000, 0.00000, 0.00000, 0.03125, 0.03125, -0.06250, 0.00000, -0.03125, 0.00000, -0.09375, 0.00000, 0.03125, 0.00000, 0.00000, 0.03125, -0.03125, 0.03125, -0.03125, 0.06250, 0.03125, -0.03125, -0.03125, -0.03125, 0.03125, 0.00000, -0.03125, -0.03125, -0.06250, -0.03125, -0.03125, 0.00000, 0.03125, 0.00000, 0.03125, -0.03125, -0.03125, -0.03125, 0.00000, 0.03125, 0.00000, -0.06250, -0.03125, -0.06250, -0.03125, 0.03125, -0.03125, 0.00000, 0.03125, -0.03125, -0.03125, -0.03125, 0.06250, 0.03125, -0.03125, -0.03125, -0.03125, 0.03125, 0.00000, 0.06250, 0.03125, 0.03125, 0.00000, 0.00000, 0.00000, -0.03125, 0.00000, 0.06250, -0.09375, 0.00000, -0.03125, 0.03125, 0.00000, -0.06250, 0.00000, 0.03125, 0.00000, -0.03125, 0.00000, 0.00000, 0.00000, -0.03125, 0.03125, -0.03125, -0.06250, 0.00000, -0.06250, -0.03125, 0.03125, 0.03125, 0.03125, 0.03125, -0.06250, -0.06250, 0.00000, 0.03125, 0.00000, 0.00000, 0.00000, 0.00000, -0.03125, 0.00000, 0.03125, -0.06250, 0.03125, 0.03125, -0.03125, 0.00000, 0.03125, 0.00000, 0.00000, 0.09375, 0.03125, -0.03125, 0.00000, 0.00000, 0.00000, 0.06250, -0.03125, -0.03125, 0.00000, -0.03125, -0.03125, 0.00000, -0.03125, -0.09375, 0.00000, 0.06250, 0.00000, 0.03125, 0.00000, 0.03125, -0.06250, 0.03125, 0.00000, 0.00000, 0.03125, -0.03125, -0.03125, 0.03125, 0.03125, 0.00000, 0.06250, 0.00000, -0.03125, -0.03125, 0.00000, 0.00000, 0.06250, -0.03125, 0.00000, -0.03125, 0.03125, 0.00000, -0.03125, 0.00000, 0.03125, -0.03125, 0.03125, 0.00000, 0.03125, -0.03125, -0.03125, 0.00000, 0.03125, 0.06250, 0.03125, 0.03125, 0.00000, 0.00000, 0.00000, 0.00000, -0.03125, -0.03125, 0.03125, 0.00000, -0.03125, 0.00000, -0.06250, 0.00000, -0.03125, 0.00000, 0.00000, -0.06250, 0.06250, -0.03125, 0.00000, 0.06250, -0.03125, 0.00000, -0.03125, 0.03125, 0.03125, -0.06250, 0.00000, 0.09375, -0.03125, 0.00000, -0.03125, -0.03125, 0.00000, -0.03125, 0.00000, 0.00000, -0.03125, -0.03125, -0.06250, 0.00000, 0.00000, -0.03125, -0.03125, -0.03125, -0.06250, 0.00000, -0.03125, 0.00000, -0.03125, -0.03125, -0.06250, 0.06250, -0.03125, 0.00000, -0.06250, 0.00000, 0.03125, 0.03125, -0.03125, -0.03125, 0.00000, 0.06250, -0.03125, -0.03125, 0.00000, 0.00000, 0.00000, 0.09375, 0.00000, 0.00000, 0.00000, 0.03125, -0.06250, 0.03125, 0.00000, -0.06250, 0.00000, -0.06250, 0.00000, 0.03125, 0.00000, 0.00000, -0.03125, -0.06250, 0.03125, 0.00000, -0.03125, -0.03125, -0.03125, 0.00000, 0.00000, 0.00000, -0.06250, 0.00000, 0.03125, -0.03125, 0.06250, -0.03125, 0.03125, 0.03125, -0.06250, -0.06250, 0.00000, 0.00000, 0.03125, 0.00000, 0.03125, -0.06250, 0.00000, 0.00000, -0.03125, 0.03125, -0.03125, 0.00000, 0.06250, -0.03125, -0.03125, 0.00000, 0.00000, 0.00000, -0.06250, 0.03125, 0.00000, 0.00000, 0.03125, 0.03125, 0.00000, 0.03125, 0.00000, 0.00000, 0.00000, 0.00000, 0.00000, 0.00000, 0.00000, 0.03125, 0.03125, 0.00000, 0.03125, 0.03125, 0.03125, 0.06250, 0.03125, 0.00000, -0.03125, 0.00000, -0.03125, 0.00000, 0.03125, -0.03125, 0.03125, 0.00000, -0.03125, 0.00000, -0.03125, 0.03125, -0.09375, 0.03125, -0.03125, 0.00000, 0.06250, -0.09375, -0.03125, 0.06250, 0.03125, -0.03125, -0.09375, -0.03125, 0.00000, 0.00000, 0.03125, 0.06250, 0.00000, 0.00000, 0.00000, -0.03125, 0.00000, -0.03125, 0.00000, 0.00000, 0.03125, 0.00000, 0.03125, -0.03125, -0.03125, 0.00000, 0.00000, 0.00000, 0.00000, 0.03125, 0.03125, -0.03125, 0.00000, 0.00000, 0.03125, 0.03125, 0.00000, 0.00000, 0.03125, 0.03125, -0.03125, -0.03125, 0.00000, -0.03125, 0.00000, -0.06250, 0.00000, 0.03125, 0.03125, 0.00000, 0.00000, 0.00000, 0.00000, 0.00000, 0.03125, -0.06250, 0.03125, 0.00000, 0.03125, 0.00000, -0.03125, 0.00000, 0.00000, 0.00000, 0.03125, 0.00000, -0.06250, -0.03125, 0.06250, 0.00000, 0.03125, 0.03125, 0.00000, 0.03125, 0.03125, -0.03125, 0.03125, -0.03125, -0.03125, 0.03125, 0.03125, 0.00000, -0.06250, 0.00000, 0.00000, 0.00000, 0.00000, 0.03125, -0.03125, 0.00000, 0.03125, 0.03125, 0.03125, 0.00000, 0.00000, 0.00000, 0.00000, 0.00000, 0.00000, 0.03125, 0.03125, -0.03125, 0.06250, 0.00000, 0.06250, 0.00000, -0.03125, 0.06250, 0.03125, 0.00000, 0.00000, 0.03125, 0.09375, -0.06250, -0.03125, 0.03125, 0.03125, 0.00000, 0.03125, 0.03125, 0.06250, 0.00000, -0.06250, 0.03125, -0.03125, 0.03125, -0.03125, 0.03125, 0.00000, -0.03125, -0.03125, 0.00000, 0.03125, 0.00000, 0.03125, 0.00000, 0.00000, 0.00000, 0.00000, -0.03125, -0.03125, -0.03125, 0.03125, 0.00000, -0.06250, -0.03125, -0.03125, 0.03125, 0.03125, 0.00000, 0.06250, 0.00000, 0.00000, -0.03125, 0.03125, -0.03125, 0.03125, 0.03125, 0.00000, 0.03125, 0.03125, 0.00000, -0.03125, 0.00000, 0.03125, 0.00000, 0.03125, -0.03125, 0.03125, 0.06250, 0.03125, -0.03125, 0.00000, -0.06250, -0.03125, -0.03125, 0.06250, 0.00000, 0.00000, 0.00000, -0.03125, 0.00000, 0.00000, 0.03125, 0.03125, -0.03125, -0.03125, 0.03125, 0.00000, 0.00000, 0.00000, 0.00000, 0.00000, -0.06250, 0.00000, 0.03125, -0.03125, 0.00000, 0.00000, 0.03125, -0.03125, -0.03125, 0.09375, 0.00000, -0.06250, 0.00000, -0.06250, 0.00000, 0.00000, 0.03125, -0.03125, 0.06250, 0.03125, 0.00000, -0.03125, -0.03125, 0.00000, -0.03125, -0.03125, 0.12500, 0.00000, 0.00000, 0.03125, 0.03125, 0.00000, 0.00000, 0.03125, -0.03125, -0.06250, 0.03125, 0.03125, 0.06250, 0.03125, 0.00000, 0.03125, 0.00000, 0.03125, -0.03125, 0.03125, 0.00000, 0.00000, -0.03125, 0.00000, 0.00000, 0.00000, 0.00000, 0.00000, 0.03125, 0.00000, 0.03125, 0.00000, -0.03125, 0.00000, 0.03125, 0.00000, 0.03125, 0.00000, 0.03125, -0.06250, -0.03125, 0.00000, 0.00000, 0.00000, 0.03125, 0.03125, 0.00000, 0.03125, 0.03125, -0.03125, 0.00000, 0.00000, 0.00000, -0.06250, 0.00000, 0.00000, -0.06250, 0.06250, 0.00000, 0.06250, -0.03125, 0.00000, -0.06250, -0.03125, 0.06250, 0.00000, -0.06250, -0.03125, -0.06250, 0.03125, -0.03125, 0.00000, -0.03125, 0.06250, 0.06250, 0.00000, 0.00000, -0.03125, 0.00000, 0.00000, 0.03125, 0.00000, -0.03125, 0.00000, 0.06250, 0.03125, -0.06250, 0.00000, -0.03125, 0.00000, 0.00000, 0.00000, 0.00000, 0.00000, 0.00000, 0.03125, 0.00000, -0.03125, -0.06250, -0.03125, -0.03125, 0.03125, 0.03125, -0.03125, -0.06250, 0.03125, -0.03125, 0.06250, -0.03125, -0.03125, 0.03125, -0.06250, 0.03125, -0.06250, 0.03125, -0.03125, 0.00000, 0.00000, 0.06250, 0.00000, 0.00000, 0.03125, 0.03125, -0.03125, -0.06250, -0.03125, -0.03125, 0.00000, 0.03125, 0.00000, 0.00000, 0.00000, 0.00000, 0.03125, 0.06250, 0.00000, 0.03125, 0.06250, -0.03125, 0.00000, 0.00000, 0.06250, 0.06250, 0.03125, 0.00000, -0.03125, -0.06250, 0.00000, -0.03125, -0.06250, 0.00000, 0.03125, 0.00000, 0.03125, 0.03125, 0.06250, 0.03125, 0.00000, -0.03125, -0.03125, -0.03125, -0.03125, 0.03125, 0.00000, 0.03125, -0.03125, -0.06250, -0.03125, 0.03125, 0.06250, -0.03125, 0.03125, -0.03125, -0.03125, -0.03125, 0.00000, 0.00000, -0.03125, -0.03125, 0.00000, 0.00000, -0.03125, 0.03125, 0.00000, 0.03125, 0.00000, -0.03125, 0.00000, 0.00000, 0.00000, -0.03125, 0.03125, 0.03125, 0.03125, 0.06250, 0.03125, 0.00000, 0.00000, -0.03125, -0.03125, 0.06250, -0.03125, -0.03125, 0.00000, -0.06250, 0.03125, -0.03125, -0.03125, 0.00000, 0.00000, -0.03125, 0.00000, 0.03125, -0.03125, 0.00000, -0.03125, -0.03125, 0.06250, 0.00000, -0.03125, -0.03125, 0.00000, 0.03125, -0.03125, 0.06250, 0.00000, 0.00000, 0.00000, 0.00000, -0.03125, 0.00000, 0.00000, 0.00000, 0.00000, -0.03125, 0.06250, 0.00000, -0.06250, -0.03125, -0.03125, -0.06250, -0.03125, -0.06250, 0.00000, 0.03125, -0.06250, 0.00000, -0.03125, 0.00000, 0.03125, -0.03125, 0.00000, 0.03125, 0.03125, 0.06250, 0.06250, -0.03125, 0.03125, 0.06250, -0.03125, 0.09375, 0.00000, 0.00000, 0.00000, 0.00000, -0.03125, -0.03125, 0.03125, 0.03125, 0.00000, 0.06250, -0.03125, 0.03125, 0.00000, 0.00000, 0.06250, 0.03125, 0.03125, 0.03125, 0.00000, -0.03125, 0.00000, 0.00000, -0.03125, -0.03125, -0.03125, 0.03125, 0.06250, -0.03125, -0.03125, 0.09375, -0.06250, 0.03125, 0.09375, -0.06250, 0.03125, 0.00000, 0.06250, 0.00000, 0.00000, 0.03125, 0.00000, 0.00000, 0.00000, 0.03125, 0.00000, 0.03125, -0.03125, 0.03125, 0.00000, -0.03125, 0.03125, 0.00000, 0.03125, 0.00000, 0.03125, 0.03125, 0.03125, -0.03125, 0.03125, -0.03125, 0.00000, 0.00000, 0.00000, 0.03125, 0.00000, -0.03125, 0.00000, 0.03125, 0.06250, 0.00000, 0.00000, 0.00000, 0.03125, -0.06250, -0.06250, 0.03125, 0.00000, 0.00000, 0.00000, 0.00000, 0.00000, -0.06250, 0.03125, 0.00000, 0.00000, 0.03125, 0.00000, 0.03125, -0.03125, 0.00000, 0.00000, 0.00000, 0.03125, 0.00000, 0.03125, 0.00000, 0.00000, 0.00000, 0.00000, -0.06250, -0.06250, -0.03125, 0.00000, 0.03125, -0.03125, 0.00000, 0.00000, 0.00000, -0.06250, 0.06250, -0.03125, 0.03125, 0.03125, 0.00000, 0.00000, -0.06250, -0.06250, 0.00000, -0.06250, -0.03125, 0.00000, 0.03125, 0.00000, 0.00000, 0.03125, 0.06250, -0.03125, 0.06250, 0.00000, -0.03125, 0.00000, 0.00000, 0.00000, -0.03125, 0.00000, 0.00000, 0.00000, 0.00000, -0.03125, 0.03125, 0.00000, 0.00000, 0.03125, 0.03125, -0.06250, 0.03125, 0.00000, 0.03125, 0.09375, 0.03125, 0.00000, 0.03125, 0.03125, -0.03125, -0.03125, 0.03125, -0.03125, 0.03125, -0.03125, -0.03125, 0.06250, 0.00000, 0.00000, -0.03125, -0.03125, 0.00000, -0.03125, 0.03125, 0.03125, 0.00000, 0.00000, 0.03125, 0.03125, 0.06250, 0.03125, 0.03125, 0.00000, -0.06250, 0.00000, -0.06250, 0.03125, 0.00000, 0.00000, 0.00000, 0.00000, -0.03125, 0.00000, 0.03125, 0.03125, -0.03125, 0.03125, 0.03125, 0.03125, -0.03125, 0.03125, 0.00000, 0.06250, 0.00000, 0.03125, -0.03125, 0.00000, 0.03125, -0.03125, 0.00000, 0.00000, 0.03125, 0.00000, 0.03125, 0.09375, -0.03125, 0.03125, -0.03125, 0.03125, 0.03125, 0.00000, 0.00000, 0.03125, 0.00000, 0.00000, -0.06250, 0.03125, 0.03125, 0.03125, 0.03125, 0.06250, 0.00000, -0.03125, 0.00000, 0.00000, -0.03125, 0.00000, 0.00000, 0.03125, 0.03125, -0.03125, -0.03125, 0.00000, 0.00000, -0.03125, 0.00000, 0.03125, 0.03125, -0.03125, -0.06250, 0.00000, 0.00000, -0.03125, 0.00000, -0.03125, -0.06250, 0.00000, 0.03125, 0.03125, 0.00000, 0.00000, 0.00000, 0.00000, 0.03125, 0.00000, -0.06250, 0.03125, -0.06250, -0.06250, -0.06250, 0.00000, -0.03125, 0.00000, -0.03125, 0.00000, -0.03125, -0.03125, 0.00000, 0.03125, 0.03125, 0.00000, -0.03125, 0.03125, 0.00000, 0.12500, 0.00000, 0.00000, -0.03125, -0.03125, 0.00000, 0.00000, 0.03125, 0.03125, 0.03125, 0.00000, 0.00000, -0.06250, 0.00000, 0.00000, -0.03125, 0.00000, 0.00000, 0.00000, 0.03125, 0.00000, -0.03125, 0.03125, 0.00000, 0.03125, 0.03125, 0.00000, 0.03125, 0.00000, -0.03125, 0.06250, 0.00000, 0.03125, 0.00000, 0.00000, 0.00000, 0.00000, 0.00000, 0.03125, 0.00000, -0.03125, 0.03125, 0.03125, -0.03125, 0.03125, 0.09375, 0.03125, 0.00000, 0.06250, -0.03125, 0.00000, 0.06250, -0.09375, 0.03125, -0.03125, 0.00000, 0.03125, 0.03125, -0.03125, 0.06250, 0.00000, 0.00000, 0.03125, 0.03125, 0.00000, 0.00000, 0.03125, 0.00000, 0.00000, 0.00000, 0.00000, -0.06250, 0.09375, 0.00000, 0.00000, 0.06250, 0.00000, -0.09375, -0.03125, -0.03125, 0.00000, 0.00000, 0.03125, 0.00000, 0.03125, -0.06250, -0.03125, -0.03125, -0.03125, 0.03125, 0.00000, 0.00000, 0.03125, -0.03125, 0.03125, 0.00000, -0.03125, 0.00000, 0.00000, 0.00000, 0.00000, 0.03125, 0.00000, 0.00000, 0.00000, 0.03125, 0.03125, 0.00000, 0.03125, 0.00000, 0.00000, 0.00000, 0.00000, 0.03125, 0.00000, -0.03125, 0.00000, 0.00000, 0.03125, -0.03125, -0.03125, 0.00000, -0.06250, 0.06250, -0.03125, 0.00000, 0.03125, 0.00000, 0.03125, 0.03125, 0.00000, 0.03125, -0.03125, -0.06250, 0.00000, 0.03125, -0.03125, 0.03125, -0.03125, 0.03125, 0.00000, 0.00000, 0.00000, -0.03125, 0.00000, 0.00000, 0.03125, 0.00000, 0.03125, 0.00000, 0.03125, 0.03125, -0.06250, 0.00000, 0.00000, -0.03125, -0.03125, 0.00000, -0.03125, 0.03125, 0.00000, -0.03125, 0.00000, 0.03125, -0.06250, 0.00000, 0.00000, 0.00000, 0.00000, 0.00000, -0.06250, -0.09375, -0.03125, -0.03125, 0.03125, 0.03125, 0.00000, -0.03125, -0.03125, 0.00000, -0.03125, 0.00000, 0.00000, -0.03125, 0.03125, 0.00000, 0.00000, -0.03125, 0.00000, 0.00000, 0.00000, 0.03125, 0.03125, 0.00000, -0.03125, 0.00000, 0.03125, 0.03125, 0.00000, 0.00000, -0.03125, 0.00000, 0.03125, 0.00000, -0.03125, -0.06250, 0.00000, -0.09375, -0.03125, 0.00000, 0.00000, 0.03125, 0.06250, -0.03125, -0.03125, 0.00000, 0.00000, 0.00000, -0.03125, -0.03125, 0.03125, 0.00000, 0.00000, 0.03125, 0.00000, 0.03125, 0.03125, 0.00000, 0.00000, 0.03125, 0.03125, 0.00000, 0.03125, 0.00000, 0.06250, 0.00000, 0.06250, 0.03125, 0.00000, 0.03125, -0.06250, 0.00000, 0.00000, 0.00000, 0.00000, 0.00000, -0.03125, -0.03125, 0.03125, 0.00000, -0.03125, 0.00000, -0.03125, 0.00000, 0.00000, -0.03125, 0.06250, 0.00000, 0.00000, 0.03125, -0.03125, 0.00000, 0.03125, 0.00000, -0.09375, 0.00000, 0.03125, 0.00000, -0.06250, 0.00000, 0.00000, 0.00000, 0.00000, 0.00000, -0.03125, 0.00000, 0.03125, 0.03125, -0.03125, 0.00000, 0.03125, -0.03125, 0.00000, 0.00000, -0.03125, -0.03125, 0.00000, -0.03125, 0.00000, 0.06250, 0.03125, 0.03125, 0.03125, 0.00000, -0.03125, 0.00000, 0.00000, -0.06250, 0.00000, -0.03125, -0.03125, 0.03125, -0.03125, 0.03125, 0.03125, 0.00000, -0.03125, 0.00000, -0.03125, 0.00000, 0.03125, 0.06250, 0.00000, -0.03125, 0.03125, -0.03125, 0.03125, 0.00000, -0.03125, 0.00000, 0.00000, 0.00000, 0.00000, -0.03125, 0.00000, 0.03125, -0.03125, 0.03125, 0.03125, 0.03125, 0.00000, 0.03125, 0.00000, 0.06250, 0.03125, -0.03125, -0.03125, -0.03125, -0.03125, 0.00000, -0.03125, 0.06250, 0.03125, 0.00000, 0.09375, 0.00000, 0.03125, 0.00000, 0.03125, 0.00000, 0.03125, 0.00000, 0.00000, 0.00000, 0.00000, 0.00000, 0.00000, 0.00000, 0.03125, -0.03125, 0.09375, 0.00000, -0.03125, 0.03125, 0.06250, -0.06250, -0.03125, -0.03125, -0.03125, 0.06250, 0.03125, 0.00000, -0.06250, 0.03125, -0.03125, 0.03125, 0.03125, 0.03125, 0.00000, 0.00000, 0.00000, 0.00000, 0.00000, 0.00000, 0.00000, 0.03125, 0.03125, 0.00000, 0.00000, 0.00000, 0.00000, 0.03125, -0.03125, 0.09375, 0.00000, -0.03125, -0.03125, -0.03125, 0.00000, 0.03125, 0.00000, 0.00000, 0.00000, 0.00000, 0.03125, -0.03125, 0.03125, 0.06250, 0.00000, 0.03125, 0.00000, 0.00000, 0.03125, -0.03125, 0.03125, 0.03125, 0.00000, -0.03125, 0.03125, 0.00000, 0.00000, -0.09375, 0.00000, 0.00000, 0.03125, 0.00000, 0.00000, 0.03125, 0.00000, 0.03125, -0.03125, -0.03125, -0.06250, -0.06250, -0.03125, 0.00000, 0.00000, 0.00000, -0.06250, 0.03125, -0.03125, 0.00000, 0.06250, -0.03125, 0.00000, 0.03125, 0.00000, -0.06250, -0.03125, 0.06250, 0.00000, -0.03125, 0.00000, 0.00000, 0.00000, 0.03125, 0.00000, 0.03125, -0.03125, -0.03125, -0.03125, 0.03125, 0.00000, -0.03125, 0.03125, 0.06250, 0.00000, 0.03125, -0.03125, 0.00000, 0.06250, 0.00000, 0.03125, -0.06250, 0.06250, 0.03125, 0.00000, 0.03125, 0.00000, 0.06250, 0.06250, 0.00000, 0.00000, 0.00000, -0.03125, -0.06250, 0.03125, 0.00000, 0.03125, -0.06250, 0.03125, 0.03125, 0.00000, -0.03125, -0.06250, 0.00000, -0.09375, 0.03125, -0.03125, 0.03125, 0.03125, 0.06250, 0.06250, -0.03125, -0.06250, 0.00000, 0.03125, -0.06250, 0.00000, -0.03125, 0.00000, 0.03125, -0.03125, 0.00000, -0.03125, -0.03125, -0.06250, -0.03125, 0.03125, 0.00000, 0.00000, 0.00000, -0.06250, 0.00000, -0.03125, -0.06250, 0.00000, -0.03125, -0.03125, 0.03125, 0.03125, -0.03125, -0.06250, -0.06250, -0.06250, -0.06250, 0.00000, 0.00000, -0.03125, 0.03125, 0.03125, 0.00000, 0.00000, 0.00000, -0.03125, 0.03125, 0.00000, -0.03125, 0.03125, -0.03125, 0.00000, 0.00000, -0.03125, 0.00000, 0.03125, 0.00000, 0.03125, 0.03125, -0.03125, 0.00000, -0.06250, 0.00000, 0.00000, 0.03125, 0.03125, -0.03125, 0.03125, 0.03125, 0.00000, 0.03125, 0.00000, 0.00000, -0.03125, 0.03125, -0.03125, -0.03125, -0.03125, 0.00000, 0.03125, -0.09375, 0.03125, -0.03125, -0.03125, 0.00000, -0.03125, 0.03125, 0.00000, 0.03125, -0.03125, 0.03125, 0.03125, 0.03125, 0.03125, 0.03125, -0.03125, -0.06250, -0.03125, 0.00000, 0.06250, -0.03125, 0.03125, -0.03125, 0.03125, 0.03125, 0.03125, -0.03125, 0.00000, 0.00000, 0.09375, 0.00000, -0.03125, 0.03125, 0.06250, 0.03125, 0.03125, 0.03125, 0.00000, 0.00000, -0.06250, -0.03125, -0.06250, 0.06250, 0.03125, -0.03125, 0.00000, 0.03125, 0.00000, 0.03125, -0.03125, 0.06250, 0.00000, 0.00000, 0.03125, 