//Numpy array shape [3, 3, 128, 256]
//Min -0.156250000000
//Max 0.125000000000
//Number of zeros 113169

#ifndef W81_H_
#define W81_H_

#ifndef __SYNTHESIS__
weight81_t w81[294912];
#else
weight81_t w81[294912] = {0.03125, 0.00000, -0.03125, -0.06250, 0.03125, 0.09375, 0.00000, -0.03125, 0.00000, -0.06250, 0.09375, 0.00000, -0.03125, 0.03125, 0.00000, 0.03125, 0.00000, -0.03125, 0.00000, 0.00000, 0.03125, 0.03125, 0.00000, 0.00000, 0.03125, 0.00000, 0.00000, 0.00000, -0.03125, 0.03125, -0.03125, 0.00000, 0.03125, 0.00000, 0.03125, 0.00000, 0.00000, 0.00000, 0.06250, 0.03125, -0.03125, 0.00000, 0.00000, -0.03125, 0.03125, 0.00000, 0.03125, 0.03125, 0.00000, -0.03125, 0.03125, -0.03125, 0.00000, 0.03125, 0.03125, -0.03125, 0.00000, 0.00000, 0.03125, 0.03125, 0.00000, 0.00000, -0.06250, 0.00000, 0.03125, 0.06250, -0.03125, 0.00000, 0.03125, 0.03125, -0.03125, -0.03125, 0.03125, -0.03125, 0.00000, 0.00000, 0.00000, 0.06250, 0.03125, 0.00000, 0.00000, -0.03125, 0.00000, -0.06250, 0.03125, 0.03125, -0.03125, 0.00000, 0.03125, 0.06250, -0.03125, -0.03125, -0.03125, 0.06250, 0.03125, 0.06250, -0.03125, 0.03125, -0.03125, -0.03125, -0.03125, -0.03125, -0.06250, -0.03125, 0.00000, 0.03125, 0.03125, -0.03125, 0.03125, -0.06250, 0.03125, 0.00000, -0.03125, 0.00000, 0.03125, -0.03125, -0.03125, 0.00000, 0.00000, -0.03125, -0.06250, 0.03125, 0.00000, -0.03125, 0.03125, -0.03125, -0.06250, 0.03125, 0.00000, 0.00000, -0.03125, -0.03125, 0.03125, -0.03125, -0.03125, -0.03125, 0.09375, 0.00000, 0.00000, -0.03125, 0.03125, -0.03125, 0.03125, 0.03125, 0.06250, -0.03125, 0.00000, 0.06250, 0.00000, 0.03125, -0.03125, 0.00000, 0.00000, 0.00000, 0.00000, 0.03125, 0.03125, 0.03125, -0.03125, 0.00000, 0.00000, 0.03125, -0.03125, 0.03125, 0.00000, 0.06250, 0.00000, 0.03125, -0.03125, 0.03125, 0.03125, -0.03125, -0.06250, 0.03125, -0.03125, 0.03125, 0.03125, 0.03125, -0.03125, 0.03125, 0.00000, 0.06250, -0.03125, -0.03125, -0.03125, 0.03125, 0.00000, 0.00000, 0.03125, -0.03125, -0.03125, 0.00000, 0.00000, -0.03125, -0.03125, -0.03125, 0.03125, 0.03125, -0.03125, 0.03125, 0.03125, -0.06250, 0.06250, 0.03125, 0.00000, 0.00000, -0.06250, 0.00000, 0.00000, 0.00000, 0.06250, -0.06250, 0.03125, 0.00000, -0.03125, 0.03125, -0.03125, -0.03125, -0.03125, 0.03125, 0.00000, 0.03125, 0.00000, 0.00000, 0.00000, 0.00000, 0.03125, 0.00000, 0.00000, -0.03125, 0.00000, 0.00000, 0.03125, 0.00000, 0.00000, 0.00000, 0.03125, 0.03125, 0.00000, 0.03125, 0.00000, 0.03125, 0.03125, 0.00000, -0.03125, -0.03125, 0.00000, 0.00000, 0.00000, 0.00000, 0.03125, 0.03125, -0.03125, -0.03125, 0.00000, 0.00000, 0.03125, 0.00000, 0.03125, 0.03125, 0.03125, 0.00000, 0.00000, 0.00000, -0.03125, -0.06250, 0.03125, -0.03125, -0.03125, 0.00000, 0.03125, -0.03125, 0.03125, 0.00000, -0.03125, -0.03125, 0.00000, 0.00000, 0.00000, 0.03125, 0.00000, 0.00000, 0.06250, 0.00000, 0.00000, 0.00000, 0.00000, 0.00000, -0.03125, 0.03125, 0.00000, 0.03125, 0.03125, -0.03125, 0.00000, 0.03125, -0.06250, 0.00000, 0.06250, 0.00000, 0.00000, -0.03125, -0.03125, -0.03125, 0.06250, 0.03125, 0.00000, 0.00000, 0.00000, -0.03125, 0.00000, -0.03125, 0.00000, -0.03125, 0.03125, 0.03125, -0.03125, 0.00000, 0.00000, -0.03125, -0.06250, 0.06250, 0.00000, 0.06250, 0.03125, -0.03125, 0.03125, -0.06250, -0.06250, -0.03125, -0.03125, 0.03125, 0.00000, 0.03125, 0.03125, 0.00000, -0.03125, 0.03125, 0.03125, 0.00000, -0.06250, -0.03125, 0.00000, 0.00000, 0.03125, 0.00000, 0.00000, 0.03125, 0.00000, 0.00000, 0.00000, 0.00000, 0.00000, 0.00000, -0.03125, 0.00000, -0.03125, 0.00000, -0.03125, 0.03125, 0.00000, 0.03125, 0.03125, 0.03125, -0.03125, -0.03125, -0.03125, 0.00000, 0.00000, 0.00000, 0.03125, -0.03125, -0.03125, -0.03125, -0.03125, 0.03125, 0.00000, 0.00000, -0.03125, 0.00000, 0.00000, 0.00000, 0.03125, 0.00000, 0.00000, -0.03125, -0.06250, -0.03125, 0.03125, 0.03125, -0.03125, -0.06250, 0.03125, 0.03125, 0.03125, -0.03125, -0.03125, -0.03125, 0.00000, 0.00000, 0.00000, 0.00000, -0.03125, 0.00000, -0.03125, -0.03125, -0.03125, 0.03125, -0.03125, 0.03125, 0.00000, -0.03125, 0.00000, 0.03125, 0.06250, 0.00000, 0.00000, 0.00000, 0.03125, 0.00000, 0.03125, 0.00000, 0.00000, 0.00000, -0.06250, 0.00000, 0.06250, -0.03125, -0.03125, 0.03125, 0.03125, 0.00000, 0.03125, -0.03125, 0.03125, 0.03125, -0.03125, -0.03125, -0.03125, 0.00000, 0.00000, -0.03125, -0.03125, -0.03125, 0.03125, 0.03125, 0.03125, -0.03125, 0.06250, 0.00000, -0.03125, -0.03125, 0.06250, 0.00000, 0.00000, -0.03125, 0.03125, 0.03125, 0.00000, -0.03125, 0.03125, 0.00000, 0.03125, -0.12500, -0.06250, 0.03125, -0.03125, 0.03125, -0.03125, 0.00000, 0.03125, 0.00000, 0.00000, -0.03125, 0.03125, -0.03125, -0.06250, 0.00000, 0.00000, 0.00000, -0.03125, 0.03125, -0.03125, -0.03125, -0.03125, 0.00000, 0.03125, 0.00000, 0.03125, 0.00000, 0.06250, -0.06250, 0.03125, 0.03125, 0.06250, 0.00000, 0.00000, 0.00000, 0.00000, 0.06250, -0.03125, 0.00000, 0.03125, 0.00000, 0.00000, -0.03125, 0.00000, 0.00000, 0.03125, 0.03125, -0.03125, -0.06250, 0.00000, -0.06250, -0.03125, 0.03125, 0.03125, 0.00000, 0.03125, 0.03125, 0.03125, 0.00000, 0.00000, -0.03125, -0.06250, 0.03125, 0.00000, 0.00000, 0.00000, 0.00000, -0.03125, 0.03125, 0.00000, 0.00000, -0.03125, 0.03125, 0.00000, -0.03125, -0.03125, 0.00000, 0.03125, 0.06250, -0.03125, 0.06250, 0.06250, -0.06250, 0.06250, 0.03125, 0.06250, 0.00000, 0.03125, 0.00000, -0.03125, 0.00000, -0.03125, -0.03125, 0.06250, -0.03125, 0.03125, 0.06250, 0.03125, -0.03125, 0.03125, -0.03125, 0.03125, 0.00000, -0.06250, 0.03125, 0.00000, 0.00000, 0.06250, 0.03125, -0.03125, 0.00000, 0.00000, 0.00000, 0.00000, 0.00000, 0.00000, 0.00000, 0.06250, 0.03125, 0.06250, -0.03125, 0.03125, 0.03125, 0.00000, 0.00000, 0.00000, 0.03125, -0.03125, 0.00000, 0.03125, 0.00000, -0.03125, 0.00000, -0.03125, 0.00000, 0.00000, 0.00000, -0.03125, 0.00000, -0.03125, 0.03125, 0.00000, 0.12500, -0.09375, 0.00000, 0.03125, -0.06250, 0.03125, 0.06250, 0.00000, 0.03125, 0.00000, -0.03125, 0.03125, 0.00000, 0.00000, 0.03125, 0.00000, 0.03125, 0.03125, 0.00000, -0.03125, -0.03125, 0.00000, 0.00000, 0.00000, -0.03125, 0.00000, -0.03125, -0.03125, 0.03125, 0.00000, 0.03125, 0.03125, 0.00000, 0.00000, 0.00000, 0.00000, 0.03125, 0.03125, 0.06250, 0.03125, 0.03125, -0.03125, 0.03125, 0.03125, 0.00000, 0.06250, 0.03125, 0.03125, 0.00000, 0.00000, 0.06250, 0.06250, 0.03125, 0.00000, -0.03125, 0.03125, -0.03125, 0.00000, 0.00000, 0.03125, 0.00000, 0.00000, 0.00000, 0.03125, 0.06250, 0.06250, 0.03125, 0.06250, 0.00000, 0.00000, 0.00000, 0.06250, 0.06250, 0.00000, 0.00000, 0.00000, 0.03125, 0.06250, 0.06250, 0.00000, -0.03125, 0.03125, -0.03125, 0.06250, 0.00000, -0.03125, 0.00000, 0.06250, 0.00000, 0.06250, -0.03125, 0.03125, 0.03125, -0.03125, 0.03125, 0.00000, 0.03125, 0.03125, 0.00000, 0.00000, 0.00000, 0.00000, 0.00000, 0.00000, 0.03125, -0.03125, 0.03125, 0.00000, 0.03125, -0.03125, 0.00000, 0.00000, -0.06250, -0.03125, -0.06250, -0.03125, 0.00000, 0.03125, 0.00000, 0.00000, 0.00000, 0.03125, 0.00000, 0.00000, 0.03125, 0.00000, -0.06250, -0.06250, 0.00000, -0.06250, 0.03125, 0.00000, -0.03125, 0.06250, 0.00000, 0.03125, -0.03125, 0.03125, 0.03125, -0.03125, -0.03125, -0.03125, 0.00000, 0.03125, 0.00000, 0.00000, -0.03125, 0.06250, 0.00000, 0.00000, 0.00000, 0.00000, 0.00000, -0.06250, -0.03125, 0.00000, 0.03125, -0.06250, -0.03125, 0.00000, 0.00000, -0.03125, -0.03125, -0.06250, 0.03125, 0.00000, 0.03125, -0.03125, 0.00000, 0.03125, 0.00000, 0.06250, 0.00000, -0.03125, 0.03125, -0.03125, 0.03125, 0.00000, -0.03125, -0.03125, 0.00000, 0.00000, 0.00000, -0.03125, -0.03125, 0.00000, 0.06250, 0.03125, 0.00000, 0.00000, 0.00000, -0.03125, -0.03125, 0.03125, -0.03125, -0.03125, 0.03125, 0.03125, -0.03125, -0.06250, 0.03125, 0.03125, 0.03125, -0.06250, 0.00000, 0.00000, 0.03125, 0.03125, 0.00000, 0.00000, 0.00000, 0.03125, 0.00000, 0.00000, 0.03125, -0.06250, 0.00000, 0.03125, 0.00000, 0.03125, 0.03125, 0.00000, 0.03125, 0.03125, 0.03125, -0.03125, 0.06250, -0.03125, -0.03125, 0.00000, 0.00000, 0.03125, 0.00000, 0.00000, 0.03125, 0.00000, 0.00000, 0.00000, 0.03125, 0.00000, 0.09375, 0.03125, 0.03125, 0.00000, -0.03125, 0.03125, -0.03125, 0.00000, 0.00000, 0.03125, -0.03125, 0.03125, 0.06250, 0.03125, 0.00000, 0.03125, -0.03125, 0.00000, 0.03125, 0.03125, -0.03125, 0.03125, -0.03125, 0.00000, 0.00000, 0.00000, -0.03125, 0.03125, -0.06250, 0.03125, 0.06250, 0.03125, 0.00000, 0.00000, -0.03125, 0.03125, 0.03125, -0.03125, 0.00000, 0.00000, -0.03125, 0.00000, -0.06250, 0.03125, 0.00000, 0.00000, 0.00000, 0.03125, 0.00000, -0.06250, -0.03125, 0.00000, -0.03125, 0.03125, 0.03125, 0.09375, 0.00000, 0.00000, 0.00000, 0.06250, -0.03125, -0.03125, 0.00000, 0.03125, 0.03125, 0.00000, 0.00000, 0.00000, 0.00000, 0.00000, 0.03125, 0.00000, 0.00000, -0.03125, 0.00000, -0.03125, 0.00000, -0.03125, 0.00000, 0.00000, 0.03125, 0.09375, 0.03125, 0.03125, -0.03125, -0.03125, 0.00000, 0.00000, 0.03125, 0.03125, 0.00000, 0.00000, 0.06250, 0.03125, 0.03125, 0.03125, 0.00000, 0.03125, -0.03125, 0.00000, -0.03125, 0.00000, 0.03125, 0.00000, 0.03125, 0.00000, 0.00000, 0.06250, -0.03125, -0.06250, 0.06250, 0.00000, -0.03125, 0.06250, 0.00000, 0.00000, 0.03125, 0.03125, 0.03125, 0.06250, 0.03125, 0.03125, 0.03125, 0.03125, 0.06250, 0.00000, 0.03125, 0.03125, 0.00000, 0.03125, 0.00000, -0.03125, 0.03125, -0.03125, 0.00000, -0.03125, -0.03125, 0.06250, 0.00000, 0.00000, -0.03125, 0.03125, 0.00000, 0.03125, 0.00000, 0.00000, 0.03125, 0.03125, 0.06250, 0.00000, -0.03125, -0.03125, 0.06250, 0.06250, 0.03125, 0.03125, 0.03125, 0.03125, 0.00000, 0.00000, 0.00000, 0.00000, 0.00000, 0.03125, -0.03125, -0.03125, 0.00000, -0.06250, -0.03125, 0.03125, -0.03125, 0.00000, -0.03125, 0.00000, 0.03125, 0.03125, 0.00000, 0.03125, -0.06250, 0.00000, -0.03125, 0.03125, -0.03125, -0.09375, -0.03125, -0.03125, 0.00000, -0.03125, -0.03125, -0.03125, 0.03125, 0.00000, 0.00000, -0.03125, -0.06250, 0.03125, 0.00000, -0.03125, -0.03125, 0.00000, -0.03125, 0.03125, 0.00000, 0.00000, 0.00000, 0.06250, 0.00000, 0.03125, 0.03125, 0.00000, -0.03125, 0.03125, 0.00000, 0.03125, 0.00000, 0.00000, -0.06250, 0.03125, 0.00000, -0.03125, 0.03125, -0.03125, 0.03125, 0.00000, 0.03125, 0.03125, 0.03125, 0.03125, 0.00000, 0.00000, 0.00000, -0.03125, 0.00000, 0.03125, -0.03125, 0.00000, 0.00000, 0.00000, -0.03125, 0.00000, 0.00000, 0.03125, 0.00000, 0.00000, 0.00000, 0.03125, 0.00000, 0.00000, 0.03125, 0.06250, 0.03125, 0.00000, 0.03125, -0.09375, 0.00000, 0.00000, -0.03125, 0.03125, 0.06250, 0.00000, 0.00000, 0.03125, 0.00000, 0.00000, 0.03125, 0.00000, 0.03125, 0.00000, 0.00000, 0.03125, 0.03125, 0.00000, 0.03125, -0.03125, -0.03125, 0.00000, 0.00000, 0.00000, 0.06250, 0.00000, 0.03125, 0.00000, -0.06250, 0.03125, 0.03125, 0.00000, -0.03125, 0.03125, -0.03125, -0.03125, 0.03125, 0.00000, 0.03125, 0.03125, -0.03125, -0.03125, 0.06250, 0.03125, -0.03125, 0.00000, 0.00000, -0.03125, 0.03125, 0.00000, -0.06250, 0.03125, 0.00000, 0.00000, 0.09375, 0.00000, 0.00000, 0.00000, -0.03125, 0.00000, 0.03125, -0.03125, 0.03125, -0.06250, 0.06250, -0.03125, 0.00000, -0.03125, 0.03125, 0.00000, 0.03125, 0.03125, 0.00000, 0.00000, -0.03125, 0.00000, 0.03125, 0.00000, 0.03125, -0.03125, 0.00000, 0.00000, 0.06250, -0.03125, 0.00000, 0.00000, 0.00000, -0.06250, 0.03125, 0.00000, -0.06250, 0.00000, -0.09375, 0.00000, 0.00000, 0.00000, 0.00000, 0.03125, -0.03125, -0.03125, 0.03125, 0.03125, -0.03125, 0.00000, -0.03125, 0.03125, 0.00000, 0.03125, 0.00000, 0.03125, -0.03125, -0.03125, 0.06250, 0.03125, 0.03125, 0.06250, 0.00000, 0.03125, -0.03125, -0.03125, -0.03125, 0.00000, -0.03125, 0.00000, -0.03125, -0.03125, 0.03125, 0.00000, 0.00000, 0.00000, 0.06250, -0.03125, 0.00000, 0.00000, 0.06250, 0.00000, -0.03125, -0.03125, 0.03125, 0.00000, -0.03125, -0.03125, -0.06250, -0.03125, -0.03125, 0.03125, -0.03125, -0.03125, 0.03125, 0.00000, 0.03125, 0.03125, 0.00000, 0.06250, -0.03125, 0.00000, 0.00000, 0.00000, 0.00000, 0.00000, 0.03125, 0.09375, 0.00000, 0.03125, -0.03125, 0.03125, -0.03125, 0.03125, 0.00000, 0.03125, 0.00000, -0.03125, -0.03125, -0.03125, 0.06250, 0.03125, 0.00000, -0.03125, 0.00000, 0.00000, 0.03125, 0.03125, 0.00000, 0.00000, 0.03125, 0.03125, -0.03125, 0.00000, 0.06250, 0.00000, 0.03125, 0.00000, -0.03125, -0.03125, 0.03125, 0.03125, 0.03125, 0.00000, 0.09375, -0.03125, 0.03125, 0.03125, -0.03125, 0.03125, 0.03125, 0.00000, 0.03125, -0.03125, 0.00000, 0.00000, -0.03125, -0.03125, -0.03125, 0.00000, 0.00000, -0.03125, 0.06250, 0.03125, 0.03125, 0.06250, 0.03125, -0.03125, 0.03125, 0.03125, 0.00000, -0.03125, -0.03125, -0.03125, 0.00000, 0.03125, 0.03125, -0.03125, 0.03125, 0.00000, 0.03125, 0.03125, 0.00000, 0.00000, 0.00000, 0.00000, 0.00000, 0.03125, 0.00000, 0.00000, 0.00000, 0.03125, 0.00000, -0.03125, -0.03125, 0.00000, -0.03125, 0.03125, -0.03125, 0.03125, 0.03125, 0.00000, -0.03125, 0.06250, -0.03125, 0.03125, -0.03125, 0.00000, 0.03125, -0.03125, 0.00000, -0.03125, 0.00000, -0.03125, -0.03125, -0.03125, 0.03125, 0.06250, 0.06250, 0.03125, -0.03125, 0.03125, 0.00000, 0.03125, -0.03125, 0.03125, 0.03125, 0.00000, 0.00000, 0.00000, 0.06250, 0.00000, 0.03125, 0.03125, 0.03125, -0.03125, 0.00000, 0.06250, 0.00000, -0.03125, 0.03125, 0.00000, 0.03125, -0.03125, 0.00000, -0.03125, -0.03125, 0.03125, 0.00000, 0.03125, 0.00000, 0.00000, 0.00000, 0.00000, -0.03125, 0.00000, 0.00000, -0.03125, 0.06250, 0.06250, 0.00000, 0.00000, 0.03125, 0.00000, 0.00000, -0.03125, 0.00000, 0.00000, 0.03125, 0.03125, -0.03125, 0.00000, 0.00000, 0.00000, 0.03125, 0.03125, -0.03125, -0.03125, 0.03125, -0.03125, 0.03125, 0.03125, 0.00000, -0.03125, -0.03125, -0.03125, 0.00000, 0.03125, 0.00000, -0.03125, 0.00000, 0.03125, 0.00000, 0.06250, 0.03125, -0.03125, 0.00000, 0.00000, 0.00000, 0.03125, 0.03125, -0.03125, 0.00000, -0.03125, 0.03125, 0.00000, -0.03125, 0.03125, 0.00000, 0.03125, -0.03125, 0.00000, -0.03125, 0.03125, 0.00000, 0.00000, 0.03125, 0.00000, 0.03125, -0.03125, 0.03125, 0.00000, -0.03125, 0.03125, 0.00000, 0.00000, 0.03125, 0.06250, 0.00000, 0.03125, 0.03125, 0.03125, -0.03125, 0.03125, 0.03125, 0.03125, 0.00000, 0.00000, 0.03125, -0.03125, 0.00000, 0.00000, -0.06250, -0.03125, 0.00000, 0.03125, 0.03125, 0.03125, -0.06250, 0.00000, -0.03125, -0.03125, 0.00000, 0.00000, 0.03125, 0.03125, -0.03125, 0.03125, 0.00000, 0.03125, -0.03125, -0.03125, -0.03125, -0.06250, 0.00000, 0.00000, 0.06250, 0.03125, 0.00000, 0.03125, 0.03125, 0.03125, 0.03125, 0.03125, 0.03125, -0.03125, 0.03125, 0.00000, 0.00000, 0.03125, 0.06250, 0.00000, 0.00000, -0.03125, 0.00000, 0.00000, 0.03125, -0.03125, 0.00000, 0.06250, 0.00000, 0.00000, 0.06250, 0.06250, 0.00000, 0.03125, -0.03125, 0.03125, -0.03125, 0.03125, 0.00000, -0.03125, -0.03125, 0.00000, -0.03125, 0.03125, 0.03125, 0.03125, 0.06250, 0.03125, 0.03125, -0.03125, 0.00000, 0.00000, 0.03125, 0.00000, -0.03125, -0.06250, 0.03125, 0.03125, 0.00000, 0.09375, -0.03125, -0.03125, 0.00000, 0.00000, 0.03125, 0.03125, 0.00000, 0.00000, 0.06250, 0.03125, 0.00000, -0.06250, 0.03125, -0.03125, 0.00000, -0.03125, 0.03125, -0.03125, 0.00000, 0.00000, 0.00000, 0.00000, 0.00000, -0.03125, 0.00000, 0.09375, 0.00000, 0.03125, 0.03125, -0.03125, 0.00000, 0.03125, -0.03125, 0.00000, 0.00000, 0.00000, 0.03125, -0.03125, 0.00000, 0.00000, -0.03125, 0.03125, 0.00000, -0.03125, 0.03125, -0.06250, -0.03125, 0.00000, 0.06250, -0.03125, 0.00000, 0.00000, 0.03125, -0.03125, 0.03125, -0.03125, 0.03125, 0.03125, 0.00000, 0.03125, 0.03125, -0.03125, 0.06250, 0.00000, 0.00000, 0.00000, -0.06250, -0.03125, 0.00000, 0.06250, 0.00000, -0.06250, -0.03125, 0.00000, 0.00000, 0.00000, -0.03125, 0.00000, 0.00000, 0.00000, -0.03125, 0.00000, -0.03125, 0.00000, 0.00000, 0.00000, 0.03125, -0.03125, -0.03125, -0.03125, 0.00000, 0.00000, 0.03125, 0.06250, 0.03125, 0.06250, 0.00000, 0.03125, 0.03125, 0.00000, 0.03125, 0.03125, -0.03125, 0.06250, 0.03125, 0.03125, 0.03125, 0.03125, 0.00000, 0.03125, -0.03125, 0.03125, -0.03125, -0.03125, 0.03125, 0.03125, 0.03125, 0.00000, -0.03125, -0.03125, -0.03125, 0.00000, 0.03125, -0.03125, 0.00000, 0.00000, 0.00000, 0.03125, 0.00000, -0.06250, 0.06250, -0.03125, -0.06250, 0.03125, -0.03125, 0.03125, -0.06250, -0.03125, 0.00000, -0.03125, 0.00000, 0.03125, 0.03125, -0.03125, 0.00000, 0.06250, 0.03125, 0.03125, 0.03125, 0.03125, 0.00000, 0.00000, 0.03125, 0.03125, 0.06250, 0.03125, 0.00000, 0.00000, -0.06250, 0.03125, 0.03125, -0.03125, 0.00000, -0.03125, 0.03125, 0.03125, 0.03125, 0.03125, 0.06250, 0.06250, 0.03125, 0.03125, 0.00000, 0.00000, -0.03125, 0.00000, 0.06250, -0.03125, 0.06250, 0.00000, 0.00000, 0.03125, -0.03125, 0.03125, 0.03125, 0.03125, 0.00000, 0.00000, 0.03125, 0.03125, 0.00000, 0.06250, 0.03125, 0.00000, 0.00000, 0.00000, 0.00000, -0.03125, 0.00000, 0.00000, -0.06250, -0.03125, -0.03125, 0.06250, 0.03125, 0.03125, 0.06250, -0.03125, 0.03125, 0.00000, -0.03125, -0.03125, 0.03125, -0.03125, -0.03125, 0.00000, 0.06250, -0.03125, 0.00000, 0.00000, -0.06250, 0.03125, 0.00000, 0.03125, 0.06250, 0.00000, 0.03125, 0.00000, 0.00000, 0.06250, 0.03125, 0.03125, 0.00000, 0.03125, 0.03125, -0.03125, 0.00000, 0.03125, -0.06250, -0.03125, 0.03125, 0.00000, 0.03125, 0.00000, 0.00000, 0.00000, 0.03125, 0.03125, 0.03125, 0.03125, -0.03125, 0.00000, 0.00000, 0.03125, -0.03125, 0.03125, -0.03125, -0.03125, -0.03125, 0.03125, 0.03125, 0.03125, 0.03125, 0.03125, 0.00000, -0.03125, 0.03125, 0.00000, 0.03125, 0.03125, 0.00000, 0.00000, 0.06250, 0.03125, 0.06250, 0.03125, 0.00000, 0.06250, 0.00000, 0.06250, 0.00000, 0.00000, 0.03125, 0.09375, -0.03125, 0.03125, -0.03125, 0.00000, 0.03125, -0.03125, 0.03125, 0.00000, -0.03125, 0.00000, 0.00000, 0.00000, 0.00000, 0.06250, 0.00000, -0.03125, -0.03125, -0.03125, -0.06250, -0.06250, 0.00000, 0.00000, 0.03125, 0.06250, 0.09375, -0.03125, 0.03125, 0.00000, 0.03125, -0.03125, -0.03125, 0.00000, 0.00000, 0.06250, 0.06250, 0.03125, 0.00000, 0.00000, 0.00000, -0.03125, 0.06250, 0.03125, -0.06250, -0.06250, -0.03125, 0.06250, -0.03125, 0.03125, 0.00000, 0.00000, 0.03125, 0.03125, 0.00000, 0.00000, 0.00000, 0.03125, 0.09375, 0.06250, 0.00000, -0.06250, 0.00000, 0.03125, -0.03125, -0.03125, 0.00000, 0.03125, -0.03125, 0.03125, 0.06250, 0.00000, 0.03125, 0.06250, 0.06250, 0.03125, 0.00000, -0.03125, 0.00000, 0.00000, 0.03125, 0.00000, 0.03125, 0.03125, 0.03125, 0.03125, 0.03125, 0.03125, 0.03125, 0.03125, 0.00000, 0.03125, 0.03125, 0.00000, -0.03125, 0.03125, 0.03125, 0.00000, 0.00000, 0.00000, 0.00000, 0.00000, -0.03125, -0.03125, 0.03125, 0.03125, 0.03125, 0.00000, -0.03125, 0.06250, 0.03125, -0.03125, -0.03125, 0.00000, 0.03125, 0.03125, 0.00000, 0.03125, 0.00000, 0.00000, 0.00000, 0.03125, 0.00000, 0.03125, -0.03125, 0.00000, 0.00000, 0.03125, 0.00000, 0.03125, 0.00000, 0.00000, 0.00000, 0.06250, 0.00000, -0.03125, -0.03125, 0.00000, 0.00000, 0.09375, 0.03125, -0.06250, 0.00000, -0.03125, 0.06250, 0.03125, 0.00000, -0.03125, 0.03125, 0.09375, -0.03125, 0.06250, -0.03125, 0.03125, 0.09375, 0.00000, -0.06250, 0.00000, 0.03125, 0.00000, 0.00000, 0.00000, 0.03125, 0.00000, 0.03125, 0.06250, -0.03125, -0.03125, -0.03125, 0.00000, 0.03125, 0.00000, 0.00000, 0.03125, -0.03125, -0.06250, 0.03125, -0.03125, -0.03125, -0.03125, 0.03125, 0.00000, 0.00000, -0.06250, 0.00000, -0.03125, -0.03125, 0.00000, 0.00000, 0.00000, 0.03125, 0.03125, 0.03125, 0.03125, 0.03125, 0.00000, 0.00000, 0.03125, 0.00000, 0.06250, -0.03125, 0.06250, 0.00000, 0.00000, 0.03125, -0.03125, 0.00000, -0.09375, 0.06250, 0.03125, 0.00000, 0.03125, 0.06250, 0.00000, 0.03125, -0.06250, -0.06250, 0.00000, 0.00000, 0.00000, 0.06250, 0.00000, 0.00000, 0.03125, -0.03125, -0.03125, 0.06250, -0.03125, 0.00000, 0.00000, 0.03125, 0.03125, 0.03125, -0.03125, 0.00000, 0.00000, 0.03125, 0.00000, 0.03125, 0.03125, 0.03125, 0.06250, 0.03125, 0.06250, -0.03125, 0.03125, 0.00000, 0.06250, 0.00000, 0.03125, 0.03125, -0.03125, 0.00000, -0.03125, 0.03125, 0.00000, 0.00000, -0.03125, 0.03125, 0.06250, 0.00000, -0.03125, 0.00000, 0.03125, 0.00000, -0.03125, 0.00000, 0.00000, 0.00000, 0.00000, 0.03125, 0.03125, 0.00000, 0.09375, -0.03125, -0.03125, 0.06250, 0.00000, 0.00000, 0.00000, 0.00000, 0.00000, 0.03125, 0.00000, 0.00000, 0.00000, 0.03125, 0.00000, -0.03125, 0.00000, 0.06250, -0.03125, 0.03125, 0.00000, 0.06250, 0.03125, -0.03125, 0.06250, 0.00000, -0.03125, -0.06250, -0.06250, 0.00000, 0.03125, 0.03125, 0.00000, 0.00000, 0.00000, 0.03125, 0.03125, 0.00000, 0.06250, 0.03125, 0.03125, 0.03125, 0.06250, 0.03125, 0.00000, -0.03125, 0.00000, -0.03125, 0.03125, 0.03125, 0.03125, 0.00000, 0.00000, 0.06250, 0.03125, 0.03125, -0.06250, 0.03125, -0.03125, 0.03125, 0.03125, 0.00000, 0.00000, 0.06250, 0.00000, 0.00000, -0.03125, 0.03125, 0.03125, 0.09375, 0.00000, 0.03125, 0.00000, -0.03125, 0.03125, 0.00000, 0.00000, 0.03125, 0.06250, -0.03125, 0.03125, 0.03125, -0.06250, 0.00000, 0.03125, -0.06250, 0.00000, 0.00000, 0.00000, 0.00000, 0.00000, -0.03125, -0.03125, 0.03125, 0.00000, -0.03125, 0.03125, 0.03125, 0.03125, 0.00000, -0.03125, -0.03125, -0.03125, -0.03125, 0.00000, 0.00000, 0.00000, 0.00000, 0.03125, -0.03125, 0.00000, 0.03125, 0.00000, -0.03125, 0.00000, 0.00000, 0.06250, 0.00000, 0.06250, 0.03125, -0.03125, 0.03125, 0.00000, 0.00000, 0.00000, -0.06250, 0.00000, 0.00000, 0.03125, 0.03125, -0.03125, -0.03125, 0.00000, -0.06250, 0.00000, -0.03125, -0.03125, 0.06250, 0.00000, 0.00000, 0.00000, 0.00000, -0.03125, 0.00000, -0.03125, 0.00000, 0.00000, 0.00000, 0.03125, -0.03125, 0.00000, 0.00000, 0.03125, 0.03125, -0.03125, 0.00000, -0.03125, 0.03125, 0.00000, 0.00000, 0.03125, 0.00000, 0.00000, 0.03125, 0.03125, 0.03125, 0.00000, 0.03125, 0.00000, 0.06250, 0.00000, 0.00000, -0.09375, -0.03125, 0.00000, 0.03125, 0.00000, -0.06250, 0.06250, -0.03125, 0.06250, 0.00000, 0.03125, 0.00000, 0.00000, 0.00000, 0.03125, 0.00000, -0.03125, 0.00000, 0.00000, 0.00000, 0.03125, 0.06250, 0.03125, 0.00000, 0.00000, 0.03125, 0.03125, 0.00000, 0.00000, -0.03125, 0.00000, 0.00000, 0.00000, 0.00000, 0.00000, -0.03125, 0.00000, 0.03125, 0.00000, 0.00000, 0.03125, 0.03125, -0.12500, -0.03125, -0.09375, -0.03125, 0.00000, -0.03125, 0.06250, 0.00000, -0.03125, 0.06250, -0.03125, 0.00000, 0.06250, 0.00000, 0.00000, 0.00000, 0.00000, -0.03125, 0.00000, 0.00000, 0.00000, 0.00000, 0.03125, 0.00000, 0.00000, -0.03125, -0.03125, 0.00000, 0.00000, -0.06250, 0.00000, -0.06250, 0.06250, -0.03125, 0.03125, 0.03125, 0.00000, 0.00000, 0.03125, -0.03125, -0.03125, 0.03125, 0.03125, -0.03125, -0.03125, 0.00000, 0.00000, -0.03125, -0.03125, 0.00000, -0.03125, 0.00000, -0.03125, -0.06250, 0.00000, 0.03125, -0.06250, -0.03125, 0.00000, 0.06250, 0.00000, 0.00000, 0.06250, -0.03125, 0.03125, -0.03125, 0.03125, 0.00000, 0.03125, 0.00000, 0.00000, -0.03125, 0.00000, 0.03125, 0.03125, 0.00000, 0.00000, 0.00000, 0.03125, 0.00000, -0.03125, -0.03125, 0.00000, 0.00000, 0.06250, -0.03125, -0.03125, -0.03125, -0.03125, 0.06250, 0.06250, -0.03125, 0.00000, 0.03125, 0.00000, 0.06250, 0.03125, -0.03125, 0.00000, 0.00000, 0.03125, 0.03125, 0.00000, 0.00000, -0.03125, 0.03125, -0.03125, -0.06250, 0.03125, 0.03125, 0.00000, 0.00000, 0.00000, 0.03125, 0.00000, 0.00000, 0.00000, 0.00000, 0.03125, -0.03125, 0.03125, 0.00000, 0.00000, 0.03125, -0.03125, 0.00000, 0.06250, 0.03125, 0.03125, 0.00000, 0.03125, 0.00000, -0.03125, 0.03125, 0.00000, 0.03125, -0.06250, -0.03125, 0.03125, 0.00000, -0.03125, 0.03125, -0.03125, -0.03125, -0.03125, 0.00000, 0.03125, 0.03125, -0.03125, 0.03125, 0.03125, 0.03125, -0.03125, 0.00000, 0.06250, -0.03125, 0.06250, -0.03125, 0.03125, 0.03125, 0.03125, 0.03125, 0.03125, 0.06250, 0.00000, 0.03125, 0.06250, 0.06250, 0.00000, 0.06250, 0.00000, 0.00000, 0.06250, 0.03125, 0.03125, 0.00000, 0.00000, -0.03125, 0.03125, -0.03125, -0.06250, -0.03125, 0.03125, 0.03125, 0.09375, -0.03125, 0.03125, 0.00000, 0.03125, -0.03125, -0.06250, 0.00000, -0.06250, -0.06250, 0.06250, 0.03125, 0.03125, -0.03125, 0.00000, -0.03125, 0.06250, -0.03125, 0.00000, 0.06250, 0.03125, 0.03125, 0.00000, 0.00000, 0.00000, -0.03125, 0.03125, 0.03125, 0.00000, 0.00000, 0.03125, 0.06250, 0.00000, -0.03125, 0.06250, -0.03125, 0.00000, 0.00000, 0.03125, 0.00000, 0.00000, 0.00000, 0.03125, -0.03125, 0.00000, 0.00000, -0.03125, -0.03125, 0.00000, 0.00000, -0.03125, -0.03125, 0.03125, 0.00000, 0.00000, 0.00000, -0.03125, 0.03125, 0.03125, 0.00000, 0.00000, 0.00000, 0.00000, 0.00000, 0.00000, -0.03125, 0.00000, 0.03125, 0.00000, -0.03125, -0.06250, 0.00000, -0.03125, -0.03125, 0.00000, 0.00000, 0.06250, -0.03125, 0.00000, 0.00000, 0.00000, 0.00000, 0.00000, -0.03125, 0.00000, 0.00000, 0.06250, 0.03125, 0.00000, 0.06250, -0.03125, -0.03125, 0.06250, 0.03125, -0.03125, 0.00000, 0.00000, 0.00000, -0.03125, 0.00000, 0.00000, -0.03125, 0.03125, 0.00000, 0.00000, 0.00000, 0.03125, -0.03125, 0.03125, 0.00000, 0.06250, -0.03125, 0.00000, 0.00000, -0.03125, 0.00000, 0.03125, 0.00000, 0.06250, 0.00000, 0.00000, -0.03125, 0.06250, 0.00000, 0.00000, -0.06250, -0.06250, 0.00000, -0.03125, -0.03125, 0.03125, 0.00000, -0.03125, 0.00000, -0.03125, -0.03125, 0.00000, 0.00000, 0.00000, 0.00000, 0.00000, 0.00000, 0.03125, -0.03125, 0.00000, 0.00000, 0.00000, 0.00000, 0.06250, 0.03125, -0.03125, 0.03125, 0.00000, 0.00000, -0.03125, 0.03125, 0.00000, 0.00000, -0.03125, 0.00000, 0.00000, 0.00000, 0.00000, 0.03125, 0.00000, 0.00000, 0.00000, 0.03125, 0.03125, -0.06250, 0.03125, 0.00000, 0.03125, 0.03125, 0.00000, 0.00000, 0.03125, 0.03125, -0.03125, -0.03125, 0.03125, 0.03125, 0.00000, -0.06250, 0.03125, 0.00000, 0.03125, 0.00000, 0.00000, 0.00000, -0.03125, 0.00000, -0.03125, 0.00000, -0.03125, 0.03125, -0.03125, 0.03125, 0.00000, 0.00000, 0.00000, 0.00000, 0.00000, -0.03125, 0.06250, 0.03125, 0.00000, 0.06250, 0.00000, 0.03125, 0.03125, 0.00000, 0.00000, 0.03125, 0.00000, 0.00000, 0.03125, -0.06250, 0.00000, -0.03125, 0.00000, 0.00000, 0.00000, -0.03125, -0.06250, 0.00000, 0.06250, 0.03125, 0.00000, -0.03125, 0.00000, 0.03125, -0.03125, 0.03125, 0.00000, 0.00000, 0.06250, 0.00000, -0.03125, 0.00000, -0.06250, 0.03125, 0.03125, -0.03125, -0.03125, 0.03125, 0.00000, 0.00000, 0.00000, 0.03125, -0.03125, 0.03125, 0.00000, -0.03125, 0.00000, 0.00000, -0.03125, 0.00000, -0.06250, -0.03125, 0.00000, 0.00000, 0.03125, 0.03125, 0.00000, 0.00000, -0.03125, 0.00000, 0.03125, 0.03125, 0.03125, -0.03125, 0.00000, 0.00000, 0.00000, 0.06250, 0.00000, -0.03125, 0.00000, 0.00000, 0.03125, 0.00000, 0.03125, 0.00000, 0.00000, 0.03125, 0.00000, 0.00000, 0.03125, -0.03125, 0.03125, 0.00000, 0.00000, 0.00000, -0.03125, 0.00000, 0.00000, -0.03125, 0.03125, 0.06250, 0.00000, -0.03125, 0.00000, 0.03125, 0.00000, 0.03125, 0.00000, -0.03125, 0.00000, 0.00000, 0.03125, 0.03125, 0.00000, 0.00000, 0.06250, 0.03125, 0.00000, -0.03125, 0.03125, 0.06250, 0.03125, -0.03125, 0.00000, -0.03125, 0.00000, 0.03125, 0.09375, -0.03125, 0.00000, 0.03125, 0.03125, 0.03125, 0.03125, 0.03125, 0.00000, -0.03125, -0.03125, 0.03125, 0.03125, -0.03125, -0.03125, 0.00000, 0.00000, 0.00000, 0.03125, 0.00000, 0.03125, 0.03125, 0.00000, 0.03125, 0.00000, 0.00000, 0.00000, 0.00000, 0.03125, 0.06250, 0.00000, 0.00000, -0.06250, 0.00000, 0.00000, -0.03125, 0.00000, 0.00000, 0.00000, -0.03125, -0.03125, 0.03125, -0.03125, 0.00000, 0.00000, -0.03125, 0.03125, 0.00000, 0.03125, -0.03125, -0.03125, 0.00000, 0.03125, 0.00000, 0.00000, 0.03125, 0.00000, 0.03125, 0.00000, -0.03125, -0.03125, 0.06250, -0.03125, 0.03125, 0.00000, 0.00000, 0.00000, 0.03125, 0.03125, 0.03125, 0.00000, 0.00000, -0.03125, -0.03125, 0.00000, 0.03125, 0.00000, 0.03125, 0.00000, 0.00000, 0.00000, 0.03125, 0.00000, -0.03125, 0.03125, 0.00000, -0.03125, 0.00000, 0.06250, -0.06250, 0.03125, -0.06250, -0.03125, 0.00000, 0.00000, 0.03125, 0.00000, 0.00000, 0.06250, 0.03125, 0.00000, 0.00000, 0.00000, 0.03125, -0.03125, 0.03125, 0.00000, 0.00000, -0.03125, 0.03125, -0.09375, 0.06250, 0.00000, 0.03125, 0.00000, 0.00000, 0.00000, 0.00000, 0.00000, 0.03125, 0.03125, -0.03125, -0.03125, 0.00000, 0.03125, 0.03125, 0.00000, 0.00000, 0.03125, 0.00000, -0.03125, 0.03125, 0.03125, 0.03125, -0.03125, -0.03125, 0.00000, 0.00000, -0.09375, 0.03125, 0.03125, -0.03125, 0.00000, 0.00000, 0.03125, -0.03125, 0.03125, -0.03125, 0.00000, -0.03125, 0.00000, 0.00000, 0.03125, 0.00000, 0.00000, -0.03125, 0.06250, 0.00000, 0.00000, -0.06250, -0.03125, -0.03125, 0.00000, 0.03125, 0.03125, -0.03125, 0.00000, -0.03125, 0.00000, 0.03125, -0.03125, -0.06250, 0.03125, 0.00000, 0.03125, 0.00000, 0.03125, 0.00000, 0.00000, -0.06250, -0.03125, 0.03125, 0.03125, -0.03125, -0.06250, 0.03125, -0.03125, 0.00000, -0.03125, 0.03125, 0.00000, 0.00000, 0.03125, 0.03125, 0.00000, 0.09375, 0.03125, 0.00000, 0.00000, 0.00000, 0.03125, 0.00000, 0.00000, 0.00000, 0.00000, -0.03125, 0.03125, -0.03125, -0.03125, 0.03125, 0.00000, 0.06250, -0.06250, 0.06250, -0.03125, 0.03125, 0.03125, 0.03125, 0.00000, 0.03125, 0.00000, 0.00000, -0.06250, -0.06250, 0.00000, 0.03125, 0.03125, 0.00000, 0.09375, 0.06250, 0.00000, 0.00000, -0.03125, -0.03125, 0.00000, 0.00000, 0.00000, -0.03125, -0.03125, 0.03125, -0.03125, -0.06250, 0.00000, -0.03125, 0.06250, -0.03125, -0.03125, 0.00000, 0.00000, 0.03125, 0.03125, 0.03125, -0.03125, -0.03125, 0.03125, 0.00000, 0.06250, -0.03125, 0.00000, 0.03125, 0.03125, 0.00000, -0.03125, 0.06250, 0.03125, 0.00000, -0.03125, 0.00000, 0.00000, 0.03125, 0.03125, -0.03125, 0.03125, 0.00000, 0.00000, 0.00000, -0.03125, 0.03125, -0.03125, 0.00000, 0.03125, -0.03125, 0.00000, 0.03125, 0.00000, -0.03125, 0.03125, 0.03125, -0.03125, 0.00000, 0.03125, 0.00000, -0.03125, 0.03125, 0.00000, 0.03125, 0.00000, 0.03125, 0.00000, 0.03125, 0.03125, 0.00000, 0.00000, 0.03125, 0.06250, 0.00000, 0.03125, 0.03125, -0.03125, 0.00000, -0.03125, 0.06250, 0.03125, 0.03125, 0.00000, 0.00000, -0.03125, 0.00000, -0.03125, 0.03125, 0.03125, 0.00000, 0.00000, -0.06250, 0.03125, -0.03125, -0.03125, 0.00000, 0.00000, -0.03125, 0.00000, 0.03125, 0.00000, 0.00000, 0.00000, 0.03125, 0.03125, 0.03125, 0.00000, 0.00000, -0.03125, 0.00000, -0.03125, 0.00000, 0.00000, 0.00000, 0.00000, 0.03125, -0.03125, -0.03125, 0.00000, -0.03125, 0.00000, 0.06250, -0.03125, -0.06250, 0.00000, 0.00000, 0.03125, 0.03125, 0.03125, 0.03125, 0.06250, 0.00000, 0.00000, 0.00000, 0.06250, 0.00000, -0.06250, -0.03125, 0.03125, -0.03125, -0.03125, 0.00000, 0.03125, 0.00000, 0.03125, 0.03125, 0.00000, 0.00000, -0.03125, -0.03125, -0.03125, -0.03125, 0.03125, -0.06250, 0.00000, 0.00000, 0.00000, -0.06250, 0.03125, 0.06250, 0.03125, -0.03125, 0.00000, -0.03125, 0.03125, 0.03125, 0.03125, 0.06250, 0.00000, -0.03125, 0.03125, 0.03125, -0.03125, 0.03125, 0.03125, 0.00000, -0.03125, 0.00000, -0.06250, 0.00000, 0.03125, 0.00000, -0.03125, 0.03125, 0.03125, 0.00000, -0.03125, 0.03125, -0.03125, 0.00000, 0.00000, 0.03125, -0.03125, 0.03125, 0.03125, 0.03125, -0.03125, 0.00000, 0.00000, -0.03125, -0.03125, 0.00000, -0.03125, -0.06250, -0.03125, -0.03125, 0.03125, -0.03125, -0.03125, -0.06250, 0.06250, 0.00000, -0.03125, 0.00000, 0.00000, 0.00000, 0.03125, 0.00000, 0.00000, 0.03125, 0.00000, -0.03125, 0.00000, 0.06250, 0.00000, 0.00000, 0.00000, 0.00000, 0.03125, 0.03125, 0.00000, -0.03125, 0.00000, 0.00000, 0.00000, 0.03125, 0.00000, -0.03125, -0.03125, -0.06250, 0.03125, -0.03125, -0.03125, 0.00000, 0.03125, 0.03125, -0.03125, 0.00000, -0.03125, -0.06250, -0.03125, 0.00000, -0.03125, -0.06250, 0.00000, 0.03125, -0.03125, 0.00000, 0.00000, 0.00000, -0.03125, 0.06250, 0.03125, 0.00000, -0.06250, -0.06250, -0.03125, -0.03125, 0.00000, 0.03125, 0.03125, 0.03125, 0.06250, 0.00000, -0.03125, 0.00000, 0.00000, 0.03125, 0.00000, 0.00000, -0.06250, 0.03125, -0.03125, -0.03125, 0.06250, -0.12500, 0.09375, 0.03125, 0.00000, 0.00000, 0.00000, -0.06250, -0.03125, 0.03125, -0.03125, 0.03125, 0.03125, -0.09375, -0.03125, -0.03125, -0.03125, 0.00000, 0.00000, 0.00000, -0.06250, -0.03125, 0.03125, -0.03125, 0.06250, 0.03125, -0.03125, -0.03125, 0.00000, 0.00000, 0.00000, -0.03125, -0.03125, 0.03125, 0.06250, 0.00000, -0.03125, -0.03125, -0.03125, 0.00000, 0.00000, -0.03125, 0.03125, 0.00000, 0.00000, 0.00000, 0.03125, -0.06250, 0.00000, -0.03125, -0.03125, -0.03125, -0.03125, 0.00000, 0.00000, -0.03125, 0.00000, -0.03125, 0.00000, 0.00000, -0.03125, 0.03125, 0.00000, -0.06250, 0.03125, 0.00000, 0.00000, 0.06250, 0.03125, -0.03125, -0.03125, 0.00000, 0.00000, -0.03125, 0.03125, 0.00000, -0.03125, 0.03125, -0.03125, 0.00000, -0.03125, 0.00000, 0.03125, 0.00000, -0.03125, 0.03125, 0.03125, 0.00000, 0.03125, -0.03125, 0.00000, 0.00000, 0.00000, 0.03125, -0.03125, 0.00000, -0.03125, -0.06250, 0.00000, 0.00000, 0.06250, -0.06250, 0.03125, 0.06250, 0.06250, 0.03125, 0.09375, 0.00000, 0.00000, -0.03125, -0.03125, 0.00000, 0.00000, 0.00000, 0.00000, 0.03125, 0.00000, 0.03125, 0.03125, 0.00000, 0.06250, 0.06250, 0.00000, 0.00000, -0.03125, -0.03125, -0.03125, -0.03125, 0.09375, 0.03125, 0.00000, 0.00000, 0.00000, 0.00000, 0.00000, -0.03125, -0.03125, 0.00000, 0.00000, -0.03125, 0.00000, -0.09375, 0.00000, -0.03125, 0.03125, -0.03125, 0.00000, 0.00000, 0.00000, 0.00000, 0.03125, 0.06250, 0.00000, 0.00000, 0.00000, 0.06250, 0.03125, 0.00000, -0.03125, 0.03125, 0.00000, 0.00000, 0.00000, 0.00000, 0.03125, 0.00000, 0.03125, 0.03125, 0.00000, 0.03125, -0.03125, -0.03125, -0.03125, -0.06250, 0.00000, 0.03125, 0.00000, 0.03125, 0.03125, 0.00000, 0.00000, -0.03125, 0.06250, 0.03125, 0.00000, 0.00000, -0.03125, 0.06250, 0.03125, 0.03125, 0.03125, 0.00000, 0.00000, 0.06250, -0.03125, -0.06250, 0.00000, 0.03125, -0.03125, -0.03125, -0.03125, -0.03125, 0.03125, 0.03125, -0.03125, -0.03125, 0.06250, 0.03125, -0.03125, 0.06250, -0.03125, -0.03125, -0.03125, 0.00000, 0.03125, -0.06250, 0.00000, -0.03125, -0.03125, 0.03125, 0.00000, 0.03125, -0.03125, 0.03125, 0.00000, -0.03125, 0.06250, -0.03125, 0.06250, -0.06250, 0.00000, 0.03125, -0.06250, -0.06250, 0.06250, -0.03125, -0.03125, -0.03125, 0.03125, 0.03125, 0.06250, 0.00000, 0.06250, 0.03125, 0.00000, 0.03125, 0.03125, 0.03125, 0.03125, 0.03125, 0.03125, 0.00000, 0.00000, 0.00000, 0.00000, 0.00000, 0.00000, -0.03125, -0.03125, 0.00000, 0.03125, -0.06250, 0.00000, 0.00000, -0.03125, -0.03125, 0.00000, -0.03125, 0.00000, -0.06250, 0.00000, 0.06250, 0.03125, 0.00000, 0.06250, 0.00000, 0.00000, 0.03125, 0.00000, -0.03125, -0.06250, 0.00000, -0.06250, 0.03125, 0.06250, 0.00000, -0.03125, 0.03125, -0.03125, 0.00000, 0.00000, -0.03125, 0.03125, 0.00000, -0.03125, 0.03125, 0.03125, 0.00000, -0.03125, 0.00000, 0.03125, 0.00000, 0.00000, 0.00000, 0.00000, 0.03125, 0.00000, 0.00000, 0.00000, 0.00000, 0.00000, 0.00000, -0.03125, 0.00000, 0.00000, 0.00000, 0.03125, 0.00000, 0.00000, 0.00000, 0.00000, 0.09375, 0.00000, 0.00000, 0.03125, 0.00000, -0.03125, 0.03125, 0.06250, -0.03125, 0.06250, 0.03125, 0.00000, 0.03125, 0.00000, -0.03125, 0.06250, -0.03125, 0.03125, 0.00000, 0.03125, -0.06250, -0.03125, -0.06250, 0.00000, -0.03125, -0.03125, 0.03125, 0.00000, 0.00000, -0.03125, 0.00000, -0.03125, 0.03125, 0.00000, -0.03125, 0.03125, 0.00000, 0.00000, 0.00000, -0.06250, 0.00000, -0.03125, 0.00000, 0.00000, -0.03125, 0.00000, 0.00000, 0.00000, 0.00000, 0.00000, -0.06250, 0.00000, -0.03125, 0.00000, 0.06250, 0.00000, 0.06250, 0.03125, 0.03125, -0.03125, 0.00000, 0.00000, 0.00000, -0.03125, -0.06250, 0.00000, 0.00000, -0.03125, 0.00000, -0.06250, 0.03125, -0.03125, -0.06250, -0.03125, 0.00000, 0.03125, -0.06250, 0.06250, 0.00000, 0.00000, 0.00000, -0.03125, 0.00000, 0.06250, 0.00000, -0.06250, -0.03125, -0.03125, 0.00000, -0.03125, 0.03125, 0.03125, 0.03125, 0.00000, 0.03125, 0.03125, 0.03125, 0.03125, -0.03125, 0.06250, 0.00000, 0.03125, -0.03125, 0.06250, 0.03125, 0.00000, -0.06250, 0.03125, 0.00000, 0.00000, 0.03125, 0.03125, 0.03125, 0.03125, -0.03125, 0.00000, 0.00000, 0.00000, 0.00000, 0.06250, 0.00000, -0.03125, -0.03125, 0.00000, 0.00000, -0.03125, -0.06250, 0.00000, 0.06250, -0.03125, 0.03125, 0.00000, 0.03125, 0.03125, 0.00000, 0.03125, -0.03125, 0.03125, 0.06250, 0.00000, 0.00000, -0.03125, 0.00000, 0.03125, 0.03125, -0.03125, 0.00000, -0.03125, 0.03125, 0.06250, -0.03125, 0.00000, -0.03125, 0.00000, 0.03125, 0.00000, 0.00000, -0.06250, 0.03125, -0.03125, 0.00000, 0.03125, 0.03125, -0.03125, 0.00000, 0.03125, 0.00000, 0.00000, -0.03125, 0.03125, -0.03125, -0.03125, -0.06250, -0.03125, 0.00000, 0.00000, -0.06250, -0.03125, 0.00000, -0.03125, -0.03125, -0.09375, 0.00000, 0.03125, -0.06250, -0.03125, -0.03125, -0.03125, -0.06250, -0.03125, 0.03125, 0.00000, 0.00000, 0.03125, -0.03125, -0.03125, 0.00000, 0.00000, 0.00000, 0.00000, -0.06250, 0.06250, 0.06250, 0.03125, 0.03125, 0.03125, -0.03125, -0.06250, 0.00000, 0.00000, 0.03125, 0.03125, 0.03125, 0.00000, -0.03125, 0.03125, -0.03125, 0.00000, 0.03125, 0.03125, 0.03125, 0.00000, 0.03125, 0.00000, 0.03125, 0.00000, -0.06250, 0.00000, -0.03125, -0.03125, 0.00000, 0.03125, 0.03125, 0.00000, 0.00000, 0.03125, 0.03125, 0.03125, 0.06250, 0.03125, 0.03125, 0.09375, -0.06250, 0.00000, 0.00000, -0.03125, -0.03125, 0.06250, 0.00000, 0.06250, -0.06250, -0.03125, 0.00000, -0.03125, 0.03125, 0.00000, 0.00000, 0.00000, -0.03125, 0.03125, -0.03125, 0.03125, 0.03125, 0.09375, 0.03125, 0.00000, 0.03125, -0.06250, -0.03125, 0.03125, 0.00000, 0.00000, -0.06250, -0.03125, -0.03125, -0.06250, 0.00000, 0.03125, -0.06250, -0.03125, -0.03125, 0.03125, -0.03125, 0.00000, 0.03125, -0.03125, -0.03125, -0.03125, 0.00000, 0.03125, 0.00000, 0.00000, 0.00000, -0.03125, -0.03125, 0.00000, 0.00000, 0.00000, -0.03125, 0.00000, 0.00000, -0.03125, 0.00000, -0.03125, -0.06250, 0.03125, -0.03125, 0.00000, -0.03125, 0.00000, 0.00000, 0.06250, -0.03125, -0.03125, -0.03125, 0.03125, -0.06250, -0.03125, -0.03125, -0.06250, -0.03125, -0.03125, 0.03125, -0.03125, 0.00000, 0.03125, -0.03125, 0.00000, 0.00000, 0.00000, 0.00000, 0.03125, 0.00000, 0.00000, 0.03125, 0.03125, 0.00000, 0.06250, 0.06250, 0.03125, 0.06250, -0.03125, -0.03125, -0.03125, 0.03125, 0.00000, 0.00000, 0.00000, 0.00000, 0.00000, 0.09375, 0.00000, 0.00000, 0.00000, -0.03125, 0.03125, -0.03125, 0.06250, -0.03125, 0.03125, 0.00000, -0.03125, 0.00000, -0.03125, 0.00000, 0.03125, 0.03125, 0.00000, 0.00000, 0.03125, 0.06250, -0.03125, 0.03125, 0.03125, -0.03125, 0.06250, 0.00000, 0.03125, 0.00000, 0.00000, 0.03125, 0.00000, 0.03125, -0.03125, 0.03125, 0.03125, 0.00000, 0.09375, -0.03125, 0.03125, 0.03125, 0.00000, -0.03125, 0.00000, 0.00000, 0.00000, 0.06250, 0.00000, 0.03125, 0.00000, 0.00000, 0.00000, 0.00000, -0.03125, -0.06250, 0.03125, 0.00000, 0.03125, -0.06250, 0.00000, 0.00000, -0.06250, -0.03125, -0.03125, 0.00000, 0.00000, -0.06250, 0.00000, 0.00000, 0.06250, 0.00000, 0.00000, 0.06250, 0.00000, 0.03125, 0.06250, -0.06250, 0.03125, 0.00000, 0.06250, 0.03125, 0.00000, 0.00000, 0.00000, 0.03125, 0.00000, 0.00000, 0.03125, 0.03125, 0.00000, 0.00000, 0.03125, 0.00000, 0.03125, -0.03125, 0.00000, 0.03125, -0.03125, -0.03125, 0.03125, 0.03125, -0.03125, -0.03125, 0.03125, 0.00000, 0.03125, -0.03125, -0.03125, 0.06250, -0.03125, -0.03125, 0.03125, 0.03125, -0.03125, 0.00000, 0.03125, 0.00000, -0.03125, 0.03125, 0.03125, -0.06250, -0.03125, 0.00000, -0.03125, 0.00000, 0.00000, -0.03125, 0.00000, 0.00000, 0.03125, 0.03125, 0.06250, -0.06250, 0.03125, 0.03125, 0.00000, 0.00000, 0.06250, 0.03125, 0.00000, 0.00000, 0.00000, 0.06250, 0.06250, 0.03125, 0.03125, 0.00000, 0.06250, 0.09375, -0.03125, -0.03125, -0.03125, 0.06250, 0.00000, 0.00000, 0.00000, 0.06250, 0.09375, 0.06250, 0.00000, 0.00000, 0.03125, 0.06250, 0.00000, 0.00000, 0.00000, 0.00000, 0.00000, -0.06250, 0.00000, 0.03125, 0.06250, 0.00000, 0.00000, 0.06250, 0.00000, -0.03125, 0.00000, -0.06250, 0.00000, -0.06250, 0.06250, -0.06250, 0.03125, -0.03125, 0.03125, 0.03125, 0.00000, 0.00000, 0.03125, 0.03125, -0.03125, 0.00000, -0.06250, -0.03125, 0.03125, 0.03125, 0.03125, 0.03125, -0.06250, 0.03125, 0.00000, 0.03125, 0.00000, 0.06250, 0.00000, -0.06250, -0.03125, 0.00000, 0.00000, 0.03125, 0.00000, 0.03125, 0.03125, -0.03125, 0.03125, -0.03125, 0.03125, 0.09375, 0.03125, -0.03125, 0.00000, -0.03125, -0.09375, -0.03125, 0.00000, 0.00000, 0.03125, -0.03125, 0.00000, 0.03125, 0.03125, -0.03125, 0.06250, 0.03125, 0.06250, 0.00000, -0.03125, -0.03125, 0.00000, 0.00000, 0.00000, 0.00000, 0.06250, -0.03125, 0.00000, 0.03125, 0.03125, 0.06250, 0.03125, 0.06250, 0.00000, 0.03125, 0.00000, 0.03125, 0.00000, -0.03125, 0.00000, 0.00000, 0.03125, 0.00000, -0.03125, -0.03125, 0.00000, 0.03125, 0.03125, 0.00000, -0.03125, -0.03125, -0.03125, 0.00000, 0.03125, 0.03125, -0.03125, 0.03125, 0.00000, 0.03125, -0.03125, 0.03125, 0.06250, 0.06250, 0.03125, 0.03125, 0.00000, -0.03125, 0.03125, 0.00000, 0.00000, -0.03125, 0.00000, -0.03125, 0.00000, -0.06250, 0.03125, 0.00000, 0.06250, 0.06250, -0.03125, 0.00000, -0.03125, 0.03125, -0.03125, 0.00000, 0.03125, 0.03125, 0.03125, 0.00000, 0.06250, 0.03125, -0.03125, 0.00000, 0.00000, 0.00000, 0.03125, 0.00000, 0.00000, 0.00000, -0.03125, -0.03125, 0.03125, 0.00000, 0.03125, 0.00000, 0.03125, 0.00000, -0.03125, 0.00000, 0.00000, 0.03125, 0.00000, -0.06250, 0.03125, -0.03125, 0.00000, -0.06250, 0.00000, 0.00000, 0.03125, 0.03125, -0.03125, 0.03125, -0.03125, -0.03125, 0.00000, 0.03125, 0.03125, 0.03125, 0.03125, 0.00000, 0.00000, -0.06250, -0.09375, -0.03125, 0.00000, 0.06250, 0.03125, 0.00000, 0.00000, -0.03125, -0.03125, 0.00000, -0.03125, -0.03125, 0.03125, 0.00000, 0.00000, 0.00000, 0.00000, 0.06250, 0.03125, 0.03125, 0.03125, 0.00000, 0.00000, 0.00000, 0.00000, 0.03125, -0.03125, 0.00000, 0.00000, -0.03125, 0.00000, 0.00000, 0.00000, 0.06250, 0.00000, 0.03125, 0.00000, 0.00000, 0.03125, 0.03125, -0.03125, -0.09375, 0.00000, 0.00000, -0.03125, -0.03125, 0.00000, -0.03125, -0.03125, 0.00000, 0.00000, 0.03125, 0.00000, -0.06250, 0.00000, 0.03125, 0.03125, -0.03125, -0.03125, -0.03125, 0.03125, 0.03125, 0.00000, -0.03125, 0.00000, 0.00000, 0.00000, 0.00000, 0.03125, 0.00000, -0.03125, 0.00000, 0.00000, 0.00000, 0.03125, 0.00000, 0.00000, 0.03125, 0.00000, -0.03125, 0.00000, 0.00000, 0.03125, 0.03125, 0.03125, -0.03125, -0.03125, -0.03125, 0.06250, -0.03125, 0.00000, 0.03125, -0.03125, -0.03125, 0.03125, 0.03125, 0.00000, 0.00000, -0.06250, 0.00000, 0.00000, -0.03125, 0.06250, 0.00000, -0.03125, 0.06250, -0.09375, 0.06250, 0.06250, -0.03125, 0.00000, 0.00000, 0.00000, 0.06250, -0.06250, 0.03125, 0.00000, -0.06250, 0.00000, 0.00000, 0.03125, 0.06250, 0.00000, 0.00000, 0.00000, -0.03125, 0.00000, -0.03125, -0.03125, -0.03125, 0.03125, -0.06250, 0.00000, 0.03125, 0.00000, 0.00000, 0.03125, 0.00000, 0.00000, -0.03125, 0.03125, -0.03125, -0.06250, -0.03125, 0.00000, -0.03125, 0.03125, 0.00000, 0.00000, 0.03125, 0.03125, 0.03125, -0.03125, 0.03125, 0.03125, 0.00000, 0.00000, -0.06250, 0.00000, 0.00000, 0.00000, 0.03125, 0.00000, 0.03125, 0.03125, 0.03125, 0.00000, 0.00000, 0.00000, 0.00000, 0.00000, -0.06250, -0.03125, 0.00000, 0.00000, 0.00000, 0.00000, 0.03125, 0.00000, 0.03125, -0.03125, 0.03125, 0.00000, -0.03125, 0.03125, 0.00000, 0.03125, 0.03125, -0.06250, -0.03125, -0.03125, -0.03125, 0.00000, 0.03125, 0.00000, -0.06250, 0.00000, 0.00000, 0.00000, -0.03125, 0.03125, 0.03125, 0.03125, -0.03125, 0.00000, 0.00000, -0.03125, 0.00000, -0.03125, 0.03125, 0.06250, 0.00000, 0.03125, 0.03125, -0.03125, 0.00000, 0.00000, 0.00000, -0.03125, 0.03125, 0.03125, 0.00000, 0.03125, 0.03125, 0.00000, 0.00000, 0.00000, -0.03125, 0.06250, 0.00000, 0.03125, 0.06250, -0.03125, 0.09375, 0.00000, -0.03125, 0.00000, 0.00000, 0.06250, 0.00000, 0.06250, 0.06250, 0.00000, 0.00000, 0.00000, 0.00000, 0.00000, 0.00000, 0.03125, 0.00000, 0.03125, 0.03125, -0.03125, -0.03125, 0.00000, 0.00000, -0.03125, 0.00000, 0.00000, 0.00000, 0.00000, -0.03125, 0.00000, 0.00000, 0.00000, -0.03125, 0.00000, -0.06250, 0.03125, 0.03125, 0.03125, 0.00000, 0.03125, 0.03125, 0.00000, 0.03125, 0.06250, 0.00000, -0.06250, -0.06250, 0.00000, 0.00000, 0.00000, 0.00000, 0.00000, 0.00000, -0.03125, 0.00000, 0.00000, 0.06250, 0.03125, 0.00000, -0.03125, 0.00000, -0.03125, 0.03125, 0.03125, -0.03125, -0.03125, 0.00000, 0.06250, -0.03125, 0.03125, 0.00000, 0.03125, 0.00000, 0.00000, 0.03125, 0.00000, -0.03125, 0.03125, 0.00000, 0.00000, 0.00000, 0.06250, 0.06250, 0.03125, 0.03125, 0.06250, -0.03125, 0.00000, 0.00000, -0.03125, 0.06250, 0.00000, 0.00000, -0.03125, 0.03125, 0.00000, 0.03125, 0.03125, 0.03125, -0.06250, 0.03125, 0.00000, 0.00000, 0.00000, 0.00000, -0.03125, -0.03125, -0.03125, -0.03125, 0.00000, -0.03125, -0.06250, -0.03125, 0.00000, 0.00000, -0.03125, -0.06250, 0.00000, -0.03125, 0.03125, 0.06250, 0.00000, -0.06250, 0.03125, 0.06250, 0.03125, -0.03125, -0.03125, 0.03125, 0.00000, -0.03125, 0.03125, -0.06250, 0.00000, 0.00000, 0.00000, 0.00000, 0.00000, 0.00000, 0.03125, 0.00000, -0.03125, 0.03125, 0.03125, 0.00000, 0.00000, -0.06250, -0.03125, -0.06250, -0.03125, -0.03125, 0.03125, -0.03125, 0.00000, 0.03125, -0.03125, 0.03125, 0.03125, -0.03125, 0.00000, 0.00000, 0.00000, -0.09375, 0.03125, -0.03125, -0.03125, -0.03125, 0.00000, 0.00000, 0.00000, 0.03125, -0.03125, 0.00000, 0.00000, 0.03125, -0.06250, 0.03125, 0.00000, -0.03125, 0.00000, 0.00000, 0.06250, -0.03125, 0.00000, 0.00000, 0.00000, -0.03125, -0.03125, 0.00000, 0.00000, -0.03125, 0.03125, 0.00000, 0.06250, 0.00000, -0.03125, -0.03125, -0.03125, 0.00000, 0.03125, -0.03125, 0.06250, 0.03125, 0.06250, 0.00000, 0.06250, 0.06250, 0.00000, 0.00000, 0.00000, 0.00000, 0.00000, 0.03125, 0.00000, -0.03125, -0.03125, 0.00000, 0.00000, 0.03125, -0.03125, 0.00000, 0.00000, 0.03125, 0.03125, 0.00000, -0.03125, 0.03125, 0.00000, 0.03125, 0.00000, 0.06250, -0.03125, 0.00000, 0.03125, -0.03125, -0.03125, 0.00000, 0.03125, -0.03125, 0.00000, 0.03125, 0.03125, 0.00000, -0.03125, 0.00000, 0.00000, 0.00000, 0.03125, 0.00000, -0.03125, 0.09375, 0.03125, -0.03125, 0.00000, 0.00000, 0.00000, 0.00000, 0.00000, 0.03125, 0.03125, -0.12500, 0.03125, -0.03125, 0.00000, 0.03125, 0.00000, -0.03125, 0.06250, 0.06250, 0.00000, -0.03125, -0.03125, 0.03125, 0.00000, 0.03125, 0.00000, 0.00000, 0.00000, -0.06250, -0.03125, 0.00000, 0.03125, 0.00000, -0.03125, 0.00000, 0.03125, 0.03125, 0.00000, 0.03125, 0.00000, -0.03125, 0.03125, 0.00000, -0.03125, -0.03125, 0.00000, 0.00000, -0.03125, -0.03125, 0.00000, 0.00000, -0.03125, 0.00000, 0.00000, 0.00000, 0.00000, -0.03125, 0.03125, 0.00000, -0.03125, 0.03125, -0.03125, 0.03125, 0.00000, 0.03125, 0.03125, 0.00000, 0.03125, 0.00000, 0.03125, -0.09375, 0.00000, 0.03125, 0.03125, -0.03125, 0.00000, 0.03125, 0.03125, 0.03125, 0.00000, -0.03125, 0.00000, 0.03125, -0.03125, 0.09375, 0.03125, -0.03125, 0.06250, 0.03125, 0.00000, -0.03125, 0.06250, -0.03125, -0.03125, 0.00000, -0.03125, 0.00000, -0.06250, 0.00000, 0.00000, 0.00000, 0.00000, 0.03125, -0.03125, -0.03125, 0.03125, 0.06250, -0.03125, 0.06250, -0.03125, -0.06250, -0.03125, 0.00000, 0.03125, -0.03125, 0.00000, -0.06250, 0.03125, 0.03125, 0.00000, 0.03125, -0.06250, 0.00000, -0.03125, -0.03125, -0.06250, 0.03125, -0.03125, 0.00000, 0.06250, -0.03125, 0.03125, -0.03125, -0.03125, 0.00000, 0.03125, -0.03125, 0.03125, 0.00000, 0.00000, -0.06250, -0.03125, 0.00000, -0.03125, 0.00000, 0.00000, 0.00000, 0.00000, 0.00000, -0.03125, 0.00000, -0.03125, -0.03125, -0.03125, 0.06250, 0.00000, -0.03125, 0.00000, 0.03125, 0.03125, 0.00000, 0.06250, -0.03125, 0.00000, 0.03125, 0.03125, 0.00000, 0.00000, -0.06250, 0.03125, 0.00000, -0.03125, 0.00000, 0.00000, -0.03125, 0.00000, 0.00000, 0.06250, 0.00000, -0.03125, 0.03125, 0.00000, -0.03125, 0.03125, 0.00000, 0.00000, -0.03125, -0.03125, -0.06250, 0.03125, 0.00000, -0.06250, 0.03125, -0.03125, -0.06250, 0.00000, 0.03125, -0.03125, -0.03125, -0.03125, 0.03125, 0.00000, 0.03125, 0.00000, 0.03125, 0.09375, 0.03125, 0.00000, 0.00000, -0.03125, 0.00000, 0.00000, 0.00000, 0.06250, 0.00000, 0.00000, 0.00000, 0.00000, 0.06250, -0.03125, -0.03125, -0.06250, 0.00000, 0.00000, 0.00000, 0.00000, -0.03125, 0.00000, 0.03125, 0.00000, 0.00000, -0.03125, -0.06250, 0.03125, 0.03125, 0.03125, 0.00000, 0.03125, 0.00000, -0.03125, -0.06250, 0.00000, 0.00000, 0.00000, 0.00000, -0.03125, -0.03125, -0.06250, 0.00000, -0.09375, 0.00000, 0.03125, 0.00000, 0.00000, -0.03125, 0.00000, 0.06250, 0.00000, 0.00000, 0.03125, 0.00000, 0.03125, 0.03125, 0.03125, -0.03125, 0.00000, 0.00000, 0.00000, 0.00000, -0.03125, -0.03125, -0.03125, -0.03125, 0.00000, -0.03125, 0.00000, 0.06250, -0.03125, -0.03125, -0.03125, -0.03125, -0.03125, 0.00000, -0.06250, -0.03125, -0.03125, 0.00000, 0.00000, -0.06250, -0.03125, -0.03125, -0.03125, 0.00000, -0.06250, 0.00000, 0.03125, 0.00000, -0.03125, 0.00000, 0.03125, 0.00000, 0.03125, 0.00000, 0.06250, 0.03125, 0.03125, 0.00000, -0.03125, 0.03125, 0.06250, 0.00000, -0.06250, -0.03125, 0.00000, -0.03125, -0.03125, 0.00000, 0.03125, 0.00000, 0.00000, -0.03125, -0.03125, -0.03125, 0.00000, 0.00000, 0.06250, -0.03125, 0.06250, 0.03125, 0.03125, -0.06250, 0.03125, 0.03125, 0.00000, 0.00000, 0.00000, -0.03125, 0.03125, -0.06250, -0.03125, -0.03125, 0.00000, 0.06250, -0.03125, 0.00000, 0.00000, 0.00000, 0.03125, -0.03125, 0.00000, 0.00000, 0.00000, 0.09375, 0.00000, -0.03125, -0.06250, -0.03125, 0.03125, -0.09375, -0.03125, 0.00000, -0.03125, 0.00000, -0.03125, 0.00000, 0.00000, -0.06250, 0.00000, 0.00000, 0.00000, 0.00000, 0.00000, 0.03125, 0.00000, 0.00000, 0.03125, 0.03125, 0.00000, -0.06250, 0.00000, 0.03125, 0.00000, 0.03125, 0.00000, 0.00000, 0.00000, 0.06250, -0.03125, -0.03125, 0.00000, 0.06250, 0.03125, 0.00000, -0.03125, -0.03125, 0.00000, -0.03125, 0.00000, 0.03125, -0.03125, 0.00000, 0.00000, 0.00000, 0.03125, -0.03125, 0.00000, 0.03125, -0.03125, 0.06250, 0.03125, 0.00000, 0.06250, -0.03125, 0.06250, -0.03125, -0.03125, -0.06250, 0.03125, -0.03125, 0.00000, 0.03125, 0.03125, 0.03125, 0.03125, 0.00000, 0.00000, -0.06250, -0.03125, -0.03125, 0.03125, 0.03125, 0.03125, 0.03125, 0.03125, 0.09375, 0.00000, -0.03125, -0.06250, -0.03125, 0.00000, 0.00000, 0.00000, -0.03125, 0.03125, 0.00000, -0.03125, 0.00000, 0.03125, 0.03125, 0.00000, 0.00000, 0.00000, 0.03125, 0.03125, -0.06250, -0.03125, 0.03125, 0.00000, -0.06250, 0.00000, 0.00000, 0.03125, 0.06250, 0.06250, -0.03125, 0.00000, -0.03125, 0.00000, -0.03125, 0.00000, -0.06250, 0.03125, 0.03125, 0.00000, 0.03125, 0.03125, -0.03125, 0.00000, -0.03125, 0.06250, 0.03125, -0.03125, 0.00000, 0.03125, 0.00000, -0.03125, 0.09375, -0.06250, -0.06250, -0.03125, 0.03125, 0.00000, 0.06250, 0.00000, -0.03125, 0.03125, 0.00000, 0.00000, 0.03125, -0.06250, 0.03125, 0.00000, -0.03125, -0.03125, -0.06250, 0.03125, 0.00000, 0.03125, 0.03125, 0.03125, 0.03125, 0.00000, 0.06250, 0.00000, 0.03125, 0.03125, 0.03125, 0.03125, 0.00000, 0.03125, 0.03125, 0.03125, 0.03125, 0.00000, 0.03125, 0.00000, 0.00000, 0.03125, -0.03125, -0.03125, -0.03125, 0.03125, -0.03125, 0.03125, 0.03125, 0.03125, 0.03125, 0.00000, 0.00000, 0.03125, 0.00000, 0.00000, 0.03125, -0.03125, 0.00000, -0.06250, 0.00000, 0.03125, 0.06250, 0.00000, -0.03125, 0.00000, -0.03125, 0.03125, 0.00000, 0.00000, 0.00000, 0.06250, 0.03125, 0.03125, 0.00000, 0.06250, 0.00000, -0.03125, 0.03125, 0.03125, 0.03125, -0.03125, -0.03125, 0.00000, 0.00000, 0.03125, 0.00000, -0.09375, 0.00000, -0.03125, 0.06250, 0.00000, 0.03125, 0.00000, -0.03125, -0.03125, -0.06250, 0.03125, 0.03125, -0.06250, -0.03125, 0.00000, -0.03125, 0.00000, 0.00000, 0.03125, 0.00000, -0.03125, 0.03125, 0.00000, 0.00000, -0.06250, -0.03125, 0.00000, 0.03125, 0.03125, -0.03125, 0.00000, 0.00000, 0.00000, 0.00000, -0.03125, 0.00000, -0.03125, -0.03125, 0.00000, -0.03125, 0.00000, -0.06250, 0.03125, 0.00000, 0.00000, 0.00000, -0.03125, 0.06250, -0.03125, 0.00000, 0.06250, -0.09375, 0.03125, 0.00000, 0.00000, 0.06250, -0.03125, -0.03125, -0.03125, 0.00000, -0.03125, 0.00000, 0.03125, 0.00000, 0.00000, 0.03125, 0.00000, 0.03125, 0.00000, 0.00000, 0.06250, 0.00000, 0.00000, 0.00000, 0.03125, 0.03125, 0.00000, -0.06250, 0.09375, 0.06250, -0.03125, 0.03125, 0.00000, -0.03125, 0.03125, 0.00000, -0.03125, 0.03125, 0.03125, -0.03125, -0.03125, 0.06250, 0.03125, 0.03125, 0.03125, -0.03125, -0.03125, 0.00000, 0.03125, 0.03125, -0.03125, -0.03125, -0.06250, 0.00000, -0.09375, 0.03125, 0.00000, -0.03125, -0.03125, 0.00000, -0.06250, -0.06250, 0.00000, 0.00000, 0.00000, -0.03125, 0.03125, 0.00000, 0.03125, -0.03125, 0.00000, 0.00000, 0.00000, 0.00000, -0.06250, 0.00000, 0.06250, 0.00000, -0.03125, 0.00000, 0.00000, 0.00000, 0.00000, 0.00000, 0.03125, -0.03125, 0.00000, -0.03125, 0.06250, 0.00000, -0.03125, -0.03125, 0.00000, 0.00000, 0.06250, 0.00000, 0.06250, -0.03125, 0.00000, 0.00000, -0.03125, 0.00000, 0.03125, -0.03125, 0.06250, 0.03125, 0.00000, 0.00000, 0.00000, 0.00000, 0.00000, 0.00000, -0.03125, 0.06250, 0.00000, -0.03125, -0.03125, 0.03125, 0.00000, 0.03125, 0.00000, 0.03125, 0.03125, 0.06250, 0.00000, -0.03125, 0.03125, -0.03125, 0.03125, -0.09375, 0.03125, 0.00000, -0.06250, -0.03125, 0.00000, -0.06250, -0.03125, -0.03125, 0.00000, 0.00000, 0.03125, 0.03125, 0.03125, 0.00000, 0.00000, 0.06250, -0.03125, 0.00000, 0.00000, 0.06250, 0.06250, 0.00000, -0.03125, -0.06250, 0.03125, 0.00000, 0.03125, -0.03125, -0.03125, 0.00000, 0.06250, 0.03125, 0.03125, 0.03125, 0.03125, -0.03125, -0.03125, 0.03125, 0.03125, 0.00000, 0.06250, 0.00000, -0.03125, 0.00000, -0.03125, 0.03125, -0.03125, -0.03125, 0.00000, 0.00000, -0.03125, 0.00000, -0.03125, 0.00000, 0.06250, 0.00000, -0.06250, -0.06250, 0.00000, 0.00000, -0.03125, 0.03125, 0.06250, 0.00000, 0.06250, 0.00000, 0.00000, 0.03125, 0.00000, 0.00000, -0.03125, -0.06250, -0.03125, -0.03125, -0.03125, -0.06250, 0.00000, -0.03125, 0.00000, 0.03125, -0.03125, 0.03125, 0.00000, 0.00000, -0.06250, -0.03125, 0.00000, 0.00000, 0.00000, -0.09375, 0.00000, 0.09375, 0.03125, 0.03125, 0.03125, 0.00000, 0.03125, 0.06250, -0.03125, 0.03125, 0.03125, 0.06250, 0.03125, 0.03125, 0.00000, 0.06250, 0.03125, 0.03125, -0.06250, 0.03125, 0.00000, 0.03125, -0.03125, -0.03125, 0.00000, 0.00000, 0.00000, 0.03125, -0.03125, 0.00000, -0.03125, 0.09375, 0.00000, 0.03125, 0.00000, 0.03125, 0.00000, 0.03125, -0.03125, -0.03125, 0.03125, 0.00000, -0.06250, -0.06250, 0.00000, 0.00000, -0.03125, -0.03125, -0.03125, -0.03125, -0.03125, -0.06250, 0.03125, -0.03125, 0.03125, -0.06250, 0.00000, 0.06250, 0.00000, -0.03125, -0.03125, -0.03125, 0.00000, -0.03125, -0.03125, 0.00000, 0.06250, -0.03125, 0.00000, 0.00000, -0.03125, 0.06250, -0.03125, 0.03125, 0.00000, -0.03125, 0.03125, 0.03125, 0.00000, 0.00000, 0.00000, -0.03125, 0.06250, 0.00000, 0.00000, 0.00000, -0.03125, 0.00000, 0.00000, -0.03125, -0.03125, 0.03125, 0.00000, 0.00000, -0.03125, 0.00000, 0.03125, 0.00000, 0.03125, 0.00000, -0.03125, 0.00000, -0.03125, 0.00000, -0.03125, 0.03125, 0.06250, 0.00000, -0.03125, 0.03125, 0.03125, -0.03125, 0.03125, 0.03125, -0.03125, -0.06250, -0.06250, 0.00000, 0.00000, 0.00000, 0.00000, 0.00000, 0.00000, 0.06250, -0.03125, 0.03125, -0.03125, 0.00000, -0.03125, 0.03125, 0.00000, 0.00000, 0.00000, -0.03125, 0.06250, 0.03125, 0.00000, -0.03125, 0.00000, 0.03125, -0.03125, -0.03125, 0.00000, 0.00000, -0.03125, 0.00000, 0.03125, -0.03125, -0.03125, 0.00000, 0.00000, -0.03125, 0.03125, 0.00000, -0.03125, 0.00000, -0.06250, -0.03125, -0.03125, -0.06250, 0.06250, -0.03125, 0.03125, 0.03125, 0.03125, -0.03125, 0.00000, -0.06250, -0.06250, 0.00000, 0.00000, 0.03125, 0.03125, -0.06250, 0.00000, 0.03125, -0.03125, 0.00000, -0.03125, -0.03125, -0.03125, -0.06250, 0.03125, -0.03125, 0.00000, 0.00000, 0.03125, -0.06250, -0.03125, -0.09375, 0.00000, 0.00000, -0.03125, -0.03125, 0.03125, -0.03125, 0.03125, 0.00000, 0.00000, -0.03125, 0.00000, -0.03125, 0.00000, 0.00000, 0.06250, 0.00000, -0.03125, -0.03125, 0.00000, -0.03125, -0.06250, -0.03125, 0.03125, -0.03125, 0.06250, 0.00000, 0.06250, -0.03125, -0.03125, -0.03125, 0.06250, 0.00000, 0.00000, 0.00000, 0.03125, 0.00000, 0.03125, 0.00000, -0.03125, 0.00000, -0.03125, 0.06250, 0.00000, 0.00000, -0.03125, 0.00000, 0.00000, 0.03125, 0.03125, 0.09375, 0.03125, 0.03125, 0.09375, -0.03125, -0.03125, 0.00000, 0.00000, -0.03125, 0.00000, 0.03125, 0.00000, 0.03125, 0.00000, 0.06250, 0.06250, 0.03125, 0.00000, -0.03125, -0.06250, -0.03125, 0.03125, 0.00000, 0.00000, 0.03125, 0.06250, -0.06250, -0.09375, -0.03125, 0.00000, 0.00000, -0.09375, -0.06250, 0.00000, 0.00000, 0.03125, 0.06250, 0.00000, 0.00000, 0.00000, 0.00000, 0.06250, 0.00000, -0.06250, -0.03125, 0.00000, -0.03125, 0.03125, -0.03125, -0.06250, -0.03125, 0.00000, 0.00000, -0.06250, 0.00000, 0.03125, 0.00000, 0.09375, 0.06250, -0.03125, -0.03125, 0.06250, 0.00000, 0.00000, 0.00000, -0.06250, 0.06250, -0.03125, -0.06250, 0.03125, 0.00000, 0.00000, 0.03125, 0.03125, 0.00000, 0.03125, 0.00000, 0.00000, -0.03125, 0.00000, 0.03125, -0.03125, 0.03125, 0.00000, -0.03125, 0.03125, 0.00000, 0.00000, 0.03125, 0.00000, -0.06250, 0.03125, 0.00000, 0.00000, 0.00000, 0.00000, 0.06250, -0.06250, -0.03125, 0.00000, 0.06250, 0.03125, -0.03125, -0.03125, -0.03125, 0.03125, -0.03125, 0.03125, -0.03125, -0.03125, 0.00000, 0.00000, 0.00000, 0.00000, 0.00000, 0.00000, -0.03125, 0.00000, 0.03125, 0.00000, 0.03125, 0.00000, 0.00000, -0.03125, 0.00000, 0.00000, -0.03125, 0.00000, 0.03125, 0.03125, 0.03125, 0.03125, 0.00000, -0.03125, -0.03125, 0.00000, 0.03125, 0.00000, 0.00000, -0.03125, 0.00000, -0.06250, -0.03125, 0.00000, 0.06250, 0.00000, 0.00000, 0.03125, -0.03125, 0.00000, 0.03125, 0.00000, 0.00000, 0.03125, 0.00000, 0.03125, -0.06250, 0.00000, 0.03125, 0.00000, -0.03125, 0.00000, 0.00000, 0.00000, 0.06250, 0.00000, 0.00000, 0.00000, 0.06250, -0.03125, 0.00000, 0.03125, 0.00000, -0.03125, 0.03125, 0.00000, -0.03125, 0.00000, -0.06250, 0.00000, 0.00000, 0.00000, 0.00000, -0.03125, 0.00000, 0.00000, -0.03125, 0.00000, -0.03125, -0.03125, 0.00000, 0.00000, -0.03125, -0.06250, -0.03125, 0.00000, -0.06250, 0.00000, -0.03125, 0.00000, 0.00000, 0.03125, -0.03125, 0.00000, -0.03125, -0.03125, 0.00000, 0.00000, 0.03125, 0.00000, 0.00000, 0.03125, 0.06250, 0.00000, 0.00000, -0.03125, 0.03125, 0.06250, 0.03125, 0.00000, 0.00000, 0.03125, -0.06250, -0.06250, -0.03125, 0.03125, 0.00000, -0.06250, 0.00000, 0.03125, 0.00000, 0.03125, -0.03125, 0.06250, 0.00000, -0.03125, -0.03125, 0.06250, 0.00000, -0.06250, 0.00000, 0.03125, -0.03125, -0.06250, 0.00000, 0.00000, 0.00000, 0.00000, -0.03125, -0.03125, 0.03125, -0.03125, -0.06250, 0.00000, 0.00000, -0.03125, 0.00000, -0.03125, -0.03125, -0.03125, 0.03125, -0.03125, 0.06250, -0.03125, 0.00000, -0.03125, 0.06250, 0.03125, -0.03125, 0.00000, 0.00000, 0.03125, -0.06250, 0.00000, -0.06250, -0.03125, -0.03125, 0.03125, -0.03125, -0.03125, 0.06250, 0.03125, 0.00000, 0.00000, -0.03125, -0.03125, 0.00000, -0.06250, -0.03125, 0.03125, -0.06250, 0.00000, 0.03125, -0.03125, 0.00000, 0.00000, 0.00000, 0.03125, 0.00000, 0.00000, 0.00000, -0.03125, 0.06250, -0.03125, -0.03125, 0.00000, -0.06250, -0.03125, 0.00000, 0.00000, -0.06250, -0.09375, 0.00000, 0.00000, 0.00000, -0.03125, 0.00000, 0.00000, 0.03125, -0.06250, 0.00000, 0.00000, 0.00000, 0.00000, 0.00000, 0.00000, -0.03125, 0.00000, 0.00000, 0.00000, 0.06250, -0.03125, 0.00000, -0.06250, -0.03125, 0.00000, 0.00000, -0.03125, 0.00000, 0.00000, -0.03125, 0.03125, 0.00000, 0.00000, 0.03125, 0.00000, 0.00000, -0.03125, 0.00000, 0.00000, 0.03125, 0.00000, -0.03125, 0.00000, 0.03125, 0.00000, 0.00000, 0.06250, 0.06250, 0.06250, -0.03125, -0.03125, 0.00000, 0.00000, 0.03125, 0.00000, 0.03125, -0.03125, 0.00000, 0.00000, 0.00000, 0.03125, 0.03125, -0.06250, 0.00000, -0.09375, 0.09375, 0.00000, -0.03125, -0.06250, 0.03125, -0.03125, 0.03125, 0.03125, 0.06250, 0.00000, 0.06250, -0.03125, -0.03125, -0.03125, 0.00000, 0.00000, -0.06250, -0.03125, 0.03125, -0.03125, 0.00000, -0.03125, 0.03125, 0.03125, -0.03125, 0.00000, 0.00000, -0.03125, -0.03125, 0.00000, 0.00000, 0.00000, 0.03125, -0.06250, 0.03125, -0.03125, 0.00000, -0.06250, 0.00000, -0.06250, -0.03125, -0.06250, 0.03125, 0.03125, 0.03125, -0.03125, 0.00000, 0.03125, 0.00000, 0.06250, -0.03125, -0.03125, -0.03125, 0.00000, 0.00000, 0.00000, 0.00000, 0.00000, -0.06250, 0.00000, 0.00000, -0.03125, 0.00000, -0.06250, -0.12500, -0.03125, -0.09375, -0.03125, 0.00000, 0.03125, 0.03125, -0.03125, 0.03125, -0.03125, -0.06250, -0.03125, 0.00000, 0.03125, -0.03125, -0.03125, 0.00000, 0.00000, 0.00000, 0.00000, -0.03125, 0.06250, -0.06250, 0.03125, 0.00000, 0.03125, 0.06250, 0.00000, 0.00000, 0.03125, 0.00000, -0.06250, 0.00000, 0.03125, 0.06250, 0.00000, 0.00000, 0.00000, -0.03125, 0.03125, 0.03125, 0.03125, 0.00000, -0.06250, 0.00000, -0.03125, -0.03125, 0.00000, 0.03125, 0.00000, -0.06250, 0.00000, -0.03125, 0.03125, 0.03125, 0.00000, -0.03125, 0.03125, 0.06250, 0.00000, 0.00000, -0.03125, 0.03125, 0.03125, 0.03125, 0.00000, -0.06250, 0.00000, -0.03125, 0.03125, 0.06250, 0.03125, 0.06250, -0.03125, -0.03125, 0.06250, 0.03125, -0.03125, 0.00000, 0.03125, 0.00000, 0.00000, 0.00000, -0.03125, 0.00000, 0.00000, -0.03125, 0.03125, 0.00000, 0.06250, 0.00000, -0.03125, 0.00000, 0.03125, 0.00000, 0.03125, 0.03125, -0.06250, 0.00000, -0.03125, -0.03125, -0.03125, 0.03125, -0.06250, -0.06250, -0.03125, -0.06250, 0.06250, 0.00000, 0.03125, 0.03125, 0.00000, 0.00000, -0.03125, -0.03125, -0.09375, 0.00000, 0.06250, 0.06250, 0.00000, 0.00000, 0.00000, 0.00000, 0.00000, 0.06250, 0.00000, 0.00000, 0.00000, 0.03125, -0.09375, -0.03125, -0.06250, 0.00000, 0.00000, 0.00000, 0.03125, -0.03125, 0.00000, 0.00000, -0.03125, 0.00000, 0.00000, -0.03125, 0.00000, 0.00000, -0.03125, 0.00000, 0.03125, -0.06250, -0.03125, -0.03125, 0.00000, -0.06250, 0.00000, 0.00000, 0.00000, -0.06250, 0.03125, 0.03125, 0.00000, 0.00000, 0.03125, 0.00000, -0.06250, 0.03125, 0.00000, 0.03125, 0.00000, 0.03125, 0.00000, 0.03125, 0.03125, 0.00000, 0.03125, 0.03125, 0.00000, -0.03125, 0.00000, 0.03125, 0.03125, 0.00000, 0.03125, 0.03125, 0.00000, 0.03125, 0.00000, 0.03125, 0.00000, -0.03125, 0.00000, 0.00000, 0.03125, 0.00000, -0.03125, 0.00000, -0.03125, -0.06250, 0.00000, 0.03125, 0.00000, 0.00000, 0.03125, -0.03125, 0.00000, 0.00000, -0.06250, 0.00000, 0.03125, 0.00000, -0.03125, 0.00000, -0.03125, -0.03125, 0.03125, 0.00000, -0.03125, -0.03125, 0.00000, -0.03125, 0.00000, 0.00000, 0.00000, 0.00000, 0.00000, 0.00000, 0.03125, 0.00000, 0.00000, 0.00000, 0.00000, 0.03125, -0.06250, -0.03125, -0.03125, 0.00000, -0.03125, -0.03125, -0.06250, -0.09375, -0.03125, -0.03125, -0.06250, -0.03125, 0.00000, 0.03125, 0.00000, 0.03125, 0.06250, -0.03125, 0.03125, -0.03125, 0.06250, 0.00000, 0.00000, 0.03125, 0.00000, -0.06250, -0.09375, 0.00000, 0.00000, -0.03125, 0.03125, -0.03125, -0.03125, 0.09375, 0.03125, 0.00000, 0.00000, -0.03125, 0.03125, -0.06250, -0.06250, 0.03125, 0.03125, 0.00000, -0.03125, -0.03125, 0.00000, -0.03125, 0.00000, 0.03125, 0.00000, 0.00000, 0.06250, -0.06250, 0.06250, 0.00000, -0.03125, 0.03125, -0.06250, 0.03125, 0.03125, 0.00000, -0.03125, 0.00000, -0.03125, 0.00000, 0.03125, 0.00000, -0.06250, 0.03125, 0.00000, 0.00000, 0.03125, 0.03125, 0.09375, 0.00000, 0.03125, 0.03125, 0.03125, 0.00000, 0.00000, 0.00000, 0.00000, 0.03125, 0.00000, -0.03125, 0.03125, -0.03125, 0.06250, -0.03125, 0.00000, 0.00000, -0.03125, 0.00000, 0.00000, 0.00000, -0.03125, 0.03125, 0.00000, 0.00000, 0.00000, 0.00000, -0.06250, -0.03125, 0.00000, 0.03125, 0.00000, -0.06250, 0.03125, 0.00000, 0.03125, 0.00000, -0.03125, 0.03125, 0.03125, -0.03125, -0.06250, 0.00000, 0.03125, 0.00000, -0.03125, 0.00000, 0.00000, 0.03125, -0.09375, 0.00000, -0.03125, 0.00000, 0.00000, -0.06250, -0.06250, 0.00000, 0.03125, 0.00000, 0.00000, -0.06250, 0.03125, 0.06250, 0.03125, -0.03125, -0.03125, 0.00000, -0.03125, -0.06250, 0.00000, 0.00000, -0.06250, -0.03125, 0.00000, 0.03125, -0.06250, 0.03125, -0.06250, -0.03125, 0.00000, -0.03125, 0.00000, -0.06250, 0.00000, 0.03125, -0.03125, -0.03125, -0.03125, 0.00000, -0.03125, -0.06250, 0.03125, -0.03125, 0.00000, -0.03125, -0.03125, -0.09375, -0.03125, 0.00000, -0.03125, -0.03125, -0.03125, 0.03125, 0.00000, 0.03125, -0.03125, -0.06250, 0.00000, -0.03125, -0.03125, -0.03125, 0.06250, -0.03125, 0.00000, -0.03125, 0.00000, 0.06250, 0.00000, 0.00000, -0.03125, 0.00000, -0.06250, 0.00000, 0.03125, 0.00000, 0.06250, 0.03125, 0.03125, -0.03125, 0.00000, 0.03125, 0.06250, 0.09375, 0.00000, 0.00000, 0.03125, 0.00000, -0.03125, -0.03125, 0.00000, -0.03125, 0.03125, 0.00000, 0.03125, -0.03125, 0.00000, 0.06250, 0.03125, 0.00000, 0.03125, 0.03125, 0.00000, 0.03125, 0.03125, 0.00000, -0.03125, -0.03125, 0.03125, 0.06250, 0.03125, 0.00000, 0.00000, 0.00000, 0.03125, 0.00000, 0.00000, 0.00000, 0.00000, 0.00000, -0.03125, 0.00000, -0.03125, 0.03125, -0.06250, 0.00000, 0.00000, 0.03125, 0.00000, 0.09375, -0.03125, -0.06250, 0.00000, -0.03125, 0.00000, 0.00000, 0.03125, 0.03125, 0.00000, -0.03125, 0.03125, 0.03125, 0.03125, 0.03125, 0.00000, 0.00000, 0.00000, 0.00000, -0.03125, -0.03125, 0.00000, 0.03125, 0.00000, 0.00000, -0.03125, -0.03125, -0.06250, -0.03125, -0.03125, -0.03125, 0.03125, 0.03125, 0.00000, 0.03125, 0.00000, -0.06250, -0.03125, 0.03125, 0.03125, 0.03125, 0.00000, 0.00000, 0.03125, 0.03125, 0.00000, 0.00000, -0.03125, 0.03125, 0.00000, 0.03125, 0.06250, 0.03125, 0.00000, 0.00000, -0.03125, 0.00000, -0.06250, 0.03125, 0.00000, -0.03125, 0.00000, -0.03125, 0.03125, 0.06250, 0.03125, 0.03125, 0.03125, 0.03125, 0.00000, -0.03125, 0.03125, 0.03125, 0.03125, 0.00000, -0.03125, -0.03125, 0.00000, 0.03125, 0.00000, 0.00000, -0.03125, 0.00000, 0.03125, -0.03125, 0.03125, 0.03125, 0.06250, 0.00000, 0.00000, -0.09375, -0.06250, -0.03125, 0.00000, 0.03125, 0.00000, -0.03125, -0.09375, -0.06250, -0.03125, -0.06250, 0.00000, -0.03125, 0.00000, 0.03125, 0.00000, 0.00000, 0.00000, -0.03125, 0.03125, -0.03125, 0.06250, 0.03125, 0.00000, 0.00000, -0.03125, 0.09375, 0.03125, 0.00000, -0.03125, 0.03125, 0.03125, 0.03125, 0.00000, 0.03125, 0.00000, 0.03125, 0.00000, -0.03125, 0.00000, 0.00000, 0.00000, 0.06250, -0.03125, -0.06250, -0.06250, 0.03125, -0.03125, 0.03125, 0.03125, 0.00000, 0.00000, 0.00000, 0.03125, -0.03125, 0.00000, 0.00000, 0.00000, -0.03125, 0.00000, 0.09375, -0.03125, 0.00000, 0.00000, 0.00000, 0.03125, -0.03125, -0.06250, 0.00000, 0.06250, 0.00000, -0.03125, 0.03125, 0.06250, -0.03125, 0.00000, -0.03125, -0.03125, -0.03125, -0.03125, 0.03125, 0.06250, 0.00000, 0.00000, 0.00000, 0.00000, 0.00000, -0.03125, 0.00000, 0.03125, -0.03125, 0.03125, -0.03125, -0.03125, 0.00000, 0.00000, 0.00000, 0.00000, -0.03125, 0.00000, -0.03125, -0.03125, -0.03125, 0.06250, 0.00000, 0.03125, -0.03125, 0.00000, -0.06250, -0.06250, 0.00000, -0.03125, 0.00000, 0.00000, 0.00000, -0.03125, 0.00000, 0.00000, -0.03125, 0.06250, -0.03125, 0.03125, -0.03125, -0.03125, 0.00000, -0.03125, -0.03125, 0.00000, 0.03125, 0.03125, 0.00000, -0.03125, 0.00000, 0.00000, 0.00000, 0.06250, 0.03125, -0.03125, -0.03125, 0.00000, -0.06250, -0.06250, 0.00000, 0.00000, 0.00000, 0.00000, 0.00000, 0.00000, 0.03125, 0.03125, 0.00000, -0.03125, 0.00000, 0.00000, 0.03125, 0.03125, -0.03125, -0.03125, -0.03125, -0.03125, -0.03125, 0.00000, -0.06250, 0.03125, 0.00000, -0.03125, 0.03125, 0.00000, -0.03125, -0.06250, 0.06250, 0.03125, 0.00000, -0.03125, 0.00000, 0.00000, 0.00000, 0.03125, 0.03125, -0.03125, -0.03125, 0.03125, 0.06250, 0.03125, 0.00000, -0.03125, -0.03125, -0.03125, -0.03125, 0.03125, -0.03125, 0.00000, -0.03125, -0.03125, 0.00000, -0.06250, -0.06250, 0.00000, -0.06250, -0.03125, 0.03125, 0.03125, -0.03125, 0.00000, 0.00000, 0.00000, 0.00000, 0.00000, 0.00000, 0.00000, 0.06250, 0.06250, 0.03125, 0.00000, 0.00000, 0.00000, 0.03125, 0.03125, 0.03125, 0.00000, 0.00000, 0.00000, -0.03125, 0.00000, -0.03125, 0.03125, 0.00000, 0.00000, 0.00000, 0.00000, 0.03125, 0.03125, 0.03125, -0.03125, -0.03125, 0.00000, 0.00000, 0.03125, 0.03125, 0.00000, -0.03125, 0.03125, -0.06250, -0.03125, 0.03125, 0.00000, -0.03125, -0.03125, 0.03125, 0.03125, -0.03125, 0.03125, 0.00000, 0.03125, 0.00000, 0.00000, 0.03125, -0.03125, 0.03125, 0.03125, -0.03125, -0.03125, 0.00000, 0.03125, 0.03125, 0.03125, -0.03125, -0.03125, 0.00000, 0.00000, 0.03125, -0.03125, 0.03125, 0.06250, -0.03125, 0.00000, 0.00000, 0.00000, -0.09375, 0.00000, 0.00000, 0.03125, 0.00000, 0.03125, 0.00000, 0.03125, 0.00000, 0.00000, 0.00000, 0.03125, -0.03125, -0.03125, 0.00000, -0.03125, 0.03125, 0.06250, 0.00000, 0.00000, 0.03125, -0.03125, 0.00000, 0.00000, 0.00000, 0.00000, 0.03125, 0.09375, 0.00000, 0.03125, 0.03125, 0.00000, -0.03125, -0.03125, -0.03125, -0.06250, -0.03125, 0.00000, 0.00000, -0.03125, 0.00000, 0.00000, 0.03125, 0.00000, -0.03125, -0.03125, 0.00000, 0.03125, 0.00000, -0.03125, 0.03125, 0.03125, 0.03125, 0.00000, 0.00000, 0.00000, 0.00000, -0.03125, 0.03125, 0.03125, 0.00000, 0.03125, 0.06250, 0.00000, 0.00000, -0.03125, 0.00000, 0.00000, -0.03125, 0.03125, 0.03125, 0.00000, 0.03125, 0.00000, 0.00000, 0.00000, 0.00000, 0.00000, -0.03125, -0.03125, 0.03125, -0.06250, 0.00000, 0.00000, 0.03125, 0.06250, -0.03125, 0.03125, 0.00000, 0.00000, -0.03125, -0.03125, -0.03125, 0.00000, 0.00000, -0.03125, 0.03125, -0.03125, 0.03125, 0.03125, -0.03125, 0.00000, 0.03125, 0.00000, 0.00000, 0.03125, 0.00000, 0.00000, 0.00000, -0.03125, 0.06250, 0.06250, 0.00000, -0.03125, 0.00000, -0.03125, -0.03125, 0.00000, -0.06250, -0.06250, 0.06250, 0.00000, 0.03125, -0.03125, -0.03125, 0.03125, -0.03125, 0.03125, -0.03125, 0.03125, 0.06250, -0.12500, 0.03125, 0.00000, 0.00000, 0.00000, 0.03125, 0.03125, 0.03125, 0.03125, 0.00000, -0.03125, 0.00000, 0.03125, 0.03125, 0.03125, -0.03125, 0.00000, 0.00000, 0.00000, -0.03125, -0.09375, 0.00000, 0.00000, 0.00000, 0.00000, -0.03125, 0.00000, 0.00000, -0.03125, 0.00000, 0.00000, 0.00000, 0.00000, 0.00000, -0.03125, 0.06250, -0.03125, -0.03125, 0.03125, 0.03125, 0.00000, 0.00000, -0.03125, 0.00000, 0.00000, 0.00000, 0.00000, 0.03125, -0.03125, 0.03125, 0.00000, 0.00000, 0.03125, 0.03125, -0.06250, -0.03125, 0.00000, 0.00000, 0.00000, 0.00000, 0.00000, 0.03125, -0.03125, 0.03125, 0.00000, 0.03125, 0.00000, 0.00000, 0.03125, 0.00000, -0.03125, 0.03125, -0.03125, 0.03125, -0.03125, -0.03125, 0.00000, 0.03125, 0.03125, -0.03125, 0.03125, -0.06250, -0.03125, -0.03125, 0.00000, -0.03125, 0.00000, 0.00000, -0.03125, -0.03125, 0.00000, -0.03125, 0.03125, -0.06250, 0.00000, -0.09375, 0.03125, -0.03125, -0.03125, -0.06250, 0.00000, 0.00000, 0.00000, 0.00000, 0.00000, 0.00000, 0.00000, 0.03125, 0.03125, 0.06250, 0.06250, -0.03125, 0.03125, -0.03125, 0.00000, 0.03125, 0.00000, -0.03125, -0.06250, 0.00000, 0.00000, -0.09375, 0.00000, 0.03125, -0.03125, 0.00000, 0.00000, 0.00000, -0.03125, -0.09375, 0.03125, 0.00000, 0.00000, 0.03125, 0.00000, 0.00000, 0.00000, -0.06250, -0.03125, 0.00000, 0.00000, 0.00000, 0.03125, -0.06250, 0.00000, 0.00000, 0.03125, 0.03125, -0.03125, -0.06250, 0.00000, 0.03125, 0.00000, -0.06250, 0.00000, 0.03125, -0.03125, 0.00000, 0.00000, -0.03125, -0.03125, -0.03125, -0.03125, 0.03125, 0.00000, 0.00000, 0.00000, 0.00000, 0.03125, -0.03125, -0.03125, 0.03125, 0.03125, 0.03125, -0.06250, 0.03125, 0.00000, -0.06250, 0.03125, -0.06250, -0.03125, -0.03125, 0.06250, -0.03125, 0.00000, -0.03125, 0.06250, 0.00000, -0.03125, -0.03125, 0.00000, 0.03125, 0.00000, 0.03125, 0.03125, 0.00000, -0.03125, 0.03125, -0.03125, 0.00000, 0.06250, 0.00000, 0.00000, 0.00000, 0.00000, 0.03125, 0.06250, 0.06250, 0.00000, 0.00000, -0.06250, 0.00000, 0.03125, -0.03125, -0.03125, 0.03125, -0.06250, -0.03125, -0.06250, -0.06250, 0.03125, 0.00000, -0.03125, 0.03125, 0.00000, 0.00000, -0.09375, 0.00000, 0.00000, 0.03125, -0.03125, -0.03125, 0.03125, 0.00000, -0.09375, -0.03125, 0.03125, -0.03125, -0.03125, 0.00000, -0.03125, -0.03125, 0.03125, 0.00000, -0.03125, 0.00000, 0.00000, 0.06250, 0.00000, 0.00000, 0.00000, 0.00000, 0.00000, 0.03125, 0.00000, 0.00000, -0.03125, -0.03125, 0.03125, 0.03125, 0.00000, 0.00000, -0.03125, 0.00000, 0.00000, 0.00000, -0.06250, 0.00000, 0.00000, 0.03125, -0.06250, 0.03125, -0.03125, -0.03125, 0.03125, 0.03125, 0.00000, -0.06250, 0.06250, 0.06250, -0.03125, 0.00000, 0.00000, 0.06250, 0.00000, 0.06250, -0.03125, 0.00000, 0.03125, 0.06250, 0.06250, 0.00000, 0.00000, 0.03125, 0.00000, 0.03125, 0.00000, -0.03125, -0.03125, -0.06250, 0.00000, 0.03125, 0.00000, 0.03125, -0.03125, -0.06250, -0.06250, 0.03125, 0.00000, 0.00000, -0.03125, 0.00000, 0.00000, 0.00000, 0.03125, 0.03125, 0.00000, 0.03125, 0.06250, -0.03125, 0.06250, 0.00000, 0.06250, 0.03125, -0.03125, 0.03125, 0.00000, 0.00000, 0.00000, 0.00000, -0.03125, -0.06250, 0.00000, 0.00000, 0.00000, 0.03125, 0.06250, 0.00000, 0.00000, 0.00000, 0.03125, 0.00000, 0.00000, -0.03125, 0.00000, -0.03125, 0.00000, -0.03125, -0.03125, -0.03125, -0.03125, -0.06250, 0.03125, 0.00000, -0.03125, -0.03125, 0.06250, 0.06250, -0.03125, 0.00000, -0.03125, 0.00000, 0.00000, 0.03125, -0.06250, 0.00000, 0.00000, 0.03125, 0.03125, -0.03125, 0.00000, 0.00000, 0.03125, 0.00000, 0.03125, 0.00000, 0.03125, 0.00000, 0.03125, 0.03125, 0.00000, -0.03125, 0.03125, 0.00000, 0.03125, -0.03125, 0.00000, 0.00000, 0.00000, 0.03125, 0.00000, 0.00000, -0.06250, 0.00000, -0.03125, 0.06250, 0.03125, 0.03125, 0.03125, -0.03125, 0.06250, 0.03125, 0.03125, -0.03125, 0.06250, 0.00000, 0.00000, 0.00000, -0.03125, 0.00000, 0.00000, -0.03125, 0.00000, 0.00000, -0.06250, 0.03125, -0.03125, 0.03125, 0.03125, 0.00000, -0.09375, 0.03125, 0.03125, 0.00000, 0.00000, -0.03125, -0.03125, 0.00000, -0.03125, -0.03125, 0.00000, 0.00000, -0.03125, -0.03125, 0.00000, 0.00000, 0.00000, 0.03125, -0.03125, 0.00000, 0.06250, 0.00000, 0.00000, 0.03125, 0.00000, 0.06250, -0.03125, -0.09375, -0.03125, -0.03125, -0.09375, 0.00000, 0.06250, 0.03125, -0.06250, 0.00000, -0.03125, 0.00000, 0.00000, -0.03125, 0.00000, 0.03125, 0.00000, 0.00000, 0.03125, -0.03125, -0.03125, 0.00000, -0.03125, -0.03125, 0.00000, 0.03125, 0.00000, -0.03125, 0.03125, -0.03125, -0.03125, -0.03125, -0.03125, -0.03125, 0.00000, -0.06250, -0.06250, -0.03125, -0.06250, -0.03125, 0.00000, 0.00000, 0.06250, 0.00000, 0.03125, 0.03125, -0.03125, 0.03125, 0.00000, -0.03125, -0.03125, 0.00000, 0.00000, 0.06250, 0.03125, -0.06250, 0.00000, 0.03125, 0.00000, 0.00000, -0.03125, 0.03125, -0.03125, -0.03125, 0.03125, 0.00000, -0.06250, -0.03125, 0.00000, 0.00000, -0.03125, 0.00000, 0.00000, 0.06250, 0.03125, -0.03125, 0.00000, -0.06250, 0.00000, 0.00000, 0.03125, 0.06250, 0.03125, 0.00000, 0.03125, 0.00000, -0.03125, 0.03125, -0.03125, 0.00000, 0.00000, -0.03125, -0.03125, 0.00000, 0.00000, 0.03125, -0.03125, 0.03125, -0.03125, 0.00000, -0.03125, -0.03125, 0.03125, -0.06250, 0.03125, -0.09375, -0.03125, 0.00000, -0.03125, -0.09375, 0.00000, 0.00000, 0.00000, 0.03125, 0.03125, -0.06250, 0.03125, 0.03125, 0.03125, 0.00000, 0.00000, 0.00000, -0.06250, 0.00000, -0.03125, 0.00000, 0.06250, 0.00000, 0.06250, 0.03125, 0.03125, -0.03125, 0.03125, -0.06250, 0.00000, 0.00000, 0.00000, 0.00000, 0.06250, 0.00000, -0.06250, 0.00000, 0.00000, 0.06250, 0.03125, 0.03125, -0.03125, 0.00000, 0.00000, 0.03125, -0.06250, -0.03125, 0.00000, 0.00000, 0.00000, 0.00000, 0.00000, 0.03125, -0.03125, 0.03125, 0.03125, 0.00000, 0.00000, -0.03125, 0.00000, -0.03125, 0.00000, 0.00000, 0.00000, 0.06250, 0.03125, 0.00000, 0.00000, 0.00000, 0.00000, 0.00000, 0.00000, -0.03125, 0.00000, 0.03125, 0.00000, -0.03125, 0.00000, 0.03125, -0.03125, 0.00000, 0.03125, 0.03125, 0.03125, 0.06250, -0.03125, 0.00000, 0.03125, -0.03125, -0.03125, -0.03125, 0.00000, -0.03125, 0.03125, -0.03125, 0.00000, -0.03125, 0.00000, 0.00000, 0.06250, -0.03125, 0.03125, 0.06250, 0.06250, 0.03125, -0.03125, 0.03125, 0.00000, 0.00000, -0.03125, -0.03125, -0.03125, 0.00000, 0.03125, 0.00000, -0.06250, 0.00000, 0.03125, 0.00000, -0.03125, -0.03125, 0.00000, 0.06250, 0.06250, 0.03125, -0.03125, 0.00000, 0.03125, 0.06250, 0.00000, 0.03125, 0.00000, 0.03125, -0.03125, 0.03125, 0.00000, 0.00000, 0.00000, 0.06250, -0.03125, -0.03125, 0.00000, 0.00000, 0.03125, 0.00000, -0.03125, 0.00000, -0.03125, 0.00000, 0.00000, 0.00000, -0.03125, -0.06250, -0.03125, 0.00000, 0.00000, 0.00000, -0.03125, -0.03125, 0.03125, 0.03125, -0.03125, 0.00000, 0.00000, -0.06250, 0.00000, 0.06250, 0.03125, -0.03125, 0.00000, 0.03125, 0.00000, 0.00000, -0.03125, 0.03125, 0.03125, 0.00000, 0.06250, 0.06250, 0.03125, 0.00000, 0.03125, 0.03125, 0.00000, 0.00000, 0.00000, 0.00000, -0.03125, -0.03125, 0.03125, -0.03125, 0.00000, 0.00000, -0.03125, 0.00000, 0.03125, 0.00000, 0.03125, 0.00000, 0.06250, 0.00000, -0.03125, 0.06250, 0.00000, 0.00000, 0.03125, 0.00000, -0.03125, -0.06250, 0.03125, 0.09375, 0.03125, 0.00000, -0.06250, 0.00000, 0.00000, -0.06250, -0.06250, 0.00000, -0.03125, 0.00000, -0.06250, -0.06250, -0.03125, -0.03125, 0.00000, 0.03125, 0.00000, 0.03125, -0.03125, 0.00000, -0.03125, 0.03125, -0.03125, -0.03125, 0.00000, 0.03125, 0.00000, 0.06250, 0.03125, -0.06250, -0.03125, 0.00000, -0.03125, -0.03125, -0.03125, -0.06250, 0.03125, 0.03125, 0.00000, -0.06250, 0.00000, -0.03125, -0.03125, 0.03125, -0.03125, 0.06250, 0.00000, 0.00000, 0.03125, 0.00000, 0.03125, -0.06250, 0.03125, 0.06250, 0.03125, -0.03125, -0.03125, -0.06250, 0.00000, -0.03125, 0.03125, 0.00000, 0.00000, 0.00000, -0.03125, -0.06250, 0.03125, -0.03125, 0.00000, 0.03125, 0.00000, 0.03125, 0.03125, -0.03125, 0.03125, 0.03125, 0.00000, 0.06250, -0.03125, 0.00000, 0.03125, -0.03125, 0.00000, 0.00000, 0.03125, 0.00000, -0.03125, -0.03125, 0.03125, 0.03125, 0.00000, 0.03125, -0.03125, 0.00000, -0.03125, 0.00000, -0.06250, -0.06250, 0.03125, 0.06250, -0.03125, 0.06250, 0.00000, -0.03125, -0.03125, 0.00000, -0.06250, -0.06250, -0.06250, 0.03125, 0.00000, 0.00000, 0.00000, 0.00000, 0.00000, 0.00000, 0.00000, 0.03125, 0.00000, 0.06250, 0.03125, 0.00000, 0.06250, -0.03125, -0.03125, -0.06250, 0.00000, 0.03125, 0.03125, 0.06250, -0.03125, 0.00000, 0.00000, 0.03125, 0.00000, 0.06250, -0.06250, 0.00000, -0.06250, 0.00000, -0.06250, -0.03125, -0.03125, -0.03125, 0.00000, 0.00000, 0.00000, 0.03125, -0.03125, -0.06250, 0.00000, -0.03125, 0.00000, 0.03125, -0.03125, 0.06250, 0.03125, -0.09375, 0.00000, -0.03125, 0.03125, -0.03125, 0.00000, 0.00000, 0.06250, 0.00000, 0.00000, -0.12500, 0.00000, -0.03125, -0.03125, 0.03125, -0.03125, -0.03125, -0.03125, -0.03125, -0.06250, 0.03125, 0.00000, -0.03125, 0.06250, 0.00000, 0.03125, 0.00000, -0.03125, 0.00000, 0.03125, 0.00000, -0.03125, -0.06250, 0.03125, -0.03125, -0.03125, -0.06250, 0.03125, 0.00000, 0.00000, 0.00000, 0.00000, 0.06250, -0.06250, 0.00000, 0.00000, 0.00000, 0.00000, 0.03125, -0.03125, 0.03125, -0.03125, 0.00000, -0.03125, -0.03125, -0.03125, 0.00000, -0.03125, 0.00000, 0.00000, -0.03125, -0.06250, 0.03125, 0.03125, 0.00000, 0.03125, 0.03125, 0.03125, -0.06250, 0.03125, 0.00000, 0.00000, 0.06250, -0.03125, 0.03125, -0.03125, -0.03125, 0.03125, 0.03125, 0.00000, 0.00000, -0.03125, 0.00000, -0.03125, 0.00000, 0.03125, -0.03125, 0.03125, 0.00000, 0.00000, 0.03125, 0.00000, 0.00000, 0.00000, 0.00000, 0.03125, 0.00000, 0.03125, 0.00000, 0.03125, 0.06250, 0.03125, 0.03125, 0.00000, 0.00000, 0.06250, 0.06250, 0.00000, -0.03125, 0.03125, 0.00000, -0.03125, 0.00000, 0.00000, 0.03125, 0.00000, 0.00000, 0.00000, 0.03125, -0.06250, 0.00000, 0.00000, -0.03125, -0.03125, 0.00000, -0.03125, 0.03125, -0.03125, 0.00000, 0.03125, 0.03125, 0.00000, 0.00000, -0.03125, 0.09375, 0.00000, -0.03125, 0.03125, -0.06250, 0.00000, -0.03125, 0.03125, 0.03125, 0.00000, 0.00000, 0.00000, 0.00000, 0.03125, -0.03125, -0.03125, 0.00000, 0.03125, -0.03125, 0.03125, 0.00000, 0.00000, -0.03125, 0.00000, 0.00000, 0.03125, -0.03125, 0.00000, 0.03125, -0.03125, 0.00000, 0.03125, 0.00000, -0.03125, -0.03125, -0.06250, 0.06250, -0.03125, 0.00000, -0.03125, -0.06250, -0.03125, 0.00000, -0.06250, -0.03125, 0.06250, 0.03125, 0.00000, 0.00000, 0.09375, -0.03125, -0.03125, -0.03125, 0.06250, 0.00000, 0.03125, 0.00000, 0.00000, 0.00000, 0.03125, 0.00000, 0.06250, 0.03125, 0.03125, 0.00000, 0.03125, 0.03125, 0.00000, 0.03125, 0.00000, 0.00000, 0.03125, 0.00000, 0.00000, 0.00000, -0.03125, 0.00000, -0.03125, 0.00000, 0.03125, 0.00000, 0.03125, 0.06250, 0.06250, 0.03125, 0.00000, 0.06250, -0.03125, 0.06250, 0.00000, -0.03125, 0.03125, -0.03125, -0.03125, -0.03125, -0.03125, 0.03125, -0.03125, 0.00000, 0.03125, -0.03125, 0.06250, 0.06250, -0.03125, 0.00000, -0.06250, -0.06250, 0.00000, 0.00000, 0.03125, -0.03125, 0.06250, 0.00000, 0.00000, 0.00000, -0.03125, -0.06250, 0.00000, 0.03125, 0.03125, 0.00000, 0.00000, 0.00000, 0.03125, 0.00000, 0.00000, -0.03125, -0.06250, -0.03125, 0.00000, 0.00000, 0.03125, 0.00000, -0.03125, -0.06250, 0.03125, 0.03125, -0.06250, -0.03125, 0.00000, -0.06250, 0.00000, 0.00000, 0.06250, 0.00000, 0.00000, 0.00000, 0.03125, 0.03125, -0.03125, 0.00000, 0.03125, -0.06250, -0.06250, 0.00000, -0.03125, 0.00000, -0.06250, 0.03125, 0.00000, 0.00000, 0.00000, 0.03125, 0.00000, 0.09375, 0.00000, 0.03125, 0.00000, 0.00000, 0.03125, -0.03125, -0.03125, 0.00000, 0.00000, 0.03125, -0.03125, 0.00000, 0.00000, -0.03125, 0.06250, -0.03125, 0.06250, 0.00000, -0.03125, -0.03125, 0.00000, 0.00000, 0.03125, 0.03125, 0.00000, 0.00000, -0.03125, -0.03125, 0.03125, 0.03125, -0.06250, 0.00000, -0.03125, 0.00000, 0.03125, 0.00000, -0.03125, -0.03125, -0.03125, 0.03125, 0.00000, -0.03125, -0.03125, -0.06250, 0.03125, -0.06250, 0.03125, 0.03125, -0.03125, 0.03125, 0.03125, -0.03125, -0.03125, -0.03125, 0.03125, 0.00000, 0.03125, 0.00000, -0.06250, 0.00000, 0.00000, -0.03125, 0.00000, 0.03125, 0.00000, 0.00000, 0.00000, 0.00000, 0.00000, 0.00000, -0.03125, 0.03125, -0.03125, 0.00000, -0.06250, 0.03125, -0.06250, -0.03125, 0.00000, 0.00000, -0.03125, 0.00000, -0.03125, -0.03125, 0.03125, 0.00000, 0.00000, 0.03125, 0.03125, 0.00000, 0.03125, 0.06250, 0.06250, 0.03125, -0.06250, -0.03125, 0.00000, -0.03125, -0.03125, 0.03125, -0.06250, 0.03125, -0.03125, -0.03125, 0.00000, -0.06250, -0.03125, 0.03125, 0.00000, -0.03125, 0.00000, 0.03125, 0.06250, 0.00000, 0.00000, 0.03125, -0.06250, -0.03125, 0.03125, -0.03125, -0.06250, -0.06250, 0.03125, -0.06250, 0.00000, -0.06250, 0.00000, 0.06250, 0.00000, 0.00000, 0.03125, -0.03125, 0.00000, 0.00000, 0.00000, 0.03125, 0.03125, 0.03125, 0.00000, 0.00000, 0.00000, 0.00000, -0.03125, 0.00000, 0.03125, 0.00000, -0.03125, 0.00000, 0.03125, -0.03125, 0.03125, -0.03125, 0.00000, -0.03125, 0.03125, 0.00000, 0.00000, -0.03125, -0.03125, -0.03125, 0.03125, -0.03125, -0.03125, -0.06250, -0.03125, 0.03125, -0.06250, 0.03125, -0.03125, -0.03125, -0.03125, 0.06250, 0.00000, 0.00000, 0.03125, 0.03125, 0.03125, 0.03125, 0.03125, -0.06250, -0.09375, 0.00000, 0.00000, 0.00000, 0.00000, 0.06250, -0.03125, 0.03125, 0.00000, 0.00000, 0.03125, 0.00000, 0.03125, -0.03125, -0.03125, 0.00000, 0.03125, 0.00000, -0.03125, 0.00000, 0.00000, 0.03125, 0.03125, 0.03125, 0.03125, 0.03125, -0.03125, 0.03125, 0.00000, 0.00000, 0.00000, 0.03125, 0.03125, 0.00000, -0.03125, 0.00000, 0.03125, -0.03125, 0.00000, -0.03125, 0.06250, 0.03125, -0.03125, -0.09375, 0.03125, 0.00000, 0.00000, 0.00000, 0.00000, -0.03125, 0.03125, 0.00000, -0.03125, 0.00000, 0.03125, 0.00000, 0.03125, -0.03125, 0.00000, 0.03125, 0.00000, -0.03125, 0.00000, -0.03125, -0.03125, 0.00000, -0.03125, 0.03125, 0.03125, -0.03125, 0.00000, -0.06250, 0.03125, 0.00000, 0.03125, 0.09375, -0.03125, 0.00000, 0.06250, 0.00000, -0.03125, -0.06250, 0.00000, 0.03125, -0.03125, 0.00000, -0.03125, -0.03125, -0.03125, 0.03125, -0.03125, -0.03125, 0.00000, 0.06250, 0.03125, 0.00000, -0.03125, 0.03125, 0.00000, 0.03125, 0.00000, 0.00000, -0.03125, 0.06250, 0.03125, 0.03125, -0.06250, 0.00000, 0.03125, 0.00000, 0.00000, 0.00000, -0.06250, -0.03125, 0.00000, 0.00000, 0.00000, -0.03125, 0.00000, 0.06250, 0.03125, 0.00000, 0.03125, 0.00000, 0.00000, 0.00000, -0.06250, 0.03125, 0.00000, 0.00000, 0.03125, 0.06250, 0.00000, -0.03125, -0.03125, 0.03125, 0.03125, -0.03125, 0.03125, 0.00000, 0.06250, 0.03125, -0.03125, -0.03125, -0.03125, -0.06250, 0.03125, 0.00000, -0.03125, 0.03125, -0.03125, 0.00000, -0.06250, 0.00000, 0.00000, 0.00000, 0.00000, 0.00000, 0.03125, 0.00000, 0.00000, 0.00000, 0.00000, 0.03125, 0.06250, -0.03125, 0.00000, -0.03125, 0.03125, 0.06250, -0.03125, 0.00000, 0.03125, 0.03125, 0.03125, 0.03125, -0.03125, 0.03125, 0.03125, 0.00000, 0.00000, 0.03125, 0.00000, 0.00000, 0.00000, 0.06250, 0.00000, 0.03125, 0.00000, -0.03125, -0.03125, -0.03125, 0.03125, 0.03125, -0.03125, 0.00000, 0.03125, -0.03125, 0.03125, 0.00000, -0.03125, 0.00000, 0.00000, -0.09375, -0.03125, 0.00000, -0.03125, -0.03125, 0.06250, 0.00000, -0.06250, 0.00000, -0.03125, 0.03125, 0.09375, 0.00000, -0.09375, 0.00000, 0.06250, 0.06250, -0.03125, -0.03125, 0.00000, -0.03125, 0.03125, 0.03125, 0.03125, 0.06250, 0.00000, 0.03125, -0.03125, 0.03125, 0.03125, -0.03125, -0.06250, -0.03125, 0.03125, 0.06250, 0.03125, 0.03125, 0.00000, 0.00000, 0.00000, 0.03125, 0.00000, 0.06250, 0.00000, 0.03125, -0.03125, 0.00000, 0.03125, -0.03125, 0.03125, 0.00000, 0.00000, 0.00000, -0.03125, 0.03125, -0.03125, 0.00000, 0.00000, 0.00000, 0.03125, -0.03125, 0.00000, -0.03125, 0.00000, 0.03125, -0.03125, 0.00000, -0.03125, 0.00000, -0.06250, -0.03125, 0.03125, -0.03125, 0.03125, 0.03125, 0.00000, 0.00000, -0.03125, 0.03125, -0.03125, -0.03125, -0.03125, -0.06250, 0.06250, 0.03125, 0.03125, -0.03125, 0.00000, 0.06250, 0.00000, 0.00000, -0.03125, 0.03125, -0.03125, 0.03125, -0.06250, -0.03125, 0.03125, -0.03125, 0.00000, 0.00000, -0.06250, 0.00000, -0.03125, 0.03125, 0.03125, -0.03125, 0.00000, 0.00000, 0.03125, -0.03125, 0.06250, 0.03125, -0.03125, -0.03125, 0.09375, -0.06250, 0.03125, 0.00000, 0.00000, 0.06250, 0.00000, -0.03125, 0.06250, 0.00000, 0.00000, 0.00000, 0.03125, 0.00000, -0.06250, 0.00000, 0.03125, 0.00000, 0.03125, -0.03125, 0.03125, 0.03125, 0.00000, 0.03125, 0.03125, 0.03125, 0.00000, 0.03125, 0.00000, 0.00000, 0.00000, 0.00000, 0.03125, 0.06250, 0.03125, 0.00000, 0.03125, 0.03125, 0.03125, 0.03125, 0.00000, 0.00000, 0.00000, -0.06250, -0.03125, 0.00000, -0.03125, 0.03125, 0.00000, 0.00000, 0.00000, 0.00000, 0.00000, -0.03125, 0.03125, -0.06250, 0.00000, 0.03125, 0.03125, -0.03125, -0.03125, 0.03125, -0.03125, 0.00000, 0.03125, -0.03125, 0.00000, 0.03125, 0.03125, 0.03125, 0.00000, -0.06250, -0.03125, -0.06250, 0.03125, 0.03125, -0.03125, 0.03125, 0.00000, -0.03125, 0.00000, 0.00000, -0.03125, 0.03125, 0.03125, 0.03125, 0.03125, -0.03125, 0.03125, 0.03125, 0.03125, 0.00000, 0.03125, -0.06250, 0.03125, 0.00000, 0.03125, -0.03125, 0.00000, 0.03125, -0.03125, 0.00000, 0.00000, -0.06250, 0.00000, -0.03125, 0.03125, 0.00000, 0.03125, -0.06250, 0.00000, 0.03125, 0.00000, 0.03125, -0.03125, 0.03125, 0.00000, -0.03125, 0.00000, -0.03125, 0.00000, -0.03125, -0.03125, 0.06250, 0.00000, 0.03125, 0.00000, 0.00000, -0.03125, 0.03125, -0.06250, 0.00000, -0.03125, -0.03125, 0.03125, 0.00000, 0.00000, 0.00000, 0.03125, 0.03125, 0.03125, 0.03125, 0.00000, 0.00000, -0.03125, 0.03125, 0.00000, 0.03125, 0.03125, -0.03125, -0.03125, -0.03125, 0.03125, 0.03125, 0.03125, 0.00000, 0.03125, -0.03125, 0.00000, -0.03125, 0.03125, 0.00000, 0.00000, 0.00000, 0.00000, 0.00000, -0.06250, 0.00000, 0.00000, 0.03125, 0.00000, 0.00000, 0.03125, 0.03125, 0.00000, -0.03125, -0.03125, -0.03125, 0.03125, 0.06250, 0.03125, 0.00000, 0.03125, 0.00000, 0.03125, -0.03125, 0.00000, 0.00000, -0.06250, 0.00000, 0.00000, -0.03125, -0.03125, 0.00000, 0.03125, -0.03125, -0.03125, 0.00000, 0.03125, 0.03125, 0.00000, 0.00000, 0.03125, 0.00000, 0.00000, 0.00000, -0.03125, 0.00000, 0.03125, 0.00000, 0.03125, 0.03125, 0.00000, 0.06250, 0.00000, 0.00000, -0.03125, 0.03125, 0.09375, 0.00000, -0.03125, 0.03125, 0.00000, 0.03125, 0.00000, 0.06250, -0.03125, 0.06250, -0.03125, 0.00000, 0.03125, 0.00000, 0.06250, 0.03125, 0.00000, -0.03125, 0.03125, 0.03125, 0.03125, 0.00000, 0.03125, 0.06250, 0.03125, -0.03125, 0.00000, 0.00000, -0.03125, 0.03125, 0.03125, 0.00000, -0.03125, 0.00000, 0.00000, -0.03125, 0.03125, -0.06250, 0.00000, 0.03125, -0.03125, -0.03125, -0.03125, 0.06250, -0.03125, 0.03125, -0.03125, 0.03125, -0.03125, -0.03125, 0.00000, -0.03125, 0.03125, 0.03125, -0.03125, 0.03125, -0.03125, 0.00000, -0.06250, -0.03125, -0.03125, 0.00000, 0.06250, 0.03125, 0.03125, 0.06250, -0.03125, 0.03125, -0.03125, 0.00000, -0.03125, 0.00000, -0.03125, 0.03125, -0.06250, 0.00000, -0.03125, 0.03125, 0.00000, 0.03125, 0.03125, 0.03125, 0.06250, 0.00000, -0.03125, 0.00000, 0.00000, 0.00000, 0.03125, 0.03125, 0.00000, 0.00000, 0.03125, 0.03125, 0.00000, 0.00000, -0.03125, 0.00000, -0.03125, 0.00000, -0.03125, -0.06250, 0.00000, -0.03125, 0.06250, 0.03125, 0.00000, 0.03125, 0.06250, 0.00000, 0.03125, 0.00000, 0.00000, -0.03125, 0.00000, 0.00000, -0.03125, 0.00000, 0.00000, 0.03125, 0.00000, 0.03125, 0.06250, 0.06250, 0.00000, 0.00000, -0.03125, 0.03125, 0.03125, 0.03125, 0.03125, 0.00000, 0.00000, -0.03125, 0.00000, 0.03125, 0.00000, 0.03125, 0.00000, 0.00000, -0.06250, 0.06250, 0.00000, 0.00000, 0.00000, 0.00000, 0.00000, 0.06250, 0.03125, -0.03125, -0.06250, 0.03125, 0.03125, 0.00000, -0.03125, 0.00000, 0.00000, 0.00000, 0.00000, 0.00000, 0.06250, 0.03125, 0.03125, -0.03125, 0.00000, 0.03125, 0.03125, 0.06250, -0.03125, 0.03125, 0.00000, 0.03125, 0.00000, 0.00000, 0.03125, 0.03125, 0.03125, 0.00000, -0.03125, 0.03125, 0.03125, 0.03125, -0.03125, 0.03125, -0.03125, -0.03125, 0.03125, -0.03125, -0.03125, 0.00000, 0.00000, 0.03125, -0.03125, 0.03125, 0.00000, 0.03125, 0.00000, 0.00000, 0.03125, 0.00000, 0.00000, -0.03125, -0.03125, -0.03125, 0.00000, -0.03125, 0.00000, 0.03125, 0.00000, 0.00000, 0.03125, -0.03125, 0.00000, 0.00000, 0.03125, 0.00000, 0.03125, 0.03125, 0.06250, 0.00000, -0.03125, 0.03125, -0.03125, 0.00000, 0.00000, 0.03125, 0.03125, 0.00000, 0.00000, 0.00000, 0.00000, -0.03125, 0.00000, 0.03125, 0.03125, -0.03125, 0.00000, -0.03125, 0.00000, -0.03125, -0.06250, 0.03125, 0.00000, 0.00000, 0.03125, 0.03125, 0.00000, 0.03125, 0.00000, 0.03125, 0.06250, 0.00000, -0.03125, 0.00000, 0.03125, 0.03125, 0.09375, -0.03125, 0.03125, 0.00000, 0.00000, 0.00000, -0.06250, -0.03125, 0.03125, 0.00000, -0.03125, 0.09375, -0.03125, 0.00000, 0.06250, -0.03125, -0.06250, 0.03125, 0.06250, 0.06250, -0.03125, 0.06250, 0.00000, -0.03125, 0.00000, 0.03125, -0.03125, -0.03125, 0.03125, -0.03125, -0.03125, 0.00000, 0.03125, 0.00000, 0.03125, 0.03125, 0.03125, 0.03125, 0.03125, 0.03125, 0.00000, 0.03125, 0.00000, -0.03125, 0.03125, 0.00000, -0.06250, 0.00000, -0.03125, 0.03125, 0.03125, -0.03125, 0.06250, 0.00000, 0.00000, 0.00000, 0.00000, 0.00000, 0.03125, 0.03125, -0.06250, -0.03125, 0.00000, 0.00000, 0.03125, 0.06250, -0.03125, -0.03125, 0.00000, -0.03125, -0.06250, 0.00000, -0.03125, 0.03125, 0.03125, 0.03125, -0.03125, 0.03125, 0.06250, -0.03125, -0.03125, 0.00000, 0.06250, 0.03125, -0.03125, 0.00000, 0.03125, 0.00000, 0.03125, 0.00000, -0.03125, 0.00000, 0.00000, -0.03125, 0.00000, 0.06250, 0.00000, 0.00000, -0.03125, 0.00000, 0.00000, 0.00000, 0.00000, 0.00000, -0.03125, -0.03125, 0.03125, -0.03125, 0.03125, -0.03125, 0.00000, -0.03125, 0.03125, 0.06250, 0.03125, 0.03125, 0.00000, -0.03125, 0.06250, 0.00000, 0.03125, 0.06250, 0.03125, -0.03125, -0.03125, 0.03125, 0.00000, 0.03125, 0.00000, 0.03125, 0.00000, 0.00000, 0.06250, 0.03125, 0.06250, -0.03125, -0.06250, 0.00000, -0.03125, 0.03125, 0.03125, 0.03125, 0.03125, 0.03125, -0.03125, -0.03125, 0.03125, 0.06250, 0.00000, 0.06250, 0.03125, 0.00000, 0.00000, 0.00000, 0.00000, -0.03125, -0.06250, -0.03125, 0.00000, 0.00000, 0.00000, 0.00000, 0.00000, 0.00000, 0.00000, 0.06250, -0.03125, 0.00000, -0.03125, 0.00000, 0.00000, 0.00000, 0.00000, 0.03125, -0.03125, -0.03125, 0.00000, 0.00000, 0.00000, 0.03125, -0.03125, 0.00000, 0.03125, -0.03125, -0.03125, -0.03125, 0.06250, -0.06250, 0.00000, 0.06250, -0.03125, 0.00000, -0.03125, 0.00000, 0.00000, -0.03125, 0.00000, 0.00000, -0.03125, 0.00000, 0.03125, 0.00000, 0.00000, 0.00000, 0.00000, -0.03125, 0.03125, 0.03125, 0.00000, -0.06250, 0.06250, 0.00000, 0.00000, 0.00000, 0.00000, 0.00000, 0.03125, 0.03125, 0.06250, 0.00000, 0.03125, -0.03125, 0.03125, 0.00000, -0.03125, 0.03125, -0.03125, -0.03125, 0.00000, -0.03125, -0.03125, 0.00000, -0.06250, 0.06250, -0.03125, -0.03125, 0.06250, -0.03125, -0.03125, -0.03125, -0.03125, 0.03125, 0.00000, -0.03125, 0.06250, -0.03125, 0.06250, 0.00000, 0.00000, 0.03125, 0.03125, -0.03125, 0.00000, -0.03125, 0.03125, 0.00000, 0.03125, -0.03125, 0.00000, 0.00000, 0.00000, -0.03125, 0.03125, 0.00000, -0.03125, -0.03125, 0.00000, -0.03125, -0.03125, -0.06250, 0.03125, 0.00000, 0.03125, -0.03125, -0.03125, 0.03125, -0.03125, 0.09375, -0.03125, 0.03125, 0.00000, -0.03125, -0.03125, -0.06250, 0.03125, 0.00000, 0.06250, 0.00000, -0.03125, -0.06250, -0.03125, -0.03125, 0.00000, 0.00000, 0.03125, 0.00000, 0.00000, -0.03125, 0.00000, -0.06250, -0.03125, 0.00000, 0.00000, 0.00000, 0.03125, 0.00000, -0.03125, 0.00000, 0.06250, 0.03125, 0.00000, 0.03125, 0.06250, 0.00000, 0.03125, 0.00000, -0.03125, -0.03125, -0.03125, 0.00000, 0.03125, 0.03125, 0.06250, 0.09375, 0.00000, 0.03125, 0.03125, -0.03125, -0.03125, -0.03125, 0.06250, -0.03125, -0.03125, -0.03125, 0.00000, 0.03125, 0.03125, 0.03125, 0.00000, 0.03125, 0.03125, 0.03125, 0.00000, 0.00000, 0.06250, -0.03125, 0.06250, 0.00000, 0.00000, 0.00000, 0.03125, 0.00000, -0.03125, 0.00000, 0.00000, 0.00000, 0.00000, -0.03125, 0.00000, 0.06250, -0.03125, 0.00000, 0.06250, 0.03125, -0.06250, -0.03125, 0.06250, -0.03125, 0.03125, 0.03125, 0.00000, 0.00000, 0.03125, 0.00000, 0.00000, 0.00000, 0.03125, 0.03125, 0.03125, 0.03125, 0.03125, -0.03125, 0.09375, 0.00000, 0.03125, 0.03125, 0.00000, 0.03125, 0.03125, -0.03125, 0.03125, -0.03125, 0.03125, -0.03125, 0.00000, -0.03125, -0.06250, 0.03125, -0.03125, -0.03125, 0.06250, 0.03125, -0.03125, 0.03125, 0.03125, -0.03125, 0.00000, 0.03125, 0.03125, 0.00000, 0.00000, -0.03125, -0.03125, 0.03125, 0.06250, -0.03125, 0.03125, 0.00000, 0.00000, -0.03125, 0.03125, 0.00000, -0.03125, 0.00000, 0.03125, 0.00000, 0.03125, 0.00000, 0.06250, 0.00000, -0.06250, 0.03125, -0.03125, 0.03125, 0.00000, 0.03125, 0.00000, -0.06250, -0.03125, 0.03125, -0.06250, 0.03125, 0.03125, 0.00000, 0.03125, 0.00000, 0.00000, -0.03125, 0.06250, 0.00000, 0.00000, -0.03125, -0.03125, 0.00000, -0.03125, 0.00000, 0.00000, 0.03125, -0.03125, -0.03125, 0.00000, 0.00000, 0.00000, -0.03125, 0.00000, -0.09375, 0.00000, 0.03125, 0.06250, 0.00000, 0.03125, 0.00000, 0.00000, 0.03125, 0.00000, -0.03125, 0.09375, 0.03125, 0.00000, 0.03125, 0.00000, 0.03125, -0.03125, 0.03125, 0.03125, 0.00000, 0.00000, 0.03125, 0.00000, 0.00000, 0.00000, -0.03125, 0.03125, -0.03125, 0.03125, -0.06250, 0.03125, 0.00000, -0.03125, 0.03125, 0.00000, 0.06250, 0.03125, -0.03125, 0.03125, 0.03125, 0.03125, 0.00000, 0.00000, 0.03125, 0.03125, 0.03125, 0.06250, 0.03125, -0.03125, 0.00000, 0.00000, 0.06250, -0.03125, -0.03125, 0.00000, 0.00000, -0.03125, -0.06250, 0.00000, 0.00000, -0.03125, 0.03125, 0.03125, 0.03125, -0.03125, 0.06250, 0.00000, 0.00000, 0.00000, 0.03125, 0.03125, 0.06250, 0.03125, 0.00000, -0.03125, -0.09375, 0.06250, 0.03125, -0.06250, -0.03125, 0.06250, -0.09375, 0.03125, 0.00000, -0.03125, 0.00000, -0.03125, 0.03125, -0.03125, -0.03125, 0.00000, 0.06250, -0.06250, 0.03125, 0.03125, 0.06250, -0.03125, -0.03125, 0.03125, 0.00000, 0.00000, 0.00000, -0.03125, -0.03125, 0.03125, 0.00000, 0.00000, -0.06250, 0.00000, 0.03125, 0.03125, 0.03125, -0.06250, 0.03125, 0.00000, -0.03125, -0.06250, 0.00000, 0.03125, 0.06250, -0.03125, 0.00000, 0.00000, -0.03125, 0.03125, 0.00000, 0.03125, 0.06250, 0.00000, 0.00000, 0.00000, -0.03125, 0.03125, -0.03125, 0.00000, -0.06250, 0.00000, 0.00000, -0.03125, -0.03125, -0.03125, 0.03125, 0.03125, 0.00000, 0.00000, 0.00000, -0.03125, -0.06250, -0.06250, -0.03125, 0.00000, 0.00000, 0.00000, 0.00000, -0.03125, 0.00000, 0.06250, 0.00000, -0.03125, 0.00000, 0.06250, -0.03125, 0.03125, 0.03125, 0.03125, 0.00000, -0.03125, 0.03125, 0.03125, -0.03125, -0.03125, -0.03125, 0.03125, 0.00000, 0.03125, -0.03125, 0.03125, 0.03125, 0.06250, -0.06250, 0.00000, -0.03125, 0.00000, 0.06250, -0.06250, -0.06250, 0.00000, -0.09375, 0.03125, 0.06250, 0.03125, 0.03125, -0.03125, 0.03125, -0.03125, 0.00000, 0.03125, 0.03125, -0.06250, 0.03125, 0.00000, 0.06250, 0.00000, 0.03125, 0.00000, -0.03125, -0.03125, 0.03125, 0.06250, 0.03125, 0.00000, -0.03125, 0.00000, 0.00000, 0.00000, -0.03125, 0.03125, 0.00000, 0.00000, 0.03125, 0.03125, 0.03125, -0.03125, -0.03125, 0.00000, -0.06250, 0.06250, 0.00000, 0.00000, 0.00000, 0.00000, -0.03125, 0.06250, 0.00000, -0.03125, 0.00000, -0.03125, 0.00000, 0.00000, 0.03125, 0.00000, 0.00000, -0.03125, 0.03125, 0.03125, 0.03125, 0.03125, 0.00000, 0.00000, 0.00000, -0.03125, -0.03125, 0.03125, 0.03125, -0.03125, 0.00000, 0.00000, 0.03125, 0.03125, -0.03125, 0.03125, -0.03125, 0.03125, -0.03125, 0.06250, 0.03125, 0.06250, 0.00000, 0.00000, 0.00000, 0.03125, 0.03125, 0.03125, 0.00000, 0.03125, -0.03125, 0.03125, 0.00000, 0.00000, 0.00000, 0.00000, 0.00000, 0.00000, 0.06250, 0.00000, -0.03125, 0.03125, 0.00000, 0.00000, -0.03125, 0.03125, 0.00000, 0.06250, 0.00000, 0.03125, 0.03125, 0.06250, 0.00000, 0.03125, -0.03125, -0.03125, -0.03125, 0.06250, 0.03125, -0.06250, -0.03125, 0.03125, -0.03125, 0.03125, 0.03125, 0.00000, 0.03125, 0.00000, 0.00000, -0.03125, 0.00000, 0.03125, 0.00000, -0.06250, 0.03125, -0.03125, -0.03125, 0.00000, 0.03125, 0.00000, -0.03125, -0.03125, 0.00000, 0.00000, 0.00000, 0.06250, 0.06250, -0.03125, 0.00000, 0.06250, 0.03125, 0.06250, 0.00000, -0.03125, -0.03125, 0.03125, -0.03125, -0.03125, -0.03125, -0.06250, -0.06250, 0.00000, -0.06250, 0.03125, -0.06250, -0.03125, 0.00000, -0.03125, 0.03125, -0.06250, 0.06250, 0.03125, -0.03125, 0.06250, 0.00000, 0.03125, 0.03125, 0.03125, 0.00000, 0.03125, -0.03125, 0.00000, 0.03125, 0.03125, -0.03125, 0.06250, 0.03125, 0.03125, -0.03125, 0.03125, 0.00000, 0.00000, 0.06250, 0.03125, 0.00000, 0.00000, 0.03125, -0.03125, 0.03125, 0.03125, 0.00000, 0.03125, -0.03125, 0.00000, -0.03125, 0.00000, -0.03125, 0.03125, 0.00000, 0.00000, 0.00000, 0.00000, 0.00000, 0.03125, 0.00000, 0.00000, 0.00000, 0.06250, 0.06250, 0.03125, 0.03125, -0.03125, 0.00000, 0.06250, 0.03125, 0.00000, -0.03125, 0.03125, 0.06250, -0.06250, -0.03125, 0.00000, 0.03125, 0.00000, -0.03125, -0.06250, 0.03125, -0.03125, -0.06250, -0.03125, 0.03125, 0.00000, 0.03125, -0.06250, -0.03125, -0.03125, 0.03125, -0.09375, 0.00000, -0.03125, 0.06250, 0.03125, 0.00000, -0.03125, -0.03125, 0.06250, 0.03125, -0.03125, -0.03125, 0.00000, -0.03125, 0.00000, 0.00000, -0.03125, 0.00000, -0.03125, 0.00000, 0.03125, 0.03125, -0.03125, 0.00000, 0.03125, -0.06250, 0.00000, -0.06250, -0.03125, -0.03125, 0.00000, 0.00000, 0.00000, 0.03125, 0.00000, 0.03125, 0.00000, 0.00000, -0.03125, -0.06250, 0.00000, 0.03125, 0.03125, -0.03125, 0.03125, 0.00000, 0.00000, -0.03125, -0.03125, 0.00000, -0.03125, 0.09375, 0.03125, -0.03125, 0.00000, 0.00000, -0.06250, 0.03125, 0.06250, 0.00000, 0.03125, 0.00000, -0.03125, -0.06250, -0.03125, 0.00000, -0.03125, 0.03125, 0.00000, 0.00000, 0.06250, 0.03125, -0.03125, 0.00000, 0.00000, 0.06250, 0.06250, 0.03125, 0.06250, 0.03125, 0.00000, 0.06250, 0.00000, 0.00000, 0.00000, -0.03125, 0.03125, 0.00000, 0.00000, 0.00000, 0.00000, 0.03125, -0.03125, 0.00000, 0.03125, -0.03125, -0.03125, 0.06250, 0.03125, 0.03125, 0.00000, -0.03125, 0.00000, -0.03125, 0.03125, 0.03125, -0.03125, -0.03125, 0.03125, 0.06250, -0.03125, 0.00000, -0.03125, 0.03125, -0.06250, 0.00000, 0.00000, 0.00000, 0.00000, 0.03125, 0.03125, -0.03125, 0.00000, 0.03125, 0.00000, 0.00000, 0.03125, -0.03125, -0.03125, 0.03125, -0.06250, 0.00000, -0.03125, -0.03125, 0.03125, 0.00000, 0.03125, 0.00000, 0.03125, 0.00000, 0.00000, 0.00000, 0.00000, 0.03125, -0.06250, 0.00000, 0.00000, -0.03125, 0.00000, 0.00000, -0.06250, -0.03125, -0.03125, -0.06250, -0.03125, 0.00000, 0.00000, 0.00000, 0.03125, 0.03125, 0.00000, -0.03125, 0.03125, 0.03125, 0.00000, -0.06250, 0.00000, -0.03125, 0.00000, -0.03125, 0.00000, -0.03125, 0.00000, -0.03125, -0.06250, 0.00000, 0.03125, 0.00000, -0.06250, -0.03125, 0.03125, 0.00000, 0.00000, -0.03125, 0.00000, 0.09375, 0.00000, 0.00000, -0.03125, 0.00000, 0.00000, -0.03125, 0.00000, 0.03125, 0.06250, -0.03125, 0.00000, 0.03125, -0.03125, 0.06250, 0.03125, 0.00000, 0.00000, -0.03125, 0.03125, -0.03125, 0.03125, 0.03125, -0.03125, 0.00000, 0.00000, 0.00000, 0.00000, -0.03125, 0.00000, 0.06250, -0.03125, -0.03125, 0.06250, 0.03125, -0.03125, 0.00000, -0.03125, 0.03125, 0.03125, 0.00000, -0.03125, 0.06250, 0.00000, 0.00000, 0.00000, 0.00000, 0.00000, 0.00000, 0.00000, 0.00000, -0.03125, 0.03125, 0.03125, 0.06250, 0.00000, 0.03125, 0.00000, -0.06250, -0.06250, 0.00000, -0.03125, 0.00000, -0.03125, 0.03125, 0.00000, 0.06250, 0.03125, 0.03125, -0.06250, 0.00000, 0.03125, -0.03125, 0.06250, 0.06250, 0.00000, 0.00000, 0.00000, 0.00000, 0.03125, -0.06250, 0.06250, 0.03125, 