//Numpy array shape [6, 128]
//Min -1.294921875000
//Max 1.298828125000
//Number of zeros 1

#ifndef W1_2_H_
#define W1_2_H_

#ifndef __SYNTHESIS__
d_weight12_t w1_2[768];
#else
d_weight12_t w1_2[768] = {-0.414062500, 0.865234375, -0.083984375, -0.412109375, -0.644531250, 0.970703125, 0.316406250, 0.515625000, 0.730468750, 0.404296875, -0.833984375, -0.257812500, 1.019531250, 0.005859375, 0.269531250, 1.076171875, 0.804687500, -0.246093750, -0.970703125, -0.652343750, -0.621093750, -0.613281250, 0.533203125, 0.361328125, 0.142578125, 0.189453125, -0.234375000, 0.068359375, 0.708984375, -0.314453125, -0.292968750, 0.486328125, 0.748046875, -0.095703125, -0.195312500, -0.304687500, 0.386718750, 0.501953125, 0.453125000, -0.748046875, -0.515625000, -0.650390625, 0.068359375, 0.070312500, -0.257812500, 0.800781250, -0.388671875, 1.013671875, 0.218750000, 0.007812500, 0.507812500, -0.429687500, -0.419921875, 0.582031250, -0.068359375, 0.634765625, -0.533203125, 0.687500000, 0.005859375, 0.097656250, 0.535156250, 0.589843750, 1.111328125, -0.054687500, -0.794921875, -0.437500000, -0.732421875, 1.287109375, -0.224609375, 0.281250000, 0.351562500, -0.767578125, -0.308593750, 0.130859375, 0.001953125, -0.681640625, 1.294921875, 0.228515625, -0.748046875, 0.216796875, -0.253906250, -0.392578125, -0.917968750, 0.474609375, 0.787109375, -0.447265625, -0.761718750, 0.658203125, 0.312500000, 0.017578125, 0.658203125, -0.595703125, 0.333984375, -0.160156250, 1.001953125, -0.041015625, 0.251953125, 0.960937500, 0.404296875, 0.376953125, 0.480468750, -0.123046875, -0.449218750, 0.439453125, -0.644531250, -0.417968750, -0.152343750, 1.201171875, -0.099609375, 1.208984375, -0.779296875, 0.455078125, 0.072265625, 0.205078125, -0.578125000, -0.570312500, -0.119140625, 0.648437500, 0.601562500, -0.914062500, -0.492187500, 0.527343750, 0.556640625, -0.236328125, -0.187500000, -0.533203125, 0.166015625, 0.433593750, 1.248046875, -0.476562500, 0.203125000, -0.222656250, 0.558593750, 0.550781250, 0.330078125, 0.158203125, 0.105468750, -0.472656250, 0.945312500, -0.958984375, 0.070312500, -0.232421875, 0.517578125, 0.203125000, -0.291015625, 0.289062500, -0.212890625, -0.890625000, -0.587890625, -0.847656250, 0.275390625, 0.164062500, -0.316406250, 0.750000000, -0.773437500, 1.234375000, 0.183593750, 0.154296875, -0.015625000, -0.011718750, -0.855468750, 0.484375000, -1.187500000, 0.566406250, -0.382812500, 0.296875000, -0.421875000, -0.787109375, 0.863281250, 0.050781250, 0.201171875, 0.328125000, -0.505859375, -0.181640625, -0.148437500, 0.277343750, 0.267578125, 0.419921875, 0.595703125, -0.175781250, 0.074218750, 0.515625000, 0.544921875, -0.208984375, -0.228515625, -0.205078125, -0.371093750, -0.136718750, 0.437500000, 0.337890625, 1.216796875, 0.839843750, -0.578125000, -0.029296875, -0.052734375, 0.052734375, -0.273437500, -0.257812500, 1.242187500, 0.144531250, -0.191406250, 0.023437500, -0.574218750, 0.103515625, -1.193359375, -1.066406250, -0.021484375, 0.427734375, -0.466796875, -0.042968750, 0.654296875, 0.660156250, 0.468750000, 0.156250000, 0.205078125, -0.060546875, 0.136718750, 0.480468750, -0.634765625, 0.441406250, -0.697265625, -0.773437500, 0.208984375, -0.080078125, 0.785156250, -0.414062500, 0.091796875, -0.214843750, -1.125000000, -1.009765625, -0.714843750, -1.062500000, -0.730468750, -0.451171875, -0.847656250, -0.078125000, -0.035156250, -0.128906250, 0.986328125, -1.044921875, -0.511718750, 0.416015625, -0.666015625, 0.208984375, -0.708984375, -0.515625000, 1.150390625, -1.240234375, -0.019531250, 0.136718750, -0.546875000, 0.177734375, 0.175781250, 0.121093750, -0.576171875, -0.714843750, -0.406250000, 0.958984375, -0.085937500, -0.531250000, 0.052734375, -0.091796875, -0.333984375, 0.035156250, -0.390625000, 0.656250000, -0.595703125, 0.001953125, 0.742187500, -0.613281250, -0.425781250, -0.316406250, -0.673828125, 1.095703125, -0.058593750, 0.693359375, 0.000000000, -0.484375000, 0.736328125, 0.232421875, -0.339843750, -0.119140625, 0.060546875, 0.173828125, 1.191406250, 0.181640625, -0.962890625, 0.195312500, 0.537109375, 0.025390625, 0.195312500, 0.009765625, -0.492187500, 0.546875000, -0.281250000, 0.896484375, -0.048828125, 0.595703125, 0.011718750, 0.423828125, -0.091796875, 0.902343750, -0.810546875, -0.679687500, -0.199218750, 0.035156250, 0.945312500, 0.343750000, 0.748046875, 0.726562500, -0.298828125, -0.306640625, 0.230468750, 0.095703125, 0.269531250, 0.169921875, -0.865234375, 0.972656250, 0.597656250, -0.824218750, 0.935546875, -0.255859375, 0.662109375, 0.240234375, 0.914062500, -0.302734375, -0.166015625, -0.365234375, 0.371093750, -0.376953125, -0.611328125, -0.503906250, -0.167968750, 0.248046875, 0.529296875, 0.199218750, -0.980468750, -0.154296875, -0.421875000, 0.494140625, 0.130859375, 0.050781250, -0.513671875, 0.654296875, -0.888671875, 0.087890625, -0.601562500, -0.863281250, -0.205078125, -0.861328125, -0.568359375, -0.525390625, -0.062500000, -1.005859375, -0.289062500, -0.902343750, 0.189453125, -0.115234375, 0.273437500, -0.373046875, -1.044921875, 0.458984375, 0.714843750, -0.906250000, 0.664062500, 0.369140625, -0.445312500, -0.433593750, -0.302734375, -0.458984375, 0.824218750, -0.048828125, -1.138671875, 0.332031250, 0.457031250, 0.261718750, 0.609375000, 0.871093750, 0.591796875, 0.146484375, 0.312500000, 0.703125000, -0.611328125, -1.150390625, 0.425781250, 1.232421875, -0.847656250, -0.193359375, 0.080078125, 0.958984375, 0.394531250, -0.148437500, -0.886718750, 0.136718750, 0.429687500, 0.437500000, -0.736328125, 0.630859375, 0.519531250, 0.537109375, -1.058593750, 0.003906250, 0.621093750, 0.744140625, 0.242187500, -0.464843750, -0.197265625, 0.341796875, -0.291015625, -0.865234375, -1.140625000, -0.439453125, -1.195312500, -0.644531250, -0.220703125, -0.564453125, -0.412109375, -0.876953125, 0.289062500, 0.398437500, -0.880859375, 0.199218750, -0.519531250, -0.011718750, -0.656250000, 0.740234375, 0.021484375, -0.857421875, 0.087890625, 0.138671875, -0.150390625, -0.511718750, 1.263671875, 0.480468750, 1.117187500, 0.830078125, 0.125000000, -0.511718750, 0.400390625, 0.246093750, -0.400390625, 0.062500000, -0.662109375, 0.033203125, -1.275390625, -0.494140625, 0.457031250, 0.656250000, -0.082031250, 0.224609375, -0.074218750, -0.044921875, 0.011718750, -0.632812500, 0.482421875, 0.234375000, -0.216796875, -1.080078125, 0.162109375, 0.683593750, -0.435546875, 0.429687500, -0.419921875, 0.351562500, 0.271484375, 0.558593750, 0.179687500, 0.080078125, -0.134765625, 0.375000000, -0.947265625, -0.404296875, -0.208984375, 0.210937500, -1.064453125, 0.066406250, -0.126953125, -0.171875000, -0.152343750, 0.109375000, -1.072265625, -0.843750000, -0.142578125, -0.048828125, 0.195312500, 0.755859375, -0.087890625, 0.167968750, -0.923828125, -0.050781250, -0.439453125, 0.980468750, -0.291015625, -0.031250000, -0.919921875, 0.646484375, 0.244140625, 0.560546875, 1.251953125, -0.181640625, 0.677734375, 0.757812500, -0.160156250, 0.730468750, -0.117187500, 0.992187500, 0.687500000, -0.386718750, 1.265625000, 0.142578125, 1.298828125, -0.666015625, 0.777343750, 0.929687500, -0.050781250, 0.529296875, 0.253906250, -0.941406250, -0.945312500, -0.007812500, -0.072265625, 0.005859375, -0.507812500, 0.162109375, 0.628906250, -0.960937500, 0.314453125, -1.041015625, 1.015625000, -0.921875000, -0.339843750, 0.105468750, -0.087890625, 0.906250000, 0.203125000, -0.259765625, 1.148437500, 0.533203125, 0.191406250, -1.234375000, -1.251953125, 0.410156250, -0.652343750, 0.839843750, 0.751953125, -0.421875000, 0.109375000, 1.123046875, 0.429687500, -0.126953125, 0.925781250, 0.931640625, -0.132812500, 0.621093750, -1.273437500, 0.103515625, -1.234375000, -0.007812500, 0.580078125, -0.199218750, 0.833984375, -1.220703125, 0.507812500, -1.007812500, 0.230468750, 0.330078125, 0.638671875, 0.164062500, -0.035156250, -0.494140625, 0.177734375, 0.519531250, 0.080078125, -0.619140625, 0.187500000, 0.783203125, -0.132812500, 0.072265625, -0.863281250, 0.148437500, -0.242187500, -0.898437500, -0.632812500, -0.220703125, 0.179687500, 0.191406250, -0.064453125, -0.355468750, 0.300781250, 0.285156250, -0.199218750, 0.681640625, -0.679687500, 0.210937500, 0.468750000, 0.867187500, 0.089843750, -0.312500000, 1.027343750, 0.312500000, -0.541015625, 0.236328125, -0.234375000, -0.244140625, 0.886718750, -0.263671875, -0.150390625, -0.320312500, 0.152343750, -0.037109375, 0.789062500, 0.417968750, 0.785156250, 0.152343750, -0.312500000, 0.039062500, 0.324218750, 0.173828125, 1.232421875, -0.621093750, 0.089843750, 0.328125000, -1.201171875, -0.373046875, -0.410156250, 1.171875000, -0.101562500, 0.615234375, -0.400390625, 0.669921875, -0.546875000, -0.333984375, -0.269531250, 0.388671875, -0.664062500, -0.957031250, -0.472656250, -0.083984375, 0.214843750, 0.583984375, -0.648437500, 0.037109375, -0.779296875, 0.904296875, -1.294921875, -0.625000000, 0.189453125, -0.117187500, 0.160156250, 0.345703125, 0.857421875, 1.013671875, 0.025390625, -0.755859375, 0.240234375, -0.232421875, -0.726562500, 0.861328125, 0.136718750, -0.707031250, -0.568359375, -0.578125000, -0.031250000, 0.468750000, -0.761718750, 0.023437500, -1.066406250, 0.603515625, -0.923828125, -0.490234375, 0.441406250, -0.691406250, 0.425781250, -0.193359375, -0.429687500, 0.460937500, -0.158203125, -0.244140625, 0.378906250, 0.039062500, -0.308593750, 0.365234375, -0.142578125, 0.708984375, 0.558593750, -0.509765625, 0.175781250, -0.066406250, 0.271484375, 1.134765625, 0.222656250, 0.371093750, -0.835937500, 0.201171875, 0.685546875, 1.093750000, 0.132812500, 0.996093750, 0.453125000, 0.357421875, -0.337890625, 0.537109375, -0.625000000, -0.875000000, 0.382812500, -0.605468750, 0.283203125, 0.488281250, -0.486328125, 0.300781250, 0.607421875, 0.333984375, 0.388671875, 0.052734375, -1.082031250, -0.132812500, -0.392578125, -0.220703125, 0.253906250, -0.992187500, 0.220703125, 0.281250000, -0.910156250, 0.267578125, -1.066406250, 0.623046875, 1.246093750, -0.529296875, 0.089843750, -0.318359375, 0.400390625, -0.136718750, -0.052734375, 0.933593750, 0.628906250, -0.078125000, -0.333984375, -0.462890625, -0.480468750, -0.283203125, -0.275390625, 0.542968750, 0.201171875, -0.544921875, 0.109375000, 0.197265625, -0.093750000, -0.027343750, -0.365234375, 0.142578125, 0.804687500, 0.617187500, 0.125000000, -0.300781250, -1.042968750, 0.015625000, -0.316406250, -0.861328125, -0.128906250, -0.056640625, 1.054687500, 0.666015625, 0.126953125, -0.250000000, -0.019531250, -0.097656250, 0.511718750, 0.197265625};
#endif

#endif
